{"learner":{"attributes":{"best_iteration":"784","best_score":"0.7735194330630095"},"feature_names":[],"feature_types":[],"gradient_booster":{"model":{"gbtree_model_param":{"num_parallel_tree":"1","num_trees":"885"},"iteration_indptr":[0,1,2,3,4,5,6,7,8,9,10,11,12,13,14,15,16,17,18,19,20,21,22,23,24,25,26,27,28,29,30,31,32,33,34,35,36,37,38,39,40,41,42,43,44,45,46,47,48,49,50,51,52,53,54,55,56,57,58,59,60,61,62,63,64,65,66,67,68,69,70,71,72,73,74,75,76,77,78,79,80,81,82,83,84,85,86,87,88,89,90,91,92,93,94,95,96,97,98,99,100,101,102,103,104,105,106,107,108,109,110,111,112,113,114,115,116,117,118,119,120,121,122,123,124,125,126,127,128,129,130,131,132,133,134,135,136,137,138,139,140,141,142,143,144,145,146,147,148,149,150,151,152,153,154,155,156,157,158,159,160,161,162,163,164,165,166,167,168,169,170,171,172,173,174,175,176,177,178,179,180,181,182,183,184,185,186,187,188,189,190,191,192,193,194,195,196,197,198,199,200,201,202,203,204,205,206,207,208,209,210,211,212,213,214,215,216,217,218,219,220,221,222,223,224,225,226,227,228,229,230,231,232,233,234,235,236,237,238,239,240,241,242,243,244,245,246,247,248,249,250,251,252,253,254,255,256,257,258,259,260,261,262,263,264,265,266,267,268,269,270,271,272,273,274,275,276,277,278,279,280,281,282,283,284,285,286,287,288,289,290,291,292,293,294,295,296,297,298,299,300,301,302,303,304,305,306,307,308,309,310,311,312,313,314,315,316,317,318,319,320,321,322,323,324,325,326,327,328,329,330,331,332,333,334,335,336,337,338,339,340,341,342,343,344,345,346,347,348,349,350,351,352,353,354,355,356,357,358,359,360,361,362,363,364,365,366,367,368,369,370,371,372,373,374,375,376,377,378,379,380,381,382,383,384,385,386,387,388,389,390,391,392,393,394,395,396,397,398,399,400,401,402,403,404,405,406,407,408,409,410,411,412,413,414,415,416,417,418,419,420,421,422,423,424,425,426,427,428,429,430,431,432,433,434,435,436,437,438,439,440,441,442,443,444,445,446,447,448,449,450,451,452,453,454,455,456,457,458,459,460,461,462,463,464,465,466,467,468,469,470,471,472,473,474,475,476,477,478,479,480,481,482,483,484,485,486,487,488,489,490,491,492,493,494,495,496,497,498,499,500,501,502,503,504,505,506,507,508,509,510,511,512,513,514,515,516,517,518,519,520,521,522,523,524,525,526,527,528,529,530,531,532,533,534,535,536,537,538,539,540,541,542,543,544,545,546,547,548,549,550,551,552,553,554,555,556,557,558,559,560,561,562,563,564,565,566,567,568,569,570,571,572,573,574,575,576,577,578,579,580,581,582,583,584,585,586,587,588,589,590,591,592,593,594,595,596,597,598,599,600,601,602,603,604,605,606,607,608,609,610,611,612,613,614,615,616,617,618,619,620,621,622,623,624,625,626,627,628,629,630,631,632,633,634,635,636,637,638,639,640,641,642,643,644,645,646,647,648,649,650,651,652,653,654,655,656,657,658,659,660,661,662,663,664,665,666,667,668,669,670,671,672,673,674,675,676,677,678,679,680,681,682,683,684,685,686,687,688,689,690,691,692,693,694,695,696,697,698,699,700,701,702,703,704,705,706,707,708,709,710,711,712,713,714,715,716,717,718,719,720,721,722,723,724,725,726,727,728,729,730,731,732,733,734,735,736,737,738,739,740,741,742,743,744,745,746,747,748,749,750,751,752,753,754,755,756,757,758,759,760,761,762,763,764,765,766,767,768,769,770,771,772,773,774,775,776,777,778,779,780,781,782,783,784,785,786,787,788,789,790,791,792,793,794,795,796,797,798,799,800,801,802,803,804,805,806,807,808,809,810,811,812,813,814,815,816,817,818,819,820,821,822,823,824,825,826,827,828,829,830,831,832,833,834,835,836,837,838,839,840,841,842,843,844,845,846,847,848,849,850,851,852,853,854,855,856,857,858,859,860,861,862,863,864,865,866,867,868,869,870,871,872,873,874,875,876,877,878,879,880,881,882,883,884,885],"tree_info":[0,0,0,0,0,0,0,0,0,0,0,0,0,0,0,0,0,0,0,0,0,0,0,0,0,0,0,0,0,0,0,0,0,0,0,0,0,0,0,0,0,0,0,0,0,0,0,0,0,0,0,0,0,0,0,0,0,0,0,0,0,0,0,0,0,0,0,0,0,0,0,0,0,0,0,0,0,0,0,0,0,0,0,0,0,0,0,0,0,0,0,0,0,0,0,0,0,0,0,0,0,0,0,0,0,0,0,0,0,0,0,0,0,0,0,0,0,0,0,0,0,0,0,0,0,0,0,0,0,0,0,0,0,0,0,0,0,0,0,0,0,0,0,0,0,0,0,0,0,0,0,0,0,0,0,0,0,0,0,0,0,0,0,0,0,0,0,0,0,0,0,0,0,0,0,0,0,0,0,0,0,0,0,0,0,0,0,0,0,0,0,0,0,0,0,0,0,0,0,0,0,0,0,0,0,0,0,0,0,0,0,0,0,0,0,0,0,0,0,0,0,0,0,0,0,0,0,0,0,0,0,0,0,0,0,0,0,0,0,0,0,0,0,0,0,0,0,0,0,0,0,0,0,0,0,0,0,0,0,0,0,0,0,0,0,0,0,0,0,0,0,0,0,0,0,0,0,0,0,0,0,0,0,0,0,0,0,0,0,0,0,0,0,0,0,0,0,0,0,0,0,0,0,0,0,0,0,0,0,0,0,0,0,0,0,0,0,0,0,0,0,0,0,0,0,0,0,0,0,0,0,0,0,0,0,0,0,0,0,0,0,0,0,0,0,0,0,0,0,0,0,0,0,0,0,0,0,0,0,0,0,0,0,0,0,0,0,0,0,0,0,0,0,0,0,0,0,0,0,0,0,0,0,0,0,0,0,0,0,0,0,0,0,0,0,0,0,0,0,0,0,0,0,0,0,0,0,0,0,0,0,0,0,0,0,0,0,0,0,0,0,0,0,0,0,0,0,0,0,0,0,0,0,0,0,0,0,0,0,0,0,0,0,0,0,0,0,0,0,0,0,0,0,0,0,0,0,0,0,0,0,0,0,0,0,0,0,0,0,0,0,0,0,0,0,0,0,0,0,0,0,0,0,0,0,0,0,0,0,0,0,0,0,0,0,0,0,0,0,0,0,0,0,0,0,0,0,0,0,0,0,0,0,0,0,0,0,0,0,0,0,0,0,0,0,0,0,0,0,0,0,0,0,0,0,0,0,0,0,0,0,0,0,0,0,0,0,0,0,0,0,0,0,0,0,0,0,0,0,0,0,0,0,0,0,0,0,0,0,0,0,0,0,0,0,0,0,0,0,0,0,0,0,0,0,0,0,0,0,0,0,0,0,0,0,0,0,0,0,0,0,0,0,0,0,0,0,0,0,0,0,0,0,0,0,0,0,0,0,0,0,0,0,0,0,0,0,0,0,0,0,0,0,0,0,0,0,0,0,0,0,0,0,0,0,0,0,0,0,0,0,0,0,0,0,0,0,0,0,0,0,0,0,0,0,0,0,0,0,0,0,0,0,0,0,0,0,0,0,0,0,0,0,0,0,0,0,0,0,0,0,0,0,0,0,0,0,0,0,0,0,0,0,0,0,0,0,0,0,0,0,0,0,0,0,0,0,0,0,0,0,0,0,0,0,0,0,0,0,0,0,0,0,0,0,0,0,0,0,0,0,0,0,0,0,0,0,0,0,0,0,0,0,0,0,0,0,0,0,0,0,0,0,0,0,0,0,0,0,0,0,0,0,0,0,0,0,0,0,0,0,0,0,0,0,0,0,0,0,0,0,0,0,0,0,0,0,0,0,0,0,0,0,0,0,0,0,0,0,0,0,0,0,0,0,0,0,0,0,0,0,0,0,0,0,0,0,0,0,0,0,0,0,0,0,0,0,0,0,0,0,0,0,0,0,0,0,0,0,0,0,0,0,0,0,0,0,0,0,0,0,0,0,0,0,0,0,0,0,0,0,0,0,0,0,0,0,0,0,0,0,0,0,0,0],"trees":[{"base_weights":[-2.132949E-6,-1.7621142E0,5.345073E-1,-8.9603424E-1,-3.9854652E-1,-3.0807629E0,7.430097E0,-4.0856805E0,3.4134197E-1,8.081434E-2,2.9672222E-2,-5.1030474E0,3.489852E0,-4.5686897E-2,-1.1842653E-1,1.1304856E-3,3.897821E-2],"categories":[],"categories_nodes":[],"categories_segments":[],"categories_sizes":[],"default_left":[0,0,0,0,0,0,0,0,0,0,0,0,0,0,0,0,0],"id":0,"left_children":[1,3,-1,5,-1,7,9,11,-1,-1,-1,13,15,-1,-1,-1,-1],"loss_changes":[8.853501E3,2.9664863E3,0E0,1.6600209E3,0E0,2.8321155E3,3.1250488E1,5.650128E2,0E0,0E0,0E0,1.7278052E2,1.1958054E1,0E0,0E0,0E0,0E0],"parents":[2147483647,0,0,1,1,3,3,5,5,6,6,7,7,11,11,12,12],"right_children":[2,4,-1,6,-1,8,10,12,-1,-1,-1,14,16,-1,-1,-1,-1],"split_conditions":[5.8795077E-1,1.16693924E2,5.345073E-1,3.98E-1,-3.9854652E-1,4.073E-1,4.4621566E-1,5.000335E-1,3.4134197E-1,8.081434E-2,2.9672222E-2,5.3022266E2,2.3180066E-1,-4.5686897E-2,-1.1842653E-1,1.1304856E-3,3.897821E-2],"split_indices":[27,0,0,166,0,165,71,73,0,0,0,19,4,0,0,0,0],"split_type":[0,0,0,0,0,0,0,0,0,0,0,0,0,0,0,0,0],"sum_hessian":[9.2E1,9E1,2E0,8.9E1,1E0,7.1E1,1.8E1,7E1,1E0,1.5E1,3E0,6.2E1,8E0,5.9E1,3E0,1E0,7E0],"tree_param":{"num_deleted":"0","num_feature":"190","num_nodes":"17","size_leaf_vector":"1"}},{"base_weights":[4.9840454E-3,-1.745271E0,5.309439E-1,-8.8343215E-1,-3.9655378E-1,-3.0469384E0,7.361614E0,-4.046572E0,3.3963528E-1,8.005674E-2,2.9449692E-2,-5.054624E0,3.45941E0,-4.523766E-2,-1.17538355E-1,1.1248398E-3,3.863715E-2],"categories":[],"categories_nodes":[],"categories_segments":[],"categories_sizes":[],"default_left":[0,0,0,0,0,0,0,0,0,0,0,0,0,0,0,0,0],"id":1,"left_children":[1,3,-1,5,-1,7,9,11,-1,-1,-1,13,15,-1,-1,-1,-1],"loss_changes":[8.734225E3,2.9381558E3,0E0,1.6278693E3,0E0,2.8012134E3,3.0470703E1,5.547018E2,0E0,0E0,0E0,1.708772E2,1.1744011E1,0E0,0E0,0E0,0E0],"parents":[2147483647,0,0,1,1,3,3,5,5,6,6,7,7,11,11,12,12],"right_children":[2,4,-1,6,-1,8,10,12,-1,-1,-1,14,16,-1,-1,-1,-1],"split_conditions":[5.8795077E-1,1.16693924E2,5.309439E-1,3.98E-1,-3.9655378E-1,4.073E-1,4.4621566E-1,5.000335E-1,3.3963528E-1,8.005674E-2,2.9449692E-2,5.3022266E2,2.3180066E-1,-4.523766E-2,-1.17538355E-1,1.1248398E-3,3.863715E-2],"split_indices":[27,0,0,166,0,165,71,73,0,0,0,19,4,0,0,0,0],"split_type":[0,0,0,0,0,0,0,0,0,0,0,0,0,0,0,0,0],"sum_hessian":[9.2E1,9E1,2E0,8.9E1,1E0,7.1E1,1.8E1,7E1,1E0,1.5E1,3E0,6.2E1,8E0,5.9E1,3E0,1E0,7E0],"tree_param":{"num_deleted":"0","num_feature":"190","num_nodes":"17","size_leaf_vector":"1"}},{"base_weights":[9.884496E-3,-1.7285937E0,5.2740425E-1,-8.7097573E-1,-3.9457104E-1,-3.0134628E0,7.293763E0,-4.007841E0,3.379371E-1,7.930623E-2,2.922882E-2,-5.0066643E0,3.4292357E0,-4.479285E-2,-1.1665682E-1,1.1192322E-3,3.829909E-2],"categories":[],"categories_nodes":[],"categories_segments":[],"categories_sizes":[],"default_left":[0,0,0,0,0,0,0,0,0,0,0,0,0,0,0,0,0],"id":2,"left_children":[1,3,-1,5,-1,7,9,11,-1,-1,-1,13,15,-1,-1,-1,-1],"loss_changes":[8.616561E3,2.9100886E3,0E0,1.5963357E3,0E0,2.770659E3,2.9708923E1,5.445802E2,0E0,0E0,0E0,1.6899121E2,1.1533783E1,0E0,0E0,0E0,0E0],"parents":[2147483647,0,0,1,1,3,3,5,5,6,6,7,7,11,11,12,12],"right_children":[2,4,-1,6,-1,8,10,12,-1,-1,-1,14,16,-1,-1,-1,-1],"split_conditions":[5.8795077E-1,1.16693924E2,5.2740425E-1,3.98E-1,-3.9457104E-1,4.073E-1,4.4621566E-1,5.000335E-1,3.379371E-1,7.930623E-2,2.922882E-2,5.3022266E2,2.3180066E-1,-4.479285E-2,-1.1665682E-1,1.1192322E-3,3.829909E-2],"split_indices":[27,0,0,166,0,165,71,73,0,0,0,19,4,0,0,0,0],"split_type":[0,0,0,0,0,0,0,0,0,0,0,0,0,0,0,0,0],"sum_hessian":[9.2E1,9E1,2E0,8.9E1,1E0,7.1E1,1.8E1,7E1,1E0,1.5E1,3E0,6.2E1,8E0,5.9E1,3E0,1E0,7E0],"tree_param":{"num_deleted":"0","num_feature":"190","num_nodes":"17","size_leaf_vector":"1"}},{"base_weights":[1.4701761E-2,-1.7120792E0,5.2388823E-1,-8.586619E-1,-3.9259818E-1,-2.9803302E0,7.2265368E0,-3.9694824E0,3.3624738E-1,7.856272E-2,2.9009609E-2,-4.9591613E0,3.3993225E0,-4.4352397E-2,-1.1578192E-1,1.1136245E-3,3.796397E-2],"categories":[],"categories_nodes":[],"categories_segments":[],"categories_sizes":[],"default_left":[0,0,0,0,0,0,0,0,0,0,0,0,0,0,0,0,0],"id":3,"left_children":[1,3,-1,5,-1,7,9,11,-1,-1,-1,13,15,-1,-1,-1,-1],"loss_changes":[8.500487E3,2.8822832E3,0E0,1.5654073E3,0E0,2.740448E3,2.896466E1,5.3464307E2,0E0,0E0,0E0,1.6712268E2,1.1327316E1,0E0,0E0,0E0,0E0],"parents":[2147483647,0,0,1,1,3,3,5,5,6,6,7,7,11,11,12,12],"right_children":[2,4,-1,6,-1,8,10,12,-1,-1,-1,14,16,-1,-1,-1,-1],"split_conditions":[5.8795077E-1,1.16693924E2,5.2388823E-1,3.98E-1,-3.9259818E-1,4.073E-1,4.4621566E-1,5.000335E-1,3.3624738E-1,7.856272E-2,2.9009609E-2,5.3022266E2,2.3180066E-1,-4.4352397E-2,-1.1578192E-1,1.1136245E-3,3.796397E-2],"split_indices":[27,0,0,166,0,165,71,73,0,0,0,19,4,0,0,0,0],"split_type":[0,0,0,0,0,0,0,0,0,0,0,0,0,0,0,0,0],"sum_hessian":[9.2E1,9E1,2E0,8.9E1,1E0,7.1E1,1.8E1,7E1,1E0,1.5E1,3E0,6.2E1,8E0,5.9E1,3E0,1E0,7E0],"tree_param":{"num_deleted":"0","num_feature":"190","num_nodes":"17","size_leaf_vector":"1"}},{"base_weights":[1.9435924E-2,-1.695727E0,5.2039564E-1,-8.464902E-1,-3.9063516E-1,-2.9475403E0,7.159936E0,-3.9314947E0,3.3456615E-1,7.7826224E-2,2.8792057E-2,-4.9121137E0,3.3696713E0,-4.3916292E-2,-1.1491354E-1,7.979431E-3,3.9904587E-2],"categories":[],"categories_nodes":[],"categories_segments":[],"categories_sizes":[],"default_left":[0,0,0,0,0,0,0,0,0,0,0,0,0,0,0,0,0],"id":4,"left_children":[1,3,-1,5,-1,7,9,11,-1,-1,-1,13,15,-1,-1,-1,-1],"loss_changes":[8.385984E3,2.8547363E3,0E0,1.5350753E3,0E0,2.7105767E3,2.8237732E1,5.248883E2,0E0,0E0,0E0,1.6527112E2,1.1184319E1,0E0,0E0,0E0,0E0],"parents":[2147483647,0,0,1,1,3,3,5,5,6,6,7,7,11,11,12,12],"right_children":[2,4,-1,6,-1,8,10,12,-1,-1,-1,14,16,-1,-1,-1,-1],"split_conditions":[5.8795077E-1,1.16693924E2,5.2039564E-1,3.98E-1,-3.9063516E-1,4.073E-1,4.4621566E-1,5.000335E-1,3.3456615E-1,7.7826224E-2,2.8792057E-2,5.3022266E2,-5.371E0,-4.3916292E-2,-1.1491354E-1,7.979431E-3,3.9904587E-2],"split_indices":[27,0,0,166,0,165,71,73,0,0,0,19,83,0,0,0,0],"split_type":[0,0,0,0,0,0,0,0,0,0,0,0,0,0,0,0,0],"sum_hessian":[9.2E1,9E1,2E0,8.9E1,1E0,7.1E1,1.8E1,7E1,1E0,1.5E1,3E0,6.2E1,8E0,5.9E1,3E0,2E0,6E0],"tree_param":{"num_deleted":"0","num_feature":"190","num_nodes":"17","size_leaf_vector":"1"}},{"base_weights":[2.4186822E-2,-1.6794344E0,5.1692635E-1,-8.34357E-1,-3.88682E-1,-2.91496E0,7.093947E0,-3.8937435E0,3.328933E-1,7.709659E-2,2.8576106E-2,-4.865515E0,3.3412967E0,-4.3484464E-2,-1.14051685E-1,1.0681533E-3,3.7322547E-2],"categories":[],"categories_nodes":[],"categories_segments":[],"categories_sizes":[],"default_left":[0,0,0,0,0,0,0,0,0,0,0,0,0,0,0,0,0],"id":5,"left_children":[1,3,-1,5,-1,7,9,11,-1,-1,-1,13,15,-1,-1,-1,-1],"loss_changes":[8.272997E3,2.8274624E3,0E0,1.5052872E3,0E0,2.6810237E3,2.752771E1,5.154447E2,0E0,0E0,0E0,1.6343677E2,1.0982269E1,0E0,0E0,0E0,0E0],"parents":[2147483647,0,0,1,1,3,3,5,5,6,6,7,7,11,11,12,12],"right_children":[2,4,-1,6,-1,8,10,12,-1,-1,-1,14,16,-1,-1,-1,-1],"split_conditions":[5.8795077E-1,1.16693924E2,5.1692635E-1,3.98E-1,-3.88682E-1,4.073E-1,4.4621566E-1,5.000335E-1,3.328933E-1,7.709659E-2,2.8576106E-2,5.3022266E2,2.3180066E-1,-4.3484464E-2,-1.14051685E-1,1.0681533E-3,3.7322547E-2],"split_indices":[27,0,0,166,0,165,71,73,0,0,0,19,4,0,0,0,0],"split_type":[0,0,0,0,0,0,0,0,0,0,0,0,0,0,0,0,0],"sum_hessian":[9.2E1,9E1,2E0,8.9E1,1E0,7.1E1,1.8E1,7E1,1E0,1.5E1,3E0,6.2E1,8E0,5.9E1,3E0,1E0,7E0],"tree_param":{"num_deleted":"0","num_feature":"190","num_nodes":"17","size_leaf_vector":"1"}},{"base_weights":[2.876052E-2,-1.6633992E0,5.134802E-1,-8.224622E-1,-3.8673863E-1,-2.8828392E0,7.0285697E0,-3.8564816E0,3.3122885E-1,7.637382E-2,2.8361758E-2,-4.819358E0,3.312149E0,-4.3056834E-2,-1.1319629E-1,7.7982587E-3,3.9242662E-2],"categories":[],"categories_nodes":[],"categories_segments":[],"categories_sizes":[],"default_left":[0,0,0,0,0,0,0,0,0,0,0,0,0,0,0,0,0],"id":6,"left_children":[1,3,-1,5,-1,7,9,11,-1,-1,-1,13,15,-1,-1,-1,-1],"loss_changes":[8.1615674E3,2.8004275E3,0E0,1.4761099E3,0E0,2.6518203E3,2.683435E1,5.0604028E2,0E0,0E0,0E0,1.6161963E2,1.0890472E1,0E0,0E0,0E0,0E0],"parents":[2147483647,0,0,1,1,3,3,5,5,6,6,7,7,11,11,12,12],"right_children":[2,4,-1,6,-1,8,10,12,-1,-1,-1,14,16,-1,-1,-1,-1],"split_conditions":[5.8795077E-1,1.16693924E2,5.134802E-1,3.98E-1,-3.8673863E-1,4.073E-1,4.4621566E-1,5.000335E-1,3.3122885E-1,7.637382E-2,2.8361758E-2,5.3022266E2,-5.371E0,-4.3056834E-2,-1.1319629E-1,7.7982587E-3,3.9242662E-2],"split_indices":[27,0,0,166,0,165,71,73,0,0,0,19,83,0,0,0,0],"split_type":[0,0,0,0,0,0,0,0,0,0,0,0,0,0,0,0,0],"sum_hessian":[9.2E1,9E1,2E0,8.9E1,1E0,7.1E1,1.8E1,7E1,1E0,1.5E1,3E0,6.2E1,8E0,5.9E1,3E0,2E0,6E0],"tree_param":{"num_deleted":"0","num_feature":"190","num_nodes":"17","size_leaf_vector":"1"}},{"base_weights":[3.335194E-2,-1.6474215E0,5.100569E-1,-8.1060416E-1,-3.848049E-1,-2.8509245E0,6.9638E0,-3.8194523E0,3.295727E-1,7.565785E-2,2.814907E-2,-4.773641E0,3.2842526E0,-4.2633407E-2,-1.1234731E-1,7.746277E-3,3.890627E-2],"categories":[],"categories_nodes":[],"categories_segments":[],"categories_sizes":[],"default_left":[0,0,0,0,0,0,0,0,0,0,0,0,0,0,0,0,0],"id":7,"left_children":[1,3,-1,5,-1,7,9,11,-1,-1,-1,13,15,-1,-1,-1,-1],"loss_changes":[8.051614E3,2.77366E3,0E0,1.4474581E3,0E0,2.6229275E3,2.6156921E1,4.9693542E2,0E0,0E0,0E0,1.5981946E2,1.0682182E1,0E0,0E0,0E0,0E0],"parents":[2147483647,0,0,1,1,3,3,5,5,6,6,7,7,11,11,12,12],"right_children":[2,4,-1,6,-1,8,10,12,-1,-1,-1,14,16,-1,-1,-1,-1],"split_conditions":[5.8795077E-1,1.16693924E2,5.100569E-1,3.98E-1,-3.848049E-1,4.073E-1,4.4621566E-1,5.000335E-1,3.295727E-1,7.565785E-2,2.814907E-2,5.3022266E2,-5.371E0,-4.2633407E-2,-1.1234731E-1,7.746277E-3,3.890627E-2],"split_indices":[27,0,0,166,0,165,71,73,0,0,0,19,83,0,0,0,0],"split_type":[0,0,0,0,0,0,0,0,0,0,0,0,0,0,0,0,0],"sum_hessian":[9.2E1,9E1,2E0,8.9E1,1E0,7.1E1,1.8E1,7E1,1E0,1.5E1,3E0,6.2E1,8E0,5.9E1,3E0,2E0,6E0],"tree_param":{"num_deleted":"0","num_feature":"190","num_nodes":"17","size_leaf_vector":"1"}},{"base_weights":[3.7859518E-2,-1.6316049E0,5.066566E-1,-7.988874E-1,-3.828809E-1,-2.8193429E0,6.8996224E0,-3.782784E0,3.2792485E-1,3.2951158E-2,7.64115E-2,-4.728365E0,3.2565918E0,-4.221418E-2,-1.1150469E-1,9.851074E-4,3.639038E-2],"categories":[],"categories_nodes":[],"categories_segments":[],"categories_sizes":[],"default_left":[0,0,0,0,0,0,0,0,0,0,0,0,0,0,0,0,0],"id":8,"left_children":[1,3,-1,5,-1,7,9,11,-1,-1,-1,13,15,-1,-1,-1,-1],"loss_changes":[7.9431484E3,2.7471414E3,0E0,1.4193572E3,0E0,2.5943594E3,2.560553E1,4.8799567E2,0E0,0E0,0E0,1.5803601E2,1.0511688E1,0E0,0E0,0E0,0E0],"parents":[2147483647,0,0,1,1,3,3,5,5,6,6,7,7,11,11,12,12],"right_children":[2,4,-1,6,-1,8,10,12,-1,-1,-1,14,16,-1,-1,-1,-1],"split_conditions":[5.8795077E-1,1.16693924E2,5.066566E-1,3.98E-1,-3.828809E-1,4.073E-1,4.953741E-1,5.000335E-1,3.2792485E-1,3.2951158E-2,7.64115E-2,5.3022266E2,2.3180066E-1,-4.221418E-2,-1.1150469E-1,9.851074E-4,3.639038E-2],"split_indices":[27,0,0,166,0,165,14,73,0,0,0,19,4,0,0,0,0],"split_type":[0,0,0,0,0,0,0,0,0,0,0,0,0,0,0,0,0],"sum_hessian":[9.2E1,9E1,2E0,8.9E1,1E0,7.1E1,1.8E1,7E1,1E0,4E0,1.4E1,6.2E1,8E0,5.9E1,3E0,1E0,7E0],"tree_param":{"num_deleted":"0","num_feature":"190","num_nodes":"17","size_leaf_vector":"1"}},{"base_weights":[4.2262744E-2,-1.6159697E0,5.032789E-1,-7.8733265E-1,-3.8096648E-1,-2.7882118E0,6.8363843E0,-3.7465956E0,3.262852E-1,7.425936E-2,2.769079E-2,-4.6835217E0,3.2281773E0,-4.1799087E-2,-1.10668406E-1,7.570063E-3,3.8260825E-2],"categories":[],"categories_nodes":[],"categories_segments":[],"categories_sizes":[],"default_left":[0,0,0,0,0,0,0,0,0,0,0,0,0,0,0,0,0],"id":9,"left_children":[1,3,-1,5,-1,7,9,11,-1,-1,-1,13,15,-1,-1,-1,-1],"loss_changes":[7.836158E3,2.7208662E3,0E0,1.3919336E3,0E0,2.5661292E3,2.4996887E1,4.7909363E2,0E0,0E0,0E0,1.5626929E2,1.0401375E1,0E0,0E0,0E0,0E0],"parents":[2147483647,0,0,1,1,3,3,5,5,6,6,7,7,11,11,12,12],"right_children":[2,4,-1,6,-1,8,10,12,-1,-1,-1,14,16,-1,-1,-1,-1],"split_conditions":[5.8795077E-1,1.16693924E2,5.032789E-1,3.98E-1,-3.8096648E-1,4.073E-1,4.4621566E-1,5.000335E-1,3.262852E-1,7.425936E-2,2.769079E-2,5.3022266E2,-5.371E0,-4.1799087E-2,-1.10668406E-1,7.570063E-3,3.8260825E-2],"split_indices":[27,0,0,166,0,165,71,73,0,0,0,19,83,0,0,0,0],"split_type":[0,0,0,0,0,0,0,0,0,0,0,0,0,0,0,0,0],"sum_hessian":[9.2E1,9E1,2E0,8.9E1,1E0,7.1E1,1.8E1,7E1,1E0,1.5E1,3E0,6.2E1,8E0,5.9E1,3E0,2E0,6E0],"tree_param":{"num_deleted":"0","num_feature":"190","num_nodes":"17","size_leaf_vector":"1"}},{"base_weights":[4.6615437E-2,-1.6004602E0,4.999237E-1,-7.758838E-1,-3.7906164E-1,-2.7572768E0,6.773389E0,-3.7106295E0,3.2465377E-1,3.2372907E-2,7.5005285E-2,-4.6391044E0,3.2009878E0,-4.138804E-2,-1.0983837E-1,7.5196074E-3,3.793287E-2],"categories":[],"categories_nodes":[],"categories_segments":[],"categories_sizes":[],"default_left":[0,0,0,0,0,0,0,0,0,0,0,0,0,0,0,0,0],"id":10,"left_children":[1,3,-1,5,-1,7,9,11,-1,-1,-1,13,15,-1,-1,-1,-1],"loss_changes":[7.730604E3,2.6948406E3,0E0,1.3649031E3,0E0,2.5381987E3,2.4572205E1,4.7047552E2,0E0,0E0,0E0,1.5451929E2,1.0202614E1,0E0,0E0,0E0,0E0],"parents":[2147483647,0,0,1,1,3,3,5,5,6,6,7,7,11,11,12,12],"right_children":[2,4,-1,6,-1,8,10,12,-1,-1,-1,14,16,-1,-1,-1,-1],"split_conditions":[5.8795077E-1,1.16693924E2,4.999237E-1,3.98E-1,-3.7906164E-1,4.073E-1,4.953741E-1,5.000335E-1,3.2465377E-1,3.2372907E-2,7.5005285E-2,5.3022266E2,-5.371E0,-4.138804E-2,-1.0983837E-1,7.5196074E-3,3.793287E-2],"split_indices":[27,0,0,166,0,165,14,73,0,0,0,19,83,0,0,0,0],"split_type":[0,0,0,0,0,0,0,0,0,0,0,0,0,0,0,0,0],"sum_hessian":[9.2E1,9E1,2E0,8.9E1,1E0,7.1E1,1.8E1,7E1,1E0,4E0,1.4E1,6.2E1,8E0,5.9E1,3E0,2E0,6E0],"tree_param":{"num_deleted":"0","num_feature":"190","num_nodes":"17","size_leaf_vector":"1"}},{"base_weights":[5.0958037E-2,-1.5850348E0,4.9659088E-1,-7.6449883E-1,-3.7716636E-1,-2.8618076E0,6.262935E0,5.1615605E0,-4.4451737E0,3.3457768E0,3.230305E-1,1.9618622E0,6.516177E-2,2.4269687E-2,-4.7288798E-2,5.3112435E0,-9.562283E-2,2.4070911E-2,9.0473174E-4,1.8255629E-2,6.511462E-2],"categories":[],"categories_nodes":[],"categories_segments":[],"categories_sizes":[],"default_left":[0,0,0,0,0,0,0,0,0,0,0,0,0,0,0,0,0,0,0,0,0],"id":11,"left_children":[1,3,-1,5,-1,7,9,11,13,15,-1,17,-1,-1,-1,19,-1,-1,-1,-1,-1],"loss_changes":[7.626456E3,2.669068E3,0E0,1.3444061E3,0E0,9.122192E2,1.4871472E3,3.9228516E1,1.26507324E2,5.5819495E2,0E0,3.948206E0,0E0,0E0,0E0,6.341736E1,0E0,0E0,0E0,0E0,0E0],"parents":[2147483647,0,0,1,1,3,3,5,5,6,6,7,7,8,8,9,9,11,11,15,15],"right_children":[2,4,-1,6,-1,8,10,12,14,16,-1,18,-1,-1,-1,20,-1,-1,-1,-1,-1],"split_conditions":[5.8795077E-1,1.16693924E2,4.9659088E-1,4.1557524E-1,-3.7716636E-1,2.1885E3,1.2030247E-1,4.849536E-1,5.314E2,2.402842E1,3.230305E-1,1.0905951E0,6.516177E-2,2.4269687E-2,-4.7288798E-2,4.2E0,-9.562283E-2,2.4070911E-2,9.0473174E-4,1.8255629E-2,6.511462E-2],"split_indices":[27,0,0,13,0,37,2,14,131,6,0,1,0,0,0,126,0,0,0,0,0],"split_type":[0,0,0,0,0,0,0,0,0,0,0,0,0,0,0,0,0,0,0,0,0],"sum_hessian":[9.2E1,9E1,2E0,8.9E1,1E0,6.9E1,2E1,1.1E1,5.8E1,1.9E1,1E0,4E0,7E0,2E0,5.6E1,1.7E1,2E0,3E0,1E0,5E0,1.2E1],"tree_param":{"num_deleted":"0","num_feature":"190","num_nodes":"21","size_leaf_vector":"1"}},{"base_weights":[5.5794418E-2,-1.5691781E0,4.932803E-1,-7.5265664E-1,-3.7528053E-1,-2.8322322E0,6.2151027E0,5.117456E0,-4.401114E0,3.3117042E0,3.2141536E-1,1.9472382E0,6.4591594E-2,2.4107894E-2,-4.6824224E-2,5.262761E0,-9.498538E-2,2.389038E-2,9.0019224E-4,1.8103484E-2,6.451354E-2],"categories":[],"categories_nodes":[],"categories_segments":[],"categories_sizes":[],"default_left":[0,0,0,0,0,0,0,0,0,0,0,0,0,0,0,0,0,0,0,0,0],"id":12,"left_children":[1,3,-1,5,-1,7,9,11,13,15,-1,17,-1,-1,-1,19,-1,-1,-1,-1,-1],"loss_changes":[7.523545E3,2.6436228E3,0E0,1.321701E3,0E0,8.95571E2,1.4743269E3,3.8464386E1,1.24346924E2,5.498587E2,0E0,3.887535E0,0E0,0E0,0E0,6.2184113E1,0E0,0E0,0E0,0E0,0E0],"parents":[2147483647,0,0,1,1,3,3,5,5,6,6,7,7,8,8,9,9,11,11,15,15],"right_children":[2,4,-1,6,-1,8,10,12,14,16,-1,18,-1,-1,-1,20,-1,-1,-1,-1,-1],"split_conditions":[5.8795077E-1,1.16693924E2,4.932803E-1,4.1557524E-1,-3.7528053E-1,2.1885E3,1.2030247E-1,4.849536E-1,5.314E2,2.402842E1,3.2141536E-1,1.0905951E0,6.4591594E-2,2.4107894E-2,-4.6824224E-2,4.2E0,-9.498538E-2,2.389038E-2,9.0019224E-4,1.8103484E-2,6.451354E-2],"split_indices":[27,0,0,13,0,37,2,14,131,6,0,1,0,0,0,126,0,0,0,0,0],"split_type":[0,0,0,0,0,0,0,0,0,0,0,0,0,0,0,0,0,0,0,0,0],"sum_hessian":[9.2E1,9E1,2E0,8.9E1,1E0,6.9E1,2E1,1.1E1,5.8E1,1.9E1,1E0,4E0,7E0,2E0,5.6E1,1.7E1,2E0,3E0,1E0,5E0,1.2E1],"tree_param":{"num_deleted":"0","num_feature":"190","num_nodes":"21","size_leaf_vector":"1"}},{"base_weights":[6.0543675E-2,-1.5534831E0,4.8999175E-1,-7.4095714E-1,-3.7340412E-1,-2.8029594E0,6.1676674E0,5.073731E0,-4.3574905E0,3.2779682E0,3.1980827E-1,1.9327255E0,6.402643E-2,2.394717E-2,-4.6364225E-2,5.2147226E0,-9.435214E-2,2.3711223E-2,8.956909E-4,1.7952614E-2,6.3918024E-2],"categories":[],"categories_nodes":[],"categories_segments":[],"categories_sizes":[],"default_left":[0,0,0,0,0,0,0,0,0,0,0,0,0,0,0,0,0,0,0,0,0],"id":13,"left_children":[1,3,-1,5,-1,7,9,11,13,15,-1,17,-1,-1,-1,19,-1,-1,-1,-1,-1],"loss_changes":[7.4220283E3,2.618413E3,0E0,1.2993917E3,0E0,8.792279E2,1.4616057E3,3.7714905E1,1.22224E2,5.416483E2,0E0,3.8277912E0,0E0,0E0,0E0,6.09747E1,0E0,0E0,0E0,0E0,0E0],"parents":[2147483647,0,0,1,1,3,3,5,5,6,6,7,7,8,8,9,9,11,11,15,15],"right_children":[2,4,-1,6,-1,8,10,12,14,16,-1,18,-1,-1,-1,20,-1,-1,-1,-1,-1],"split_conditions":[5.8795077E-1,1.16693924E2,4.8999175E-1,4.1557524E-1,-3.7340412E-1,2.1885E3,1.2030247E-1,4.849536E-1,5.314E2,2.402842E1,3.1980827E-1,1.0905951E0,6.402643E-2,2.394717E-2,-4.6364225E-2,4.2E0,-9.435214E-2,2.3711223E-2,8.956909E-4,1.7952614E-2,6.3918024E-2],"split_indices":[27,0,0,13,0,37,2,14,131,6,0,1,0,0,0,126,0,0,0,0,0],"split_type":[0,0,0,0,0,0,0,0,0,0,0,0,0,0,0,0,0,0,0,0,0],"sum_hessian":[9.2E1,9E1,2E0,8.9E1,1E0,6.9E1,2E1,1.1E1,5.8E1,1.9E1,1E0,4E0,7E0,2E0,5.6E1,1.7E1,2E0,3E0,1E0,5E0,1.2E1],"tree_param":{"num_deleted":"0","num_feature":"190","num_nodes":"21","size_leaf_vector":"1"}},{"base_weights":[6.520819E-2,-1.537947E0,4.8672515E-1,-7.293974E-1,-3.715371E-1,-2.7739842E0,6.120625E0,5.0303802E0,-4.314296E0,3.244564E0,3.1820923E-1,1.9183197E0,6.3466206E-2,2.378751E-2,-4.5908723E-2,5.1671233E0,-9.372311E-2,2.3533382E-2,8.912277E-4,1.7803013E-2,6.3328005E-2],"categories":[],"categories_nodes":[],"categories_segments":[],"categories_sizes":[],"default_left":[0,0,0,0,0,0,0,0,0,0,0,0,0,0,0,0,0,0,0,0,0],"id":14,"left_children":[1,3,-1,5,-1,7,9,11,13,15,-1,17,-1,-1,-1,19,-1,-1,-1,-1,-1],"loss_changes":[7.321887E3,2.5934375E3,0E0,1.2774705E3,0E0,8.6318335E2,1.4489829E3,3.6979797E1,1.20137695E2,5.3356165E2,0E0,3.768938E0,0E0,0E0,0E0,5.9788696E1,0E0,0E0,0E0,0E0,0E0],"parents":[2147483647,0,0,1,1,3,3,5,5,6,6,7,7,8,8,9,9,11,11,15,15],"right_children":[2,4,-1,6,-1,8,10,12,14,16,-1,18,-1,-1,-1,20,-1,-1,-1,-1,-1],"split_conditions":[5.8795077E-1,1.16693924E2,4.8672515E-1,4.1557524E-1,-3.715371E-1,2.1885E3,1.2030247E-1,4.849536E-1,5.314E2,2.402842E1,3.1820923E-1,1.0905951E0,6.3466206E-2,2.378751E-2,-4.5908723E-2,4.2E0,-9.372311E-2,2.3533382E-2,8.912277E-4,1.7803013E-2,6.3328005E-2],"split_indices":[27,0,0,13,0,37,2,14,131,6,0,1,0,0,0,126,0,0,0,0,0],"split_type":[0,0,0,0,0,0,0,0,0,0,0,0,0,0,0,0,0,0,0,0,0],"sum_hessian":[9.2E1,9E1,2E0,8.9E1,1E0,6.9E1,2E1,1.1E1,5.8E1,1.9E1,1E0,4E0,7E0,2E0,5.6E1,1.7E1,2E0,3E0,1E0,5E0,1.2E1],"tree_param":{"num_deleted":"0","num_feature":"190","num_nodes":"21","size_leaf_vector":"1"}},{"base_weights":[6.9785826E-2,-1.5225716E0,4.8348033E-1,-7.1797925E-1,-3.696794E-1,-2.7453074E0,6.073971E0,4.987398E0,-4.2715306E0,3.2114873E0,3.1661817E-1,1.9040191E0,6.291085E-2,2.362892E-2,-4.5457713E-2,5.119958E0,-9.309832E-2,2.3356857E-2,8.867645E-4,1.7654685E-2,6.27434E-2],"categories":[],"categories_nodes":[],"categories_segments":[],"categories_sizes":[],"default_left":[0,0,0,0,0,0,0,0,0,0,0,0,0,0,0,0,0,0,0,0,0],"id":15,"left_children":[1,3,-1,5,-1,7,9,11,13,15,-1,17,-1,-1,-1,19,-1,-1,-1,-1,-1],"loss_changes":[7.2231025E3,2.5686934E3,0E0,1.2559309E3,0E0,8.4743207E2,1.4364591E3,3.625879E1,1.1808765E2,5.2559735E2,0E0,3.710991E0,0E0,0E0,0E0,5.8625458E1,0E0,0E0,0E0,0E0,0E0],"parents":[2147483647,0,0,1,1,3,3,5,5,6,6,7,7,8,8,9,9,11,11,15,15],"right_children":[2,4,-1,6,-1,8,10,12,14,16,-1,18,-1,-1,-1,20,-1,-1,-1,-1,-1],"split_conditions":[5.8795077E-1,1.16693924E2,4.8348033E-1,4.1557524E-1,-3.696794E-1,2.1885E3,1.2030247E-1,4.849536E-1,5.314E2,2.402842E1,3.1661817E-1,1.0905951E0,6.291085E-2,2.362892E-2,-4.5457713E-2,4.2E0,-9.309832E-2,2.3356857E-2,8.867645E-4,1.7654685E-2,6.27434E-2],"split_indices":[27,0,0,13,0,37,2,14,131,6,0,1,0,0,0,126,0,0,0,0,0],"split_type":[0,0,0,0,0,0,0,0,0,0,0,0,0,0,0,0,0,0,0,0,0],"sum_hessian":[9.2E1,9E1,2E0,8.9E1,1E0,6.9E1,2E1,1.1E1,5.8E1,1.9E1,1E0,4E0,7E0,2E0,5.6E1,1.7E1,2E0,3E0,1E0,5E0,1.2E1],"tree_param":{"num_deleted":"0","num_feature":"190","num_nodes":"21","size_leaf_vector":"1"}},{"base_weights":[7.428093E-2,-1.5073518E0,4.802571E-1,-7.066978E-1,-3.67831E-1,-2.7169225E0,6.0277033E0,4.9447875E0,-4.2291865E0,3.1787372E0,3.1503507E-1,3.1547785E0,7.736111E-2,2.34714E-2,-4.501113E-2,5.0732245E0,-9.247764E-2,7.059326E-3,3.753601E-2,1.7507566E-2,6.216423E-2],"categories":[],"categories_nodes":[],"categories_segments":[],"categories_sizes":[],"default_left":[0,0,0,0,0,0,0,0,0,0,0,0,0,0,0,0,0,0,0,0,0],"id":16,"left_children":[1,3,-1,5,-1,7,9,11,13,15,-1,17,-1,-1,-1,19,-1,-1,-1,-1,-1],"loss_changes":[7.125656E3,2.544179E3,0E0,1.2347661E3,0E0,8.3196954E2,1.4240325E3,3.5552216E1,1.16073E2,5.17753E2,0E0,1.0548042E1,0E0,0E0,0E0,5.7484863E1,0E0,0E0,0E0,0E0,0E0],"parents":[2147483647,0,0,1,1,3,3,5,5,6,6,7,7,8,8,9,9,11,11,15,15],"right_children":[2,4,-1,6,-1,8,10,12,14,16,-1,18,-1,-1,-1,20,-1,-1,-1,-1,-1],"split_conditions":[5.8795077E-1,1.16693924E2,4.802571E-1,4.1557524E-1,-3.67831E-1,2.1885E3,1.2030247E-1,4.953741E-1,5.314E2,2.402842E1,3.1503507E-1,-5.371E0,7.736111E-2,2.34714E-2,-4.501113E-2,4.2E0,-9.247764E-2,7.059326E-3,3.753601E-2,1.7507566E-2,6.216423E-2],"split_indices":[27,0,0,13,0,37,2,14,131,6,0,83,0,0,0,126,0,0,0,0,0],"split_type":[0,0,0,0,0,0,0,0,0,0,0,0,0,0,0,0,0,0,0,0,0],"sum_hessian":[9.2E1,9E1,2E0,8.9E1,1E0,6.9E1,2E1,1.1E1,5.8E1,1.9E1,1E0,8E0,3E0,2E0,5.6E1,1.7E1,2E0,2E0,6E0,5E0,1.2E1],"tree_param":{"num_deleted":"0","num_feature":"190","num_nodes":"21","size_leaf_vector":"1"}},{"base_weights":[7.9077855E-2,-1.4918944E0,4.770554E-1,-6.951557E-1,-3.6599186E-1,-2.6883168E0,5.9818172E0,4.9055023E0,-4.187258E0,3.146309E0,3.1345993E-1,3.1281857E0,7.678089E-2,2.3314945E-2,-4.456889E-2,5.026918E0,-9.186114E-2,7.0122783E-3,3.7214268E-2,1.7361654E-2,6.1590403E-2],"categories":[],"categories_nodes":[],"categories_segments":[],"categories_sizes":[],"default_left":[0,0,0,0,0,0,0,0,0,0,0,0,0,0,0,0,0,0,0,0,0],"id":17,"left_children":[1,3,-1,5,-1,7,9,11,13,15,-1,17,-1,-1,-1,19,-1,-1,-1,-1,-1],"loss_changes":[7.0294175E3,2.5199492E3,0E0,1.2138265E3,0E0,8.173286E2,1.4117028E3,3.5114716E1,1.1409326E2,5.1002713E2,0E0,1.0348381E1,0E0,0E0,0E0,5.6366577E1,0E0,0E0,0E0,0E0,0E0],"parents":[2147483647,0,0,1,1,3,3,5,5,6,6,7,7,8,8,9,9,11,11,15,15],"right_children":[2,4,-1,6,-1,8,10,12,14,16,-1,18,-1,-1,-1,20,-1,-1,-1,-1,-1],"split_conditions":[5.8795077E-1,1.16693924E2,4.770554E-1,4.1557524E-1,-3.6599186E-1,2.1885E3,1.2030247E-1,4.953741E-1,5.314E2,2.402842E1,3.1345993E-1,-5.371E0,7.678089E-2,2.3314945E-2,-4.456889E-2,4.2E0,-9.186114E-2,7.0122783E-3,3.7214268E-2,1.7361654E-2,6.1590403E-2],"split_indices":[27,0,0,13,0,37,2,14,131,6,0,83,0,0,0,126,0,0,0,0,0],"split_type":[0,0,0,0,0,0,0,0,0,0,0,0,0,0,0,0,0,0,0,0,0],"sum_hessian":[9.2E1,9E1,2E0,8.9E1,1E0,6.9E1,2E1,1.1E1,5.8E1,1.9E1,1E0,8E0,3E0,2E0,5.6E1,1.7E1,2E0,2E0,6E0,5E0,1.2E1],"tree_param":{"num_deleted":"0","num_feature":"190","num_nodes":"21","size_leaf_vector":"1"}},{"base_weights":[8.3786175E-2,-1.4765977E0,4.73875E-1,-6.8375564E-1,-3.641619E-1,-2.6600072E0,5.936309E0,4.86653E0,-4.1457434E0,3.1141982E0,3.1189263E-1,3.101817E0,7.620502E-2,2.3159511E-2,-4.4131E-2,4.981033E0,-9.124875E-2,6.965535E-3,3.689527E-2,1.7216949E-2,6.102186E-2],"categories":[],"categories_nodes":[],"categories_segments":[],"categories_sizes":[],"default_left":[0,0,0,0,0,0,0,0,0,0,0,0,0,0,0,0,0,0,0,0,0],"id":18,"left_children":[1,3,-1,5,-1,7,9,11,13,15,-1,17,-1,-1,-1,19,-1,-1,-1,-1,-1],"loss_changes":[6.9344844E3,2.4959438E3,0E0,1.1932528E3,0E0,8.029468E2,1.3994697E3,3.468225E1,1.12147644E2,5.0241785E2,0E0,1.0152435E1,0E0,0E0,0E0,5.5269836E1,0E0,0E0,0E0,0E0,0E0],"parents":[2147483647,0,0,1,1,3,3,5,5,6,6,7,7,8,8,9,9,11,11,15,15],"right_children":[2,4,-1,6,-1,8,10,12,14,16,-1,18,-1,-1,-1,20,-1,-1,-1,-1,-1],"split_conditions":[5.8795077E-1,1.16693924E2,4.73875E-1,4.1557524E-1,-3.641619E-1,2.1885E3,1.2030247E-1,4.953741E-1,5.314E2,2.402842E1,3.1189263E-1,-5.371E0,7.620502E-2,2.3159511E-2,-4.4131E-2,4.2E0,-9.124875E-2,6.965535E-3,3.689527E-2,1.7216949E-2,6.102186E-2],"split_indices":[27,0,0,13,0,37,2,14,131,6,0,83,0,0,0,126,0,0,0,0,0],"split_type":[0,0,0,0,0,0,0,0,0,0,0,0,0,0,0,0,0,0,0,0,0],"sum_hessian":[9.2E1,9E1,2E0,8.9E1,1E0,6.9E1,2E1,1.1E1,5.8E1,1.9E1,1E0,8E0,3E0,2E0,5.6E1,1.7E1,2E0,2E0,6E0,5E0,1.2E1],"tree_param":{"num_deleted":"0","num_feature":"190","num_nodes":"21","size_leaf_vector":"1"}},{"base_weights":[8.840582E-2,-1.4614617E0,4.7071582E-1,-6.7249763E-1,-3.623411E-1,-2.6319935E0,5.891179E0,4.827871E0,-4.104644E0,3.0824063E0,3.1033316E-1,3.0756717E0,7.56335E-2,2.3005093E-2,-4.369746E-2,4.93557E0,-9.064044E-2,6.9190976E-3,3.657902E-2,1.7073452E-2,6.04586E-2],"categories":[],"categories_nodes":[],"categories_segments":[],"categories_sizes":[],"default_left":[0,0,0,0,0,0,0,0,0,0,0,0,0,0,0,0,0,0,0,0,0],"id":19,"left_children":[1,3,-1,5,-1,7,9,11,13,15,-1,17,-1,-1,-1,19,-1,-1,-1,-1,-1],"loss_changes":[6.8408394E3,2.4721604E3,0E0,1.1730404E3,0E0,7.8882086E2,1.3873324E3,3.4254883E1,1.102359E2,4.9492337E2,0E0,9.960159E0,0E0,0E0,0E0,5.4194427E1,0E0,0E0,0E0,0E0,0E0],"parents":[2147483647,0,0,1,1,3,3,5,5,6,6,7,7,8,8,9,9,11,11,15,15],"right_children":[2,4,-1,6,-1,8,10,12,14,16,-1,18,-1,-1,-1,20,-1,-1,-1,-1,-1],"split_conditions":[5.8795077E-1,1.16693924E2,4.7071582E-1,4.1557524E-1,-3.623411E-1,2.1885E3,1.2030247E-1,4.953741E-1,5.314E2,2.402842E1,3.1033316E-1,-5.371E0,7.56335E-2,2.3005093E-2,-4.369746E-2,4.2E0,-9.064044E-2,6.9190976E-3,3.657902E-2,1.7073452E-2,6.04586E-2],"split_indices":[27,0,0,13,0,37,2,14,131,6,0,83,0,0,0,126,0,0,0,0,0],"split_type":[0,0,0,0,0,0,0,0,0,0,0,0,0,0,0,0,0,0,0,0,0],"sum_hessian":[9.2E1,9E1,2E0,8.9E1,1E0,6.9E1,2E1,1.1E1,5.8E1,1.9E1,1E0,8E0,3E0,2E0,5.6E1,1.7E1,2E0,2E0,6E0,5E0,1.2E1],"tree_param":{"num_deleted":"0","num_feature":"190","num_nodes":"21","size_leaf_vector":"1"}},{"base_weights":[9.29444E-2,-1.4464779E0,4.675777E-1,-6.613734E-1,-3.605294E-1,-2.6042638E0,5.846422E0,4.789522E0,-4.063945E0,3.050928E0,3.087815E-1,3.0497503E0,7.5066276E-2,2.2851741E-2,-4.3268113E0,4.8905234E0,-9.003619E-2,6.8729655E-3,3.626552E-2,-4.1449737E-2,-7.2548635E-2,1.6931165E-2,5.9900556E-2],"categories":[],"categories_nodes":[],"categories_segments":[],"categories_sizes":[],"default_left":[0,0,0,0,0,0,0,0,0,0,0,0,0,0,0,0,0,0,0,0,0,0,0],"id":20,"left_children":[1,3,-1,5,-1,7,9,11,13,15,-1,17,-1,-1,19,21,-1,-1,-1,-1,-1,-1,-1],"loss_changes":[6.748464E3,2.4485972E3,0E0,1.1531797E3,0E0,7.749442E2,1.37529E3,3.3832397E1,1.0835687E2,4.875421E2,0E0,9.771484E0,0E0,0E0,2.7734375E-1,5.3139893E1,0E0,0E0,0E0,0E0,0E0,0E0,0E0],"parents":[2147483647,0,0,1,1,3,3,5,5,6,6,7,7,8,8,9,9,11,11,14,14,15,15],"right_children":[2,4,-1,6,-1,8,10,12,14,16,-1,18,-1,-1,20,22,-1,-1,-1,-1,-1,-1,-1],"split_conditions":[5.8795077E-1,1.16693924E2,4.675777E-1,4.1557524E-1,-3.605294E-1,2.1885E3,1.2030247E-1,4.953741E-1,5.314E2,2.402842E1,3.087815E-1,-5.371E0,7.5066276E-2,2.2851741E-2,4.0751612E-1,4.2E0,-9.003619E-2,6.8729655E-3,3.626552E-2,-4.1449737E-2,-7.2548635E-2,1.6931165E-2,5.9900556E-2],"split_indices":[27,0,0,13,0,37,2,14,131,6,0,83,0,0,4,126,0,0,0,0,0,0,0],"split_type":[0,0,0,0,0,0,0,0,0,0,0,0,0,0,0,0,0,0,0,0,0,0,0],"sum_hessian":[9.2E1,9E1,2E0,8.9E1,1E0,6.9E1,2E1,1.1E1,5.8E1,1.9E1,1E0,8E0,3E0,2E0,5.6E1,1.7E1,2E0,2E0,6E0,5.5E1,1E0,5E0,1.2E1],"tree_param":{"num_deleted":"0","num_feature":"190","num_nodes":"23","size_leaf_vector":"1"}},{"base_weights":[9.6636206E-2,-1.4324286E0,4.6446055E-1,-6.5117383E-1,-3.5872677E-1,-2.577834E0,5.8020344E0,4.7514787E0,-4.0248494E0,3.0197601E0,3.0723757E-1,3.0240479E0,7.450329E-2,2.2699406E-2,-4.2855425E0,4.845888E0,-8.943596E-2,6.827138E-3,3.59547E-2,-4.1042633E-2,-7.21859E-2,1.6790085E-2,5.934764E-2],"categories":[],"categories_nodes":[],"categories_segments":[],"categories_sizes":[],"default_left":[0,0,0,0,0,0,0,0,0,0,0,0,0,0,0,0,0,0,0,0,0,0,0],"id":21,"left_children":[1,3,-1,5,-1,7,9,11,13,15,-1,17,-1,-1,19,21,-1,-1,-1,-1,-1,-1,-1],"loss_changes":[6.657558E3,2.4251418E3,0E0,1.1339391E3,0E0,7.6151807E2,1.3633422E3,3.3414764E1,1.0654755E2,4.802721E2,0E0,9.586342E0,0E0,0E0,6.7993164E-1,5.210565E1,0E0,0E0,0E0,0E0,0E0,0E0,0E0],"parents":[2147483647,0,0,1,1,3,3,5,5,6,6,7,7,8,8,9,9,11,11,14,14,15,15],"right_children":[2,4,-1,6,-1,8,10,12,14,16,-1,18,-1,-1,20,22,-1,-1,-1,-1,-1,-1,-1],"split_conditions":[5.8795077E-1,1.16693924E2,4.6446055E-1,4.1557524E-1,-3.5872677E-1,2.1885E3,1.2030247E-1,4.953741E-1,5.314E2,2.402842E1,3.0723757E-1,-5.371E0,7.450329E-2,2.2699406E-2,4.0751612E-1,4.2E0,-8.943596E-2,6.827138E-3,3.59547E-2,-4.1042633E-2,-7.21859E-2,1.6790085E-2,5.934764E-2],"split_indices":[27,0,0,13,0,37,2,14,131,6,0,83,0,0,4,126,0,0,0,0,0,0,0],"split_type":[0,0,0,0,0,0,0,0,0,0,0,0,0,0,0,0,0,0,0,0,0,0,0],"sum_hessian":[9.2E1,9E1,2E0,8.9E1,1E0,6.9E1,2E1,1.1E1,5.8E1,1.9E1,1E0,8E0,3E0,2E0,5.6E1,1.7E1,2E0,2E0,6E0,5.5E1,1E0,5E0,1.2E1],"tree_param":{"num_deleted":"0","num_feature":"190","num_nodes":"23","size_leaf_vector":"1"}},{"base_weights":[1.0025689E-1,-1.4185203E0,4.6136412E-1,-6.4109695E-1,-3.5693312E-1,-2.5516706E0,5.75801E0,4.713737E0,-3.986132E0,2.9888966E0,3.057014E-1,2.998559E0,7.394453E-2,2.254809E-2,-4.2446704E0,4.8016577E0,-8.883969E-2,6.7816162E-3,3.5646494E-2,-4.06395E-2,-7.182495E-2,1.6650148E-2,5.879981E-2],"categories":[],"categories_nodes":[],"categories_segments":[],"categories_sizes":[],"default_left":[0,0,0,0,0,0,0,0,0,0,0,0,0,0,0,0,0,0,0,0,0,0,0],"id":22,"left_children":[1,3,-1,5,-1,7,9,11,13,15,-1,17,-1,-1,19,21,-1,-1,-1,-1,-1,-1,-1],"loss_changes":[6.567882E3,2.4019058E3,0E0,1.1150294E3,0E0,7.483258E2,1.3514888E3,3.3002167E1,1.0476868E2,4.731112E2,0E0,9.404587E0,0E0,0E0,1.0734863E0,5.109143E1,0E0,0E0,0E0,0E0,0E0,0E0,0E0],"parents":[2147483647,0,0,1,1,3,3,5,5,6,6,7,7,8,8,9,9,11,11,14,14,15,15],"right_children":[2,4,-1,6,-1,8,10,12,14,16,-1,18,-1,-1,20,22,-1,-1,-1,-1,-1,-1,-1],"split_conditions":[5.8795077E-1,1.16693924E2,4.6136412E-1,4.1557524E-1,-3.5693312E-1,2.1885E3,1.2030247E-1,4.953741E-1,5.314E2,2.402842E1,3.057014E-1,-5.371E0,7.394453E-2,2.254809E-2,4.0751612E-1,4.2E0,-8.883969E-2,6.7816162E-3,3.5646494E-2,-4.06395E-2,-7.182495E-2,1.6650148E-2,5.879981E-2],"split_indices":[27,0,0,13,0,37,2,14,131,6,0,83,0,0,4,126,0,0,0,0,0,0,0],"split_type":[0,0,0,0,0,0,0,0,0,0,0,0,0,0,0,0,0,0,0,0,0,0,0],"sum_hessian":[9.2E1,9E1,2E0,8.9E1,1E0,6.9E1,2E1,1.1E1,5.8E1,1.9E1,1E0,8E0,3E0,2E0,5.6E1,1.7E1,2E0,2E0,6E0,5.5E1,1E0,5E0,1.2E1],"tree_param":{"num_deleted":"0","num_feature":"190","num_nodes":"23","size_leaf_vector":"1"}},{"base_weights":[1.0380644E-1,-1.4047529E0,4.5828837E-1,-6.3114244E-1,-3.5514846E-1,-2.5257738E0,5.71435E0,4.676298E0,-3.9477923E0,2.9583385E0,3.041729E-1,2.9732885E0,7.338995E-2,2.2397792E-2,-4.2041945E0,4.7578335E0,-8.824745E-2,6.7363996E-3,3.534097E-2,-4.024034E-2,-7.1465835E-2,1.6511422E-2,5.825704E-2],"categories":[],"categories_nodes":[],"categories_segments":[],"categories_sizes":[],"default_left":[0,0,0,0,0,0,0,0,0,0,0,0,0,0,0,0,0,0,0,0,0,0,0],"id":23,"left_children":[1,3,-1,5,-1,7,9,11,13,15,-1,17,-1,-1,19,21,-1,-1,-1,-1,-1,-1,-1],"loss_changes":[6.4794185E3,2.3788862E3,0E0,1.0964464E3,0E0,7.353646E2,1.3397285E3,3.2594208E1,1.03020325E2,4.6605872E2,0E0,9.22625E0,0E0,0E0,1.4577026E0,5.009677E1,0E0,0E0,0E0,0E0,0E0,0E0,0E0],"parents":[2147483647,0,0,1,1,3,3,5,5,6,6,7,7,8,8,9,9,11,11,14,14,15,15],"right_children":[2,4,-1,6,-1,8,10,12,14,16,-1,18,-1,-1,20,22,-1,-1,-1,-1,-1,-1,-1],"split_conditions":[5.8795077E-1,1.16693924E2,4.5828837E-1,4.1557524E-1,-3.5514846E-1,2.1885E3,1.2030247E-1,4.953741E-1,5.314E2,2.402842E1,3.041729E-1,-5.371E0,7.338995E-2,2.2397792E-2,4.0751612E-1,4.2E0,-8.824745E-2,6.7363996E-3,3.534097E-2,-4.024034E-2,-7.1465835E-2,1.6511422E-2,5.825704E-2],"split_indices":[27,0,0,13,0,37,2,14,131,6,0,83,0,0,4,126,0,0,0,0,0,0,0],"split_type":[0,0,0,0,0,0,0,0,0,0,0,0,0,0,0,0,0,0,0,0,0,0,0],"sum_hessian":[9.2E1,9E1,2E0,8.9E1,1E0,6.9E1,2E1,1.1E1,5.8E1,1.9E1,1E0,8E0,3E0,2E0,5.6E1,1.7E1,2E0,2E0,6E0,5.5E1,1E0,5E0,1.2E1],"tree_param":{"num_deleted":"0","num_feature":"190","num_nodes":"23","size_leaf_vector":"1"}},{"base_weights":[1.0728274E-1,-1.3911278E0,4.552331E-1,-6.2131214E-1,-3.5337272E-1,-2.5001445E0,5.6710486E0,4.6391587E0,-3.9098308E0,2.928081E0,3.02652E-1,2.948232E0,7.283954E-2,2.2248458E-2,-4.164115E0,4.714409E0,-8.765912E-2,6.6914875E-3,3.5038058E-2,-3.9845154E-2,-7.110851E-2,6.3402937E-3,5.4882158E-2],"categories":[],"categories_nodes":[],"categories_segments":[],"categories_sizes":[],"default_left":[0,0,0,0,0,0,0,0,0,0,0,0,0,0,0,0,0,0,0,0,0,0,0],"id":24,"left_children":[1,3,-1,5,-1,7,9,11,13,15,-1,17,-1,-1,19,21,-1,-1,-1,-1,-1,-1,-1],"loss_changes":[6.3921514E3,2.3560818E3,0E0,1.0781847E3,0E0,7.226308E2,1.3280613E3,3.21911E1,1.01301636E2,4.591122E2,0E0,9.051231E0,0E0,0E0,1.8330688E0,5.3354034E1,0E0,0E0,0E0,0E0,0E0,0E0,0E0],"parents":[2147483647,0,0,1,1,3,3,5,5,6,6,7,7,8,8,9,9,11,11,14,14,15,15],"right_children":[2,4,-1,6,-1,8,10,12,14,16,-1,18,-1,-1,20,22,-1,-1,-1,-1,-1,-1,-1],"split_conditions":[5.8795077E-1,1.16693924E2,4.552331E-1,4.1557524E-1,-3.5337272E-1,2.1885E3,1.2030247E-1,4.953741E-1,5.314E2,2.402842E1,3.02652E-1,-5.371E0,7.283954E-2,2.2248458E-2,4.0751612E-1,4.866536E-1,-8.765912E-2,6.6914875E-3,3.5038058E-2,-3.9845154E-2,-7.110851E-2,6.3402937E-3,5.4882158E-2],"split_indices":[27,0,0,13,0,37,2,14,131,6,0,83,0,0,4,14,0,0,0,0,0,0,0],"split_type":[0,0,0,0,0,0,0,0,0,0,0,0,0,0,0,0,0,0,0,0,0,0,0],"sum_hessian":[9.2E1,9E1,2E0,8.9E1,1E0,6.9E1,2E1,1.1E1,5.8E1,1.9E1,1E0,8E0,3E0,2E0,5.6E1,1.7E1,2E0,2E0,6E0,5.5E1,1E0,3E0,1.4E1],"tree_param":{"num_deleted":"0","num_feature":"190","num_nodes":"23","size_leaf_vector":"1"}},{"base_weights":[1.10554606E-1,-1.377779E0,4.521982E-1,-6.117413E-1,-3.5160586E-1,-2.4747713E0,5.6274896E0,4.6023135E0,-3.8722332E0,2.8974762E0,3.0113876E-1,2.923384E0,7.229326E-2,2.2100143E-2,-4.1244173E0,4.6706634E0,-8.7074704E-2,6.646881E-3,3.4737702E-2,-3.9453786E-2,-7.075298E-2,6.2927436E-3,5.4369893E-2],"categories":[],"categories_nodes":[],"categories_segments":[],"categories_sizes":[],"default_left":[0,0,0,0,0,0,0,0,0,0,0,0,0,0,0,0,0,0,0,0,0,0,0],"id":25,"left_children":[1,3,-1,5,-1,7,9,11,13,15,-1,17,-1,-1,19,21,-1,-1,-1,-1,-1,-1,-1],"loss_changes":[6.306104E3,2.3334712E3,0E0,1.0600754E3,0E0,7.1011816E2,1.316557E3,3.179274E1,9.9612E1,4.5222455E2,0E0,8.879425E0,0E0,0E0,2.199707E0,5.2325073E1,0E0,0E0,0E0,0E0,0E0,0E0,0E0],"parents":[2147483647,0,0,1,1,3,3,5,5,6,6,7,7,8,8,9,9,11,11,14,14,15,15],"right_children":[2,4,-1,6,-1,8,10,12,14,16,-1,18,-1,-1,20,22,-1,-1,-1,-1,-1,-1,-1],"split_conditions":[5.8795077E-1,1.16693924E2,4.521982E-1,4.1557524E-1,-3.5160586E-1,2.1885E3,1.2030247E-1,4.953741E-1,5.314E2,2.402842E1,3.0113876E-1,-5.371E0,7.229326E-2,2.2100143E-2,4.0751612E-1,4.866536E-1,-8.7074704E-2,6.646881E-3,3.4737702E-2,-3.9453786E-2,-7.075298E-2,6.2927436E-3,5.4369893E-2],"split_indices":[27,0,0,13,0,37,2,14,131,6,0,83,0,0,4,14,0,0,0,0,0,0,0],"split_type":[0,0,0,0,0,0,0,0,0,0,0,0,0,0,0,0,0,0,0,0,0,0,0],"sum_hessian":[9.2E1,9E1,2E0,8.9E1,1E0,6.9E1,2E1,1.1E1,5.8E1,1.9E1,1E0,8E0,3E0,2E0,5.6E1,1.7E1,2E0,2E0,6E0,5.5E1,1E0,3E0,1.4E1],"tree_param":{"num_deleted":"0","num_feature":"190","num_nodes":"23","size_leaf_vector":"1"}},{"base_weights":[1.13758706E-1,-1.364566E0,4.4918352E-1,-6.0228825E-1,-3.4984782E-1,-2.44966E0,5.584298E0,4.5657635E0,-3.8350062E0,2.8671825E0,2.9963306E-1,1.7179428E0,5.774931E0,2.1952793E-2,-4.0851088E0,4.627329E0,-8.6494215E-2,2.1204395E-2,5.3977966E-4,3.499806E-2,7.175104E-2,-3.9066315E-2,-7.039921E-2,6.2455367E-3,5.3862467E-2],"categories":[],"categories_nodes":[],"categories_segments":[],"categories_sizes":[],"default_left":[0,0,0,0,0,0,0,0,0,0,0,0,0,0,0,0,0,0,0,0,0,0,0,0,0],"id":26,"left_children":[1,3,-1,5,-1,7,9,11,13,15,-1,17,19,-1,21,23,-1,-1,-1,-1,-1,-1,-1,-1,-1],"loss_changes":[6.2212183E3,2.3110723E3,0E0,1.042283E3,0E0,6.97825E2,1.3051421E3,3.1400879E1,9.795123E1,4.4544183E2,0E0,3.2342453E0,3.730774E-1,0E0,2.5575562E0,5.131604E1,0E0,0E0,0E0,0E0,0E0,0E0,0E0,0E0,0E0],"parents":[2147483647,0,0,1,1,3,3,5,5,6,6,7,7,8,8,9,9,11,11,12,12,14,14,15,15],"right_children":[2,4,-1,6,-1,8,10,12,14,16,-1,18,20,-1,22,24,-1,-1,-1,-1,-1,-1,-1,-1,-1],"split_conditions":[5.8795077E-1,1.16693924E2,4.4918352E-1,4.1557524E-1,-3.4984782E-1,2.1885E3,1.2030247E-1,4.849536E-1,5.314E2,2.402842E1,2.9963306E-1,1.0905951E0,4.953741E-1,2.1952793E-2,4.0751612E-1,4.866536E-1,-8.6494215E-2,2.1204395E-2,5.3977966E-4,3.499806E-2,7.175104E-2,-3.9066315E-2,-7.039921E-2,6.2455367E-3,5.3862467E-2],"split_indices":[27,0,0,13,0,37,2,14,131,6,0,1,14,0,4,14,0,0,0,0,0,0,0,0,0],"split_type":[0,0,0,0,0,0,0,0,0,0,0,0,0,0,0,0,0,0,0,0,0,0,0,0,0],"sum_hessian":[9.2E1,9E1,2E0,8.9E1,1E0,6.9E1,2E1,1.1E1,5.8E1,1.9E1,1E0,4E0,7E0,2E0,5.6E1,1.7E1,2E0,3E0,1E0,4E0,3E0,5.5E1,1E0,3E0,1.4E1],"tree_param":{"num_deleted":"0","num_feature":"190","num_nodes":"25","size_leaf_vector":"1"}},{"base_weights":[1.1706559E-1,-1.3513143E0,4.46189E-1,-5.927765E-1,-3.480986E-1,-2.4245808E0,5.5414658E0,4.5308137E0,-3.798143E0,2.8371902E0,2.9813486E-1,2.876068E0,7.121288E-2,2.1806462E-2,-4.046182E0,4.5843935E0,-8.5917585E-2,6.5301005E-3,3.4179404E-2,-3.8682666E-2,-7.004722E-2,6.198673E-3,5.335974E-2],"categories":[],"categories_nodes":[],"categories_segments":[],"categories_sizes":[],"default_left":[0,0,0,0,0,0,0,0,0,0,0,0,0,0,0,0,0,0,0,0,0,0,0],"id":27,"left_children":[1,3,-1,5,-1,7,9,11,13,15,-1,17,-1,-1,19,21,-1,-1,-1,-1,-1,-1,-1],"loss_changes":[6.137435E3,2.2889065E3,0E0,1.0247417E3,0E0,6.8596533E2,1.2938164E3,3.095758E1,9.6318665E1,4.387619E2,0E0,8.609581E0,0E0,0E0,2.9069824E0,5.0326355E1,0E0,0E0,0E0,0E0,0E0,0E0,0E0],"parents":[2147483647,0,0,1,1,3,3,5,5,6,6,7,7,8,8,9,9,11,11,14,14,15,15],"right_children":[2,4,-1,6,-1,8,10,12,14,16,-1,18,-1,-1,20,22,-1,-1,-1,-1,-1,-1,-1],"split_conditions":[5.8795077E-1,1.16693924E2,4.46189E-1,4.1557524E-1,-3.480986E-1,2.1885E3,1.2030247E-1,4.953741E-1,5.314E2,2.402842E1,2.9813486E-1,-5.371E0,7.121288E-2,2.1806462E-2,4.0751612E-1,4.866536E-1,-8.5917585E-2,6.5301005E-3,3.4179404E-2,-3.8682666E-2,-7.004722E-2,6.198673E-3,5.335974E-2],"split_indices":[27,0,0,13,0,37,2,14,131,6,0,83,0,0,4,14,0,0,0,0,0,0,0],"split_type":[0,0,0,0,0,0,0,0,0,0,0,0,0,0,0,0,0,0,0,0,0,0,0],"sum_hessian":[9.2E1,9E1,2E0,8.9E1,1E0,6.9E1,2E1,1.1E1,5.8E1,1.9E1,1E0,8E0,3E0,2E0,5.6E1,1.7E1,2E0,2E0,6E0,5.5E1,1E0,3E0,1.4E1],"tree_param":{"num_deleted":"0","num_feature":"190","num_nodes":"23","size_leaf_vector":"1"}},{"base_weights":[1.2013983E-1,-1.3383662E0,4.4321442E-1,-5.8355224E-1,-3.463581E-1,-2.3999794E0,5.498993E0,4.4948325E0,-3.7616363E0,2.8075004E0,2.966442E-1,2.8518305E0,7.0678785E-2,2.1661097E-2,-4.0076294E0,4.5418587E0,-8.534482E-2,6.4865616E-3,3.3886433E-2,-3.830276E-2,-6.9697E-2,1.5526861E-2,5.572103E-2],"categories":[],"categories_nodes":[],"categories_segments":[],"categories_sizes":[],"default_left":[0,0,0,0,0,0,0,0,0,0,0,0,0,0,0,0,0,0,0,0,0,0,0],"id":28,"left_children":[1,3,-1,5,-1,7,9,11,13,15,-1,17,-1,-1,19,21,-1,-1,-1,-1,-1,-1,-1],"loss_changes":[6.05483E3,2.2669253E3,0E0,1.00756244E3,0E0,6.740937E2,1.2825796E3,3.0573868E1,9.4713806E1,4.3218365E2,0E0,8.446182E0,0E0,0E0,3.248108E0,4.678067E1,0E0,0E0,0E0,0E0,0E0,0E0,0E0],"parents":[2147483647,0,0,1,1,3,3,5,5,6,6,7,7,8,8,9,9,11,11,14,14,15,15],"right_children":[2,4,-1,6,-1,8,10,12,14,16,-1,18,-1,-1,20,22,-1,-1,-1,-1,-1,-1,-1],"split_conditions":[5.8795077E-1,1.16693924E2,4.4321442E-1,4.1557524E-1,-3.463581E-1,2.1885E3,1.2030247E-1,4.953741E-1,5.314E2,2.402842E1,2.966442E-1,-5.371E0,7.0678785E-2,2.1661097E-2,4.0751612E-1,4.2E0,-8.534482E-2,6.4865616E-3,3.3886433E-2,-3.830276E-2,-6.9697E-2,1.5526861E-2,5.572103E-2],"split_indices":[27,0,0,13,0,37,2,14,131,6,0,83,0,0,4,126,0,0,0,0,0,0,0],"split_type":[0,0,0,0,0,0,0,0,0,0,0,0,0,0,0,0,0,0,0,0,0,0,0],"sum_hessian":[9.2E1,9E1,2E0,8.9E1,1E0,6.9E1,2E1,1.1E1,5.8E1,1.9E1,1E0,8E0,3E0,2E0,5.6E1,1.7E1,2E0,2E0,6E0,5.5E1,1E0,5E0,1.2E1],"tree_param":{"num_deleted":"0","num_feature":"190","num_nodes":"23","size_leaf_vector":"1"}},{"base_weights":[1.2328216E-1,-1.3254138E0,4.4025967E-1,-5.7430434E-1,-3.446263E-1,-2.3756292E0,5.4574594E0,4.459137E0,-3.7254863E0,2.7787228E0,2.9516098E-1,2.827796E0,7.01487E-2,2.1516697E-2,-3.969451E0,4.500401E0,-8.477587E-2,6.4433287E-3,3.359595E-2,-3.7926603E-2,-6.934852E-2,1.5397478E-2,5.5206712E-2],"categories":[],"categories_nodes":[],"categories_segments":[],"categories_sizes":[],"default_left":[0,0,0,0,0,0,0,0,0,0,0,0,0,0,0,0,0,0,0,0,0,0,0],"id":29,"left_children":[1,3,-1,5,-1,7,9,11,13,15,-1,17,-1,-1,19,21,-1,-1,-1,-1,-1,-1,-1],"loss_changes":[5.973305E3,2.2451687E3,0E0,9.9082983E2,0E0,6.6242944E2,1.2713649E3,3.0194626E1,9.313623E1,4.2574744E2,0E0,8.285774E0,0E0,0E0,3.5809937E0,4.587155E1,0E0,0E0,0E0,0E0,0E0,0E0,0E0],"parents":[2147483647,0,0,1,1,3,3,5,5,6,6,7,7,8,8,9,9,11,11,14,14,15,15],"right_children":[2,4,-1,6,-1,8,10,12,14,16,-1,18,-1,-1,20,22,-1,-1,-1,-1,-1,-1,-1],"split_conditions":[5.8795077E-1,1.16693924E2,4.4025967E-1,4.1557524E-1,-3.446263E-1,2.1885E3,1.2030247E-1,4.953741E-1,5.314E2,2.402842E1,2.9516098E-1,-5.371E0,7.01487E-2,2.1516697E-2,4.0751612E-1,4.2E0,-8.477587E-2,6.4433287E-3,3.359595E-2,-3.7926603E-2,-6.934852E-2,1.5397478E-2,5.5206712E-2],"split_indices":[27,0,0,13,0,37,2,14,131,6,0,83,0,0,4,126,0,0,0,0,0,0,0],"split_type":[0,0,0,0,0,0,0,0,0,0,0,0,0,0,0,0,0,0,0,0,0,0,0],"sum_hessian":[9.2E1,9E1,2E0,8.9E1,1E0,6.9E1,2E1,1.1E1,5.8E1,1.9E1,1E0,8E0,3E0,2E0,5.6E1,1.7E1,2E0,2E0,6E0,5.5E1,1E0,5E0,1.2E1],"tree_param":{"num_deleted":"0","num_feature":"190","num_nodes":"23","size_leaf_vector":"1"}},{"base_weights":[1.2636147E-1,-1.3125907E0,4.3732455E-1,-5.65168E-1,-3.4290317E-1,-2.3515244E0,5.4162664E0,4.4237285E0,-3.6896856E0,2.7502277E0,2.9368517E-1,2.8039687E0,6.9622554E-2,2.1373264E-2,-3.9316392E0,4.45932E0,-8.421069E-2,6.3098907E-3,3.3346787E-2,-3.755412E-2,-6.900177E-2,1.5269178E-2,5.4697115E-2],"categories":[],"categories_nodes":[],"categories_segments":[],"categories_sizes":[],"default_left":[0,0,0,0,0,0,0,0,0,0,0,0,0,0,0,0,0,0,0,0,0,0,0],"id":30,"left_children":[1,3,-1,5,-1,7,9,11,13,15,-1,17,-1,-1,19,21,-1,-1,-1,-1,-1,-1,-1],"loss_changes":[5.892882E3,2.2236157E3,0E0,9.7438416E2,0E0,6.509687E2,1.26024E3,2.9819702E1,9.1585266E1,4.194078E2,0E0,8.274857E0,0E0,0E0,3.9058228E0,4.497998E1,0E0,0E0,0E0,0E0,0E0,0E0,0E0],"parents":[2147483647,0,0,1,1,3,3,5,5,6,6,7,7,8,8,9,9,11,11,14,14,15,15],"right_children":[2,4,-1,6,-1,8,10,12,14,16,-1,18,-1,-1,20,22,-1,-1,-1,-1,-1,-1,-1],"split_conditions":[5.8795077E-1,1.16693924E2,4.3732455E-1,4.1557524E-1,-3.4290317E-1,2.1885E3,1.2030247E-1,4.953741E-1,5.314E2,2.402842E1,2.9368517E-1,1.9688922E-1,6.9622554E-2,2.1373264E-2,4.0751612E-1,4.2E0,-8.421069E-2,6.3098907E-3,3.3346787E-2,-3.755412E-2,-6.900177E-2,1.5269178E-2,5.4697115E-2],"split_indices":[27,0,0,13,0,37,2,14,131,6,0,8,0,0,4,126,0,0,0,0,0,0,0],"split_type":[0,0,0,0,0,0,0,0,0,0,0,0,0,0,0,0,0,0,0,0,0,0,0],"sum_hessian":[9.2E1,9E1,2E0,8.9E1,1E0,6.9E1,2E1,1.1E1,5.8E1,1.9E1,1E0,8E0,3E0,2E0,5.6E1,1.7E1,2E0,2E0,6E0,5.5E1,1E0,5E0,1.2E1],"tree_param":{"num_deleted":"0","num_feature":"190","num_nodes":"23","size_leaf_vector":"1"}},{"base_weights":[1.29376E-1,-1.2998984E0,4.3440905E-1,-5.561447E-1,-3.4118864E-1,-2.327667E0,5.3754125E0,4.388596E0,-3.6542346E0,2.7220154E0,2.9221675E-1,2.7803345E0,6.910036E-2,2.12308E-2,-3.8941944E0,4.418616E0,-8.364926E-2,6.267827E-3,3.3060946E-2,-3.7185308E-2,-6.8656765E-2,1.5141957E-2,5.419224E-2],"categories":[],"categories_nodes":[],"categories_segments":[],"categories_sizes":[],"default_left":[0,0,0,0,0,0,0,0,0,0,0,0,0,0,0,0,0,0,0,0,0,0,0],"id":31,"left_children":[1,3,-1,5,-1,7,9,11,13,15,-1,17,-1,-1,19,21,-1,-1,-1,-1,-1,-1,-1],"loss_changes":[5.813547E3,2.202265E3,0E0,9.5822186E2,0E0,6.397074E2,1.2492039E3,2.9449417E1,9.006079E1,4.1316367E2,0E0,8.118065E0,0E0,0E0,4.2227173E0,4.410565E1,0E0,0E0,0E0,0E0,0E0,0E0,0E0],"parents":[2147483647,0,0,1,1,3,3,5,5,6,6,7,7,8,8,9,9,11,11,14,14,15,15],"right_children":[2,4,-1,6,-1,8,10,12,14,16,-1,18,-1,-1,20,22,-1,-1,-1,-1,-1,-1,-1],"split_conditions":[5.8795077E-1,1.16693924E2,4.3440905E-1,4.1557524E-1,-3.4118864E-1,2.1885E3,1.2030247E-1,4.953741E-1,5.314E2,2.402842E1,2.9221675E-1,1.9688922E-1,6.910036E-2,2.12308E-2,4.0751612E-1,4.2E0,-8.364926E-2,6.267827E-3,3.3060946E-2,-3.7185308E-2,-6.8656765E-2,1.5141957E-2,5.419224E-2],"split_indices":[27,0,0,13,0,37,2,14,131,6,0,8,0,0,4,126,0,0,0,0,0,0,0],"split_type":[0,0,0,0,0,0,0,0,0,0,0,0,0,0,0,0,0,0,0,0,0,0,0],"sum_hessian":[9.2E1,9E1,2E0,8.9E1,1E0,6.9E1,2E1,1.1E1,5.8E1,1.9E1,1E0,8E0,3E0,2E0,5.6E1,1.7E1,2E0,2E0,6E0,5.5E1,1E0,5E0,1.2E1],"tree_param":{"num_deleted":"0","num_feature":"190","num_nodes":"23","size_leaf_vector":"1"}},{"base_weights":[1.3232914E-1,-1.2873329E0,4.31513E-1,-5.4723054E-1,-3.3948272E-1,-2.3040495E0,5.3348913E0,4.353747E0,-3.619126E0,2.6940792E0,2.907557E-1,2.756902E0,6.858211E-2,2.1089248E-2,-3.8571088E0,4.3782816E0,-8.309161E-2,6.137059E-3,3.2815717E-2,-3.682009E-2,-6.831348E-2,1.5015754E-2,5.369201E-2],"categories":[],"categories_nodes":[],"categories_segments":[],"categories_sizes":[],"default_left":[0,0,0,0,0,0,0,0,0,0,0,0,0,0,0,0,0,0,0,0,0,0,0],"id":32,"left_children":[1,3,-1,5,-1,7,9,11,13,15,-1,17,-1,-1,19,21,-1,-1,-1,-1,-1,-1,-1],"loss_changes":[5.7352837E3,2.1811143E3,0E0,9.42336E2,0E0,6.286425E2,1.2382563E3,2.9083466E1,8.856189E1,4.070135E2,0E0,8.106308E0,0E0,0E0,4.5319214E0,4.324829E1,0E0,0E0,0E0,0E0,0E0,0E0,0E0],"parents":[2147483647,0,0,1,1,3,3,5,5,6,6,7,7,8,8,9,9,11,11,14,14,15,15],"right_children":[2,4,-1,6,-1,8,10,12,14,16,-1,18,-1,-1,20,22,-1,-1,-1,-1,-1,-1,-1],"split_conditions":[5.8795077E-1,1.16693924E2,4.31513E-1,4.1557524E-1,-3.3948272E-1,2.1885E3,1.2030247E-1,4.953741E-1,5.314E2,2.402842E1,2.907557E-1,-5.371E0,6.858211E-2,2.1089248E-2,4.0751612E-1,4.2E0,-8.309161E-2,6.137059E-3,3.2815717E-2,-3.682009E-2,-6.831348E-2,1.5015754E-2,5.369201E-2],"split_indices":[27,0,0,13,0,37,2,14,131,6,0,83,0,0,4,126,0,0,0,0,0,0,0],"split_type":[0,0,0,0,0,0,0,0,0,0,0,0,0,0,0,0,0,0,0,0,0,0,0],"sum_hessian":[9.2E1,9E1,2E0,8.9E1,1E0,6.9E1,2E1,1.1E1,5.8E1,1.9E1,1E0,8E0,3E0,2E0,5.6E1,1.7E1,2E0,2E0,6E0,5.5E1,1E0,5E0,1.2E1],"tree_param":{"num_deleted":"0","num_feature":"190","num_nodes":"23","size_leaf_vector":"1"}},{"base_weights":[1.3521929E-1,-1.2748954E0,4.2863628E-1,-5.38427E-1,-3.377853E-1,-2.2806737E0,5.2947016E0,4.3191724E0,-3.58436E0,2.6664174E0,2.893019E-1,2.7336628E0,6.806776E-2,2.0948665E-2,-3.8203828E0,4.3383136E0,-8.253766E-2,6.0961656E-3,3.253445E-2,-3.645847E-2,-6.7971915E-2,1.4890633E-2,5.3196356E-2],"categories":[],"categories_nodes":[],"categories_segments":[],"categories_sizes":[],"default_left":[0,0,0,0,0,0,0,0,0,0,0,0,0,0,0,0,0,0,0,0,0,0,0],"id":33,"left_children":[1,3,-1,5,-1,7,9,11,13,15,-1,17,-1,-1,19,21,-1,-1,-1,-1,-1,-1,-1],"loss_changes":[5.6580796E3,2.1601619E3,0E0,9.267229E2,0E0,6.177704E2,1.2273965E3,2.8722E1,8.70885E1,4.0095575E2,0E0,7.953026E0,0E0,0E0,4.833435E0,4.240732E1,0E0,0E0,0E0,0E0,0E0,0E0,0E0],"parents":[2147483647,0,0,1,1,3,3,5,5,6,6,7,7,8,8,9,9,11,11,14,14,15,15],"right_children":[2,4,-1,6,-1,8,10,12,14,16,-1,18,-1,-1,20,22,-1,-1,-1,-1,-1,-1,-1],"split_conditions":[5.8795077E-1,1.16693924E2,4.2863628E-1,4.1557524E-1,-3.377853E-1,2.1885E3,1.2030247E-1,4.953741E-1,5.314E2,2.402842E1,2.893019E-1,-5.371E0,6.806776E-2,2.0948665E-2,4.0751612E-1,4.2E0,-8.253766E-2,6.0961656E-3,3.253445E-2,-3.645847E-2,-6.7971915E-2,1.4890633E-2,5.3196356E-2],"split_indices":[27,0,0,13,0,37,2,14,131,6,0,83,0,0,4,126,0,0,0,0,0,0,0],"split_type":[0,0,0,0,0,0,0,0,0,0,0,0,0,0,0,0,0,0,0,0,0,0,0],"sum_hessian":[9.2E1,9E1,2E0,8.9E1,1E0,6.9E1,2E1,1.1E1,5.8E1,1.9E1,1E0,8E0,3E0,2E0,5.6E1,1.7E1,2E0,2E0,6E0,5.5E1,1E0,5E0,1.2E1],"tree_param":{"num_deleted":"0","num_feature":"190","num_nodes":"23","size_leaf_vector":"1"}},{"base_weights":[1.3804996E-1,-1.2625821E0,4.257787E-1,-5.297299E-1,-3.3609638E-1,-2.2575333E0,5.25484E0,4.2848735E0,-3.549929E0,2.6390278E0,2.8785542E-1,2.7106204E0,6.755724E-2,2.0808995E-2,-3.784009E0,4.2987103E0,-8.1987426E-2,5.9674326E-3,3.229336E-2,-3.6100373E-2,-6.7632064E-2,1.4766527E-2,5.270528E-2],"categories":[],"categories_nodes":[],"categories_segments":[],"categories_sizes":[],"default_left":[0,0,0,0,0,0,0,0,0,0,0,0,0,0,0,0,0,0,0,0,0,0,0],"id":34,"left_children":[1,3,-1,5,-1,7,9,11,13,15,-1,17,-1,-1,19,21,-1,-1,-1,-1,-1,-1,-1],"loss_changes":[5.5819175E3,2.1394065E3,0E0,9.1137695E2,0E0,6.070875E2,1.216624E3,2.836473E1,8.563989E1,3.949892E2,0E0,7.941437E0,0E0,0E0,5.1274414E0,4.1582733E1,0E0,0E0,0E0,0E0,0E0,0E0,0E0],"parents":[2147483647,0,0,1,1,3,3,5,5,6,6,7,7,8,8,9,9,11,11,14,14,15,15],"right_children":[2,4,-1,6,-1,8,10,12,14,16,-1,18,-1,-1,20,22,-1,-1,-1,-1,-1,-1,-1],"split_conditions":[5.8795077E-1,1.16693924E2,4.257787E-1,4.1557524E-1,-3.3609638E-1,2.1885E3,1.2030247E-1,4.953741E-1,5.314E2,2.402842E1,2.8785542E-1,1.9688922E-1,6.755724E-2,2.0808995E-2,4.0751612E-1,4.2E0,-8.1987426E-2,5.9674326E-3,3.229336E-2,-3.6100373E-2,-6.7632064E-2,1.4766527E-2,5.270528E-2],"split_indices":[27,0,0,13,0,37,2,14,131,6,0,8,0,0,4,126,0,0,0,0,0,0,0],"split_type":[0,0,0,0,0,0,0,0,0,0,0,0,0,0,0,0,0,0,0,0,0,0,0],"sum_hessian":[9.2E1,9E1,2E0,8.9E1,1E0,6.9E1,2E1,1.1E1,5.8E1,1.9E1,1E0,8E0,3E0,2E0,5.6E1,1.7E1,2E0,2E0,6E0,5.5E1,1E0,5E0,1.2E1],"tree_param":{"num_deleted":"0","num_feature":"190","num_nodes":"23","size_leaf_vector":"1"}},{"base_weights":[1.4082049E-1,-1.2503928E0,4.2294016E-1,-5.211396E-1,-3.3441588E-1,-2.2346294E0,5.215309E0,4.2508416E0,-3.5158331E0,2.6119132E0,2.864161E-1,2.6877644E0,6.7050554E-2,2.0670291E-2,-3.7479868E0,4.259474E0,-8.144086E-2,5.927658E-3,3.2016546E-2,-3.5745796E-2,-6.729389E-2,1.982851E-2,5.527974E-2],"categories":[],"categories_nodes":[],"categories_segments":[],"categories_sizes":[],"default_left":[0,0,0,0,0,0,0,0,0,0,0,0,0,0,0,0,0,0,0,0,0,0,0],"id":35,"left_children":[1,3,-1,5,-1,7,9,11,13,15,-1,17,-1,-1,19,21,-1,-1,-1,-1,-1,-1,-1],"loss_changes":[5.506784E3,2.1188457E3,0E0,8.962954E2,0E0,5.9658997E2,1.2059373E3,2.8011902E1,8.4216E1,3.8911267E2,0E0,7.791565E0,0E0,0E0,5.4140015E0,4.1020996E1,0E0,0E0,0E0,0E0,0E0,0E0,0E0],"parents":[2147483647,0,0,1,1,3,3,5,5,6,6,7,7,8,8,9,9,11,11,14,14,15,15],"right_children":[2,4,-1,6,-1,8,10,12,14,16,-1,18,-1,-1,20,22,-1,-1,-1,-1,-1,-1,-1],"split_conditions":[5.8795077E-1,1.16693924E2,4.2294016E-1,4.1557524E-1,-3.3441588E-1,2.1885E3,1.2030247E-1,4.953741E-1,5.314E2,2.402842E1,2.864161E-1,1.9688922E-1,6.7050554E-2,2.0670291E-2,4.0751612E-1,5.0232404E-1,-8.144086E-2,5.927658E-3,3.2016546E-2,-3.5745796E-2,-6.729389E-2,1.982851E-2,5.527974E-2],"split_indices":[27,0,0,13,0,37,2,14,131,6,0,8,0,0,4,14,0,0,0,0,0,0,0],"split_type":[0,0,0,0,0,0,0,0,0,0,0,0,0,0,0,0,0,0,0,0,0,0,0],"sum_hessian":[9.2E1,9E1,2E0,8.9E1,1E0,6.9E1,2E1,1.1E1,5.8E1,1.9E1,1E0,8E0,3E0,2E0,5.6E1,1.7E1,2E0,2E0,6E0,5.5E1,1E0,7E0,1E1],"tree_param":{"num_deleted":"0","num_feature":"190","num_nodes":"23","size_leaf_vector":"1"}},{"base_weights":[1.4361794E-1,-1.2382385E0,4.2012054E-1,-5.12566E-1,-3.327438E-1,-2.211961E0,5.176492E0,4.2170854E0,-3.4820728E0,2.5854764E0,2.8498405E-1,2.665105E0,6.65477E-2,2.0532506E-2,-3.7123168E0,4.22105E0,-8.0897905E-2,5.8015184E-3,3.177927E-2,-3.5394743E-2,-6.695744E-2,1.9655008E-2,5.477717E-2],"categories":[],"categories_nodes":[],"categories_segments":[],"categories_sizes":[],"default_left":[0,0,0,0,0,0,0,0,0,0,0,0,0,0,0,0,0,0,0,0,0,0,0],"id":36,"left_children":[1,3,-1,5,-1,7,9,11,13,15,-1,17,-1,-1,19,21,-1,-1,-1,-1,-1,-1,-1],"loss_changes":[5.432644E3,2.0984895E3,0E0,8.815664E2,0E0,5.8627673E2,1.1952944E3,2.7663193E1,8.2816345E1,3.833511E2,0E0,7.779213E0,0E0,0E0,5.6933594E0,4.025409E1,0E0,0E0,0E0,0E0,0E0,0E0,0E0],"parents":[2147483647,0,0,1,1,3,3,5,5,6,6,7,7,8,8,9,9,11,11,14,14,15,15],"right_children":[2,4,-1,6,-1,8,10,12,14,16,-1,18,-1,-1,20,22,-1,-1,-1,-1,-1,-1,-1],"split_conditions":[5.8795077E-1,1.16693924E2,4.2012054E-1,4.1557524E-1,-3.327438E-1,2.1885E3,1.2030247E-1,4.953741E-1,5.314E2,2.402842E1,2.8498405E-1,-5.371E0,6.65477E-2,2.0532506E-2,4.0751612E-1,5.0232404E-1,-8.0897905E-2,5.8015184E-3,3.177927E-2,-3.5394743E-2,-6.695744E-2,1.9655008E-2,5.477717E-2],"split_indices":[27,0,0,13,0,37,2,14,131,6,0,83,0,0,4,14,0,0,0,0,0,0,0],"split_type":[0,0,0,0,0,0,0,0,0,0,0,0,0,0,0,0,0,0,0,0,0,0,0],"sum_hessian":[9.2E1,9E1,2E0,8.9E1,1E0,6.9E1,2E1,1.1E1,5.8E1,1.9E1,1E0,8E0,3E0,2E0,5.6E1,1.7E1,2E0,2E0,6E0,5.5E1,1E0,7E0,1E1],"tree_param":{"num_deleted":"0","num_feature":"190","num_nodes":"23","size_leaf_vector":"1"}},{"base_weights":[1.4635484E-1,-1.226208E0,4.1731974E-1,-5.0409895E-1,-3.3108008E-1,-2.1895242E0,5.1379895E0,4.1835933E0,-3.4486408E0,2.5592976E0,2.8355914E-1,2.6426325E0,6.604856E-2,2.0395633E-2,-3.6769912E0,4.182974E0,-8.035861E-2,5.762863E-3,3.1506903E-2,-3.5047136E-2,-6.662266E-2,1.4314486E-2,5.1311415E-2],"categories":[],"categories_nodes":[],"categories_segments":[],"categories_sizes":[],"default_left":[0,0,0,0,0,0,0,0,0,0,0,0,0,0,0,0,0,0,0,0,0,0,0],"id":37,"left_children":[1,3,-1,5,-1,7,9,11,13,15,-1,17,-1,-1,19,21,-1,-1,-1,-1,-1,-1,-1],"loss_changes":[5.3595073E3,2.0783245E3,0E0,8.670884E2,0E0,5.761426E2,1.1847383E3,2.7318665E1,8.1440186E1,3.7767603E2,0E0,7.6327133E0,0E0,0E0,5.965515E0,3.9615417E1,0E0,0E0,0E0,0E0,0E0,0E0,0E0],"parents":[2147483647,0,0,1,1,3,3,5,5,6,6,7,7,8,8,9,9,11,11,14,14,15,15],"right_children":[2,4,-1,6,-1,8,10,12,14,16,-1,18,-1,-1,20,22,-1,-1,-1,-1,-1,-1,-1],"split_conditions":[5.8795077E-1,1.16693924E2,4.1731974E-1,4.1557524E-1,-3.3108008E-1,2.1885E3,1.2030247E-1,4.953741E-1,5.314E2,2.402842E1,2.8355914E-1,-5.371E0,6.604856E-2,2.0395633E-2,4.0751612E-1,4.2E0,-8.035861E-2,5.762863E-3,3.1506903E-2,-3.5047136E-2,-6.662266E-2,1.4314486E-2,5.1311415E-2],"split_indices":[27,0,0,13,0,37,2,14,131,6,0,83,0,0,4,126,0,0,0,0,0,0,0],"split_type":[0,0,0,0,0,0,0,0,0,0,0,0,0,0,0,0,0,0,0,0,0,0,0],"sum_hessian":[9.2E1,9E1,2E0,8.9E1,1E0,6.9E1,2E1,1.1E1,5.8E1,1.9E1,1E0,8E0,3E0,2E0,5.6E1,1.7E1,2E0,2E0,6E0,5.5E1,1E0,5E0,1.2E1],"tree_param":{"num_deleted":"0","num_feature":"190","num_nodes":"23","size_leaf_vector":"1"}},{"base_weights":[1.4894809E-1,-1.2143859E0,4.145376E-1,-4.958241E-1,-3.294247E-1,-2.1673121E0,5.0994134E0,4.1503663E0,-3.4155297E0,2.532971E0,2.8214133E-1,2.620346E0,6.55532E-2,2.0259678E-2,-3.6420028E0,4.144793E0,-7.982287E-2,5.6386567E-3,3.1273596E-2,-3.4702897E-2,-6.628956E-2,1.9265318E-2,5.3812746E-2],"categories":[],"categories_nodes":[],"categories_segments":[],"categories_sizes":[],"default_left":[0,0,0,0,0,0,0,0,0,0,0,0,0,0,0,0,0,0,0,0,0,0,0],"id":38,"left_children":[1,3,-1,5,-1,7,9,11,13,15,-1,17,-1,-1,19,21,-1,-1,-1,-1,-1,-1,-1],"loss_changes":[5.2873804E3,2.058338E3,0E0,8.527656E2,0E0,5.661844E2,1.1743091E3,2.6978333E1,8.00874E1,3.720595E2,0E0,7.6205673E0,0E0,0E0,6.230774E0,3.9003906E1,0E0,0E0,0E0,0E0,0E0,0E0,0E0],"parents":[2147483647,0,0,1,1,3,3,5,5,6,6,7,7,8,8,9,9,11,11,14,14,15,15],"right_children":[2,4,-1,6,-1,8,10,12,14,16,-1,18,-1,-1,20,22,-1,-1,-1,-1,-1,-1,-1],"split_conditions":[5.8795077E-1,1.16693924E2,4.145376E-1,4.1557524E-1,-3.294247E-1,2.1885E3,1.2030247E-1,4.953741E-1,5.314E2,2.402842E1,2.8214133E-1,1.9688922E-1,6.55532E-2,2.0259678E-2,4.0751612E-1,5.0232404E-1,-7.982287E-2,5.6386567E-3,3.1273596E-2,-3.4702897E-2,-6.628956E-2,1.9265318E-2,5.3812746E-2],"split_indices":[27,0,0,13,0,37,2,14,131,6,0,8,0,0,4,14,0,0,0,0,0,0,0],"split_type":[0,0,0,0,0,0,0,0,0,0,0,0,0,0,0,0,0,0,0,0,0,0,0],"sum_hessian":[9.2E1,9E1,2E0,8.9E1,1E0,6.9E1,2E1,1.1E1,5.8E1,1.9E1,1E0,8E0,3E0,2E0,5.6E1,1.7E1,2E0,2E0,6E0,5.5E1,1E0,7E0,1E1],"tree_param":{"num_deleted":"0","num_feature":"190","num_nodes":"23","size_leaf_vector":"1"}},{"base_weights":[1.5157129E-1,-1.2025943E0,4.11774E-1,-4.875618E-1,-3.277776E-1,-2.145326E0,5.0615354E0,4.1174026E0,-3.3827395E0,2.5073059E0,2.8073063E-1,2.5982447E0,6.506157E-2,2.0124638E-2,-3.6073513E0,4.107407E0,-7.9290695E-2,5.6010694E-3,3.100554E-2,-3.4362037E-2,-6.59581E-2,1.4034677E-2,5.0394244E-2],"categories":[],"categories_nodes":[],"categories_segments":[],"categories_sizes":[],"default_left":[0,0,0,0,0,0,0,0,0,0,0,0,0,0,0,0,0,0,0,0,0,0,0],"id":39,"left_children":[1,3,-1,5,-1,7,9,11,13,15,-1,17,-1,-1,19,21,-1,-1,-1,-1,-1,-1,-1],"loss_changes":[5.2162065E3,2.0385503E3,0E0,8.3877704E2,0E0,5.563992E2,1.1639235E3,2.664215E1,7.8757385E1,3.6655304E2,0E0,7.4773483E0,0E0,0E0,6.489197E0,3.828949E1,0E0,0E0,0E0,0E0,0E0,0E0,0E0],"parents":[2147483647,0,0,1,1,3,3,5,5,6,6,7,7,8,8,9,9,11,11,14,14,15,15],"right_children":[2,4,-1,6,-1,8,10,12,14,16,-1,18,-1,-1,20,22,-1,-1,-1,-1,-1,-1,-1],"split_conditions":[5.8795077E-1,1.16693924E2,4.11774E-1,4.1557524E-1,-3.277776E-1,2.1885E3,1.2030247E-1,4.953741E-1,5.314E2,2.402842E1,2.8073063E-1,1.9688922E-1,6.506157E-2,2.0124638E-2,4.0751612E-1,4.2E0,-7.9290695E-2,5.6010694E-3,3.100554E-2,-3.4362037E-2,-6.59581E-2,1.4034677E-2,5.0394244E-2],"split_indices":[27,0,0,13,0,37,2,14,131,6,0,8,0,0,4,126,0,0,0,0,0,0,0],"split_type":[0,0,0,0,0,0,0,0,0,0,0,0,0,0,0,0,0,0,0,0,0,0,0],"sum_hessian":[9.2E1,9E1,2E0,8.9E1,1E0,6.9E1,2E1,1.1E1,5.8E1,1.9E1,1E0,8E0,3E0,2E0,5.6E1,1.7E1,2E0,2E0,6E0,5.5E1,1E0,5E0,1.2E1],"tree_param":{"num_deleted":"0","num_feature":"190","num_nodes":"23","size_leaf_vector":"1"}},{"base_weights":[1.5404887E-1,-1.1910123E0,4.090289E-1,-4.7949302E-1,-3.261387E-1,-2.1235654E0,5.023581E0,4.0847E0,-3.3502707E0,2.4814904E0,2.7932698E-1,2.5763295E0,6.457359E-2,1.9990463E-2,-3.5730371E0,4.069913E0,-7.876208E-2,5.479405E-3,3.0775921E-2,-3.4024544E-2,-6.562832E-2,1.8883036E-2,5.2865453E-2],"categories":[],"categories_nodes":[],"categories_segments":[],"categories_sizes":[],"default_left":[0,0,0,0,0,0,0,0,0,0,0,0,0,0,0,0,0,0,0,0,0,0,0],"id":40,"left_children":[1,3,-1,5,-1,7,9,11,13,15,-1,17,-1,-1,19,21,-1,-1,-1,-1,-1,-1,-1],"loss_changes":[5.146016E3,2.018937E3,0E0,8.2493854E2,0E0,5.467848E2,1.1536633E3,2.6309906E1,7.744989E1,3.6110352E2,0E0,7.4644623E0,0E0,0E0,6.7407227E0,3.7793304E1,0E0,0E0,0E0,0E0,0E0,0E0,0E0],"parents":[2147483647,0,0,1,1,3,3,5,5,6,6,7,7,8,8,9,9,11,11,14,14,15,15],"right_children":[2,4,-1,6,-1,8,10,12,14,16,-1,18,-1,-1,20,22,-1,-1,-1,-1,-1,-1,-1],"split_conditions":[5.8795077E-1,1.16693924E2,4.090289E-1,4.1557524E-1,-3.261387E-1,2.1885E3,1.2030247E-1,4.953741E-1,5.314E2,2.402842E1,2.7932698E-1,-5.371E0,6.457359E-2,1.9990463E-2,4.0751612E-1,5.0232404E-1,-7.876208E-2,5.479405E-3,3.0775921E-2,-3.4024544E-2,-6.562832E-2,1.8883036E-2,5.2865453E-2],"split_indices":[27,0,0,13,0,37,2,14,131,6,0,83,0,0,4,14,0,0,0,0,0,0,0],"split_type":[0,0,0,0,0,0,0,0,0,0,0,0,0,0,0,0,0,0,0,0,0,0,0],"sum_hessian":[9.2E1,9E1,2E0,8.9E1,1E0,6.9E1,2E1,1.1E1,5.8E1,1.9E1,1E0,8E0,3E0,2E0,5.6E1,1.7E1,2E0,2E0,6E0,5.5E1,1E0,7E0,1E1],"tree_param":{"num_deleted":"0","num_feature":"190","num_nodes":"23","size_leaf_vector":"1"}},{"base_weights":[1.5655714E-1,-1.1794593E0,4.0630203E-1,-4.7143546E-1,-3.24508E-1,-2.1020253E0,4.986314E0,4.052255E0,-3.318116E0,2.456326E0,2.7793032E-1,2.5545943E0,6.4089276E-2,1.9857202E-2,-3.5390525E0,4.0332007E0,-7.8236975E-2,5.442886E-3,3.0512117E-2,-3.369035E-2,-6.5300174E-2,1.8717812E-2,5.2384872E-2],"categories":[],"categories_nodes":[],"categories_segments":[],"categories_sizes":[],"default_left":[0,0,0,0,0,0,0,0,0,0,0,0,0,0,0,0,0,0,0,0,0,0,0],"id":41,"left_children":[1,3,-1,5,-1,7,9,11,13,15,-1,17,-1,-1,19,21,-1,-1,-1,-1,-1,-1,-1],"loss_changes":[5.0767534E3,1.9995195E3,0E0,8.114229E2,0E0,5.3733716E2,1.1434464E3,2.598175E1,7.616455E1,3.557607E2,0E0,7.32444E0,0E0,0E0,6.9855957E0,3.7087067E1,0E0,0E0,0E0,0E0,0E0,0E0,0E0],"parents":[2147483647,0,0,1,1,3,3,5,5,6,6,7,7,8,8,9,9,11,11,14,14,15,15],"right_children":[2,4,-1,6,-1,8,10,12,14,16,-1,18,-1,-1,20,22,-1,-1,-1,-1,-1,-1,-1],"split_conditions":[5.8795077E-1,1.16693924E2,4.0630203E-1,4.1557524E-1,-3.24508E-1,2.1885E3,1.2030247E-1,4.953741E-1,5.314E2,2.402842E1,2.7793032E-1,1.9688922E-1,6.4089276E-2,1.9857202E-2,4.0751612E-1,5.0232404E-1,-7.8236975E-2,5.442886E-3,3.0512117E-2,-3.369035E-2,-6.5300174E-2,1.8717812E-2,5.2384872E-2],"split_indices":[27,0,0,13,0,37,2,14,131,6,0,8,0,0,4,14,0,0,0,0,0,0,0],"split_type":[0,0,0,0,0,0,0,0,0,0,0,0,0,0,0,0,0,0,0,0,0,0,0],"sum_hessian":[9.2E1,9E1,2E0,8.9E1,1E0,6.9E1,2E1,1.1E1,5.8E1,1.9E1,1E0,8E0,3E0,2E0,5.6E1,1.7E1,2E0,2E0,6E0,5.5E1,1E0,7E0,1E1],"tree_param":{"num_deleted":"0","num_feature":"190","num_nodes":"23","size_leaf_vector":"1"}},{"base_weights":[1.5900896E-1,-1.1680238E0,4.0359333E-1,-4.634786E-1,-3.2288545E-1,-2.0807052E0,4.9493475E0,4.0200715E0,-3.2862751E0,2.431408E0,2.7654067E-1,2.5330455E0,6.3608624E-2,1.9724807E-2,-3.5053978E0,3.9968207E0,-7.7715375E-2,5.3230543E-3,3.0286418E-2,-3.3359453E-2,-6.4973675E-2,1.3604379E-2,4.906165E-2],"categories":[],"categories_nodes":[],"categories_segments":[],"categories_sizes":[],"default_left":[0,0,0,0,0,0,0,0,0,0,0,0,0,0,0,0,0,0,0,0,0,0,0],"id":42,"left_children":[1,3,-1,5,-1,7,9,11,13,15,-1,17,-1,-1,19,21,-1,-1,-1,-1,-1,-1,-1],"loss_changes":[5.008426E3,1.9802842E3,0E0,7.981371E2,0E0,5.28055E2,1.133313E3,2.5657455E1,7.490076E1,3.5049786E2,0E0,7.3118744E0,0E0,0E0,7.223999E0,3.6478302E1,0E0,0E0,0E0,0E0,0E0,0E0,0E0],"parents":[2147483647,0,0,1,1,3,3,5,5,6,6,7,7,8,8,9,9,11,11,14,14,15,15],"right_children":[2,4,-1,6,-1,8,10,12,14,16,-1,18,-1,-1,20,22,-1,-1,-1,-1,-1,-1,-1],"split_conditions":[5.8795077E-1,1.16693924E2,4.0359333E-1,4.1557524E-1,-3.2288545E-1,2.1885E3,1.2030247E-1,4.953741E-1,5.314E2,2.402842E1,2.7654067E-1,-5.371E0,6.3608624E-2,1.9724807E-2,4.0751612E-1,4.2E0,-7.7715375E-2,5.3230543E-3,3.0286418E-2,-3.3359453E-2,-6.4973675E-2,1.3604379E-2,4.906165E-2],"split_indices":[27,0,0,13,0,37,2,14,131,6,0,83,0,0,4,126,0,0,0,0,0,0,0],"split_type":[0,0,0,0,0,0,0,0,0,0,0,0,0,0,0,0,0,0,0,0,0,0,0],"sum_hessian":[9.2E1,9E1,2E0,8.9E1,1E0,6.9E1,2E1,1.1E1,5.8E1,1.9E1,1E0,8E0,3E0,2E0,5.6E1,1.7E1,2E0,2E0,6E0,5.5E1,1E0,5E0,1.2E1],"tree_param":{"num_deleted":"0","num_feature":"190","num_nodes":"23","size_leaf_vector":"1"}},{"base_weights":[1.6131732E-1,-1.1567945E0,4.009027E-1,-4.5571214E-1,-3.2127106E-1,-2.0596068E0,4.912304E0,3.9881382E0,-3.254748E0,2.4063396E0,2.7515796E-1,2.5116696E0,6.313158E-2,1.9593328E-2,-3.4720726E0,3.9603322E0,-7.719729E-2,5.287552E-3,3.0026799E-2,-3.303185E-2,-6.4648814E-2,1.8346377E-2,5.1462617E-2],"categories":[],"categories_nodes":[],"categories_segments":[],"categories_sizes":[],"default_left":[0,0,0,0,0,0,0,0,0,0,0,0,0,0,0,0,0,0,0,0,0,0,0],"id":43,"left_children":[1,3,-1,5,-1,7,9,11,13,15,-1,17,-1,-1,19,21,-1,-1,-1,-1,-1,-1,-1],"loss_changes":[4.9410435E3,1.9612186E3,0E0,7.8499335E2,0E0,5.189341E2,1.1233022E3,2.533725E1,7.365863E1,3.452894E2,0E0,7.175007E0,0E0,0E0,7.4558105E0,3.593512E1,0E0,0E0,0E0,0E0,0E0,0E0,0E0],"parents":[2147483647,0,0,1,1,3,3,5,5,6,6,7,7,8,8,9,9,11,11,14,14,15,15],"right_children":[2,4,-1,6,-1,8,10,12,14,16,-1,18,-1,-1,20,22,-1,-1,-1,-1,-1,-1,-1],"split_conditions":[5.8795077E-1,1.16693924E2,4.009027E-1,4.1557524E-1,-3.2127106E-1,2.1885E3,1.2030247E-1,4.953741E-1,5.314E2,2.402842E1,2.7515796E-1,-5.371E0,6.313158E-2,1.9593328E-2,4.0751612E-1,5.0232404E-1,-7.719729E-2,5.287552E-3,3.0026799E-2,-3.303185E-2,-6.4648814E-2,1.8346377E-2,5.1462617E-2],"split_indices":[27,0,0,13,0,37,2,14,131,6,0,83,0,0,4,14,0,0,0,0,0,0,0],"split_type":[0,0,0,0,0,0,0,0,0,0,0,0,0,0,0,0,0,0,0,0,0,0,0],"sum_hessian":[9.2E1,9E1,2E0,8.9E1,1E0,6.9E1,2E1,1.1E1,5.8E1,1.9E1,1E0,8E0,3E0,2E0,5.6E1,1.7E1,2E0,2E0,6E0,5.5E1,1E0,7E0,1E1],"tree_param":{"num_deleted":"0","num_feature":"190","num_nodes":"23","size_leaf_vector":"1"}},{"base_weights":[1.6366044E-1,-1.1455889E0,3.9823002E-1,-4.4795167E-1,-3.196647E-1,-2.0387175E0,4.8759317E0,3.956459E0,-3.2235208E0,2.381907E0,2.7378216E-1,2.4904752E0,6.265808E-2,1.9462712E-2,-3.439062E0,3.9246075E0,-7.6682664E-2,5.170186E-3,2.9804599E-2,-3.2707397E-2,-6.432556E-2,1.8185824E-2,5.0994795E-2],"categories":[],"categories_nodes":[],"categories_segments":[],"categories_sizes":[],"default_left":[0,0,0,0,0,0,0,0,0,0,0,0,0,0,0,0,0,0,0,0,0,0,0],"id":44,"left_children":[1,3,-1,5,-1,7,9,11,13,15,-1,17,-1,-1,19,21,-1,-1,-1,-1,-1,-1,-1],"loss_changes":[4.87455E3,1.9423438E3,0E0,7.721553E2,0E0,5.0997113E2,1.1133341E3,2.5020798E1,7.2437256E1,3.401831E2,0E0,7.161724E0,0E0,0E0,7.6815186E0,3.5263763E1,0E0,0E0,0E0,0E0,0E0,0E0,0E0],"parents":[2147483647,0,0,1,1,3,3,5,5,6,6,7,7,8,8,9,9,11,11,14,14,15,15],"right_children":[2,4,-1,6,-1,8,10,12,14,16,-1,18,-1,-1,20,22,-1,-1,-1,-1,-1,-1,-1],"split_conditions":[5.8795077E-1,1.16693924E2,3.9823002E-1,4.1557524E-1,-3.196647E-1,2.1885E3,1.2030247E-1,4.953741E-1,5.314E2,2.402842E1,2.7378216E-1,1.9688922E-1,6.265808E-2,1.9462712E-2,4.0751612E-1,5.0232404E-1,-7.6682664E-2,5.170186E-3,2.9804599E-2,-3.2707397E-2,-6.432556E-2,1.8185824E-2,5.0994795E-2],"split_indices":[27,0,0,13,0,37,2,14,131,6,0,8,0,0,4,14,0,0,0,0,0,0,0],"split_type":[0,0,0,0,0,0,0,0,0,0,0,0,0,0,0,0,0,0,0,0,0,0,0],"sum_hessian":[9.2E1,9E1,2E0,8.9E1,1E0,6.9E1,2E1,1.1E1,5.8E1,1.9E1,1E0,8E0,3E0,2E0,5.6E1,1.7E1,2E0,2E0,6E0,5.5E1,1E0,7E0,1E1],"tree_param":{"num_deleted":"0","num_feature":"190","num_nodes":"23","size_leaf_vector":"1"}},{"base_weights":[1.6594687E-1,-1.1344999E0,3.9557514E-1,-4.4029126E-1,-3.1806636E-1,-2.0180442E0,4.839852E0,3.9250278E0,-3.1926005E0,2.3577118E0,2.7241325E-1,2.4694536E0,6.218813E-2,1.9332962E-2,-3.406374E0,3.8892038E0,-7.617144E-2,5.135701E-3,2.9549101E-2,-3.2386165E-2,-6.4003944E-2,1.3186544E-2,4.7764413E-2],"categories":[],"categories_nodes":[],"categories_segments":[],"categories_sizes":[],"default_left":[0,0,0,0,0,0,0,0,0,0,0,0,0,0,0,0,0,0,0,0,0,0,0],"id":45,"left_children":[1,3,-1,5,-1,7,9,11,13,15,-1,17,-1,-1,19,21,-1,-1,-1,-1,-1,-1,-1],"loss_changes":[4.808955E3,1.9236462E3,0E0,7.595356E2,0E0,5.0116418E2,1.1034482E3,2.4708221E1,7.123657E1,3.351529E2,0E0,7.02792E0,0E0,0E0,7.90094E0,3.4753937E1,0E0,0E0,0E0,0E0,0E0,0E0,0E0],"parents":[2147483647,0,0,1,1,3,3,5,5,6,6,7,7,8,8,9,9,11,11,14,14,15,15],"right_children":[2,4,-1,6,-1,8,10,12,14,16,-1,18,-1,-1,20,22,-1,-1,-1,-1,-1,-1,-1],"split_conditions":[5.8795077E-1,1.16693924E2,3.9557514E-1,4.1557524E-1,-3.1806636E-1,2.1885E3,1.2030247E-1,4.953741E-1,5.314E2,2.402842E1,2.7241325E-1,1.9688922E-1,6.218813E-2,1.9332962E-2,4.0751612E-1,4.2E0,-7.617144E-2,5.135701E-3,2.9549101E-2,-3.2386165E-2,-6.4003944E-2,1.3186544E-2,4.7764413E-2],"split_indices":[27,0,0,13,0,37,2,14,131,6,0,8,0,0,4,126,0,0,0,0,0,0,0],"split_type":[0,0,0,0,0,0,0,0,0,0,0,0,0,0,0,0,0,0,0,0,0,0,0],"sum_hessian":[9.2E1,9E1,2E0,8.9E1,1E0,6.9E1,2E1,1.1E1,5.8E1,1.9E1,1E0,8E0,3E0,2E0,5.6E1,1.7E1,2E0,2E0,6E0,5.5E1,1E0,5E0,1.2E1],"tree_param":{"num_deleted":"0","num_feature":"190","num_nodes":"23","size_leaf_vector":"1"}},{"base_weights":[1.680996E-1,-1.1236058E0,3.9293796E-1,-4.328103E-1,-3.1647602E-1,-1.9975802E0,4.8036995E0,3.893851E0,-3.1619802E0,2.3333726E0,2.7105117E-1,2.4486134E0,6.1721724E-2,1.9204076E-2,-3.3740008E0,3.8536966E0,-7.5663626E-2,5.020091E-3,2.9330706E-2,-3.206808E-2,-6.368393E-2,1.7824858E-2,5.0096955E-2],"categories":[],"categories_nodes":[],"categories_segments":[],"categories_sizes":[],"default_left":[0,0,0,0,0,0,0,0,0,0,0,0,0,0,0,0,0,0,0,0,0,0,0],"id":46,"left_children":[1,3,-1,5,-1,7,9,11,13,15,-1,17,-1,-1,19,21,-1,-1,-1,-1,-1,-1,-1],"loss_changes":[4.7442666E3,1.9051141E3,0E0,7.470497E2,0E0,4.9251102E2,1.0936814E3,2.4399338E1,7.005615E1,3.301746E2,0E0,7.0149918E0,0E0,0E0,8.114319E0,3.4168E1,0E0,0E0,0E0,0E0,0E0,0E0,0E0],"parents":[2147483647,0,0,1,1,3,3,5,5,6,6,7,7,8,8,9,9,11,11,14,14,15,15],"right_children":[2,4,-1,6,-1,8,10,12,14,16,-1,18,-1,-1,20,22,-1,-1,-1,-1,-1,-1,-1],"split_conditions":[5.8795077E-1,1.16693924E2,3.9293796E-1,4.1557524E-1,-3.1647602E-1,2.1885E3,1.2030247E-1,4.953741E-1,5.314E2,2.402842E1,2.7105117E-1,-5.371E0,6.1721724E-2,1.9204076E-2,4.0751612E-1,5.0232404E-1,-7.5663626E-2,5.020091E-3,2.9330706E-2,-3.206808E-2,-6.368393E-2,1.7824858E-2,5.0096955E-2],"split_indices":[27,0,0,13,0,37,2,14,131,6,0,83,0,0,4,14,0,0,0,0,0,0,0],"split_type":[0,0,0,0,0,0,0,0,0,0,0,0,0,0,0,0,0,0,0,0,0,0,0],"sum_hessian":[9.2E1,9E1,2E0,8.9E1,1E0,6.9E1,2E1,1.1E1,5.8E1,1.9E1,1E0,8E0,3E0,2E0,5.6E1,1.7E1,2E0,2E0,6E0,5.5E1,1E0,7E0,1E1],"tree_param":{"num_deleted":"0","num_feature":"190","num_nodes":"23","size_leaf_vector":"1"}},{"base_weights":[1.702816E-1,-1.1127399E0,3.903184E-1,-4.2534003E-1,-3.1489363E-1,-1.9773265E0,4.768203E0,3.86292E0,-3.1316593E0,2.3096535E0,2.6969594E-1,2.4279463E0,6.125881E-2,1.9076055E-2,-3.3419423E0,3.8189354E0,-7.515922E-2,4.9866233E-3,2.9079327E-2,-3.1753145E-2,-6.336551E-2,1.2928162E-2,4.691072E-2],"categories":[],"categories_nodes":[],"categories_segments":[],"categories_sizes":[],"default_left":[0,0,0,0,0,0,0,0,0,0,0,0,0,0,0,0,0,0,0,0,0,0,0],"id":47,"left_children":[1,3,-1,5,-1,7,9,11,13,15,-1,17,-1,-1,19,21,-1,-1,-1,-1,-1,-1,-1],"loss_changes":[4.680432E3,1.8867671E3,0E0,7.34856E2,0E0,4.840085E2,1.0839569E3,2.4094162E1,6.889569E1,3.2529413E2,0E0,6.884197E0,0E0,0E0,8.321655E0,3.359149E1,0E0,0E0,0E0,0E0,0E0,0E0,0E0],"parents":[2147483647,0,0,1,1,3,3,5,5,6,6,7,7,8,8,9,9,11,11,14,14,15,15],"right_children":[2,4,-1,6,-1,8,10,12,14,16,-1,18,-1,-1,20,22,-1,-1,-1,-1,-1,-1,-1],"split_conditions":[5.8795077E-1,1.16693924E2,3.903184E-1,4.1557524E-1,-3.1489363E-1,2.1885E3,1.2030247E-1,4.953741E-1,5.314E2,2.402842E1,2.6969594E-1,-5.371E0,6.125881E-2,1.9076055E-2,4.0751612E-1,4.2E0,-7.515922E-2,4.9866233E-3,2.9079327E-2,-3.1753145E-2,-6.336551E-2,1.2928162E-2,4.691072E-2],"split_indices":[27,0,0,13,0,37,2,14,131,6,0,83,0,0,4,126,0,0,0,0,0,0,0],"split_type":[0,0,0,0,0,0,0,0,0,0,0,0,0,0,0,0,0,0,0,0,0,0,0],"sum_hessian":[9.2E1,9E1,2E0,8.9E1,1E0,6.9E1,2E1,1.1E1,5.8E1,1.9E1,1E0,8E0,3E0,2E0,5.6E1,1.7E1,2E0,2E0,6E0,5.5E1,1E0,5E0,1.2E1],"tree_param":{"num_deleted":"0","num_feature":"190","num_nodes":"23","size_leaf_vector":"1"}},{"base_weights":[1.7233227E-1,-1.1020657E0,3.8771623E-1,-4.1804606E-1,-3.1331915E-1,-1.9572772E0,4.732631E0,3.8322365E0,-3.1016312E0,2.2857883E0,2.6834744E-1,2.4074538E0,6.0799386E-2,1.8948898E-2,-3.3101914E0,3.7840679E0,-7.465818E-2,4.873428E-3,2.8864363E-2,-3.144128E-2,-6.3048705E-2,1.7470807E-2,4.9215067E-2],"categories":[],"categories_nodes":[],"categories_segments":[],"categories_sizes":[],"default_left":[0,0,0,0,0,0,0,0,0,0,0,0,0,0,0,0,0,0,0,0,0,0,0],"id":48,"left_children":[1,3,-1,5,-1,7,9,11,13,15,-1,17,-1,-1,19,21,-1,-1,-1,-1,-1,-1,-1],"loss_changes":[4.6174795E3,1.8685828E3,0E0,7.227905E2,0E0,4.7565396E2,1.0743497E3,2.3792679E1,6.775488E1,3.2046375E2,0E0,6.870617E0,0E0,0E0,8.523254E0,3.310678E1,0E0,0E0,0E0,0E0,0E0,0E0,0E0],"parents":[2147483647,0,0,1,1,3,3,5,5,6,6,7,7,8,8,9,9,11,11,14,14,15,15],"right_children":[2,4,-1,6,-1,8,10,12,14,16,-1,18,-1,-1,20,22,-1,-1,-1,-1,-1,-1,-1],"split_conditions":[5.8795077E-1,1.16693924E2,3.8771623E-1,4.1557524E-1,-3.1331915E-1,2.1885E3,1.2030247E-1,4.953741E-1,5.314E2,2.402842E1,2.6834744E-1,1.9688922E-1,6.0799386E-2,1.8948898E-2,4.0751612E-1,5.0232404E-1,-7.465818E-2,4.873428E-3,2.8864363E-2,-3.144128E-2,-6.3048705E-2,1.7470807E-2,4.9215067E-2],"split_indices":[27,0,0,13,0,37,2,14,131,6,0,8,0,0,4,14,0,0,0,0,0,0,0],"split_type":[0,0,0,0,0,0,0,0,0,0,0,0,0,0,0,0,0,0,0,0,0,0,0],"sum_hessian":[9.2E1,9E1,2E0,8.9E1,1E0,6.9E1,2E1,1.1E1,5.8E1,1.9E1,1E0,8E0,3E0,2E0,5.6E1,1.7E1,2E0,2E0,6E0,5.5E1,1E0,7E0,1E1],"tree_param":{"num_deleted":"0","num_feature":"190","num_nodes":"23","size_leaf_vector":"1"}},{"base_weights":[1.7441238E-1,-1.0914186E0,3.8513148E-1,-4.1076195E-1,-3.117526E-1,-1.9374332E0,4.697703E0,3.8017933E0,-3.0718958E0,2.2625308E0,2.6700568E-1,2.387129E0,6.0343396E-2,1.8822554E-2,-3.2787478E0,3.7499304E0,-7.4160434E-2,4.8409016E-3,2.8616985E-2,-3.1132486E-2,-6.273346E-2,1.7317934E-2,4.8767637E-2],"categories":[],"categories_nodes":[],"categories_segments":[],"categories_sizes":[],"default_left":[0,0,0,0,0,0,0,0,0,0,0,0,0,0,0,0,0,0,0,0,0,0,0],"id":49,"left_children":[1,3,-1,5,-1,7,9,11,13,15,-1,17,-1,-1,19,21,-1,-1,-1,-1,-1,-1,-1],"loss_changes":[4.555358E3,1.8505801E3,0E0,7.110067E2,0E0,4.6744437E2,1.064785E3,2.3494888E1,6.663318E1,3.1572778E2,0E0,6.7428017E0,0E0,0E0,8.718872E0,3.2488327E1,0E0,0E0,0E0,0E0,0E0,0E0,0E0],"parents":[2147483647,0,0,1,1,3,3,5,5,6,6,7,7,8,8,9,9,11,11,14,14,15,15],"right_children":[2,4,-1,6,-1,8,10,12,14,16,-1,18,-1,-1,20,22,-1,-1,-1,-1,-1,-1,-1],"split_conditions":[5.8795077E-1,1.16693924E2,3.8513148E-1,4.1557524E-1,-3.117526E-1,2.1885E3,1.2030247E-1,4.953741E-1,5.314E2,2.402842E1,2.6700568E-1,-5.371E0,6.0343396E-2,1.8822554E-2,4.0751612E-1,5.0232404E-1,-7.4160434E-2,4.8409016E-3,2.8616985E-2,-3.1132486E-2,-6.273346E-2,1.7317934E-2,4.8767637E-2],"split_indices":[27,0,0,13,0,37,2,14,131,6,0,83,0,0,4,14,0,0,0,0,0,0,0],"split_type":[0,0,0,0,0,0,0,0,0,0,0,0,0,0,0,0,0,0,0,0,0,0,0],"sum_hessian":[9.2E1,9E1,2E0,8.9E1,1E0,6.9E1,2E1,1.1E1,5.8E1,1.9E1,1E0,8E0,3E0,2E0,5.6E1,1.7E1,2E0,2E0,6E0,5.5E1,1E0,7E0,1E1],"tree_param":{"num_deleted":"0","num_feature":"190","num_nodes":"23","size_leaf_vector":"1"}},{"base_weights":[1.7644492E-1,-1.080877E0,3.8256392E-1,-4.0356708E-1,-3.101938E-1,-1.9177886E0,4.6630554E0,3.771592E0,-3.042446E0,2.2395015E0,2.6567066E-1,2.3669739E0,5.989084E-2,1.8697077E-2,-3.247604E0,3.7161026E0,-7.366605E-2,4.7293855E-3,2.8405642E-2,-3.082669E-2,-6.2419776E-2,1.253048E-2,4.5670427E-2],"categories":[],"categories_nodes":[],"categories_segments":[],"categories_sizes":[],"default_left":[0,0,0,0,0,0,0,0,0,0,0,0,0,0,0,0,0,0,0,0,0,0,0],"id":50,"left_children":[1,3,-1,5,-1,7,9,11,13,15,-1,17,-1,-1,19,21,-1,-1,-1,-1,-1,-1,-1],"loss_changes":[4.4940747E3,1.8327473E3,0E0,6.9942175E2,0E0,4.5937708E2,1.0552996E3,2.3200745E1,6.5530396E1,3.110628E2,0E0,6.729561E0,0E0,0E0,8.908997E0,3.2003708E1,0E0,0E0,0E0,0E0,0E0,0E0,0E0],"parents":[2147483647,0,0,1,1,3,3,5,5,6,6,7,7,8,8,9,9,11,11,14,14,15,15],"right_children":[2,4,-1,6,-1,8,10,12,14,16,-1,18,-1,-1,20,22,-1,-1,-1,-1,-1,-1,-1],"split_conditions":[5.8795077E-1,1.16693924E2,3.8256392E-1,4.1557524E-1,-3.101938E-1,2.1885E3,1.2030247E-1,4.953741E-1,5.314E2,2.402842E1,2.6567066E-1,1.9688922E-1,5.989084E-2,1.8697077E-2,4.0751612E-1,4.2E0,-7.366605E-2,4.7293855E-3,2.8405642E-2,-3.082669E-2,-6.2419776E-2,1.253048E-2,4.5670427E-2],"split_indices":[27,0,0,13,0,37,2,14,131,6,0,8,0,0,4,126,0,0,0,0,0,0,0],"split_type":[0,0,0,0,0,0,0,0,0,0,0,0,0,0,0,0,0,0,0,0,0,0,0],"sum_hessian":[9.2E1,9E1,2E0,8.9E1,1E0,6.9E1,2E1,1.1E1,5.8E1,1.9E1,1E0,8E0,3E0,2E0,5.6E1,1.7E1,2E0,2E0,6E0,5.5E1,1E0,5E0,1.2E1],"tree_param":{"num_deleted":"0","num_feature":"190","num_nodes":"23","size_leaf_vector":"1"}},{"base_weights":[1.783503E-1,-1.0705217E0,3.8001353E-1,-3.9654347E-1,-3.0864283E-1,-1.8983439E0,4.6283407E0,3.7416286E0,-3.0132816E0,2.2163348E0,2.643423E-1,2.3469865E0,5.944166E-2,1.8572412E-2,-3.2167604E0,3.6821764E0,-7.3174916E-2,4.6978504E-3,2.8162176E-2,-3.0523892E-2,-6.2107693E-2,1.6973924E-2,4.7909122E-2],"categories":[],"categories_nodes":[],"categories_segments":[],"categories_sizes":[],"default_left":[0,0,0,0,0,0,0,0,0,0,0,0,0,0,0,0,0,0,0,0,0,0,0],"id":51,"left_children":[1,3,-1,5,-1,7,9,11,13,15,-1,17,-1,-1,19,21,-1,-1,-1,-1,-1,-1,-1],"loss_changes":[4.433638E3,1.8150728E3,0E0,6.879598E2,0E0,4.514499E2,1.0459276E3,2.2910141E1,6.4446106E1,3.0644592E2,0E0,6.604561E0,0E0,0E0,9.093689E0,3.147876E1,0E0,0E0,0E0,0E0,0E0,0E0,0E0],"parents":[2147483647,0,0,1,1,3,3,5,5,6,6,7,7,8,8,9,9,11,11,14,14,15,15],"right_children":[2,4,-1,6,-1,8,10,12,14,16,-1,18,-1,-1,20,22,-1,-1,-1,-1,-1,-1,-1],"split_conditions":[5.8795077E-1,1.16693924E2,3.8001353E-1,4.1557524E-1,-3.0864283E-1,2.1885E3,1.2030247E-1,4.953741E-1,5.314E2,2.402842E1,2.643423E-1,1.9688922E-1,5.944166E-2,1.8572412E-2,4.0751612E-1,5.0232404E-1,-7.3174916E-2,4.6978504E-3,2.8162176E-2,-3.0523892E-2,-6.2107693E-2,1.6973924E-2,4.7909122E-2],"split_indices":[27,0,0,13,0,37,2,14,131,6,0,8,0,0,4,14,0,0,0,0,0,0,0],"split_type":[0,0,0,0,0,0,0,0,0,0,0,0,0,0,0,0,0,0,0,0,0,0,0],"sum_hessian":[9.2E1,9E1,2E0,8.9E1,1E0,6.9E1,2E1,1.1E1,5.8E1,1.9E1,1E0,8E0,3E0,2E0,5.6E1,1.7E1,2E0,2E0,6E0,5.5E1,1E0,7E0,1E1],"tree_param":{"num_deleted":"0","num_feature":"190","num_nodes":"23","size_leaf_vector":"1"}},{"base_weights":[1.8028407E-1,-1.0601935E0,3.7748012E-1,-3.8952985E-1,-3.0709964E-1,-1.8790985E0,4.5942483E0,3.7119052E0,-2.9844027E0,2.1937547E0,2.6302058E-1,2.3271687E0,5.8995854E-2,1.8448614E-2,-3.1862166E0,3.6489568E0,-7.26871E-2,4.588623E-3,2.795419E-2,-3.022409E-2,-6.1797142E-2,1.2284622E-2,4.485419E-2],"categories":[],"categories_nodes":[],"categories_segments":[],"categories_sizes":[],"default_left":[0,0,0,0,0,0,0,0,0,0,0,0,0,0,0,0,0,0,0,0,0,0,0],"id":52,"left_children":[1,3,-1,5,-1,7,9,11,13,15,-1,17,-1,-1,19,21,-1,-1,-1,-1,-1,-1,-1],"loss_changes":[4.3739995E3,1.797575E3,0E0,6.767642E2,0E0,4.43661E2,1.0365985E3,2.2623001E1,6.338025E1,3.019192E2,0E0,6.5908012E0,0E0,0E0,9.272766E0,3.0933594E1,0E0,0E0,0E0,0E0,0E0,0E0,0E0],"parents":[2147483647,0,0,1,1,3,3,5,5,6,6,7,7,8,8,9,9,11,11,14,14,15,15],"right_children":[2,4,-1,6,-1,8,10,12,14,16,-1,18,-1,-1,20,22,-1,-1,-1,-1,-1,-1,-1],"split_conditions":[5.8795077E-1,1.16693924E2,3.7748012E-1,4.1557524E-1,-3.0709964E-1,2.1885E3,1.2030247E-1,4.953741E-1,5.314E2,2.402842E1,2.6302058E-1,-5.371E0,5.8995854E-2,1.8448614E-2,4.0751612E-1,4.2E0,-7.26871E-2,4.588623E-3,2.795419E-2,-3.022409E-2,-6.1797142E-2,1.2284622E-2,4.485419E-2],"split_indices":[27,0,0,13,0,37,2,14,131,6,0,83,0,0,4,126,0,0,0,0,0,0,0],"split_type":[0,0,0,0,0,0,0,0,0,0,0,0,0,0,0,0,0,0,0,0,0,0,0],"sum_hessian":[9.2E1,9E1,2E0,8.9E1,1E0,6.9E1,2E1,1.1E1,5.8E1,1.9E1,1E0,8E0,3E0,2E0,5.6E1,1.7E1,2E0,2E0,6E0,5.5E1,1E0,5E0,1.2E1],"tree_param":{"num_deleted":"0","num_feature":"190","num_nodes":"23","size_leaf_vector":"1"}},{"base_weights":[1.8209445E-1,-1.0500472E0,3.7496355E-1,-3.826829E-1,-3.0556414E-1,-1.860048E0,4.5600905E0,3.6824143E0,-2.9558022E0,2.1710403E0,2.6170546E-1,2.3075137E0,5.855337E-2,1.8325627E-2,-3.1559653E0,3.6156425E0,-7.2202526E-2,4.5580543E-3,2.771458E-2,-2.9927213E-2,-6.148815E-2,1.6636485E-2,4.7065794E-2],"categories":[],"categories_nodes":[],"categories_segments":[],"categories_sizes":[],"default_left":[0,0,0,0,0,0,0,0,0,0,0,0,0,0,0,0,0,0,0,0,0,0,0],"id":53,"left_children":[1,3,-1,5,-1,7,9,11,13,15,-1,17,-1,-1,19,21,-1,-1,-1,-1,-1,-1,-1],"loss_changes":[4.3151836E3,1.7802327E3,0E0,6.6568726E2,0E0,4.3600684E2,1.0273805E3,2.2339355E1,6.2332275E1,2.974395E2,0E0,6.468563E0,0E0,0E0,9.446472E0,3.0500946E1,0E0,0E0,0E0,0E0,0E0,0E0,0E0],"parents":[2147483647,0,0,1,1,3,3,5,5,6,6,7,7,8,8,9,9,11,11,14,14,15,15],"right_children":[2,4,-1,6,-1,8,10,12,14,16,-1,18,-1,-1,20,22,-1,-1,-1,-1,-1,-1,-1],"split_conditions":[5.8795077E-1,1.16693924E2,3.7496355E-1,4.1557524E-1,-3.0556414E-1,2.1885E3,1.2030247E-1,4.953741E-1,5.314E2,2.402842E1,2.6170546E-1,1.9688922E-1,5.855337E-2,1.8325627E-2,4.0751612E-1,5.0232404E-1,-7.2202526E-2,4.5580543E-3,2.771458E-2,-2.9927213E-2,-6.148815E-2,1.6636485E-2,4.7065794E-2],"split_indices":[27,0,0,13,0,37,2,14,131,6,0,8,0,0,4,14,0,0,0,0,0,0,0],"split_type":[0,0,0,0,0,0,0,0,0,0,0,0,0,0,0,0,0,0,0,0,0,0,0],"sum_hessian":[9.2E1,9E1,2E0,8.9E1,1E0,6.9E1,2E1,1.1E1,5.8E1,1.9E1,1E0,8E0,3E0,2E0,5.6E1,1.7E1,2E0,2E0,6E0,5.5E1,1E0,7E0,1E1],"tree_param":{"num_deleted":"0","num_feature":"190","num_nodes":"23","size_leaf_vector":"1"}},{"base_weights":[1.8393445E-1,-1.0399258E0,3.7246382E-1,-3.7584424E-1,-3.0403632E-1,-1.8411922E0,4.5265465E0,3.6531575E0,-2.9274805E0,2.148904E0,2.6039696E-1,2.2880232E0,5.8114205E-2,1.8203454E-2,-3.1260066E0,3.583024E0,-7.172117E-2,4.45048E-3,2.7510092E-2,-2.9633258E-2,-6.1180722E-2,1.6490888E-2,4.6637926E-2],"categories":[],"categories_nodes":[],"categories_segments":[],"categories_sizes":[],"default_left":[0,0,0,0,0,0,0,0,0,0,0,0,0,0,0,0,0,0,0,0,0,0,0],"id":54,"left_children":[1,3,-1,5,-1,7,9,11,13,15,-1,17,-1,-1,19,21,-1,-1,-1,-1,-1,-1,-1],"loss_changes":[4.2571445E3,1.7630636E3,0E0,6.54868E2,0E0,4.2848584E2,1.01820526E3,2.2059143E1,6.130197E1,2.9304712E2,0E0,6.4551163E0,0E0,0E0,9.615051E0,2.9931458E1,0E0,0E0,0E0,0E0,0E0,0E0,0E0],"parents":[2147483647,0,0,1,1,3,3,5,5,6,6,7,7,8,8,9,9,11,11,14,14,15,15],"right_children":[2,4,-1,6,-1,8,10,12,14,16,-1,18,-1,-1,20,22,-1,-1,-1,-1,-1,-1,-1],"split_conditions":[5.8795077E-1,1.16693924E2,3.7246382E-1,4.1557524E-1,-3.0403632E-1,2.1885E3,1.2030247E-1,4.953741E-1,5.314E2,2.402842E1,2.6039696E-1,-5.371E0,5.8114205E-2,1.8203454E-2,4.0751612E-1,5.0232404E-1,-7.172117E-2,4.45048E-3,2.7510092E-2,-2.9633258E-2,-6.1180722E-2,1.6490888E-2,4.6637926E-2],"split_indices":[27,0,0,13,0,37,2,14,131,6,0,83,0,0,4,14,0,0,0,0,0,0,0],"split_type":[0,0,0,0,0,0,0,0,0,0,0,0,0,0,0,0,0,0,0,0,0,0,0],"sum_hessian":[9.2E1,9E1,2E0,8.9E1,1E0,6.9E1,2E1,1.1E1,5.8E1,1.9E1,1E0,8E0,3E0,2E0,5.6E1,1.7E1,2E0,2E0,6E0,5.5E1,1E0,7E0,1E1],"tree_param":{"num_deleted":"0","num_feature":"190","num_nodes":"23","size_leaf_vector":"1"}},{"base_weights":[1.8572605E-1,-1.0299088E0,3.6998072E-1,-3.6909407E-1,-3.0251613E-1,-1.8225313E0,4.493273E0,3.6241322E0,-2.899437E0,2.1269867E0,2.5909495E-1,2.2686937E0,5.7678353E-2,1.8082097E-2,-3.0963404E0,3.550702E0,-7.1243E-2,4.420827E-3,2.7274279E-2,-2.9342221E-2,-6.0874823E-2,1.1906204E-2,4.3668393E-2],"categories":[],"categories_nodes":[],"categories_segments":[],"categories_sizes":[],"default_left":[0,0,0,0,0,0,0,0,0,0,0,0,0,0,0,0,0,0,0,0,0,0,0],"id":55,"left_children":[1,3,-1,5,-1,7,9,11,13,15,-1,17,-1,-1,19,21,-1,-1,-1,-1,-1,-1,-1],"loss_changes":[4.199889E3,1.7460563E3,0E0,6.442322E2,0E0,4.2109595E2,1.00910596E3,2.1782455E1,6.028897E1,2.8872028E2,0E0,6.3356133E0,0E0,0E0,9.778381E0,2.9471466E1,0E0,0E0,0E0,0E0,0E0,0E0,0E0],"parents":[2147483647,0,0,1,1,3,3,5,5,6,6,7,7,8,8,9,9,11,11,14,14,15,15],"right_children":[2,4,-1,6,-1,8,10,12,14,16,-1,18,-1,-1,20,22,-1,-1,-1,-1,-1,-1,-1],"split_conditions":[5.8795077E-1,1.16693924E2,3.6998072E-1,4.1557524E-1,-3.0251613E-1,2.1885E3,1.2030247E-1,4.953741E-1,5.314E2,2.402842E1,2.5909495E-1,-5.371E0,5.7678353E-2,1.8082097E-2,4.0751612E-1,4.2E0,-7.1243E-2,4.420827E-3,2.7274279E-2,-2.9342221E-2,-6.0874823E-2,1.1906204E-2,4.3668393E-2],"split_indices":[27,0,0,13,0,37,2,14,131,6,0,83,0,0,4,126,0,0,0,0,0,0,0],"split_type":[0,0,0,0,0,0,0,0,0,0,0,0,0,0,0,0,0,0,0,0,0,0,0],"sum_hessian":[9.2E1,9E1,2E0,8.9E1,1E0,6.9E1,2E1,1.1E1,5.8E1,1.9E1,1E0,8E0,3E0,2E0,5.6E1,1.7E1,2E0,2E0,6E0,5.5E1,1E0,5E0,1.2E1],"tree_param":{"num_deleted":"0","num_feature":"190","num_nodes":"23","size_leaf_vector":"1"}},{"base_weights":[1.8739688E-1,-1.0200697E0,3.675142E-1,-3.6250705E-1,-3.0100358E-1,-1.8040594E0,4.4599295E0,3.5953388E0,-2.8716648E0,2.1049314E0,2.5779948E-1,2.2495286E0,5.724577E-2,1.7961552E-2,-3.0669594E0,3.51828E0,-7.076805E-2,4.315516E-3,2.7073003E-2,-2.9054036E-2,-6.057045E-2,1.6163016E-2,4.5816936E-2],"categories":[],"categories_nodes":[],"categories_segments":[],"categories_sizes":[],"default_left":[0,0,0,0,0,0,0,0,0,0,0,0,0,0,0,0,0,0,0,0,0,0,0],"id":56,"left_children":[1,3,-1,5,-1,7,9,11,13,15,-1,17,-1,-1,19,21,-1,-1,-1,-1,-1,-1,-1],"loss_changes":[4.143424E3,1.7292007E3,0E0,6.337075E2,0E0,4.1383447E2,1.00011584E3,2.1509003E1,5.929315E1,2.8443808E2,0E0,6.3216286E0,0E0,0E0,9.936584E0,2.900122E1,0E0,0E0,0E0,0E0,0E0,0E0,0E0],"parents":[2147483647,0,0,1,1,3,3,5,5,6,6,7,7,8,8,9,9,11,11,14,14,15,15],"right_children":[2,4,-1,6,-1,8,10,12,14,16,-1,18,-1,-1,20,22,-1,-1,-1,-1,-1,-1,-1],"split_conditions":[5.8795077E-1,1.16693924E2,3.675142E-1,4.1557524E-1,-3.0100358E-1,2.1885E3,1.2030247E-1,4.953741E-1,5.314E2,2.402842E1,2.5779948E-1,1.9688922E-1,5.724577E-2,1.7961552E-2,4.0751612E-1,5.0232404E-1,-7.076805E-2,4.315516E-3,2.7073003E-2,-2.9054036E-2,-6.057045E-2,1.6163016E-2,4.5816936E-2],"split_indices":[27,0,0,13,0,37,2,14,131,6,0,8,0,0,4,14,0,0,0,0,0,0,0],"split_type":[0,0,0,0,0,0,0,0,0,0,0,0,0,0,0,0,0,0,0,0,0,0,0],"sum_hessian":[9.2E1,9E1,2E0,8.9E1,1E0,6.9E1,2E1,1.1E1,5.8E1,1.9E1,1E0,8E0,3E0,2E0,5.6E1,1.7E1,2E0,2E0,6E0,5.5E1,1E0,7E0,1E1],"tree_param":{"num_deleted":"0","num_feature":"190","num_nodes":"23","size_leaf_vector":"1"}},{"base_weights":[1.8909717E-1,-1.0102549E0,3.6506408E-1,-3.5592753E-1,-2.9949856E-1,-1.7857776E0,4.4271884E0,3.5667698E0,-2.844164E0,2.0834427E0,2.565105E-1,2.2305179E0,5.6816444E-2,1.7841822E-2,-3.0378635E0,3.4865406E0,-7.029625E-2,4.286728E-3,2.6840918E-2,-2.8768696E-2,-6.02676E-2,1.1672235E-2,4.2887986E-2],"categories":[],"categories_nodes":[],"categories_segments":[],"categories_sizes":[],"default_left":[0,0,0,0,0,0,0,0,0,0,0,0,0,0,0,0,0,0,0,0,0,0,0],"id":57,"left_children":[1,3,-1,5,-1,7,9,11,13,15,-1,17,-1,-1,19,21,-1,-1,-1,-1,-1,-1,-1],"loss_changes":[4.0877043E3,1.7125133E3,0E0,6.2342847E2,0E0,4.066989E2,9.9116754E2,2.1239044E1,5.8314148E1,2.802396E2,0E0,6.204834E0,0E0,0E0,1.0089905E1,2.848648E1,0E0,0E0,0E0,0E0,0E0,0E0,0E0],"parents":[2147483647,0,0,1,1,3,3,5,5,6,6,7,7,8,8,9,9,11,11,14,14,15,15],"right_children":[2,4,-1,6,-1,8,10,12,14,16,-1,18,-1,-1,20,22,-1,-1,-1,-1,-1,-1,-1],"split_conditions":[5.8795077E-1,1.16693924E2,3.6506408E-1,4.1557524E-1,-2.9949856E-1,2.1885E3,1.2030247E-1,4.953741E-1,5.314E2,2.402842E1,2.565105E-1,1.9688922E-1,5.6816444E-2,1.7841822E-2,4.0751612E-1,4.2E0,-7.029625E-2,4.286728E-3,2.6840918E-2,-2.8768696E-2,-6.02676E-2,1.1672235E-2,4.2887986E-2],"split_indices":[27,0,0,13,0,37,2,14,131,6,0,8,0,0,4,126,0,0,0,0,0,0,0],"split_type":[0,0,0,0,0,0,0,0,0,0,0,0,0,0,0,0,0,0,0,0,0,0,0],"sum_hessian":[9.2E1,9E1,2E0,8.9E1,1E0,6.9E1,2E1,1.1E1,5.8E1,1.9E1,1E0,8E0,3E0,2E0,5.6E1,1.7E1,2E0,2E0,6E0,5.5E1,1E0,5E0,1.2E1],"tree_param":{"num_deleted":"0","num_feature":"190","num_nodes":"23","size_leaf_vector":"1"}},{"base_weights":[1.9068162E-1,-1.0006121E0,3.626303E-1,-3.4950545E-1,-2.9800105E-1,-1.7676792E0,4.394384E0,3.5384312E0,-2.8169274E0,2.0618234E0,2.5522795E-1,2.2116716E0,5.6390323E-2,1.7722854E-2,-3.0090454E0,3.454708E0,-6.98276E-2,4.182968E-3,2.6643077E-2,-2.8486129E-2,-5.9966277E-2,1.584139E-2,4.5010574E-2],"categories":[],"categories_nodes":[],"categories_segments":[],"categories_sizes":[],"default_left":[0,0,0,0,0,0,0,0,0,0,0,0,0,0,0,0,0,0,0,0,0,0,0],"id":58,"left_children":[1,3,-1,5,-1,7,9,11,13,15,-1,17,-1,-1,19,21,-1,-1,-1,-1,-1,-1,-1],"loss_changes":[4.0327522E3,1.6959751E3,0E0,6.1325726E2,0E0,3.996874E2,9.8232587E2,2.0972229E1,5.735138E1,2.760847E2,0E0,6.191246E0,0E0,0E0,1.0238281E1,2.810057E1,0E0,0E0,0E0,0E0,0E0,0E0,0E0],"parents":[2147483647,0,0,1,1,3,3,5,5,6,6,7,7,8,8,9,9,11,11,14,14,15,15],"right_children":[2,4,-1,6,-1,8,10,12,14,16,-1,18,-1,-1,20,22,-1,-1,-1,-1,-1,-1,-1],"split_conditions":[5.8795077E-1,1.16693924E2,3.626303E-1,4.1557524E-1,-2.9800105E-1,2.1885E3,1.2030247E-1,4.953741E-1,5.314E2,2.402842E1,2.5522795E-1,-5.371E0,5.6390323E-2,1.7722854E-2,4.0751612E-1,5.0232404E-1,-6.98276E-2,4.182968E-3,2.6643077E-2,-2.8486129E-2,-5.9966277E-2,1.584139E-2,4.5010574E-2],"split_indices":[27,0,0,13,0,37,2,14,131,6,0,83,0,0,4,14,0,0,0,0,0,0,0],"split_type":[0,0,0,0,0,0,0,0,0,0,0,0,0,0,0,0,0,0,0,0,0,0,0],"sum_hessian":[9.2E1,9E1,2E0,8.9E1,1E0,6.9E1,2E1,1.1E1,5.8E1,1.9E1,1E0,8E0,3E0,2E0,5.6E1,1.7E1,2E0,2E0,6E0,5.5E1,1E0,7E0,1E1],"tree_param":{"num_deleted":"0","num_feature":"190","num_nodes":"23","size_leaf_vector":"1"}},{"base_weights":[1.922961E-1,-9.909922E-1,3.6021274E-1,-3.430898E-1,-2.9651102E-1,-1.7497652E0,4.3621655E0,3.5103161E0,-2.7899551E0,2.0407555E0,2.5395182E-1,2.1929812E0,5.5967405E-2,1.76047E-2,-2.9805045E0,3.423541E0,-6.9362104E-2,4.155095E-3,2.6414718E-2,-2.8206334E-2,-5.966644E-2,3.7329435E-2,-9.181518E-3],"categories":[],"categories_nodes":[],"categories_segments":[],"categories_sizes":[],"default_left":[0,0,0,0,0,0,0,0,0,0,0,0,0,0,0,0,0,0,0,0,0,0,0],"id":59,"left_children":[1,3,-1,5,-1,7,9,11,13,15,-1,17,-1,-1,19,21,-1,-1,-1,-1,-1,-1,-1],"loss_changes":[3.9785261E3,1.679602E3,0E0,6.033218E2,0E0,3.9279755E2,9.735261E2,2.0708694E1,5.6404907E1,2.720108E2,0E0,6.0770607E0,0E0,0E0,1.0381958E1,2.760736E1,0E0,0E0,0E0,0E0,0E0,0E0,0E0],"parents":[2147483647,0,0,1,1,3,3,5,5,6,6,7,7,8,8,9,9,11,11,14,14,15,15],"right_children":[2,4,-1,6,-1,8,10,12,14,16,-1,18,-1,-1,20,22,-1,-1,-1,-1,-1,-1,-1],"split_conditions":[5.8795077E-1,1.16693924E2,3.6021274E-1,4.1557524E-1,-2.9651102E-1,2.1885E3,1.2030247E-1,4.953741E-1,5.314E2,2.402842E1,2.5395182E-1,-5.371E0,5.5967405E-2,1.76047E-2,4.0751612E-1,2.0017576E-1,-6.9362104E-2,4.155095E-3,2.6414718E-2,-2.8206334E-2,-5.966644E-2,3.7329435E-2,-9.181518E-3],"split_indices":[27,0,0,13,0,37,2,14,131,6,0,83,0,0,4,5,0,0,0,0,0,0,0],"split_type":[0,0,0,0,0,0,0,0,0,0,0,0,0,0,0,0,0,0,0,0,0,0,0],"sum_hessian":[9.2E1,9E1,2E0,8.9E1,1E0,6.9E1,2E1,1.1E1,5.8E1,1.9E1,1E0,8E0,3E0,2E0,5.6E1,1.7E1,2E0,2E0,6E0,5.5E1,1E0,1.6E1,1E0],"tree_param":{"num_deleted":"0","num_feature":"190","num_nodes":"23","size_leaf_vector":"1"}},{"base_weights":[1.9352001E-1,-9.818246E-1,3.578113E-1,-3.3711487E-1,-2.9502848E-1,-1.7320353E0,4.328673E0,3.4824245E0,-2.7632468E0,2.0182858E0,2.5268206E-1,2.1744487E0,5.5547636E-2,1.748736E-2,-2.9522417E0,3.3908682E0,-6.889971E-2,4.053497E-3,2.6219983E-2,-2.7929313E-2,-5.9368093E-2,1.5434293E-2,4.4261992E-2],"categories":[],"categories_nodes":[],"categories_segments":[],"categories_sizes":[],"default_left":[0,0,0,0,0,0,0,0,0,0,0,0,0,0,0,0,0,0,0,0,0,0,0],"id":60,"left_children":[1,3,-1,5,-1,7,9,11,13,15,-1,17,-1,-1,19,21,-1,-1,-1,-1,-1,-1,-1],"loss_changes":[3.925108E3,1.6633423E3,0E0,5.9325366E2,0E0,3.860276E2,9.649486E2,2.0448288E1,5.5474396E1,2.6790936E2,0E0,6.063011E0,0E0,0E0,1.05208435E1,2.7597275E1,0E0,0E0,0E0,0E0,0E0,0E0,0E0],"parents":[2147483647,0,0,1,1,3,3,5,5,6,6,7,7,8,8,9,9,11,11,14,14,15,15],"right_children":[2,4,-1,6,-1,8,10,12,14,16,-1,18,-1,-1,20,22,-1,-1,-1,-1,-1,-1,-1],"split_conditions":[5.8795077E-1,1.16693924E2,3.578113E-1,4.1557524E-1,-2.9502848E-1,2.1885E3,1.2030247E-1,4.953741E-1,5.314E2,2.402842E1,2.5268206E-1,1.9688922E-1,5.5547636E-2,1.748736E-2,4.0751612E-1,5.0232404E-1,-6.889971E-2,4.053497E-3,2.6219983E-2,-2.7929313E-2,-5.9368093E-2,1.5434293E-2,4.4261992E-2],"split_indices":[27,0,0,13,0,37,2,14,131,6,0,8,0,0,4,14,0,0,0,0,0,0,0],"split_type":[0,0,0,0,0,0,0,0,0,0,0,0,0,0,0,0,0,0,0,0,0,0,0],"sum_hessian":[9.2E1,9E1,2E0,8.9E1,1E0,6.9E1,2E1,1.1E1,5.8E1,1.9E1,1E0,8E0,3E0,2E0,5.6E1,1.7E1,2E0,2E0,6E0,5.5E1,1E0,7E0,1E1],"tree_param":{"num_deleted":"0","num_feature":"190","num_nodes":"23","size_leaf_vector":"1"}},{"base_weights":[1.9505064E-1,-9.723964E-1,3.554259E-1,-3.3085996E-1,-2.9355335E-1,-1.7144849E0,4.2969785E0,3.4547508E0,-2.736796E0,1.997641E0,2.5141865E-1,2.156067E0,5.5131014E-2,1.7370783E-2,-2.924249E0,3.360274E0,-6.844037E-2,4.0264637E-3,2.5995232E-2,-2.7654989E-2,-5.9071273E-2,1.5299244E-2,4.3859575E-2],"categories":[],"categories_nodes":[],"categories_segments":[],"categories_sizes":[],"default_left":[0,0,0,0,0,0,0,0,0,0,0,0,0,0,0,0,0,0,0,0,0,0,0],"id":61,"left_children":[1,3,-1,5,-1,7,9,11,13,15,-1,17,-1,-1,19,21,-1,-1,-1,-1,-1,-1,-1],"loss_changes":[3.872335E3,1.6472781E3,0E0,5.836544E2,0E0,3.7937457E2,9.562936E2,2.0191147E1,5.455954E1,2.639571E2,0E0,5.9514046E0,0E0,0E0,1.0655212E1,2.7082306E1,0E0,0E0,0E0,0E0,0E0,0E0,0E0],"parents":[2147483647,0,0,1,1,3,3,5,5,6,6,7,7,8,8,9,9,11,11,14,14,15,15],"right_children":[2,4,-1,6,-1,8,10,12,14,16,-1,18,-1,-1,20,22,-1,-1,-1,-1,-1,-1,-1],"split_conditions":[5.8795077E-1,1.16693924E2,3.554259E-1,4.1557524E-1,-2.9355335E-1,2.1885E3,1.2030247E-1,4.953741E-1,5.314E2,2.402842E1,2.5141865E-1,-5.371E0,5.5131014E-2,1.7370783E-2,4.0751612E-1,5.0232404E-1,-6.844037E-2,4.0264637E-3,2.5995232E-2,-2.7654989E-2,-5.9071273E-2,1.5299244E-2,4.3859575E-2],"split_indices":[27,0,0,13,0,37,2,14,131,6,0,83,0,0,4,14,0,0,0,0,0,0,0],"split_type":[0,0,0,0,0,0,0,0,0,0,0,0,0,0,0,0,0,0,0,0,0,0,0],"sum_hessian":[9.2E1,9E1,2E0,8.9E1,1E0,6.9E1,2E1,1.1E1,5.8E1,1.9E1,1E0,8E0,3E0,2E0,5.6E1,1.7E1,2E0,2E0,6E0,5.5E1,1E0,7E0,1E1],"tree_param":{"num_deleted":"0","num_feature":"190","num_nodes":"23","size_leaf_vector":"1"}},{"base_weights":[1.9654009E-1,-9.6306264E-1,3.5305643E-1,-3.2468432E-1,-2.9208556E-1,-1.697113E0,4.265539E0,3.4273002E0,-2.710602E0,1.9772007E0,2.5016156E-1,2.137843E0,5.471754E-2,1.725497E-2,-2.8965263E0,3.3299577E0,-6.798408E-2,3.926417E-3,2.5803799E-2,-2.7383361E-2,-5.87759E-2,3.635123E-2,-9.289283E-3],"categories":[],"categories_nodes":[],"categories_segments":[],"categories_sizes":[],"default_left":[0,0,0,0,0,0,0,0,0,0,0,0,0,0,0,0,0,0,0,0,0,0,0],"id":62,"left_children":[1,3,-1,5,-1,7,9,11,13,15,-1,17,-1,-1,19,21,-1,-1,-1,-1,-1,-1,-1],"loss_changes":[3.820275E3,1.6313658E3,0E0,5.7421704E2,0E0,3.728376E2,9.477112E2,1.9937088E1,5.3659912E1,2.6006375E2,0E0,5.937687E0,0E0,0E0,1.0784973E1,2.6770737E1,0E0,0E0,0E0,0E0,0E0,0E0,0E0],"parents":[2147483647,0,0,1,1,3,3,5,5,6,6,7,7,8,8,9,9,11,11,14,14,15,15],"right_children":[2,4,-1,6,-1,8,10,12,14,16,-1,18,-1,-1,20,22,-1,-1,-1,-1,-1,-1,-1],"split_conditions":[5.8795077E-1,1.16693924E2,3.5305643E-1,4.1557524E-1,-2.9208556E-1,2.1885E3,1.2030247E-1,4.953741E-1,5.314E2,2.402842E1,2.5016156E-1,1.9688922E-1,5.471754E-2,1.725497E-2,4.0751612E-1,2.0017576E-1,-6.798408E-2,3.926417E-3,2.5803799E-2,-2.7383361E-2,-5.87759E-2,3.635123E-2,-9.289283E-3],"split_indices":[27,0,0,13,0,37,2,14,131,6,0,8,0,0,4,5,0,0,0,0,0,0,0],"split_type":[0,0,0,0,0,0,0,0,0,0,0,0,0,0,0,0,0,0,0,0,0,0,0],"sum_hessian":[9.2E1,9E1,2E0,8.9E1,1E0,6.9E1,2E1,1.1E1,5.8E1,1.9E1,1E0,8E0,3E0,2E0,5.6E1,1.7E1,2E0,2E0,6E0,5.5E1,1E0,1.6E1,1E0],"tree_param":{"num_deleted":"0","num_feature":"190","num_nodes":"23","size_leaf_vector":"1"}},{"base_weights":[1.9764595E-1,-9.5417297E-1,3.507027E-1,-3.1894124E-1,-2.9062515E-1,-1.679921E0,4.232846E0,3.4000645E0,-2.6846652E0,1.9553807E0,2.4891074E-1,2.119768E0,5.4307155E-2,1.7139917E-2,-2.869074E0,3.2981594E0,-6.753085E-2,3.9002227E-3,2.5582634E-2,-2.711443E-2,-5.8482017E-2,1.0726432E-2,4.071616E-2],"categories":[],"categories_nodes":[],"categories_segments":[],"categories_sizes":[],"default_left":[0,0,0,0,0,0,0,0,0,0,0,0,0,0,0,0,0,0,0,0,0,0,0],"id":63,"left_children":[1,3,-1,5,-1,7,9,11,13,15,-1,17,-1,-1,19,21,-1,-1,-1,-1,-1,-1,-1],"loss_changes":[3.7689895E3,1.6155642E3,0E0,5.6465106E2,0E0,3.6641406E2,9.393448E2,1.9686172E1,5.2775482E1,2.5614355E2,0E0,5.8285904E0,0E0,0E0,1.0910309E1,2.661676E1,0E0,0E0,0E0,0E0,0E0,0E0,0E0],"parents":[2147483647,0,0,1,1,3,3,5,5,6,6,7,7,8,8,9,9,11,11,14,14,15,15],"right_children":[2,4,-1,6,-1,8,10,12,14,16,-1,18,-1,-1,20,22,-1,-1,-1,-1,-1,-1,-1],"split_conditions":[5.8795077E-1,1.16693924E2,3.507027E-1,4.1557524E-1,-2.9062515E-1,2.1885E3,1.2030247E-1,4.953741E-1,5.314E2,2.402842E1,2.4891074E-1,1.9688922E-1,5.4307155E-2,1.7139917E-2,4.0751612E-1,