{"learner":{"attributes":{"best_iteration":"469","best_score":"0.9292171312415082"},"feature_names":[],"feature_types":[],"gradient_booster":{"model":{"gbtree_model_param":{"num_parallel_tree":"1","num_trees":"570"},"iteration_indptr":[0,1,2,3,4,5,6,7,8,9,10,11,12,13,14,15,16,17,18,19,20,21,22,23,24,25,26,27,28,29,30,31,32,33,34,35,36,37,38,39,40,41,42,43,44,45,46,47,48,49,50,51,52,53,54,55,56,57,58,59,60,61,62,63,64,65,66,67,68,69,70,71,72,73,74,75,76,77,78,79,80,81,82,83,84,85,86,87,88,89,90,91,92,93,94,95,96,97,98,99,100,101,102,103,104,105,106,107,108,109,110,111,112,113,114,115,116,117,118,119,120,121,122,123,124,125,126,127,128,129,130,131,132,133,134,135,136,137,138,139,140,141,142,143,144,145,146,147,148,149,150,151,152,153,154,155,156,157,158,159,160,161,162,163,164,165,166,167,168,169,170,171,172,173,174,175,176,177,178,179,180,181,182,183,184,185,186,187,188,189,190,191,192,193,194,195,196,197,198,199,200,201,202,203,204,205,206,207,208,209,210,211,212,213,214,215,216,217,218,219,220,221,222,223,224,225,226,227,228,229,230,231,232,233,234,235,236,237,238,239,240,241,242,243,244,245,246,247,248,249,250,251,252,253,254,255,256,257,258,259,260,261,262,263,264,265,266,267,268,269,270,271,272,273,274,275,276,277,278,279,280,281,282,283,284,285,286,287,288,289,290,291,292,293,294,295,296,297,298,299,300,301,302,303,304,305,306,307,308,309,310,311,312,313,314,315,316,317,318,319,320,321,322,323,324,325,326,327,328,329,330,331,332,333,334,335,336,337,338,339,340,341,342,343,344,345,346,347,348,349,350,351,352,353,354,355,356,357,358,359,360,361,362,363,364,365,366,367,368,369,370,371,372,373,374,375,376,377,378,379,380,381,382,383,384,385,386,387,388,389,390,391,392,393,394,395,396,397,398,399,400,401,402,403,404,405,406,407,408,409,410,411,412,413,414,415,416,417,418,419,420,421,422,423,424,425,426,427,428,429,430,431,432,433,434,435,436,437,438,439,440,441,442,443,444,445,446,447,448,449,450,451,452,453,454,455,456,457,458,459,460,461,462,463,464,465,466,467,468,469,470,471,472,473,474,475,476,477,478,479,480,481,482,483,484,485,486,487,488,489,490,491,492,493,494,495,496,497,498,499,500,501,502,503,504,505,506,507,508,509,510,511,512,513,514,515,516,517,518,519,520,521,522,523,524,525,526,527,528,529,530,531,532,533,534,535,536,537,538,539,540,541,542,543,544,545,546,547,548,549,550,551,552,553,554,555,556,557,558,559,560,561,562,563,564,565,566,567,568,569,570],"tree_info":[0,0,0,0,0,0,0,0,0,0,0,0,0,0,0,0,0,0,0,0,0,0,0,0,0,0,0,0,0,0,0,0,0,0,0,0,0,0,0,0,0,0,0,0,0,0,0,0,0,0,0,0,0,0,0,0,0,0,0,0,0,0,0,0,0,0,0,0,0,0,0,0,0,0,0,0,0,0,0,0,0,0,0,0,0,0,0,0,0,0,0,0,0,0,0,0,0,0,0,0,0,0,0,0,0,0,0,0,0,0,0,0,0,0,0,0,0,0,0,0,0,0,0,0,0,0,0,0,0,0,0,0,0,0,0,0,0,0,0,0,0,0,0,0,0,0,0,0,0,0,0,0,0,0,0,0,0,0,0,0,0,0,0,0,0,0,0,0,0,0,0,0,0,0,0,0,0,0,0,0,0,0,0,0,0,0,0,0,0,0,0,0,0,0,0,0,0,0,0,0,0,0,0,0,0,0,0,0,0,0,0,0,0,0,0,0,0,0,0,0,0,0,0,0,0,0,0,0,0,0,0,0,0,0,0,0,0,0,0,0,0,0,0,0,0,0,0,0,0,0,0,0,0,0,0,0,0,0,0,0,0,0,0,0,0,0,0,0,0,0,0,0,0,0,0,0,0,0,0,0,0,0,0,0,0,0,0,0,0,0,0,0,0,0,0,0,0,0,0,0,0,0,0,0,0,0,0,0,0,0,0,0,0,0,0,0,0,0,0,0,0,0,0,0,0,0,0,0,0,0,0,0,0,0,0,0,0,0,0,0,0,0,0,0,0,0,0,0,0,0,0,0,0,0,0,0,0,0,0,0,0,0,0,0,0,0,0,0,0,0,0,0,0,0,0,0,0,0,0,0,0,0,0,0,0,0,0,0,0,0,0,0,0,0,0,0,0,0,0,0,0,0,0,0,0,0,0,0,0,0,0,0,0,0,0,0,0,0,0,0,0,0,0,0,0,0,0,0,0,0,0,0,0,0,0,0,0,0,0,0,0,0,0,0,0,0,0,0,0,0,0,0,0,0,0,0,0,0,0,0,0,0,0,0,0,0,0,0,0,0,0,0,0,0,0,0,0,0,0,0,0,0,0,0,0,0,0,0,0,0,0,0,0,0,0,0,0,0,0,0,0,0,0,0,0,0,0,0,0,0,0,0,0,0,0,0,0,0,0,0,0,0,0,0,0,0,0,0,0,0,0,0,0,0,0,0,0,0,0,0,0,0,0,0,0,0,0,0,0,0,0,0,0,0,0,0,0,0,0,0,0,0,0,0,0,0,0,0,0,0],"trees":[{"base_weights":[2.625168E-6,-1.7478915E0,5.301946E-1,-8.8444245E-1,-3.9729157E-1,-3.0339334E0,7.3075466E0,-4.0423746E0,3.4282696E-1,7.9334885E-2,2.9768905E-2,-5.004324E0,3.1404233E0,-4.4784945E-2,-1.16406836E-1,-2.3540496E-3,3.5918273E-2],"categories":[],"categories_nodes":[],"categories_segments":[],"categories_sizes":[],"default_left":[0,0,0,0,0,0,0,0,0,0,0,0,0,0,0,0,0],"id":0,"left_children":[1,3,-1,5,-1,7,9,11,-1,-1,-1,13,15,-1,-1,-1,-1],"loss_changes":[8.711206E3,2.9491968E3,0E0,1.6069451E3,0E0,2.8480605E3,2.7886963E1,5.0628943E2,0E0,0E0,0E0,1.6771179E2,1.4560303E1,0E0,0E0,0E0,0E0],"parents":[2147483647,0,0,1,1,3,3,5,5,6,6,7,7,11,11,12,12],"right_children":[2,4,-1,6,-1,8,10,12,-1,-1,-1,14,16,-1,-1,-1,-1],"split_conditions":[5.8795077E-1,1.16693924E2,5.301946E-1,3.98E-1,-3.9729157E-1,4.073E-1,4.4621566E-1,5.000335E-1,3.4282696E-1,7.9334885E-2,2.9768905E-2,5.3022266E2,2.3180066E-1,-4.4784945E-2,-1.16406836E-1,-2.3540496E-3,3.5918273E-2],"split_indices":[27,0,0,166,0,165,71,73,0,0,0,19,4,0,0,0,0],"split_type":[0,0,0,0,0,0,0,0,0,0,0,0,0,0,0,0,0],"sum_hessian":[9.2E1,9E1,2E0,8.9E1,1E0,7.1E1,1.8E1,7E1,1E0,1.5E1,3E0,6.2E1,8E0,5.9E1,3E0,1E0,7E0],"tree_param":{"num_deleted":"0","num_feature":"190","num_nodes":"17","size_leaf_vector":"1"}},{"base_weights":[4.9180062E-3,-1.7312155E0,5.2665997E-1,-8.7199545E-1,-3.953051E-1,-3.0006056E0,7.2402105E0,-4.003749E0,3.4111282E-1,7.859109E-2,2.9545631E-2,-4.9568396E0,3.1127481E0,-4.4344563E-2,-1.1553377E-1,-2.3422623E-3,3.560398E-2],"categories":[],"categories_nodes":[],"categories_segments":[],"categories_sizes":[],"default_left":[0,0,0,0,0,0,0,0,0,0,0,0,0,0,0,0,0],"id":1,"left_children":[1,3,-1,5,-1,7,9,11,-1,-1,-1,13,15,-1,-1,-1,-1],"loss_changes":[8.593855E3,2.9210195E3,0E0,1.5758201E3,0E0,2.8170278E3,2.7175049E1,4.9699878E2,0E0,0E0,0E0,1.658601E2,1.43183975E1,0E0,0E0,0E0,0E0],"parents":[2147483647,0,0,1,1,3,3,5,5,6,6,7,7,11,11,12,12],"right_children":[2,4,-1,6,-1,8,10,12,-1,-1,-1,14,16,-1,-1,-1,-1],"split_conditions":[5.8795077E-1,1.16693924E2,5.2665997E-1,3.98E-1,-3.953051E-1,4.073E-1,4.4621566E-1,5.000335E-1,3.4111282E-1,7.859109E-2,2.9545631E-2,5.3022266E2,2.3180066E-1,-4.4344563E-2,-1.1553377E-1,-2.3422623E-3,3.560398E-2],"split_indices":[27,0,0,166,0,165,71,73,0,0,0,19,4,0,0,0,0],"split_type":[0,0,0,0,0,0,0,0,0,0,0,0,0,0,0,0,0],"sum_hessian":[9.2E1,9E1,2E0,8.9E1,1E0,7.1E1,1.8E1,7E1,1E0,1.5E1,3E0,6.2E1,8E0,5.9E1,3E0,1E0,7E0],"tree_param":{"num_deleted":"0","num_feature":"190","num_nodes":"17","size_leaf_vector":"1"}},{"base_weights":[9.748643E-3,-1.7147038E0,5.231489E-1,-8.596926E-1,-3.9332858E-1,-2.9676228E0,7.1735E0,-3.965497E0,3.3940727E-1,7.7854306E-2,2.9324016E-2,-4.9098115E0,3.0853145E0,-4.3908533E-2,-1.1466728E-1,-2.3305512E-3,3.5292424E-2],"categories":[],"categories_nodes":[],"categories_segments":[],"categories_sizes":[],"default_left":[0,0,0,0,0,0,0,0,0,0,0,0,0,0,0,0,0],"id":2,"left_children":[1,3,-1,5,-1,7,9,11,-1,-1,-1,13,15,-1,-1,-1,-1],"loss_changes":[8.478094E3,2.893105E3,0E0,1.5452952E3,0E0,2.7863445E3,2.647992E1,4.8787927E2,0E0,0E0,0E0,1.6402563E2,1.4080566E1,0E0,0E0,0E0,0E0],"parents":[2147483647,0,0,1,1,3,3,5,5,6,6,7,7,11,11,12,12],"right_children":[2,4,-1,6,-1,8,10,12,-1,-1,-1,14,16,-1,-1,-1,-1],"split_conditions":[5.8795077E-1,1.16693924E2,5.231489E-1,3.98E-1,-3.9332858E-1,4.073E-1,4.4621566E-1,5.000335E-1,3.3940727E-1,7.7854306E-2,2.9324016E-2,5.3022266E2,2.3180066E-1,-4.3908533E-2,-1.1466728E-1,-2.3305512E-3,3.5292424E-2],"split_indices":[27,0,0,166,0,165,71,73,0,0,0,19,4,0,0,0,0],"split_type":[0,0,0,0,0,0,0,0,0,0,0,0,0,0,0,0,0],"sum_hessian":[9.2E1,9E1,2E0,8.9E1,1E0,7.1E1,1.8E1,7E1,1E0,1.5E1,3E0,6.2E1,8E0,5.9E1,3E0,1E0,7E0],"tree_param":{"num_deleted":"0","num_feature":"190","num_nodes":"17","size_leaf_vector":"1"}},{"base_weights":[1.4496752E-2,-1.6983536E0,5.1966125E-1,-8.4753096E-1,-3.9136195E-1,-2.9349782E0,7.107403E0,-3.9276123E0,3.3771023E-1,7.712439E-2,2.910406E-2,-4.8632317E0,3.0581224E0,-4.347678E-2,-1.1380725E-1,-2.3189164E-3,3.4983605E-2],"categories":[],"categories_nodes":[],"categories_segments":[],"categories_sizes":[],"default_left":[0,0,0,0,0,0,0,0,0,0,0,0,0,0,0,0,0],"id":3,"left_children":[1,3,-1,5,-1,7,9,11,-1,-1,-1,13,15,-1,-1,-1,-1],"loss_changes":[8.363896E3,2.8654504E3,0E0,1.5153555E3,0E0,2.7560046E3,2.5801025E1,4.789276E2,0E0,0E0,0E0,1.6220764E2,1.3846748E1,0E0,0E0,0E0,0E0],"parents":[2147483647,0,0,1,1,3,3,5,5,6,6,7,7,11,11,12,12],"right_children":[2,4,-1,6,-1,8,10,12,-1,-1,-1,14,16,-1,-1,-1,-1],"split_conditions":[5.8795077E-1,1.16693924E2,5.1966125E-1,3.98E-1,-3.9136195E-1,4.073E-1,4.4621566E-1,5.000335E-1,3.3771023E-1,7.712439E-2,2.910406E-2,5.3022266E2,2.3180066E-1,-4.347678E-2,-1.1380725E-1,-2.3189164E-3,3.4983605E-2],"split_indices":[27,0,0,166,0,165,71,73,0,0,0,19,4,0,0,0,0],"split_type":[0,0,0,0,0,0,0,0,0,0,0,0,0,0,0,0,0],"sum_hessian":[9.2E1,9E1,2E0,8.9E1,1E0,7.1E1,1.8E1,7E1,1E0,1.5E1,3E0,6.2E1,8E0,5.9E1,3E0,1E0,7E0],"tree_param":{"num_deleted":"0","num_feature":"190","num_nodes":"17","size_leaf_vector":"1"}},{"base_weights":[1.9166926E-2,-1.6821597E0,5.1619685E-1,-8.355056E-1,-3.8940513E-1,-2.902666E0,7.0419183E0,-3.8900886E0,3.360217E-1,7.640134E-2,2.8885765E-2,-4.817093E0,3.0311728E0,-4.3049224E-2,-1.129537E-1,-2.3073195E-3,3.4677524E-2],"categories":[],"categories_nodes":[],"categories_segments":[],"categories_sizes":[],"default_left":[0,0,0,0,0,0,0,0,0,0,0,0,0,0,0,0,0],"id":4,"left_children":[1,3,-1,5,-1,7,9,11,-1,-1,-1,13,15,-1,-1,-1,-1],"loss_changes":[8.25124E3,2.8380542E3,0E0,1.4859913E3,0E0,2.7260056E3,2.5138184E1,4.7014038E2,0E0,0E0,0E0,1.604071E2,1.3616852E1,0E0,0E0,0E0,0E0],"parents":[2147483647,0,0,1,1,3,3,5,5,6,6,7,7,11,11,12,12],"right_children":[2,4,-1,6,-1,8,10,12,-1,-1,-1,14,16,-1,-1,-1,-1],"split_conditions":[5.8795077E-1,1.16693924E2,5.1619685E-1,3.98E-1,-3.8940513E-1,4.073E-1,4.4621566E-1,5.000335E-1,3.360217E-1,7.640134E-2,2.8885765E-2,5.3022266E2,2.3180066E-1,-4.3049224E-2,-1.129537E-1,-2.3073195E-3,3.4677524E-2],"split_indices":[27,0,0,166,0,165,71,73,0,0,0,19,4,0,0,0,0],"split_type":[0,0,0,0,0,0,0,0,0,0,0,0,0,0,0,0,0],"sum_hessian":[9.2E1,9E1,2E0,8.9E1,1E0,7.1E1,1.8E1,7E1,1E0,1.5E1,3E0,6.2E1,8E0,5.9E1,3E0,1E0,7E0],"tree_param":{"num_deleted":"0","num_feature":"190","num_nodes":"17","size_leaf_vector":"1"}},{"base_weights":[2.3756867E-2,-1.6661239E0,5.127555E-1,-8.236183E-1,-3.8745812E-1,-2.8706865E0,6.9770412E0,-3.852926E0,3.343416E-1,7.568508E-2,2.8669128E-2,-4.7713947E0,3.004459E0,-4.2625874E-2,-1.1210655E-1,-2.295799E-3,3.4374114E-2],"categories":[],"categories_nodes":[],"categories_segments":[],"categories_sizes":[],"default_left":[0,0,0,0,0,0,0,0,0,0,0,0,0,0,0,0,0],"id":5,"left_children":[1,3,-1,5,-1,7,9,11,-1,-1,-1,13,15,-1,-1,-1,-1],"loss_changes":[8.140108E3,2.810914E3,0E0,1.4571923E3,0E0,2.696343E3,2.4490845E1,4.615144E2,0E0,0E0,0E0,1.5862317E2,1.3390831E1,0E0,0E0,0E0,0E0],"parents":[2147483647,0,0,1,1,3,3,5,5,6,6,7,7,11,11,12,12],"right_children":[2,4,-1,6,-1,8,10,12,-1,-1,-1,14,16,-1,-1,-1,-1],"split_conditions":[5.8795077E-1,1.16693924E2,5.127555E-1,3.98E-1,-3.8745812E-1,4.073E-1,4.4621566E-1,5.000335E-1,3.343416E-1,7.568508E-2,2.8669128E-2,5.3022266E2,2.3180066E-1,-4.2625874E-2,-1.1210655E-1,-2.295799E-3,3.4374114E-2],"split_indices":[27,0,0,166,0,165,71,73,0,0,0,19,4,0,0,0,0],"split_type":[0,0,0,0,0,0,0,0,0,0,0,0,0,0,0,0,0],"sum_hessian":[9.2E1,9E1,2E0,8.9E1,1E0,7.1E1,1.8E1,7E1,1E0,1.5E1,3E0,6.2E1,8E0,5.9E1,3E0,1E0,7E0],"tree_param":{"num_deleted":"0","num_feature":"190","num_nodes":"17","size_leaf_vector":"1"}},{"base_weights":[2.826502E-2,-1.6502472E0,5.093371E-1,-8.118704E-1,-3.8552082E-1,-2.8390396E0,6.912764E0,-3.8161242E0,3.3266985E-1,7.497554E-2,2.8454093E-2,-4.7261376E0,2.9779816E0,-4.2206727E-2,-1.1126575E-1,4.538269E-3,3.6343362E-2],"categories":[],"categories_nodes":[],"categories_segments":[],"categories_sizes":[],"default_left":[0,0,0,0,0,0,0,0,0,0,0,0,0,0,0,0,0],"id":6,"left_children":[1,3,-1,5,-1,7,9,11,-1,-1,-1,13,15,-1,-1,-1,-1],"loss_changes":[8.030478E3,2.7840264E3,0E0,1.4289482E3,0E0,2.6670132E3,2.3858887E1,4.5304797E2,0E0,0E0,0E0,1.5685583E2,1.3261314E1,0E0,0E0,0E0,0E0],"parents":[2147483647,0,0,1,1,3,3,5,5,6,6,7,7,11,11,12,12],"right_children":[2,4,-1,6,-1,8,10,12,-1,-1,-1,14,16,-1,-1,-1,-1],"split_conditions":[5.8795077E-1,1.16693924E2,5.093371E-1,3.98E-1,-3.8552082E-1,4.073E-1,4.4621566E-1,5.000335E-1,3.3266985E-1,7.497554E-2,2.8454093E-2,5.3022266E2,-5.371E0,-4.2206727E-2,-1.1126575E-1,4.538269E-3,3.6343362E-2],"split_indices":[27,0,0,166,0,165,71,73,0,0,0,19,83,0,0,0,0],"split_type":[0,0,0,0,0,0,0,0,0,0,0,0,0,0,0,0,0],"sum_hessian":[9.2E1,9E1,2E0,8.9E1,1E0,7.1E1,1.8E1,7E1,1E0,1.5E1,3E0,6.2E1,8E0,5.9E1,3E0,2E0,6E0],"tree_param":{"num_deleted":"0","num_feature":"190","num_nodes":"17","size_leaf_vector":"1"}},{"base_weights":[3.279163E-2,-1.634427E0,5.0594157E-1,-8.0015785E-1,-3.835932E-1,-2.8075936E0,6.8490806E0,-3.7795498E0,3.310065E-1,7.427266E-2,2.824066E-2,-4.681313E0,2.9527419E0,-4.17917E-2,-1.1043125E-1,4.5080055E-3,3.603182E-2],"categories":[],"categories_nodes":[],"categories_segments":[],"categories_sizes":[],"default_left":[0,0,0,0,0,0,0,0,0,0,0,0,0,0,0,0,0],"id":7,"left_children":[1,3,-1,5,-1,7,9,11,-1,-1,-1,13,15,-1,-1,-1,-1],"loss_changes":[7.922299E3,2.7574048E3,0E0,1.4012113E3,0E0,2.637995E3,2.3241821E1,4.4485895E2,0E0,0E0,0E0,1.5510486E2,1.3021957E1,0E0,0E0,0E0,0E0],"parents":[2147483647,0,0,1,1,3,3,5,5,6,6,7,7,11,11,12,12],"right_children":[2,4,-1,6,-1,8,10,12,-1,-1,-1,14,16,-1,-1,-1,-1],"split_conditions":[5.8795077E-1,1.16693924E2,5.0594157E-1,3.98E-1,-3.835932E-1,4.073E-1,4.4621566E-1,5.000335E-1,3.310065E-1,7.427266E-2,2.824066E-2,5.3022266E2,-5.371E0,-4.17917E-2,-1.1043125E-1,4.5080055E-3,3.603182E-2],"split_indices":[27,0,0,166,0,165,71,73,0,0,0,19,83,0,0,0,0],"split_type":[0,0,0,0,0,0,0,0,0,0,0,0,0,0,0,0,0],"sum_hessian":[9.2E1,9E1,2E0,8.9E1,1E0,7.1E1,1.8E1,7E1,1E0,1.5E1,3E0,6.2E1,8E0,5.9E1,3E0,2E0,6E0],"tree_param":{"num_deleted":"0","num_feature":"190","num_nodes":"17","size_leaf_vector":"1"}},{"base_weights":[3.7240878E-2,-1.6187602E0,5.025686E-1,-7.885792E-1,-3.8167524E-1,-2.7764702E0,6.785985E0,-3.743326E0,3.2935145E-1,7.357636E-2,2.802883E-2,-4.6369143E0,2.9277174E0,-4.138073E-2,-1.0960304E-1,-2.3295593E-3,3.351921E-2],"categories":[],"categories_nodes":[],"categories_segments":[],"categories_sizes":[],"default_left":[0,0,0,0,0,0,0,0,0,0,0,0,0,0,0,0,0],"id":8,"left_children":[1,3,-1,5,-1,7,9,11,-1,-1,-1,13,15,-1,-1,-1,-1],"loss_changes":[7.815583E3,2.731032E3,0E0,1.3740077E3,0E0,2.6093018E3,2.2639404E1,4.3681848E2,0E0,0E0,0E0,1.5337073E2,1.2847778E1,0E0,0E0,0E0,0E0],"parents":[2147483647,0,0,1,1,3,3,5,5,6,6,7,7,11,11,12,12],"right_children":[2,4,-1,6,-1,8,10,12,-1,-1,-1,14,16,-1,-1,-1,-1],"split_conditions":[5.8795077E-1,1.16693924E2,5.025686E-1,3.98E-1,-3.8167524E-1,4.073E-1,4.4621566E-1,5.000335E-1,3.2935145E-1,7.357636E-2,2.802883E-2,5.3022266E2,2.3180066E-1,-4.138073E-2,-1.0960304E-1,-2.3295593E-3,3.351921E-2],"split_indices":[27,0,0,166,0,165,71,73,0,0,0,19,4,0,0,0,0],"split_type":[0,0,0,0,0,0,0,0,0,0,0,0,0,0,0,0,0],"sum_hessian":[9.2E1,9E1,2E0,8.9E1,1E0,7.1E1,1.8E1,7E1,1E0,1.5E1,3E0,6.2E1,8E0,5.9E1,3E0,1E0,7E0],"tree_param":{"num_deleted":"0","num_feature":"190","num_nodes":"17","size_leaf_vector":"1"}},{"base_weights":[4.1514818E-2,-1.6033468E0,4.9921814E-1,-7.772354E-1,-3.7976688E-1,-2.7457936E0,6.723471E0,-3.7075787E0,3.277047E-1,7.288657E-2,2.7818603E-2,-4.5929403E0,2.901908E0,-4.0973805E-2,-1.0878101E-1,4.3739825E-3,3.543568E-2],"categories":[],"categories_nodes":[],"categories_segments":[],"categories_sizes":[],"default_left":[0,0,0,0,0,0,0,0,0,0,0,0,0,0,0,0,0],"id":9,"left_children":[1,3,-1,5,-1,7,9,11,-1,-1,-1,13,15,-1,-1,-1,-1],"loss_changes":[7.710338E3,2.7048909E3,0E0,1.3473634E3,0E0,2.5809478E3,2.2051086E1,4.2880536E2,0E0,0E0,0E0,1.5165271E2,1.2682457E1,0E0,0E0,0E0,0E0],"parents":[2147483647,0,0,1,1,3,3,5,5,6,6,7,7,11,11,12,12],"right_children":[2,4,-1,6,-1,8,10,12,-1,-1,-1,14,16,-1,-1,-1,-1],"split_conditions":[5.8795077E-1,1.16693924E2,4.9921814E-1,3.98E-1,-3.7976688E-1,4.073E-1,4.4621566E-1,5.000335E-1,3.277047E-1,7.288657E-2,2.7818603E-2,5.3022266E2,-5.371E0,-4.0973805E-2,-1.0878101E-1,4.3739825E-3,3.543568E-2],"split_indices":[27,0,0,166,0,165,71,73,0,0,0,19,83,0,0,0,0],"split_type":[0,0,0,0,0,0,0,0,0,0,0,0,0,0,0,0,0],"sum_hessian":[9.2E1,9E1,2E0,8.9E1,1E0,7.1E1,1.8E1,7E1,1E0,1.5E1,3E0,6.2E1,8E0,5.9E1,3E0,2E0,6E0],"tree_param":{"num_deleted":"0","num_feature":"190","num_nodes":"17","size_leaf_vector":"1"}},{"base_weights":[4.581107E-2,-1.5879843E0,4.9589E-1,-7.659218E-1,-3.7786803E-1,-2.7153084E0,6.6615396E0,-3.6720486E0,3.2606617E-1,7.2203286E-2,2.7609978E-2,-4.5493846E0,2.8773108E0,-4.0570863E-2,-1.07965164E-1,-2.3397827E-3,3.2954693E-2],"categories":[],"categories_nodes":[],"categories_segments":[],"categories_sizes":[],"default_left":[0,0,0,0,0,0,0,0,0,0,0,0,0,0,0,0,0],"id":10,"left_children":[1,3,-1,5,-1,7,9,11,-1,-1,-1,13,15,-1,-1,-1,-1],"loss_changes":[7.6064854E3,2.6790083E3,0E0,1.3211976E3,0E0,2.552894E3,2.1476746E1,4.2105536E2,0E0,0E0,0E0,1.499513E2,1.2480171E1,0E0,0E0,0E0,0E0],"parents":[2147483647,0,0,1,1,3,3,5,5,6,6,7,7,11,11,12,12],"right_children":[2,4,-1,6,-1,8,10,12,-1,-1,-1,14,16,-1,-1,-1,-1],"split_conditions":[5.8795077E-1,1.16693924E2,4.9589E-1,3.98E-1,-3.7786803E-1,4.073E-1,4.4621566E-1,5.000335E-1,3.2606617E-1,7.2203286E-2,2.7609978E-2,5.3022266E2,2.3180066E-1,-4.0570863E-2,-1.07965164E-1,-2.3397827E-3,3.2954693E-2],"split_indices":[27,0,0,166,0,165,71,73,0,0,0,19,4,0,0,0,0],"split_type":[0,0,0,0,0,0,0,0,0,0,0,0,0,0,0,0,0],"sum_hessian":[9.2E1,9E1,2E0,8.9E1,1E0,7.1E1,1.8E1,7E1,1E0,1.5E1,3E0,6.2E1,8E0,5.9E1,3E0,1E0,7E0],"tree_param":{"num_deleted":"0","num_feature":"190","num_nodes":"17","size_leaf_vector":"1"}},{"base_weights":[4.993488E-2,-1.5728712E0,4.9258408E-1,-7.548393E-1,-3.7597868E-1,-2.6852624E0,6.6001763E0,-3.6369867E0,3.2443583E-1,7.152637E-2,2.7402896E-2,-4.5062466E0,2.8519423E0,-4.0171895E-2,-1.07155435E-1,4.2428076E-3,3.4849484E-2],"categories":[],"categories_nodes":[],"categories_segments":[],"categories_sizes":[],"default_left":[0,0,0,0,0,0,0,0,0,0,0,0,0,0,0,0,0],"id":11,"left_children":[1,3,-1,5,-1,7,9,11,-1,-1,-1,13,15,-1,-1,-1,-1],"loss_changes":[7.504067E3,2.6533533E3,0E0,1.2955695E3,0E0,2.5251714E3,2.0916016E1,4.1333173E2,0E0,0E0,0E0,1.4826587E2,1.2351929E1,0E0,0E0,0E0,0E0],"parents":[2147483647,0,0,1,1,3,3,5,5,6,6,7,7,11,11,12,12],"right_children":[2,4,-1,6,-1,8,10,12,-1,-1,-1,14,16,-1,-1,-1,-1],"split_conditions":[5.8795077E-1,1.16693924E2,4.9258408E-1,3.98E-1,-3.7597868E-1,4.073E-1,4.4621566E-1,5.000335E-1,3.2443583E-1,7.152637E-2,2.7402896E-2,5.3022266E2,-5.371E0,-4.0171895E-2,-1.07155435E-1,4.2428076E-3,3.4849484E-2],"split_indices":[27,0,0,166,0,165,71,73,0,0,0,19,83,0,0,0,0],"split_type":[0,0,0,0,0,0,0,0,0,0,0,0,0,0,0,0,0],"sum_hessian":[9.2E1,9E1,2E0,8.9E1,1E0,7.1E1,1.8E1,7E1,1E0,1.5E1,3E0,6.2E1,8E0,5.9E1,3E0,2E0,6E0],"tree_param":{"num_deleted":"0","num_feature":"190","num_nodes":"17","size_leaf_vector":"1"}},{"base_weights":[5.4075837E-2,-1.5578132E0,4.893002E-1,-7.437915E-1,-3.740988E-1,-2.6554096E0,6.5393815E0,-3.602144E0,3.228137E-1,7.085582E-2,2.7197361E-2,-4.463526E0,2.8277655E0,-3.9776903E-2,-1.0635177E-1,4.2145285E-3,3.455076E-2],"categories":[],"categories_nodes":[],"categories_segments":[],"categories_sizes":[],"default_left":[0,0,0,0,0,0,0,0,0,0,0,0,0,0,0,0,0],"id":12,"left_children":[1,3,-1,5,-1,7,9,11,-1,-1,-1,13,15,-1,-1,-1,-1],"loss_changes":[7.403006E3,2.6279517E3,0E0,1.2704028E3,0E0,2.4977437E3,2.0368591E1,4.058629E2,0E0,0E0,0E0,1.4659631E2,1.2129395E1,0E0,0E0,0E0,0E0],"parents":[2147483647,0,0,1,1,3,3,5,5,6,6,7,7,11,11,12,12],"right_children":[2,4,-1,6,-1,8,10,12,-1,-1,-1,14,16,-1,-1,-1,-1],"split_conditions":[5.8795077E-1,1.16693924E2,4.893002E-1,3.98E-1,-3.740988E-1,4.073E-1,4.4621566E-1,5.000335E-1,3.228137E-1,7.085582E-2,2.7197361E-2,5.3022266E2,-5.371E0,-3.9776903E-2,-1.0635177E-1,4.2145285E-3,3.455076E-2],"split_indices":[27,0,0,166,0,165,71,73,0,0,0,19,83,0,0,0,0],"split_type":[0,0,0,0,0,0,0,0,0,0,0,0,0,0,0,0,0],"sum_hessian":[9.2E1,9E1,2E0,8.9E1,1E0,7.1E1,1.8E1,7E1,1E0,1.5E1,3E0,6.2E1,8E0,5.9E1,3E0,2E0,6E0],"tree_param":{"num_deleted":"0","num_feature":"190","num_nodes":"17","size_leaf_vector":"1"}},{"base_weights":[5.814665E-2,-1.542899E0,4.8603815E-1,-7.3286825E-1,-3.722283E-1,-2.625861E0,6.47915E0,-3.5676324E0,3.211996E-1,2.6985817E-2,7.019345E-2,-4.4212074E0,2.803794E0,-3.9385732E-2,-1.0555412E-1,-2.3703384E-3,3.2135267E-2],"categories":[],"categories_nodes":[],"categories_segments":[],"categories_sizes":[],"default_left":[0,0,0,0,0,0,0,0,0,0,0,0,0,0,0,0,0],"id":13,"left_children":[1,3,-1,5,-1,7,9,11,-1,-1,-1,13,15,-1,-1,-1,-1],"loss_changes":[7.3033076E3,2.602788E3,0E0,1.2457202E3,0E0,2.4706216E3,1.9860413E1,3.9852893E2,0E0,0E0,0E0,1.44943E2,1.1975052E1,0E0,0E0,0E0,0E0],"parents":[2147483647,0,0,1,1,3,3,5,5,6,6,7,7,11,11,12,12],"right_children":[2,4,-1,6,-1,8,10,12,-1,-1,-1,14,16,-1,-1,-1,-1],"split_conditions":[5.8795077E-1,1.16693924E2,4.8603815E-1,3.98E-1,-3.722283E-1,4.073E-1,2.0298584E-1,5.000335E-1,3.211996E-1,2.6985817E-2,7.019345E-2,5.3022266E2,2.3180066E-1,-3.9385732E-2,-1.0555412E-1,-2.3703384E-3,3.2135267E-2],"split_indices":[27,0,0,166,0,165,8,73,0,0,0,19,4,0,0,0,0],"split_type":[0,0,0,0,0,0,0,0,0,0,0,0,0,0,0,0,0],"sum_hessian":[9.2E1,9E1,2E0,8.9E1,1E0,7.1E1,1.8E1,7E1,1E0,3E0,1.5E1,6.2E1,8E0,5.9E1,3E0,1E0,7E0],"tree_param":{"num_deleted":"0","num_feature":"190","num_nodes":"17","size_leaf_vector":"1"}},{"base_weights":[6.204798E-2,-1.5282297E0,4.827979E-1,-7.2217196E-1,-3.7036717E-1,-2.596743E0,6.4194756E0,-3.5335808E0,3.195936E-1,6.956053E-2,2.6682967E-2,-4.3792987E0,2.7790637E0,-3.8998466E-2,-1.0476247E-1,4.0872446E-3,3.3979144E-2],"categories":[],"categories_nodes":[],"categories_segments":[],"categories_sizes":[],"default_left":[0,0,0,0,0,0,0,0,0,0,0,0,0,0,0,0,0],"id":14,"left_children":[1,3,-1,5,-1,7,9,11,-1,-1,-1,13,15,-1,-1,-1,-1],"loss_changes":[7.204986E3,2.5778455E3,0E0,1.2215471E3,0E0,2.4438198E3,1.9682312E1,3.9121918E2,0E0,0E0,0E0,1.433053E2,1.1813171E1,0E0,0E0,0E0,0E0],"parents":[2147483647,0,0,1,1,3,3,5,5,6,6,7,7,11,11,12,12],"right_children":[2,4,-1,6,-1,8,10,12,-1,-1,-1,14,16,-1,-1,-1,-1],"split_conditions":[5.8795077E-1,1.16693924E2,4.827979E-1,3.98E-1,-3.7036717E-1,4.073E-1,4.4621566E-1,5.000335E-1,3.195936E-1,6.956053E-2,2.6682967E-2,5.3022266E2,-5.371E0,-3.8998466E-2,-1.0476247E-1,4.0872446E-3,3.3979144E-2],"split_indices":[27,0,0,166,0,165,71,73,0,0,0,19,83,0,0,0,0],"split_type":[0,0,0,0,0,0,0,0,0,0,0,0,0,0,0,0,0],"sum_hessian":[9.2E1,9E1,2E0,8.9E1,1E0,7.1E1,1.8E1,7E1,1E0,1.5E1,3E0,6.2E1,8E0,5.9E1,3E0,2E0,6E0],"tree_param":{"num_deleted":"0","num_feature":"190","num_nodes":"17","size_leaf_vector":"1"}},{"base_weights":[6.597359E-2,-1.513607E0,4.7957927E-1,-7.115019E-1,-3.685153E-1,-2.567803E0,6.360349E0,-3.4997315E0,3.1799564E-1,2.6476135E-2,6.8910114E-2,-4.337785E0,2.7555008E0,-3.8614955E-2,-1.0397678E-1,-2.3789215E-3,3.1594113E-2],"categories":[],"categories_nodes":[],"categories_segments":[],"categories_sizes":[],"default_left":[0,0,0,0,0,0,0,0,0,0,0,0,0,0,0,0,0],"id":15,"left_children":[1,3,-1,5,-1,7,9,11,-1,-1,-1,13,15,-1,-1,-1,-1],"loss_changes":[7.107965E3,2.5531504E3,0E0,1.1978057E3,0E0,2.417301E3,1.9189209E1,3.8415045E2,0E0,0E0,0E0,1.4168396E2,1.1633163E1,0E0,0E0,0E0,0E0],"parents":[2147483647,0,0,1,1,3,3,5,5,6,6,7,7,11,11,12,12],"right_children":[2,4,-1,6,-1,8,10,12,-1,-1,-1,14,16,-1,-1,-1,-1],"split_conditions":[5.8795077E-1,1.16693924E2,4.7957927E-1,3.98E-1,-3.685153E-1,4.073E-1,2.0298584E-1,5.000335E-1,3.1799564E-1,2.6476135E-2,6.8910114E-2,5.3022266E2,2.3180066E-1,-3.8614955E-2,-1.0397678E-1,-2.3789215E-3,3.1594113E-2],"split_indices":[27,0,0,166,0,165,8,73,0,0,0,19,4,0,0,0,0],"split_type":[0,0,0,0,0,0,0,0,0,0,0,0,0,0,0,0,0],"sum_hessian":[9.2E1,9E1,2E0,8.9E1,1E0,7.1E1,1.8E1,7E1,1E0,3E0,1.5E1,6.2E1,8E0,5.9E1,3E0,1E0,7E0],"tree_param":{"num_deleted":"0","num_feature":"190","num_nodes":"17","size_leaf_vector":"1"}},{"base_weights":[6.9732666E-2,-1.4992251E0,4.763821E-1,-7.010549E-1,-3.6667272E-1,-2.539285E0,6.3017673E0,-3.4663332E0,3.1640568E-1,6.828893E0,2.6178226E-2,-4.296673E0,2.7311926E0,8.146913E-2,4.8985537E-2,-3.8235266E-2,-1.0319698E-1,3.9626057E-3,3.3417072E-2],"categories":[],"categories_nodes":[],"categories_segments":[],"categories_sizes":[],"default_left":[0,0,0,0,0,0,0,0,0,0,0,0,0,0,0,0,0,0,0],"id":16,"left_children":[1,3,-1,5,-1,7,9,11,-1,13,-1,15,17,-1,-1,-1,-1,-1,-1],"loss_changes":[7.012283E3,2.5286724E3,0E0,1.174554E3,0E0,2.3910955E3,1.9019287E1,3.771048E2,0E0,7.9956055E-1,0E0,1.4007788E2,1.1505417E1,0E0,0E0,0E0,0E0,0E0,0E0],"parents":[2147483647,0,0,1,1,3,3,5,5,6,6,7,7,9,9,11,11,12,12],"right_children":[2,4,-1,6,-1,8,10,12,-1,14,-1,16,18,-1,-1,-1,-1,-1,-1],"split_conditions":[5.8795077E-1,1.16693924E2,4.763821E-1,3.98E-1,-3.6667272E-1,4.073E-1,4.4621566E-1,5.000335E-1,3.1640568E-1,4.186423E-1,2.6178226E-2,5.3022266E2,-5.371E0,8.146913E-2,4.8985537E-2,-3.8235266E-2,-1.0319698E-1,3.9626057E-3,3.3417072E-2],"split_indices":[27,0,0,166,0,165,71,73,0,13,0,19,83,0,0,0,0,0,0],"split_type":[0,0,0,0,0,0,0,0,0,0,0,0,0,0,0,0,0,0,0],"sum_hessian":[9.2E1,9E1,2E0,8.9E1,1E0,7.1E1,1.8E1,7E1,1E0,1.5E1,3E0,6.2E1,8E0,7E0,8E0,5.9E1,3E0,2E0,6E0],"tree_param":{"num_deleted":"0","num_feature":"190","num_nodes":"19","size_leaf_vector":"1"}},{"base_weights":[7.418479E-2,-1.4842054E0,4.732062E-1,-6.8994236E-1,-3.6483935E-1,-2.51094E0,6.2469935E0,-3.4331326E0,3.1482363E-1,6.7687573E0,2.5981903E-2,-4.255948E0,2.708035E0,8.07563E-2,4.8550084E-2,-3.7859254E-2,-1.0242302E-1,-2.386818E-3,3.1062096E-2],"categories":[],"categories_nodes":[],"categories_segments":[],"categories_sizes":[],"default_left":[0,0,0,0,0,0,0,0,0,0,0,0,0,0,0,0,0,0,0],"id":17,"left_children":[1,3,-1,5,-1,7,9,11,-1,13,-1,15,17,-1,-1,-1,-1,-1,-1],"loss_changes":[6.9176733E3,2.5045364E3,0E0,1.1525789E3,0E0,2.365166E3,1.8585938E1,3.702918E2,0E0,8.092041E-1,0E0,1.3848792E2,1.130117E1,0E0,0E0,0E0,0E0,0E0,0E0],"parents":[2147483647,0,0,1,1,3,3,5,5,6,6,7,7,9,9,11,11,12,12],"right_children":[2,4,-1,6,-1,8,10,12,-1,14,-1,16,18,-1,-1,-1,-1,-1,-1],"split_conditions":[5.8795077E-1,1.16693924E2,4.732062E-1,3.98E-1,-3.6483935E-1,4.073E-1,4.4621566E-1,5.000335E-1,3.1482363E-1,4.186423E-1,2.5981903E-2,5.3022266E2,2.3180066E-1,8.07563E-2,4.8550084E-2,-3.7859254E-2,-1.0242302E-1,-2.386818E-3,3.1062096E-2],"split_indices":[27,0,0,166,0,165,71,73,0,13,0,19,4,0,0,0,0,0,0],"split_type":[0,0,0,0,0,0,0,0,0,0,0,0,0,0,0,0,0,0,0],"sum_hessian":[9.2E1,9E1,2E0,8.9E1,1E0,7.1E1,1.8E1,7E1,1E0,1.5E1,3E0,6.2E1,8E0,7E0,8E0,5.9E1,3E0,1E0,7E0],"tree_param":{"num_deleted":"0","num_feature":"190","num_nodes":"19","size_leaf_vector":"1"}},{"base_weights":[7.846151E-2,-1.4694345E0,4.7005153E-1,-6.790611E-1,-3.6301517E-1,-2.4830098E0,6.1926947E0,-3.4003747E0,3.132495E-1,9.180564E-3,6.434727E0,-4.215617E0,2.684143E0,6.608493E-2,1.7403563E-2,-3.7486993E-2,-1.01654835E-1,3.8406372E-3,3.286442E-2],"categories":[],"categories_nodes":[],"categories_segments":[],"categories_sizes":[],"default_left":[0,0,0,0,0,0,0,0,0,0,0,0,0,0,0,0,0,0,0],"id":18,"left_children":[1,3,-1,5,-1,7,9,11,-1,-1,13,15,17,-1,-1,-1,-1,-1,-1],"loss_changes":[6.824371E3,2.4806108E3,0E0,1.131043E3,0E0,2.3395417E3,1.8348633E1,3.6350073E2,0E0,0E0,3.1818237E0,1.3691284E2,1.1205818E1,0E0,0E0,0E0,0E0,0E0,0E0],"parents":[2147483647,0,0,1,1,3,3,5,5,6,6,7,7,10,10,11,11,12,12],"right_children":[2,4,-1,6,-1,8,10,12,-1,-1,14,16,18,-1,-1,-1,-1,-1,-1],"split_conditions":[5.8795077E-1,1.16693924E2,4.7005153E-1,3.98E-1,-3.6301517E-1,4.073E-1,1.9688922E-1,5.000335E-1,3.132495E-1,9.180564E-3,2.1885E3,5.3022266E2,-5.371E0,6.608493E-2,1.7403563E-2,-3.7486993E-2,-1.01654835E-1,3.8406372E-3,3.286442E-2],"split_indices":[27,0,0,166,0,165,8,73,0,0,37,19,83,0,0,0,0,0,0],"split_type":[0,0,0,0,0,0,0,0,0,0,0,0,0,0,0,0,0,0,0],"sum_hessian":[9.2E1,9E1,2E0,8.9E1,1E0,7.1E1,1.8E1,7E1,1E0,1E0,1.7E1,6.2E1,8E0,1.6E1,1E0,5.9E1,3E0,2E0,6E0],"tree_param":{"num_deleted":"0","num_feature":"190","num_nodes":"19","size_leaf_vector":"1"}},{"base_weights":[8.2088344E-2,-1.455397E0,4.6691784E-1,-6.689012E-1,-3.612001E-1,-2.455255E0,6.1356444E0,-3.3678172E0,3.1168327E-1,9.1346735E-3,6.375017E0,-4.1756735E0,2.6613786E0,6.546294E-2,1.731655E-2,-3.711841E-2,-1.00892425E-1,3.8150533E-3,3.25827E-2],"categories":[],"categories_nodes":[],"categories_segments":[],"categories_sizes":[],"default_left":[0,0,0,0,0,0,0,0,0,0,0,0,0,0,0,0,0,0,0],"id":19,"left_children":[1,3,-1,5,-1,7,9,11,-1,-1,13,15,17,-1,-1,-1,-1,-1,-1],"loss_changes":[6.732496E3,2.4568245E3,0E0,1.109044E3,0E0,2.314189E3,1.7927551E1,3.5693445E2,0E0,0E0,2.9794922E0,1.353534E2,1.1004498E1,0E0,0E0,0E0,0E0,0E0,0E0],"parents":[2147483647,0,0,1,1,3,3,5,5,6,6,7,7,10,10,11,11,12,12],"right_children":[2,4,-1,6,-1,8,10,12,-1,-1,14,16,18,-1,-1,-1,-1,-1,-1],"split_conditions":[5.8795077E-1,1.16693924E2,4.6691784E-1,3.98E-1,-3.612001E-1,4.073E-1,1.9688922E-1,5.000335E-1,3.1168327E-1,9.1346735E-3,2.1885E3,5.3022266E2,-5.371E0,6.546294E-2,1.731655E-2,-3.711841E-2,-1.00892425E-1,3.8150533E-3,3.25827E-2],"split_indices":[27,0,0,166,0,165,8,73,0,0,37,19,83,0,0,0,0,0,0],"split_type":[0,0,0,0,0,0,0,0,0,0,0,0,0,0,0,0,0,0,0],"sum_hessian":[9.2E1,9E1,2E0,8.9E1,1E0,7.1E1,1.8E1,7E1,1E0,1E0,1.7E1,6.2E1,8E0,1.6E1,1E0,5.9E1,3E0,2E0,6E0],"tree_param":{"num_deleted":"0","num_feature":"190","num_nodes":"19","size_leaf_vector":"1"}},{"base_weights":[8.56507E-2,-1.4414945E0,4.6380505E-1,-6.5885746E-1,-3.593941E-1,-2.427786E0,6.0791283E0,-3.3355715E0,3.1012484E-1,9.089012E-3,6.3158684E0,-4.136109E0,2.6388075E0,6.484684E-2,1.7229958E-2,-3.6753424E-2,-1.0013574E-1,-2.4131392E-3,3.0289868E-2],"categories":[],"categories_nodes":[],"categories_segments":[],"categories_sizes":[],"default_left":[0,0,0,0,0,0,0,0,0,0,0,0,0,0,0,0,0,0,0],"id":20,"left_children":[1,3,-1,5,-1,7,9,11,-1,-1,13,15,17,-1,-1,-1,-1,-1,-1],"loss_changes":[6.6418604E3,2.4332615E3,0E0,1.0874703E3,0E0,2.2891187E3,1.7515564E1,3.5048712E2,0E0,0E0,2.7832642E0,1.3380945E2,1.08448105E1,0E0,0E0,0E0,0E0,0E0,0E0],"parents":[2147483647,0,0,1,1,3,3,5,5,6,6,7,7,10,10,11,11,12,12],"right_children":[2,4,-1,6,-1,8,10,12,-1,-1,14,16,18,-1,-1,-1,-1,-1,-1],"split_conditions":[5.8795077E-1,1.16693924E2,4.6380505E-1,3.98E-1,-3.593941E-1,4.073E-1,1.9688922E-1,5.000335E-1,3.1012484E-1,9.089012E-3,2.1885E3,5.3022266E2,2.3180066E-1,6.484684E-2,1.7229958E-2,-3.6753424E-2,-1.0013574E-1,-2.4131392E-3,3.0289868E-2],"split_indices":[27,0,0,166,0,165,8,73,0,0,37,19,4,0,0,0,0,0,0],"split_type":[0,0,0,0,0,0,0,0,0,0,0,0,0,0,0,0,0,0,0],"sum_hessian":[9.2E1,9E1,2E0,8.9E1,1E0,7.1E1,1.8E1,7E1,1E0,1E0,1.7E1,6.2E1,8E0,1.6E1,1E0,5.9E1,3E0,1E0,7E0],"tree_param":{"num_deleted":"0","num_feature":"190","num_nodes":"19","size_leaf_vector":"1"}},{"base_weights":[8.9057595E-2,-1.4278191E0,4.60713E-1,-6.4902353E-1,-3.575971E-1,-2.4007173E0,6.023133E0,-3.3037534E0,3.085742E-1,2.508356E-2,6.525381E0,-4.096923E0,2.6155176E0,6.7036524E-2,1.9256515E-2,-3.639204E-2,-9.9384725E-2,3.6966957E-3,3.204378E-2],"categories":[],"categories_nodes":[],"categories_segments":[],"categories_sizes":[],"default_left":[0,0,0,0,0,0,0,0,0,0,0,0,0,0,0,0,0,0,0],"id":21,"left_children":[1,3,-1,5,-1,7,9,11,-1,-1,13,15,17,-1,-1,-1,-1,-1,-1],"loss_changes":[6.552475E3,2.409906E3,0E0,1.0663414E3,0E0,2.2643428E3,1.7172546E1,3.4405963E2,0E0,0E0,2.1118164E-1,1.3228052E2,1.0717869E1,0E0,0E0,0E0,0E0,0E0,0E0],"parents":[2147483647,0,0,1,1,3,3,5,5,6,6,7,7,10,10,11,11,12,12],"right_children":[2,4,-1,6,-1,8,10,12,-1,-1,14,16,18,-1,-1,-1,-1,-1,-1],"split_conditions":[5.8795077E-1,1.16693924E2,4.60713E-1,3.98E-1,-3.575971E-1,4.073E-1,2.0298584E-1,5.000335E-1,3.085742E-1,2.508356E-2,1.9994427E-1,5.3022266E2,-5.371E0,6.7036524E-2,1.9256515E-2,-3.639204E-2,-9.9384725E-2,3.6966957E-3,3.204378E-2],"split_indices":[27,0,0,166,0,165,8,73,0,0,5,19,83,0,0,0,0,0,0],"split_type":[0,0,0,0,0,0,0,0,0,0,0,0,0,0,0,0,0,0,0],"sum_hessian":[9.2E1,9E1,2E0,8.9E1,1E0,7.1E1,1.8E1,7E1,1E0,3E0,1.5E1,6.2E1,8E0,1.4E1,1E0,5.9E1,3E0,2E0,6E0],"tree_param":{"num_deleted":"0","num_feature":"190","num_nodes":"19","size_leaf_vector":"1"}},{"base_weights":[9.271535E-2,-1.4139553E0,4.5764154E-1,-6.38979E-1,-3.5580912E-1,-2.3738134E0,5.968761E0,-3.2721245E0,3.0703136E-1,6.4677873E0,2.4804648E-2,-4.0581083E0,2.593333E0,7.774462E-2,4.587656E-2,-3.6034185E-2,-9.863932E-2,-2.419586E-3,2.977989E-2],"categories":[],"categories_nodes":[],"categories_segments":[],"categories_sizes":[],"default_left":[0,0,0,0,0,0,0,0,0,0,0,0,0,0,0,0,0,0,0],"id":22,"left_children":[1,3,-1,5,-1,7,9,11,-1,13,-1,15,17,-1,-1,-1,-1,-1,-1],"loss_changes":[6.464208E3,2.386816E3,0E0,1.0458689E3,0E0,2.2398286E3,1.7031189E1,3.3784515E2,0E0,3.6409912E0,0E0,1.3076672E2,1.0536064E1,0E0,0E0,0E0,0E0,0E0,0E0],"parents":[2147483647,0,0,1,1,3,3,5,5,6,6,7,7,9,9,11,11,12,12],"right_children":[2,4,-1,6,-1,8,10,12,-1,14,-1,16,18,-1,-1,-1,-1,-1,-1],"split_conditions":[5.8795077E-1,1.16693924E2,4.5764154E-1,3.98E-1,-3.5580912E-1,4.073E-1,4.4621566E-1,5.000335E-1,3.0703136E-1,4.186423E-1,2.4804648E-2,5.3022266E2,2.3180066E-1,7.774462E-2,4.587656E-2,-3.6034185E-2,-9.863932E-2,-2.419586E-3,2.977989E-2],"split_indices":[27,0,0,166,0,165,71,73,0,13,0,19,4,0,0,0,0,0,0],"split_type":[0,0,0,0,0,0,0,0,0,0,0,0,0,0,0,0,0,0,0],"sum_hessian":[9.2E1,9E1,2E0,8.9E1,1E0,7.1E1,1.8E1,7E1,1E0,1.5E1,3E0,6.2E1,8E0,7E0,8E0,5.9E1,3E0,1E0,7E0],"tree_param":{"num_deleted":"0","num_feature":"190","num_nodes":"19","size_leaf_vector":"1"}},{"base_weights":[9.662677E-2,-1.3999E0,4.545906E-1,-6.287209E-1,-3.5403007E-1,-2.3473015E0,5.9168863E0,-3.2409148E0,3.0549622E-1,8.794135E-3,6.1478896E0,-4.0196657E0,2.5704412E0,4.96526E-2,8.229673E-2,-3.567985E-2,-9.789951E-2,3.580831E-3,3.151389E-2],"categories":[],"categories_nodes":[],"categories_segments":[],"categories_sizes":[],"default_left":[0,0,0,0,0,0,0,0,0,0,0,0,0,0,0,0,0,0,0],"id":23,"left_children":[1,3,-1,5,-1,7,9,11,-1,-1,13,15,17,-1,-1,-1,-1,-1,-1],"loss_changes":[6.3770454E3,2.3639875E3,0E0,1.0263126E3,0E0,2.215602E3,1.6703247E1,3.3164978E2,0E0,0E0,3.453186E0,1.2926807E2,1.0438923E1,0E0,0E0,0E0,0E0,0E0,0E0],"parents":[2147483647,0,0,1,1,3,3,5,5,6,6,7,7,10,10,11,11,12,12],"right_children":[2,4,-1,6,-1,8,10,12,-1,-1,14,16,18,-1,-1,-1,-1,-1,-1],"split_conditions":[5.8795077E-1,1.16693924E2,4.545906E-1,3.98E-1,-3.5403007E-1,4.073E-1,1.9688922E-1,5.000335E-1,3.0549622E-1,8.794135E-3,5.300613E2,5.3022266E2,-5.371E0,4.96526E-2,8.229673E-2,-3.567985E-2,-9.789951E-2,3.580831E-3,3.151389E-2],"split_indices":[27,0,0,166,0,165,8,73,0,0,15,19,83,0,0,0,0,0,0],"split_type":[0,0,0,0,0,0,0,0,0,0,0,0,0,0,0,0,0,0,0],"sum_hessian":[9.2E1,9E1,2E0,8.9E1,1E0,7.1E1,1.8E1,7E1,1E0,1E0,1.7E1,6.2E1,8E0,1.3E1,4E0,5.9E1,3E0,2E0,6E0],"tree_param":{"num_deleted":"0","num_feature":"190","num_nodes":"19","size_leaf_vector":"1"}},{"base_weights":[1.0048273E-1,-1.3859682E0,4.5156002E-1,-6.18568E-1,-3.5225993E-1,-2.3209512E0,5.8651247E0,-3.2098906E0,3.0396873E-1,6.3561263E0,2.4348373E-2,-3.9815865E0,2.5486348E0,7.646667E-2,4.5027424E-2,-3.5328973E-2,-9.716526E-2,3.5569763E-3,3.1243743E-2],"categories":[],"categories_nodes":[],"categories_segments":[],"categories_sizes":[],"default_left":[0,0,0,0,0,0,0,0,0,0,0,0,0,0,0,0,0,0,0],"id":24,"left_children":[1,3,-1,5,-1,7,9,11,-1,13,-1,15,17,-1,-1,-1,-1,-1,-1],"loss_changes":[6.291057E3,2.341375E3,0E0,1.0070083E3,0E0,2.1916304E3,1.6525146E1,3.2565967E2,0E0,3.8389282E0,0E0,1.27784424E2,1.025172E1,0E0,0E0,0E0,0E0,0E0,0E0],"parents":[2147483647,0,0,1,1,3,3,5,5,6,6,7,7,9,9,11,11,12,12],"right_children":[2,4,-1,6,-1,8,10,12,-1,14,-1,16,18,-1,-1,-1,-1,-1,-1],"split_conditions":[5.8795077E-1,1.16693924E2,4.5156002E-1,3.98E-1,-3.5225993E-1,4.073E-1,4.4621566E-1,5.000335E-1,3.0396873E-1,4.186423E-1,2.4348373E-2,5.3022266E2,-5.371E0,7.646667E-2,4.5027424E-2,-3.5328973E-2,-9.716526E-2,3.5569763E-3,3.1243743E-2],"split_indices":[27,0,0,166,0,165,71,73,0,13,0,19,83,0,0,0,0,0,0],"split_type":[0,0,0,0,0,0,0,0,0,0,0,0,0,0,0,0,0,0,0],"sum_hessian":[9.2E1,9E1,2E0,8.9E1,1E0,7.1E1,1.8E1,7E1,1E0,1.5E1,3E0,6.2E1,8E0,7E0,8E0,5.9E1,3E0,2E0,6E0],"tree_param":{"num_deleted":"0","num_feature":"190","num_nodes":"19","size_leaf_vector":"1"}},{"base_weights":[1.0433353E-1,-1.3721083E0,4.485496E-1,-6.084681E-1,-3.5049865E-1,-2.2948742E0,5.8141484E0,-3.1791651E0,3.0244887E-1,2.4152163E-2,6.300497E0,-3.943871E0,2.5270166E0,6.474431E-2,1.845745E-2,-3.4981545E-2,-9.64365E-2,-2.4431609E-3,2.9039726E-2],"categories":[],"categories_nodes":[],"categories_segments":[],"categories_sizes":[],"default_left":[0,0,0,0,0,0,0,0,0,0,0,0,0,0,0,0,0,0,0],"id":25,"left_children":[1,3,-1,5,-1,7,9,11,-1,-1,13,15,17,-1,-1,-1,-1,-1,-1],"loss_changes":[6.2062144E3,2.3189832E3,0E0,9.881454E2,0E0,2.1679258E3,1.6191162E1,3.1977838E2,0E0,0E0,4.472046E-1,1.2631561E2,1.0111519E1,0E0,0E0,0E0,0E0,0E0,0E0],"parents":[2147483647,0,0,1,1,3,3,5,5,6,6,7,7,10,10,11,11,12,12],"right_children":[2,4,-1,6,-1,8,10,12,-1,-1,14,16,18,-1,-1,-1,-1,-1,-1],"split_conditions":[5.8795077E-1,1.16693924E2,4.485496E-1,3.98E-1,-3.5049865E-1,4.073E-1,2.0298584E-1,5.000335E-1,3.0244887E-1,2.4152163E-2,1.9994427E-1,5.3022266E2,2.3180066E-1,6.474431E-2,1.845745E-2,-3.4981545E-2,-9.64365E-2,-2.4431609E-3,2.9039726E-2],"split_indices":[27,0,0,166,0,165,8,73,0,0,5,19,4,0,0,0,0,0,0],"split_type":[0,0,0,0,0,0,0,0,0,0,0,0,0,0,0,0,0,0,0],"sum_hessian":[9.2E1,9E1,2E0,8.9E1,1E0,7.1E1,1.8E1,7E1,1E0,3E0,1.5E1,6.2E1,8E0,1.4E1,1E0,5.9E1,3E0,1E0,7E0],"tree_param":{"num_deleted":"0","num_feature":"190","num_nodes":"19","size_leaf_vector":"1"}},{"base_weights":[1.0762368E-1,-1.3588877E0,4.4555926E-1,-5.9899503E-1,-3.4874615E-1,-2.2691813E0,5.7616577E0,-3.1488504E0,3.009366E-1,6.2448897E0,2.388315E-2,-3.9065192E0,2.504703E0,7.523106E-2,4.41482E-2,-3.4637567E-2,-9.5713235E-2,3.4446206E-3,3.0727059E-2],"categories":[],"categories_nodes":[],"categories_segments":[],"categories_sizes":[],"default_left":[0,0,0,0,0,0,0,0,0,0,0,0,0,0,0,0,0,0,0],"id":26,"left_children":[1,3,-1,5,-1,7,9,11,-1,13,-1,15,17,-1,-1,-1,-1,-1,-1],"loss_changes":[6.122654E3,2.2967307E3,0E0,9.6918695E2,0E0,2.144499E3,1.6057312E1,3.1391473E2,0E0,4.2144165E0,0E0,1.2486145E2,9.984787E0,0E0,0E0,0E0,0E0,0E0,0E0],"parents":[2147483647,0,0,1,1,3,3,5,5,6,6,7,7,9,9,11,11,12,12],"right_children":[2,4,-1,6,-1,8,10,12,-1,14,-1,16,18,-1,-1,-1,-1,-1,-1],"split_conditions":[5.8795077E-1,1.16693924E2,4.4555926E-1,3.98E-1,-3.4874615E-1,4.073E-1,4.4621566E-1,5.000335E-1,3.009366E-1,4.186423E-1,2.388315E-2,5.3022266E2,-5.371E0,7.523106E-2,4.41482E-2,-3.4637567E-2,-9.5713235E-2,3.4446206E-3,3.0727059E-2],"split_indices":[27,0,0,166,0,165,71,73,0,13,0,19,83,0,0,0,0,0,0],"split_type":[0,0,0,0,0,0,0,0,0,0,0,0,0,0,0,0,0,0,0],"sum_hessian":[9.2E1,9E1,2E0,8.9E1,1E0,7.1E1,1.8E1,7E1,1E0,1.5E1,3E0,6.2E1,8E0,7E0,8E0,5.9E1,3E0,2E0,6E0],"tree_param":{"num_deleted":"0","num_feature":"190","num_nodes":"19","size_leaf_vector":"1"}},{"base_weights":[1.113305E-1,-1.345307E0,4.4258893E-1,-5.891384E-1,-3.4700242E-1,-2.3572958E0,5.3327737E0,4.4716306E0,-3.7062757E0,2.605093E0,2.9943195E-1,2.1058786E0,6.486403E-2,2.3314768E-2,-3.95903E0,4.3991146E0,-9.027401E-2,-2.448158E-3,2.5384635E-2,-3.9909616E-2,-1.08541865E-2,9.71257E-3,5.3091273E-2],"categories":[],"categories_nodes":[],"categories_segments":[],"categories_sizes":[],"default_left":[0,0,0,0,0,0,0,0,0,0,0,0,0,0,0,0,0,0,0,0,0,0,0],"id":27,"left_children":[1,3,-1,5,-1,7,9,11,13,15,-1,17,-1,-1,19,21,-1,-1,-1,-1,-1,-1,-1],"loss_changes":[6.040092E3,2.2747544E3,0E0,9.5494946E2,0E0,6.6141907E2,1.3317122E3,4.353784E1,9.926837E1,4.5709158E2,0E0,7.739582E0,0E0,0E0,8.9849854E-1,5.0992554E1,0E0,0E0,0E0,0E0,0E0,0E0,0E0],"parents":[2147483647,0,0,1,1,3,3,5,5,6,6,7,7,8,8,9,9,11,11,14,14,15,15],"right_children":[2,4,-1,6,-1,8,10,12,14,16,-1,18,-1,-1,20,22,-1,-1,-1,-1,-1,-1,-1],"split_conditions":[5.8795077E-1,1.16693924E2,4.4258893E-1,4.1557524E-1,-3.4700242E-1,2.1885E3,1.2030247E-1,4.371479E-1,5.314E2,2.402842E1,2.9943195E-1,1.2008606E-1,6.486403E-2,2.3314768E-2,2.3243E1,4.953741E-1,-9.027401E-2,-2.448158E-3,2.5384635E-2,-3.9909616E-2,-1.08541865E-2,9.71257E-3,5.3091273E-2],"split_indices":[27,0,0,13,0,37,2,46,131,6,0,2,0,0,158,14,0,0,0,0,0,0,0],"split_type":[0,0,0,0,0,0,0,0,0,0,0,0,0,0,0,0,0,0,0,0,0,0,0],"sum_hessian":[9.2E1,9E1,2E0,8.9E1,1E0,6.9E1,2E1,1.1E1,5.8E1,1.9E1,1E0,6E0,5E0,2E0,5.6E1,1.7E1,2E0,1E0,5E0,5.5E1,1E0,4E0,1.3E1],"tree_param":{"num_deleted":"0","num_feature":"190","num_nodes":"23","size_leaf_vector":"1"}},{"base_weights":[1.1481787E-1,-1.3320158E0,4.3963832E-1,-5.79555E-1,-3.4526742E-1,-2.3328607E0,5.2923956E0,4.4342313E0,-3.6696784E0,2.5776672E0,2.979348E-1,2.0880978E0,6.4323485E-2,2.3159333E-2,-3.9203303E0,4.3586116E0,-8.967221E-2,-2.435913E-3,2.517311E-2,-3.9517652E-2,-1.0799903E-2,9.634873E-3,5.2598264E-2],"categories":[],"categories_nodes":[],"categories_segments":[],"categories_sizes":[],"default_left":[0,0,0,0,0,0,0,0,0,0,0,0,0,0,0,0,0,0,0,0,0,0,0],"id":28,"left_children":[1,3,-1,5,-1,7,9,11,13,15,-1,17,-1,-1,19,21,-1,-1,-1,-1,-1,-1,-1],"loss_changes":[5.958688E3,2.252963E3,0E0,9.389256E2,0E0,6.4951794E2,1.3199917E3,4.282283E1,9.759717E1,4.5030072E2,0E0,7.618744E0,0E0,0E0,8.2141113E-1,5.0007507E1,0E0,0E0,0E0,0E0,0E0,0E0,0E0],"parents":[2147483647,0,0,1,1,3,3,5,5,6,6,7,7,8,8,9,9,11,11,14,14,15,15],"right_children":[2,4,-1,6,-1,8,10,12,14,16,-1,18,-1,-1,20,22,-1,-1,-1,-1,-1,-1,-1],"split_conditions":[5.8795077E-1,1.16693924E2,4.3963832E-1,4.1557524E-1,-3.4526742E-1,2.1885E3,1.2030247E-1,4.371479E-1,5.314E2,2.402842E1,2.979348E-1,1.2008606E-1,6.4323485E-2,2.3159333E-2,2.3243E1,4.953741E-1,-8.967221E-2,-2.435913E-3,2.517311E-2,-3.9517652E-2,-1.0799903E-2,9.634873E-3,5.2598264E-2],"split_indices":[27,0,0,13,0,37,2,46,131,6,0,2,0,0,158,14,0,0,0,0,0,0,0],"split_type":[0,0,0,0,0,0,0,0,0,0,0,0,0,0,0,0,0,0,0,0,0,0,0],"sum_hessian":[9.2E1,9E1,2E0,8.9E1,1E0,6.9E1,2E1,1.1E1,5.8E1,1.9E1,1E0,6E0,5E0,2E0,5.6E1,1.7E1,2E0,1E0,5E0,5.5E1,1E0,4E0,1.3E1],"tree_param":{"num_deleted":"0","num_feature":"190","num_nodes":"23","size_leaf_vector":"1"}},{"base_weights":[1.18239045E-1,-1.3188571E0,4.367074E-1,-5.700864E-1,-3.4354106E-1,-2.308674E0,5.252353E0,4.3971457E0,-3.6334398E0,2.5505195E0,2.964451E-1,2.0704672E0,6.378746E-2,2.3004914E-2,-3.8820074E0,4.3184834E0,-8.907437E-2,-2.4237442E-3,2.4963366E-2,-3.9129507E-2,-1.0745888E-2,9.557785E-3,5.2109864E-2],"categories":[],"categories_nodes":[],"categories_segments":[],"categories_sizes":[],"default_left":[0,0,0,0,0,0,0,0,0,0,0,0,0,0,0,0,0,0,0,0,0,0,0],"id":29,"left_children":[1,3,-1,5,-1,7,9,11,13,15,-1,17,-1,-1,19,21,-1,-1,-1,-1,-1,-1,-1],"loss_changes":[5.8783853E3,2.2313752E3,0E0,9.2317993E2,0E0,6.378314E2,1.3083657E3,4.21196E1,9.595453E1,4.4361172E2,0E0,7.4998283E0,0E0,0E0,7.4694824E-1,4.9041504E1,0E0,0E0,0E0,0E0,0E0,0E0,0E0],"parents":[2147483647,0,0,1,1,3,3,5,5,6,6,7,7,8,8,9,9,11,11,14,14,15,15],"right_children":[2,4,-1,6,-1,8,10,12,14,16,-1,18,-1,-1,20,22,-1,-1,-1,-1,-1,-1,-1],"split_conditions":[5.8795077E-1,1.16693924E2,4.367074E-1,4.1557524E-1,-3.4354106E-1,2.1885E3,1.2030247E-1,4.371479E-1,5.314E2,2.402842E1,2.964451E-1,1.2008606E-1,6.378746E-2,2.3004914E-2,2.3243E1,4.953741E-1,-8.907437E-2,-2.4237442E-3,2.4963366E-2,-3.9129507E-2,-1.0745888E-2,9.557785E-3,5.2109864E-2],"split_indices":[27,0,0,13,0,37,2,46,131,6,0,2,0,0,158,14,0,0,0,0,0,0,0],"split_type":[0,0,0,0,0,0,0,0,0,0,0,0,0,0,0,0,0,0,0,0,0,0,0],"sum_hessian":[9.2E1,9E1,2E0,8.9E1,1E0,6.9E1,2E1,1.1E1,5.8E1,1.9E1,1E0,6E0,5E0,2E0,5.6E1,1.7E1,2E0,1E0,5E0,5.5E1,1E0,4E0,1.3E1],"tree_param":{"num_deleted":"0","num_feature":"190","num_nodes":"23","size_leaf_vector":"1"}},{"base_weights":[1.2159163E-1,-1.3058329E0,4.3379605E-1,-5.607346E-1,-3.4182334E-1,-2.2847369E0,5.2126412E0,4.3603673E0,-3.5975592E0,2.5236442E0,2.9496288E-1,2.0529828E0,6.3255884E-2,2.2851562E-2,-3.8440607E0,4.278725E0,-8.8480555E-2,-2.4116135E-3,2.4755336E-2,-3.874518E-2,-1.0692176E-2,9.481308E-3,5.1626E-2],"categories":[],"categories_nodes":[],"categories_segments":[],"categories_sizes":[],"default_left":[0,0,0,0,0,0,0,0,0,0,0,0,0,0,0,0,0,0,0,0,0,0,0],"id":30,"left_children":[1,3,-1,5,-1,7,9,11,13,15,-1,17,-1,-1,19,21,-1,-1,-1,-1,-1,-1,-1],"loss_changes":[5.7991685E3,2.209989E3,0E0,9.0770764E2,0E0,6.2635547E2,1.2968335E3,4.1427917E1,9.434015E1,4.3702344E2,0E0,7.3827553E0,0E0,0E0,6.746826E-1,4.8094086E1,0E0,0E0,0E0,0E0,0E0,0E0,0E0],"parents":[2147483647,0,0,1,1,3,3,5,5,6,6,7,7,8,8,9,9,11,11,14,14,15,15],"right_children":[2,4,-1,6,-1,8,10,12,14,16,-1,18,-1,-1,20,22,-1,-1,-1,-1,-1,-1,-1],"split_conditions":[5.8795077E-1,1.16693924E2,4.3379605E-1,4.1557524E-1,-3.4182334E-1,2.1885E3,1.2030247E-1,4.371479E-1,5.314E2,2.402842E1,2.9496288E-1,1.2008606E-1,6.3255884E-2,2.2851562E-2,2.3243E1,4.953741E-1,-8.8480555E-2,-2.4116135E-3,2.4755336E-2,-3.874518E-2,-1.0692176E-2,9.481308E-3,5.1626E-2],"split_indices":[27,0,0,13,0,37,2,46,131,6,0,2,0,0,158,14,0,0,0,0,0,0,0],"split_type":[0,0,0,0,0,0,0,0,0,0,0,0,0,0,0,0,0,0,0,0,0,0,0],"sum_hessian":[9.2E1,9E1,2E0,8.9E1,1E0,6.9E1,2E1,1.1E1,5.8E1,1.9E1,1E0,6E0,5E0,2E0,5.6E1,1.7E1,2E0,1E0,5E0,5.5E1,1E0,4E0,1.3E1],"tree_param":{"num_deleted":"0","num_feature":"190","num_nodes":"23","size_leaf_vector":"1"}},{"base_weights":[1.2487407E-1,-1.2929442E0,4.3090403E-1,-5.515008E-1,-3.4011424E-1,-2.261049E0,5.173255E0,4.3238964E0,-3.562037E0,2.4970372E0,2.934881E-1,2.0356433E0,6.2728755E-2,2.269923E-2,-3.8064904E0,4.239331E0,-8.78907E-2,-2.399559E-3,2.4549026E-2,-3.836468E-2,-1.0638732E-2,9.405441E-3,5.1146593E-2],"categories":[],"categories_nodes":[],"categories_segments":[],"categories_sizes":[],"default_left":[0,0,0,0,0,0,0,0,0,0,0,0,0,0,0,0,0,0,0,0,0,0,0],"id":31,"left_children":[1,3,-1,5,-1,7,9,11,13,15,-1,17,-1,-1,19,21,-1,-1,-1,-1,-1,-1,-1],"loss_changes":[5.7210234E3,2.1888027E3,0E0,8.9250415E2,0E0,6.150874E2,1.285395E3,4.074774E1,9.2753296E1,4.3053403E2,0E0,7.2675304E0,0E0,0E0,6.0491943E-1,4.7164856E1,0E0,0E0,0E0,0E0,0E0,0E0,0E0],"parents":[2147483647,0,0,1,1,3,3,5,5,6,6,7,7,8,8,9,9,11,11,14,14,15,15],"right_children":[2,4,-1,6,-1,8,10,12,14,16,-1,18,-1,-1,20,22,-1,-1,-1,-1,-1,-1,-1],"split_conditions":[5.8795077E-1,1.16693924E2,4.3090403E-1,4.1557524E-1,-3.4011424E-1,2.1885E3,1.2030247E-1,4.371479E-1,5.314E2,2.402842E1,2.934881E-1,1.2008606E-1,6.2728755E-2,2.269923E-2,2.3243E1,4.953741E-1,-8.78907E-2,-2.399559E-3,2.4549026E-2,-3.836468E-2,-1.0638732E-2,9.405441E-3,5.1146593E-2],"split_indices":[27,0,0,13,0,37,2,46,131,6,0,2,0,0,158,14,0,0,0,0,0,0,0],"split_type":[0,0,0,0,0,0,0,0,0,0,0,0,0,0,0,0,0,0,0,0,0,0,0],"sum_hessian":[9.2E1,9E1,2E0,8.9E1,1E0,6.9E1,2E1,1.1E1,5.8E1,1.9E1,1E0,6E0,5E0,2E0,5.6E1,1.7E1,2E0,1E0,5E0,5.5E1,1E0,4E0,1.3E1],"tree_param":{"num_deleted":"0","num_feature":"190","num_nodes":"23","size_leaf_vector":"1"}},{"base_weights":[1.2809508E-1,-1.280182E0,4.2803133E-1,-5.4237586E-1,-3.384137E-1,-2.2375991E0,5.134196E0,4.2877297E0,-3.5268593E0,2.4706988E0,2.9202065E-1,2.01845E0,6.2206015E-2,2.2547912E-2,-3.7692819E0,4.2003E0,-8.730476E-2,-2.3875427E-3,2.4344431E-2,-3.798785E-2,-1.0585556E-2,9.330185E-3,5.0671652E-2],"categories":[],"categories_nodes":[],"categories_segments":[],"categories_sizes":[],"default_left":[0,0,0,0,0,0,0,0,0,0,0,0,0,0,0,0,0,0,0,0,0,0,0],"id":32,"left_children":[1,3,-1,5,-1,7,9,11,13,15,-1,17,-1,-1,19,21,-1,-1,-1,-1,-1,-1,-1],"loss_changes":[5.6439365E3,2.1678152E3,0E0,8.7756323E2,0E0,6.040215E2,1.2740488E3,4.0078735E1,9.119354E1,4.2414206E2,0E0,7.154104E0,0E0,0E0,5.373535E-1,4.625354E1,0E0,0E0,0E0,0E0,0E0,0E0,0E0],"parents":[2147483647,0,0,1,1,3,3,5,5,6,6,7,7,8,8,9,9,11,11,14,14,15,15],"right_children":[2,4,-1,6,-1,8,10,12,14,16,-1,18,-1,-1,20,22,-1,-1,-1,-1,-1,-1,-1],"split_conditions":[5.8795077E-1,1.16693924E2,4.2803133E-1,4.1557524E-1,-3.384137E-1,2.1885E3,1.2030247E-1,4.371479E-1,5.314E2,2.402842E1,2.9202065E-1,1.2008606E-1,6.2206015E-2,2.2547912E-2,2.3243E1,4.953741E-1,-8.730476E-2,-2.3875427E-3,2.4344431E-2,-3.798785E-2,-1.0585556E-2,9.330185E-3,5.0671652E-2],"split_indices":[27,0,0,13,0,37,2,46,131,6,0,2,0,0,158,14,0,0,0,0,0,0,0],"split_type":[0,0,0,0,0,0,0,0,0,0,0,0,0,0,0,0,0,0,0,0,0,0,0],"sum_hessian":[9.2E1,9E1,2E0,8.9E1,1E0,6.9E1,2E1,1.1E1,5.8E1,1.9E1,1E0,6E0,5E0,2E0,5.6E1,1.7E1,2E0,1E0,5E0,5.5E1,1E0,4E0,1.3E1],"tree_param":{"num_deleted":"0","num_feature":"190","num_nodes":"23","size_leaf_vector":"1"}},{"base_weights":[1.3124838E-1,-1.2675521E0,4.2517778E-1,-5.333658E-1,-3.367216E-1,-2.2143931E0,5.095457E0,4.2518673E0,-3.4920328E0,2.4446247E0,2.905605E-1,2.0014017E0,6.168766E-2,2.2397613E-2,-3.7324424E0,4.1616287E0,-8.672275E-2,-2.3756027E-3,2.4141552E-2,-3.7614763E-2,-1.05326455E-2,9.255539E-3,5.0201103E-2],"categories":[],"categories_nodes":[],"categories_segments":[],"categories_sizes":[],"default_left":[0,0,0,0,0,0,0,0,0,0,0,0,0,0,0,0,0,0,0,0,0,0,0],"id":33,"left_children":[1,3,-1,5,-1,7,9,11,13,15,-1,17,-1,-1,19,21,-1,-1,-1,-1,-1,-1,-1],"loss_changes":[5.5678916E3,2.1470232E3,0E0,8.628819E2,0E0,5.9315625E2,1.2627949E3,3.9420822E1,8.966052E1,4.17846E2,0E0,7.042486E0,0E0,0E0,4.7210693E-1,4.535968E1,0E0,0E0,0E0,0E0,0E0,0E0,0E0],"parents":[2147483647,0,0,1,1,3,3,5,5,6,6,7,7,8,8,9,9,11,11,14,14,15,15],"right_children":[2,4,-1,6,-1,8,10,12,14,16,-1,18,-1,-1,20,22,-1,-1,-1,-1,-1,-1,-1],"split_conditions":[5.8795077E-1,1.16693924E2,4.2517778E-1,4.1557524E-1,-3.367216E-1,2.1885E3,1.2030247E-1,4.371479E-1,5.314E2,2.402842E1,2.905605E-1,1.2008606E-1,6.168766E-2,2.2397613E-2,2.3243E1,4.953741E-1,-8.672275E-2,-2.3756027E-3,2.4141552E-2,-3.7614763E-2,-1.05326455E-2,9.255539E-3,5.0201103E-2],"split_indices":[27,0,0,13,0,37,2,46,131,6,0,2,0,0,158,14,0,0,0,0,0,0,0],"split_type":[0,0,0,0,0,0,0,0,0,0,0,0,0,0,0,0,0,0,0,0,0,0,0],"sum_hessian":[9.2E1,9E1,2E0,8.9E1,1E0,6.9E1,2E1,1.1E1,5.8E1,1.9E1,1E0,6E0,5E0,2E0,5.6E1,1.7E1,2E0,1E0,5E0,5.5E1,1E0,4E0,1.3E1],"tree_param":{"num_deleted":"0","num_feature":"190","num_nodes":"23","size_leaf_vector":"1"}},{"base_weights":[1.3433747E-1,-1.2550505E0,4.2234328E-1,-5.244667E-1,-3.3503798E-1,-2.1914265E0,5.0570407E0,4.2163024E0,-3.4575505E0,2.4188151E0,2.8910774E-1,1.9844981E0,6.1173566E-2,2.224828E-2,-3.6959643E0,4.123316E0,-8.614459E-2,5.9360503E-3,2.8792666E-2,-3.724535E-2,-1.0479965E-2,9.181503E-3,4.973495E-2],"categories":[],"categories_nodes":[],"categories_segments":[],"categories_sizes":[],"default_left":[0,0,0,0,0,0,0,0,0,0,0,0,0,0,0,0,0,0,0,0,0,0,0],"id":34,"left_children":[1,3,-1,5,-1,7,9,11,13,15,-1,17,-1,-1,19,21,-1,-1,-1,-1,-1,-1,-1],"loss_changes":[5.4928765E3,2.126426E3,0E0,8.4845557E2,0E0,5.824867E2,1.2516322E3,3.8773483E1,8.8153625E1,4.116445E2,0E0,7.002548E0,0E0,0E0,4.0905762E-1,4.4483E1,0E0,0E0,0E0,0E0,0E0,0E0,0E0],"parents":[2147483647,0,0,1,1,3,3,5,5,6,6,7,7,8,8,9,9,11,11,14,14,15,15],"right_children":[2,4,-1,6,-1,8,10,12,14,16,-1,18,-1,-1,20,22,-1,-1,-1,-1,-1,-1,-1],"split_conditions":[5.8795077E-1,1.16693924E2,4.2234328E-1,4.1557524E-1,-3.3503798E-1,2.1885E3,1.2030247E-1,4.371479E-1,5.314E2,2.402842E1,2.8910774E-1,4.849536E-1,6.1173566E-2,2.224828E-2,2.3243E1,4.953741E-1,-8.614459E-2,5.9360503E-3,2.8792666E-2,-3.724535E-2,-1.0479965E-2,9.181503E-3,4.973495E-2],"split_indices":[27,0,0,13,0,37,2,46,131,6,0,14,0,0,158,14,0,0,0,0,0,0,0],"split_type":[0,0,0,0,0,0,0,0,0,0,0,0,0,0,0,0,0,0,0,0,0,0,0],"sum_hessian":[9.2E1,9E1,2E0,8.9E1,1E0,6.9E1,2E1,1.1E1,5.8E1,1.9E1,1E0,6E0,5E0,2E0,5.6E1,1.7E1,2E0,3E0,3E0,5.5E1,1E0,4E0,1.3E1],"tree_param":{"num_deleted":"0","num_feature":"190","num_nodes":"23","size_leaf_vector":"1"}},{"base_weights":[1.3750696E-1,-1.2425293E0,4.1952768E-1,-5.1552886E-1,-3.333628E-1,-2.168505E0,5.0189404E0,4.1821313E0,-3.4234056E0,2.3932655E0,2.876622E-1,1.9696143E0,6.0663793E-2,2.2099964E-2,-3.6598406E0,4.0853558E0,-8.55703E-2,5.8915326E-3,2.8576717E-2,-3.6879536E-2,-1.0427551E-2,9.108078E-3,4.9273115E-2],"categories":[],"categories_nodes":[],"categories_segments":[],"categories_sizes":[],"default_left":[0,0,0,0,0,0,0,0,0,0,0,0,0,0,0,0,0,0,0,0,0,0,0],"id":35,"left_children":[1,3,-1,5,-1,7,9,11,13,15,-1,17,-1,-1,19,21,-1,-1,-1,-1,-1,-1,-1],"loss_changes":[5.4188394E3,2.1060415E3,0E0,8.3423474E2,0E0,5.721763E2,1.2405603E3,3.8078766E1,8.667236E1,4.055362E2,0E0,6.897892E0,0E0,0E0,3.480835E-1,4.3623108E1,0E0,0E0,0E0,0E0,0E0,0E0,0E0],"parents":[2147483647,0,0,1,1,3,3,5,5,6,6,7,7,8,8,9,9,11,11,14,14,15,15],"right_children":[2,4,-1,6,-1,8,10,12,14,16,-1,18,-1,-1,20,22,-1,-1,-1,-1,-1,-1,-1],"split_conditions":[5.8795077E-1,1.16693924E2,4.1952768E-1,4.1557524E-1,-3.333628E-1,2.1885E3,1.2030247E-1,4.371479E-1,5.314E2,2.402842E1,2.876622E-1,4.849536E-1,6.0663793E-2,2.2099964E-2,2.3243E1,4.953741E-1,-8.55703E-2,5.8915326E-3,2.8576717E-2,-3.6879536E-2,-1.0427551E-2,9.108078E-3,4.9273115E-2],"split_indices":[27,0,0,13,0,37,2,46,131,6,0,14,0,0,158,14,0,0,0,0,0,0,0],"split_type":[0,0,0,0,0,0,0,0,0,0,0,0,0,0,0,0,0,0,0,0,0,0,0],"sum_hessian":[9.2E1,9E1,2E0,8.9E1,1E0,6.9E1,2E1,1.1E1,5.8E1,1.9E1,1E0,6E0,5E0,2E0,5.6E1,1.7E1,2E0,3E0,3E0,5.5E1,1E0,4E0,1.3E1],"tree_param":{"num_deleted":"0","num_feature":"190","num_nodes":"23","size_leaf_vector":"1"}},{"base_weights":[1.4061213E-1,-1.2301354E0,4.1673082E-1,-5.0670147E-1,-3.3169597E-1,-2.1458201E0,4.9811563E0,4.1482387E0,-3.389598E0,2.3679748E0,2.862239E-1,1.9548416E0,6.0158286E-2,2.1952616E-2,-3.6240711E0,4.0477467E0,-8.4999815E-2,-2.4228669E-3,2.3614109E-2,-3.651732E-2,-1.0375404E-2,9.035202E-3,4.88156E-2],"categories":[],"categories_nodes":[],"categories_segments":[],"categories_sizes":[],"default_left":[0,0,0,0,0,0,0,0,0,0,0,0,0,0,0,0,0,0,0,0,0,0,0],"id":36,"left_children":[1,3,-1,5,-1,7,9,11,13,15,-1,17,-1,-1,19,21,-1,-1,-1,-1,-1,-1,-1],"loss_changes":[5.3458037E3,2.0858472E3,0E0,8.2026117E2,0E0,5.6204956E2,1.2295784E3,3.7396408E1,8.521631E1,3.995196E2,0E0,6.8251305E0,0E0,0E0,2.8930664E-1,4.278E1,0E0,0E0,0E0,0E0,0E0,0E0,0E0],"parents":[2147483647,0,0,1,1,3,3,5,5,6,6,7,7,8,8,9,9,11,11,14,14,15,15],"right_children":[2,4,-1,6,-1,8,10,12,14,16,-1,18,-1,-1,20,22,-1,-1,-1,-1,-1,-1,-1],"split_conditions":[5.8795077E-1,1.16693924E2,4.1673082E-1,4.1557524E-1,-3.3169597E-1,2.1885E3,1.2030247E-1,4.371479E-1,5.314E2,2.402842E1,2.862239E-1,1.2008606E-1,6.0158286E-2,2.1952616E-2,2.3243E1,4.953741E-1,-8.4999815E-2,-2.4228669E-3,2.3614109E-2,-3.651732E-2,-1.0375404E-2,9.035202E-3,4.88156E-2],"split_indices":[27,0,0,13,0,37,2,46,131,6,0,2,0,0,158,14,0,0,0,0,0,0,0],"split_type":[0,0,0,0,0,0,0,0,0,0,0,0,0,0,0,0,0,0,0,0,0,0,0],"sum_hessian":[9.2E1,9E1,2E0,8.9E1,1E0,6.9E1,2E1,1.1E1,5.8E1,1.9E1,1E0,6E0,5E0,2E0,5.6E1,1.7E1,2E0,1E0,5E0,5.5E1,1E0,4E0,1.3E1],"tree_param":{"num_deleted":"0","num_feature":"190","num_nodes":"23","size_leaf_vector":"1"}},{"base_weights":[1.4351146E-1,-1.2180135E0,4.1395262E-1,-4.981303E-1,-3.300375E-1,-2.1235583E0,4.9436836E0,4.1135364E0,-3.3561273E0,2.3429399E0,2.8479278E-1,1.9383218E0,5.9656966E-2,2.1806285E-2,-3.5886562E0,4.0104856E0,-8.443316E-2,5.735359E-3,2.818527E-2,-3.6158696E-2,-1.03235245E-2,8.962936E-3,4.836234E-2],"categories":[],"categories_nodes":[],"categories_segments":[],"categories_sizes":[],"default_left":[0,0,0,0,0,0,0,0,0,0,0,0,0,0,0,0,0,0,0,0,0,0,0],"id":37,"left_children":[1,3,-1,5,-1,7,9,11,13,15,-1,17,-1,-1,19,21,-1,-1,-1,-1,-1,-1,-1],"loss_changes":[5.273792E3,2.0658235E3,0E0,8.065731E2,0E0,5.51941E2,1.2186859E3,3.6782745E1,8.37854E1,3.9359335E2,0E0,6.7925167E0,0E0,0E0,2.3248291E-1,4.1953003E1,0E0,0E0,0E0,0E0,0E0,0E0,0E0],"parents":[2147483647,0,0,1,1,3,3,5,5,6,6,7,7,8,8,9,9,11,11,14,14,15,15],"right_children":[2,4,-1,6,-1,8,10,12,14,16,-1,18,-1,-1,20,22,-1,-1,-1,-1,-1,-1,-1],"split_conditions":[5.8795077E-1,1.16693924E2,4.1395262E-1,4.1557524E-1,-3.300375E-1,2.1885E3,1.2030247E-1,4.371479E-1,5.314E2,2.402842E1,2.8479278E-1,4.849536E-1,5.9656966E-2,2.1806285E-2,2.3243E1,4.953741E-1,-8.443316E-2,5.735359E-3,2.818527E-2,-3.6158696E-2,-1.03235245E-2,8.962936E-3,4.836234E-2],"split_indices":[27,0,0,13,0,37,2,46,131,6,0,14,0,0,158,14,0,0,0,0,0,0,0],"split_type":[0,0,0,0,0,0,0,0,0,0,0,0,0,0,0,0,0,0,0,0,0,0,0],"sum_hessian":[9.2E1,9E1,2E0,8.9E1,1E0,6.9E1,2E1,1.1E1,5.8E1,1.9E1,1E0,6E0,5E0,2E0,5.6E1,1.7E1,2E0,3E0,3E0,5.5E1,1E0,4E0,1.3E1],"tree_param":{"num_deleted":"0","num_feature":"190","num_nodes":"23","size_leaf_vector":"1"}},{"base_weights":[1.4648864E-1,-1.2058729E0,4.1119292E-1,-4.8952195E-1,-3.283873E-1,-2.1013405E0,4.906517E0,4.0802E0,-3.322987E0,2.3181546E0,2.8336883E-1,1.9237845E0,5.915985E-2,2.1660918E-2,-3.553588E0,3.973565E0,-8.387027E-2,5.6923293E-3,2.79739E-2,-3.5803594E-2,-1.02719115E-2,8.89122E-3,4.7913253E-2],"categories":[],"categories_nodes":[],"categories_segments":[],"categories_sizes":[],"default_left":[0,0,0,0,0,0,0,0,0,0,0,0,0,0,0,0,0,0,0,0,0,0,0],"id":38,"left_children":[1,3,-1,5,-1,7,9,11,13,15,-1,17,-1,-1,19,21,-1,-1,-1,-1,-1,-1,-1],"loss_changes":[5.2027188E3,2.0460055E3,0E0,7.930795E2,0E0,5.421745E2,1.2078826E3,3.612352E1,8.2378845E1,3.877558E2,0E0,6.69104E0,0E0,0E0,1.7749023E-1,4.1142E1,0E0,0E0,0E0,0E0,0E0,0E0,0E0],"parents":[2147483647,0,0,1,1,3,3,5,5,6,6,7,7,8,8,9,9,11,11,14,14,15,15],"right_children":[2,4,-1,6,-1,8,10,12,14,16,-1,18,-1,-1,20,22,-1,-1,-1,-1,-1,-1,-1],"split_conditions":[5.8795077E-1,1.16693924E2,4.1119292E-1,4.1557524E-1,-3.283873E-1,2.1885E3,1.2030247E-1,4.371479E-1,5.314E2,2.402842E1,2.8336883E-1,4.849536E-1,5.915985E-2,2.1660918E-2,2.3243E1,4.953741E-1,-8.387027E-2,5.6923293E-3,2.79739E-2,-3.5803594E-2,-1.02719115E-2,8.89122E-3,4.7913253E-2],"split_indices":[27,0,0,13,0,37,2,46,131,6,0,14,0,0,158,14,0,0,0,0,0,0,0],"split_type":[0,0,0,0,0,0,0,0,0,0,0,0,0,0,0,0,0,0,0,0,0,0,0],"sum_hessian":[9.2E1,9E1,2E0,8.9E1,1E0,6.9E1,2E1,1.1E1,5.8E1,1.9E1,1E0,6E0,5E0,2E0,5.6E1,1.7E1,2E0,3E0,3E0,5.5E1,1E0,4E0,1.3E1],"tree_param":{"num_deleted":"0","num_feature":"190","num_nodes":"23","size_leaf_vector":"1"}},{"base_weights":[1.4940652E-1,-1.1938537E0,4.0845165E-1,-4.810179E-1,-3.2674536E-1,-2.0793488E0,4.8696575E0,4.047134E0,-3.29017E0,2.2936206E0,2.8195196E-1,1.9093552E0,5.8666863E-2,2.151652E-2,-3.5188594E0,3.9369862E0,-8.3311126E-2,-2.4678803E-3,2.3098437E-2,-3.545194E-2,-1.0220566E-2,8.820114E-3,4.7468353E-2],"categories":[],"categories_nodes":[],"categories_segments":[],"categories_sizes":[],"default_left":[0,0,0,0,0,0,0,0,0,0,0,0,0,0,0,0,0,0,0,0,0,0,0],"id":39,"left_children":[1,3,-1,5,-1,7,9,11,13,15,-1,17,-1,-1,19,21,-1,-1,-1,-1,-1,-1,-1],"loss_changes":[5.1326074E3,2.0263737E3,0E0,7.798193E2,0E0,5.3258105E2,1.1971674E3,3.5476013E1,8.099609E1,3.8200592E2,0E0,6.6146145E0,0E0,0E0,1.2445068E-1,4.0346466E1,0E0,0E0,0E0,0E0,0E0,0E0,0E0],"parents":[2147483647,0,0,1,1,3,3,5,5,6,6,7,7,8,8,9,9,11,11,14,14,15,15],"right_children":[2,4,-1,6,-1,8,10,12,14,16,-1,18,-1,-1,20,22,-1,-1,-1,-1,-1,-1,-1],"split_conditions":[5.8795077E-1,1.16693924E2,4.0845165E-1,4.1557524E-1,-3.2674536E-1,2.1885E3,1.2030247E-1,4.371479E-1,5.314E2,2.402842E1,2.8195196E-1,1.2008606E-1,5.8666863E-2,2.151652E-2,2.3243E1,4.953741E-1,-8.3311126E-2,-2.4678803E-3,2.3098437E-2,-3.545194E-2,-1.0220566E-2,8.820114E-3,4.7468353E-2],"split_indices":[27,0,0,13,0,37,2,46,131,6,0,2,0,0,158,14,0,0,0,0,0,0,0],"split_type":[0,0,0,0,0,0,0,0,0,0,0,0,0,0,0,0,0,0,0,0,0,0,0],"sum_hessian":[9.2E1,9E1,2E0,8.9E1,1E0,6.9E1,2E1,1.1E1,5.8E1,1.9E1,1E0,6E0,5E0,2E0,5.6E1,1.7E1,2E0,1E0,5E0,5.5E1,1E0,4E0,1.3E1],"tree_param":{"num_deleted":"0","num_feature":"190","num_nodes":"23","size_leaf_vector":"1"}},{"base_weights":[1.5212561E-1,-1.1820978E0,4.057286E-1,-4.7276187E-1,-3.2511166E-1,-2.0577667E0,4.8331E0,4.0132675E0,-3.257676E0,2.2693324E0,2.8054222E-1,1.8932059E0,5.8177948E-2,2.1373088E-2,-3.4844701E0,3.9007425E0,-8.275571E-2,5.5402946E-3,2.7590808E-2,-3.5103735E-2,-1.0169448E-2,8.749558E-3,4.7027558E-2],"categories":[],"categories_nodes":[],"categories_segments":[],"categories_sizes":[],"default_left":[0,0,0,0,0,0,0,0,0,0,0,0,0,0,0,0,0,0,0,0,0,0,0],"id":40,"left_children":[1,3,-1,5,-1,7,9,11,13,15,-1,17,-1,-1,19,21,-1,-1,-1,-1,-1,-1,-1],"loss_changes":[5.063478E3,2.0069076E3,0E0,7.668288E2,0E0,5.230022E2,1.1865403E3,3.489424E1,7.9637024E1,3.7634207E2,0E0,6.5883045E0,0E0,0E0,7.348633E-2,3.9566284E1,0E0,0E0,0E0,0E0,0E0,0E0,0E0],"parents":[2147483647,0,0,1,1,3,3,5,5,6,6,7,7,8,8,9,9,11,11,14,14,15,15],"right_children":[2,4,-1,6,-1,8,10,12,14,16,-1,18,-1,-1,20,22,-1,-1,-1,-1,-1,-1,-1],"split_conditions":[5.8795077E-1,1.16693924E2,4.057286E-1,4.1557524E-1,-3.2511166E-1,2.1885E3,1.2030247E-1,4.371479E-1,5.314E2,2.402842E1,2.8054222E-1,4.849536E-1,5.8177948E-2,2.1373088E-2,2.3243E1,4.953741E-1,-8.275571E-2,5.5402946E-3,2.7590808E-2,-3.5103735E-2,-1.0169448E-2,8.749558E-3,4.7027558E-2],"split_indices":[27,0,0,13,0,37,2,46,131,6,0,14,0,0,158,14,0,0,0,0,0,0,0],"split_type":[0,0,0,0,0,0,0,0,0,0,0,0,0,0,0,0,0,0,0,0,0,0,0],"sum_hessian":[9.2E1,9E1,2E0,8.9E1,1E0,6.9E1,2E1,1.1E1,5.8E1,1.9E1,1E0,6E0,5E0,2E0,5.6E1,1.7E1,2E0,3E0,3E0,5.5E1,1E0,4E0,1.3E1],"tree_param":{"num_deleted":"0","num_feature":"190","num_nodes":"23","size_leaf_vector":"1"}},{"base_weights":[1.5492216E-1,-1.1703227E0,4.0302372E-1,-4.644682E-1,-3.234861E-1,-2.0362263E0,4.796843E0,3.9807453E0,-3.2255049E0,2.24529E0,2.7913952E-1,1.8790087E0,5.7693135E-2,2.1230621E-2,-3.4504206E0,3.8648334E0,-8.220401E-2,5.4987525E-3,2.73839E-2,-3.4758974E-2,-1.0118599E-2,8.67955E-3,4.6590876E-2],"categories":[],"categories_nodes":[],"categories_segments":[],"categories_sizes":[],"default_left":[0,0,0,0,0,0,0,0,0,0,0,0,0,0,0,0,0,0,0,0,0,0,0],"id":41,"left_children":[1,3,-1,5,-1,7,9,11,13,15,-1,17,-1,-1,19,21,-1,-1,-1,-1,-1,-1,-1],"loss_changes":[4.9952505E3,1.9876423E3,0E0,7.5402325E2,0E0,5.1374976E2,1.1760002E3,3.4268616E1,7.830109E1,3.707633E2,0E0,6.489855E0,0E0,0E0,2.4169922E-2,3.880121E1,0E0,0E0,0E0,0E0,0E0,0E0,0E0],"parents":[2147483647,0,0,1,1,3,3,5,5,6,6,7,7,8,8,9,9,11,11,14,14,15,15],"right_children":[2,4,-1,6,-1,8,10,12,14,16,-1,18,-1,-1,20,22,-1,-1,-1,-1,-1,-1,-1],"split_conditions":[5.8795077E-1,1.16693924E2,4.0302372E-1,4.1557524E-1,-3.234861E-1,2.1885E3,1.2030247E-1,4.371479E-1,5.314E2,2.402842E1,2.7913952E-1,4.849536E-1,5.7693135E-2,2.1230621E-2,2.3243E1,4.953741E-1,-8.220401E-2,5.4987525E-3,2.73839E-2,-3.4758974E-2,-1.0118599E-2,8.67955E-3,4.6590876E-2],"split_indices":[27,0,0,13,0,37,2,46,131,6,0,14,0,0,158,14,0,0,0,0,0,0,0],"split_type":[0,0,0,0,0,0,0,0,0,0,0,0,0,0,0,0,0,0,0,0,0,0,0],"sum_hessian":[9.2E1,9E1,2E0,8.9E1,1E0,6.9E1,2E1,1.1E1,5.8E1,1.9E1,1E0,6E0,5E0,2E0,5.6E1,1.7E1,2E0,3E0,3E0,5.5E1,1E0,4E0,1.3E1],"tree_param":{"num_deleted":"0","num_feature":"190","num_nodes":"23","size_leaf_vector":"1"}},{"base_weights":[1.5765971E-1,-1.1586672E0,4.003369E-1,-4.5627764E-1,-3.2186866E-1,-2.0149076E0,4.7608833E0,3.9484856E0,-3.1936502E0,2.221489E0,2.7774382E-1,1.8649161E0,5.7212356E-2,2.108907E-2,-3.4167033E-2,3.8292537E0,-8.165596E-2,-2.5107574E-3,2.2594273E-2,8.610092E-3,4.6158228E-2],"categories":[],"categories_nodes":[],"categories_segments":[],"categories_sizes":[],"default_left":[0,0,0,0,0,0,0,0,0,0,0,0,0,0,0,0,0,0,0,0,0],"id":42,"left_children":[1,3,-1,5,-1,7,9,11,13,15,-1,17,-1,-1,-1,19,-1,-1,-1,-1,-1],"loss_changes":[4.9279463E3,1.9685574E3,0E0,7.4143884E2,0E0,5.046615E2,1.1655469E3,3.365416E1,7.6987854E1,3.6526794E2,0E0,6.4107666E0,0E0,0E0,0E0,3.8050873E1,0E0,0E0,0E0,0E0,0E0],"parents":[2147483647,0,0,1,1,3,3,5,5,6,6,7,7,8,8,9,9,11,11,15,15],"right_children":[2,4,-1,6,-1,8,10,12,14,16,-1,18,-1,-1,-1,20,-1,-1,-1,-1,-1],"split_conditions":[5.8795077E-1,1.16693924E2,4.003369E-1,4.1557524E-1,-3.2186866E-1,2.1885E3,1.2030247E-1,4.371479E-1,5.314E2,2.402842E1,2.7774382E-1,1.2008606E-1,5.7212356E-2,2.108907E-2,-3.4167033E-2,4.953741E-1,-8.165596E-2,-2.5107574E-3,2.2594273E-2,8.610092E-3,4.6158228E-2],"split_indices":[27,0,0,13,0,37,2,46,131,6,0,2,0,0,0,14,0,0,0,0,0],"split_type":[0,0,0,0,0,0,0,0,0,0,0,0,0,0,0,0,0,0,0,0,0],"sum_hessian":[9.2E1,9E1,2E0,8.9E1,1E0,6.9E1,2E1,1.1E1,5.8E1,1.9E1,1E0,6E0,5E0,2E0,5.6E1,1.7E1,2E0,1E0,5E0,4E0,1.3E1],"tree_param":{"num_deleted":"0","num_feature":"190","num_nodes":"21","size_leaf_vector":"1"}},{"base_weights":[1.6031335E-1,-1.1471567E0,3.97668E-1,-4.4821548E-1,-3.202593E-1,-1.993843E0,4.7252197E0,3.9154434E0,-3.1619377E0,2.1979294E0,2.7635512E-1,1.8491385E0,5.6735586E-2,2.0948486E-2,-3.3831382E0,3.7940035E0,-8.111157E-2,5.3508184E-3,2.7009105E-2,-3.4082044E-2,-9.897194E-3,8.541184E-3,4.5729622E-2],"categories":[],"categories_nodes":[],"categories_segments":[],"categories_sizes":[],"default_left":[0,0,0,0,0,0,0,0,0,0,0,0,0,0,0,0,0,0,0,0,0,0,0],"id":43,"left_children":[1,3,-1,5,-1,7,9,11,13,15,-1,17,-1,-1,19,21,-1,-1,-1,-1,-1,-1,-1],"loss_changes":[4.861558E3,1.9496484E3,0E0,7.2907965E2,0E0,4.9556293E2,1.1551794E3,3.3102432E1,7.5692566E1,3.598551E2,0E0,6.3897285E0,0E0,0E0,4.650879E-2,3.7315033E1,0E0,0E0,0E0,0E0,0E0,0E0,0E0],"parents":[2147483647,0,0,1,1,3,3,5,5,6,6,7,7,8,8,9,9,11,11,14,14,15,15],"right_children":[2,4,-1,6,-1,8,10,12,14,16,-1,18,-1,-1,20,22,-1,-1,-1,-1,-1,-1,-1],"split_conditions":[5.8795077E-1,1.16693924E2,3.97668E-1,4.1557524E-1,-3.202593E-1,2.1885E3,1.2030247E-1,4.371479E-1,5.314E2,2.402842E1,2.7635512E-1,4.849536E-1,5.6735586E-2,2.0948486E-2,2.3243E1,4.953741E-1,-8.111157E-2,5.3508184E-3,2.7009105E-2,-3.4082044E-2,-9.897194E-3,8.541184E-3,4.5729622E-2],"split_indices":[27,0,0,13,0,37,2,46,131,6,0,14,0,0,158,14,0,0,0,0,0,0,0],"split_type":[0,0,0,0,0,0,0,0,0,0,0,0,0,0,0,0,0,0,0,0,0,0,0],"sum_hessian":[9.2E1,9E1,2E0,8.9E1,1E0,6.9E1,2E1,1.1E1,5.8E1,1.9E1,1E0,6E0,5E0,2E0,5.6E1,1.7E1,2E0,3E0,3E0,5.5E1,1E0,4E0,1.3E1],"tree_param":{"num_deleted":"0","num_feature":"190","num_nodes":"23","size_leaf_vector":"1"}},{"base_weights":[1.6293491E-1,-1.1357375E0,3.9501688E-1,-4.4022793E-1,-3.1865802E-1,-1.9729617E0,4.6898475E0,3.8837159E0,-3.1307104E0,2.1746063E0,2.7497336E-1,1.8352716E0,5.6262817E-2,2.0808818E-2,-3.3500798E0,3.7590768E0,-8.057086E-2,5.310707E-3,2.6806545E-2,-3.3747323E-2,-9.847717E-3,1.1711286E-2,4.6643548E-2],"categories":[],"categories_nodes":[],"categories_segments":[],"categories_sizes":[],"default_left":[0,0,0,0,0,0,0,0,0,0,0,0,0,0,0,0,0,0,0,0,0,0,0],"id":44,"left_children":[1,3,-1,5,-1,7,9,11,13,15,-1,17,-1,-1,19,21,-1,-1,-1,-1,-1,-1,-1],"loss_changes":[4.7960625E3,1.9309199E3,0E0,7.1692645E2,0E0,4.8679807E2,1.1448973E3,3.250885E1,7.442377E1,3.5452353E2,0E0,6.2942276E0,0E0,0E0,3.6621094E-4,3.6708084E1,0E0,0E0,0E0,0E0,0E0,0E0,0E0],"parents":[2147483647,0,0,1,1,3,3,5,5,6,6,7,7,8,8,9,9,11,11,14,14,15,15],"right_children":[2,4,-1,6,-1,8,10,12,14,16,-1,18,-1,-1,20,22,-1,-1,-1,-1,-1,-1,-1],"split_conditions":[5.8795077E-1,1.16693924E2,3.9501688E-1,4.1557524E-1,-3.1865802E-1,2.1885E3,1.2030247E-1,4.371479E-1,5.314E2,2.402842E1,2.7497336E-1,4.849536E-1,5.6262817E-2,2.0808818E-2,2.3243E1,4.9874565E-1,-8.057086E-2,5.310707E-3,2.6806545E-2,-3.3747323E-2,-9.847717E-3,1.1711286E-2,4.6643548E-2],"split_indices":[27,0,0,13,0,37,2,46,131,6,0,14,0,0,158,14,0,0,0,0,0,0,0],"split_type":[0,0,0,0,0,0,0,0,0,0,0,0,0,0,0,0,0,0,0,0,0,0,0],"sum_hessian":[9.2E1,9E1,2E0,8.9E1,1E0,6.9E1,2E1,1.1E1,5.8E1,1.9E1,1E0,6E0,5E0,2E0,5.6E1,1.7E1,2E0,3E0,3E0,5.5E1,1E0,5E0,1.2E1],"tree_param":{"num_deleted":"0","num_feature":"190","num_nodes":"23","size_leaf_vector":"1"}},{"base_weights":[1.6554818E-1,-1.1243851E0,3.9238343E-1,-4.3228996E-1,-3.1706473E-1,-1.9522966E0,4.6549845E0,3.8522446E0,-3.0997915E0,2.1517482E0,2.7359852E-1,2.3054683E0,6.3694306E-2,2.0670116E-2,-3.3173464E-2,3.7247264E0,-8.003369E-2,2.394231E-3,2.8615633E-2,1.1613693E-2,4.6212967E-2],"categories":[],"categories_nodes":[],"categories_segments":[],"categories_sizes":[],"default_left":[0,0,0,0,0,0,0,0,0,0,0,0,0,0,0,0,0,0,0,0,0],"id":45,"left_children":[1,3,-1,5,-1,7,9,11,13,15,-1,17,-1,-1,-1,19,-1,-1,-1,-1,-1],"loss_changes":[4.7314395E3,1.9123738E3,0E0,7.0503015E2,0E0,4.7818884E2,1.134677E3,3.2037766E1,7.31767E1,3.4928595E2,0E0,9.65514E0,0E0,0E0,0E0,3.6001114E1,0E0,0E0,0E0,0E0,0E0],"parents":[2147483647,0,0,1,1,3,3,5,5,6,6,7,7,8,8,9,9,11,11,15,15],"right_children":[2,4,-1,6,-1,8,10,12,14,16,-1,18,-1,-1,-1,20,-1,-1,-1,-1,-1],"split_conditions":[5.8795077E-1,1.16693924E2,3.9238343E-1,4.1557524E-1,-3.1706473E-1,2.1885E3,1.2030247E-1,4.953741E-1,5.314E2,2.402842E1,2.7359852E-1,-5.371E0,6.3694306E-2,2.0670116E-2,-3.3173464E-2,4.9874565E-1,-8.003369E-2,2.394231E-3,2.8615633E-2,1.1613693E-2,4.6212967E-2],"split_indices":[27,0,0,13,0,37,2,14,131,6,0,83,0,0,0,14,0,0,0,0,0],"split_type":[0,0,0,0,0,0,0,0,0,0,0,0,0,0,0,0,0,0,0,0,0],"sum_hessian":[9.2E1,9E1,2E0,8.9E1,1E0,6.9E1,2E1,1.1E1,5.8E1,1.9E1,1E0,8E0,3E0,2E0,5.6E1,1.7E1,2E0,2E0,6E0,5E0,1.2E1],"tree_param":{"num_deleted":"0","num_feature":"190","num_nodes":"21","size_leaf_vector":"1"}},{"base_weights":[1.6828918E-1,-1.1129601E0,3.8976756E-1,-4.2426097E-1,-3.1547943E-1,-1.9316005E0,4.6204066E0,3.8216121E0,-3.0690062E0,2.1291218E0,2.7223054E-1,2.2858572E0,6.321657E-2,2.0532329E-2,-3.2847557E0,3.6906934E0,-7.9500146E-2,2.3782603E-3,2.837034E-2,-3.3090096E-2,-9.632606E-3,8.28624E-3,4.44924E-2],"categories":[],"categories_nodes":[],"categories_segments":[],"categories_sizes":[],"default_left":[0,0,0,0,0,0,0,0,0,0,0,0,0,0,0,0,0,0,0,0,0,0,0],"id":46,"left_children":[1,3,-1,5,-1,7,9,11,13,15,-1,17,-1,-1,19,21,-1,-1,-1,-1,-1,-1,-1],"loss_changes":[4.6676484E3,1.8940253E3,0E0,6.932872E2,0E0,4.6979028E2,1.124541E3,3.1623062E1,7.194641E1,3.441269E2,0E0,9.484726E0,0E0,0E0,2.2033691E-2,3.539148E1,0E0,0E0,0E0,0E0,0E0,0E0,0E0],"parents":[2147483647,0,0,1,1,3,3,5,5,6,6,7,7,8,8,9,9,11,11,14,14,15,15],"right_children":[2,4,-1,6,-1,8,10,12,14,16,-1,18,-1,-1,20,22,-1,-1,-1,-1,-1,-1,-1],"split_conditions":[5.8795077E-1,1.16693924E2,3.8976756E-1,4.1557524E-1,-3.1547943E-1,2.1885E3,1.2030247E-1,4.953741E-1,5.314E2,2.402842E1,2.7223054E-1,-5.371E0,6.321657E-2,2.0532329E-2,2.3243E1,4.953741E-1,-7.9500146E-2,2.3782603E-3,2.837034E-2,-3.3090096E-2,-9.632606E-3,8.28624E-3,4.44924E-2],"split_indices":[27,0,0,13,0,37,2,14,131,6,0,83,0,0,158,14,0,0,0,0,0,0,0],"split_type":[0,0,0,0,0,0,0,0,0,0,0,0,0,0,0,0,0,0,0,0,0,0,0],"sum_hessian":[9.2E1,9E1,2E0,8.9E1,1E0,6.9E1,2E1,1.1E1,5.8E1,1.9E1,1E0,8E0,3E0,2E0,5.6E1,1.7E1,2E0,2E0,6E0,5.5E1,1E0,4E0,1.3E1],"tree_param":{"num_deleted":"0","num_feature":"190","num_nodes":"23","size_leaf_vector":"1"}},{"base_weights":[1.7081533E-1,-1.1018121E0,3.8716906E-1,-4.164944E-1,-3.1390202E-1,-1.9112605E0,4.585892E0,3.7912242E0,-3.0386937E0,2.106493E0,2.7086937E-1,2.2664125E0,6.274244E-2,2.0395458E-2,-3.2526586E-2,3.656717E0,-7.897016E-2,2.3623912E-3,2.8127136E-2,1.1387533E-2,4.537568E-2],"categories":[],"categories_nodes":[],"categories_segments":[],"categories_sizes":[],"default_left":[0,0,0,0,0,0,0,0,0,0,0,0,0,0,0,0,0,0,0,0,0],"id":47,"left_children":[1,3,-1,5,-1,7,9,11,13,15,-1,17,-1,-1,-1,19,-1,-1,-1,-1,-1],"loss_changes":[4.604757E3,1.8758285E3,0E0,6.8173065E2,0E0,4.6156226E2,1.114512E3,3.1213638E1,7.0741394E1,3.390308E2,0E0,9.317299E0,0E0,0E0,0E0,3.4755966E1,0E0,0E0,0E0,0E0,0E0],"parents":[2147483647,0,0,1,1,3,3,5,5,6,6,7,7,8,8,9,9,11,11,15,15],"right_children":[2,4,-1,6,-1,8,10,12,14,16,-1,18,-1,-1,-1,20,-1,-1,-1,-1,-1],"split_conditions":[5.8795077E-1,1.16693924E2,3.8716906E-1,4.1557524E-1,-3.1390202E-1,2.1885E3,1.2030247E-1,4.953741E-1,5.314E2,2.402842E1,2.7086937E-1,-5.371E0,6.274244E-2,2.0395458E-2,-3.2526586E-2,4.9874565E-1,-7.897016E-2,2.3623912E-3,2.8127136E-2,1.1387533E-2,4.537568E-2],"split_indices":[27,0,0,13,0,37,2,14,131,6,0,83,0,0,0,14,0,0,0,0,0],"split_type":[0,0,0,0,0,0,0,0,0,0,0,0,0,0,0,0,0,0,0,0,0],"sum_hessian":[9.2E1,9E1,2E0,8.9E1,1E0,6.9E1,2E1,1.1E1,5.8E1,1.9E1,1E0,8E0,3E0,2E0,5.6E1,1.7E1,2E0,2E0,6E0,5E0,1.2E1],"tree_param":{"num_deleted":"0","num_feature":"190","num_nodes":"21","size_leaf_vector":"1"}},{"base_weights":[1.7343952E-1,-1.090621E0,3.8458797E-1,-4.0866682E-1,-3.1233248E-1,-1.8909916E0,4.551876E0,3.761079E0,-3.0085146E0,2.0843194E0,2.6951504E-1,1.770825E0,5.4561958E-2,2.0259501E-2,-3.2207055E0,3.623305E0,-7.8443676E-2,5.022373E-3,2.5967063E-2,-3.2445684E-2,-9.421806E-3,8.12883E-3,4.36822E-2],"categories":[],"categories_nodes":[],"categories_segments":[],"categories_sizes":[],"default_left":[0,0,0,0,0,0,0,0,0,0,0,0,0,0,0,0,0,0,0,0,0,0,0],"id":48,"left_children":[1,3,-1,5,-1,7,9,11,13,15,-1,17,-1,-1,19,21,-1,-1,-1,-1,-1,-1,-1],"loss_changes":[4.54268E3,1.8578221E3,0E0,6.703897E2,0E0,4.5345758E2,1.1045437E3,3.0822601E1,6.9552734E1,3.3402472E2,0E0,6.0297585E0,0E0,0E0,4.2297363E-2,3.4132584E1,0E0,0E0,0E0,0E0,0E0,0E0,0E0],"parents":[2147483647,0,0,1,1,3,3,5,5,6,6,7,7,8,8,9,9,11,11,14,14,15,15],"right_children":[2,4,-1,6,-1,8,10,12,14,16,-1,18,-1,-1,20,22,-1,-1,-1,-1,-1,-1,-1],"split_conditions":[5.8795077E-1,1.16693924E2,3.8458797E-1,4.1557524E-1,-3.1233248E-1,2.1885E3,1.2030247E-1,4.371479E-1,5.314E2,2.402842E1,2.6951504E-1,4.849536E-1,5.4561958E-2,2.0259501E-2,2.3243E1,4.953741E-1,-7.8443676E-2,5.022373E-3,2.5967063E-2,-3.2445684E-2,-9.421806E-3,8.12883E-3,4.36822E-2],"split_indices":[27,0,0,13,0,37,2,46,131,6,0,14,0,0,158,14,0,0,0,0,0,0,0],"split_type":[0,0,0,0,0,0,0,0,0,0,0,0,0,0,0,0,0,0,0,0,0,0,0],"sum_hessian":[9.2E1,9E1,2E0,8.9E1,1E0,6.9E1,2E1,1.1E1,5.8E1,1.9E1,1E0,6E0,5E0,2E0,5.6E1,1.7E1,2E0,3E0,3E0,5.5E1,1E0,4E0,1.3E1],"tree_param":{"num_deleted":"0","num_feature":"190","num_nodes":"23","size_leaf_vector":"1"}},{"base_weights":[1.75782E-1,-1.0797745E0,3.8202402E-1,-4.011702E-1,-3.1077084E-1,-1.8711667E0,4.5179214E0,3.7305958E0,-2.9787936E0,2.0621428E0,2.6816747E-1,2.224678E0,6.186262E-2,2.0124462E-2,-3.189231E0,3.5899484E0,-7.7920705E-2,2.3131561E-3,2.761165E-2,-3.2127004E-2,-9.374695E-3,1.1165632E-2,4.4553608E-2],"categories":[],"categories_nodes":[],"categories_segments":[],"categories_sizes":[],"default_left":[0,0,0,0,0,0,0,0,0,0,0,0,0,0,0,0,0,0,0,0,0,0,0],"id":49,"left_children":[1,3,-1,5,-1,7,9,11,13,15,-1,17,-1,-1,19,21,-1,-1,-1,-1,-1,-1,-1],"loss_changes":[4.4814956E3,1.8399564E3,0E0,6.5924805E2,0E0,4.4543906E2,1.0946805E3,3.0613953E1,6.838843E1,3.2907956E2,0E0,8.986023E0,0E0,0E0,5.493164E-4,3.3554306E1,0E0,0E0,0E0,0E0,0E0,0E0,0E0],"parents":[2147483647,0,0,1,1,3,3,5,5,6,6,7,7,8,8,9,9,11,11,14,14,15,15],"right_children":[2,4,-1,6,-1,8,10,12,14,16,-1,18,-1,-1,20,22,-1,-1,-1,-1,-1,-1,-1],"split_conditions":[5.8795077E-1,1.16693924E2,3.8202402E-1,4.1557524E-1,-3.1077084E-1,2.1885E3,1.2030247E-1,4.953741E-1,5.314E2,2.402842E1,2.6816747E-1,-5.371E0,6.186262E-2,2.0124462E-2,2.3243E1,4.9874565E-1,-7.7920705E-2,2.3131561E-3,2.761165E-2,-3.2127004E-2,-9.374695E-3,1.1165632E-2,4.4553608E-2],"split_indices":[27,0,0,13,0,37,2,14,131,6,0,83,0,0,158,14,0,0,0,0,0,0,0],"split_type":[0,0,0,0,0,0,0,0,0,0,0,0,0,0,0,0,0,0,0,0,0,0,0],"sum_hessian":[9.2E1,9E1,2E0,8.9E1,1E0,6.9E1,2E1,1.1E1,5.8E1,1.9E1,1E0,8E0,3E0,2E0,5.6E1,1.7E1,2E0,2E0,6E0,5.5E1,1E0,5E0,1.2E1],"tree_param":{"num_deleted":"0","num_feature":"190","num_nodes":"23","size_leaf_vector":"1"}},{"base_weights":[1.7819205E-1,-1.0689154E0,3.7947717E-1,-3.9364326E-1,-3.0921698E-1,-1.8514487E0,4.4844527E0,3.7009404E0,-2.9493675E0,2.040409E0,2.6682663E-1,2.2057571E0,6.1398678E-2,1.9990286E-2,-3.158066E-2,3.557142E0,-7.740125E-2,2.2977446E-3,2.7374987E-2,7.974472E-3,4.2886656E-2],"categories":[],"categories_nodes":[],"categories_segments":[],"categories_sizes":[],"default_left":[0,0,0,0,0,0,0,0,0,0,0,0,0,0,0,0,0,0,0,0,0],"id":50,"left_children":[1,3,-1,5,-1,7,9,11,13,15,-1,17,-1,-1,-1,19,-1,-1,-1,-1,-1],"loss_changes":[4.4211094E3,1.8222742E3,0E0,6.4832104E2,0E0,4.3764062E2,1.0848777E3,3.021666E1,6.7243774E1,3.2422192E2,0E0,8.827404E0,0E0,0E0,0E0,3.291809E1,0E0,0E0,0E0,0E0,0E0],"parents":[2147483647,0,0,1,1,3,3,5,5,6,6,7,7,8,8,9,9,11,11,15,15],"right_children":[2,4,-1,6,-1,8,10,12,14,16,-1,18,-1,-1,-1,20,-1,-1,-1,-1,-1],"split_conditions":[5.8795077E-1,1.16693924E2,3.7947717E-1,4.1557524E-1,-3.0921698E-1,2.1885E3,1.2030247E-1,4.953741E-1,5.314E2,2.402842E1,2.6682663E-1,-5.371E0,6.1398678E-2,1.9990286E-2,-3.158066E-2,4.953741E-1,-7.740125E-2,2.2977446E-3,2.7374987E-2,7.974472E-3,4.2886656E-2],"split_indices":[27,0,0,13,0,37,2,14,131,6,0,83,0,0,0,14,0,0,0,0,0],"split_type":[0,0,0,0,0,0,0,0,0,0,0,0,0,0,0,0,0,0,0,0,0],"sum_hessian":[9.2E1,9E1,2E0,8.9E1,1E0,6.9E1,2E1,1.1E1,5.8E1,1.9E1,1E0,8E0,3E0,2E0,5.6E1,1.7E1,2E0,2E0,6E0,4E0,1.3E1],"tree_param":{"num_deleted":"0","num_feature":"190","num_nodes":"21","size_leaf_vector":"1"}},{"base_weights":[1.806027E-1,-1.0581115E0,3.769473E-1,-3.861552E-1,-3.076709E-1,-1.8318007E0,4.4510517E0,3.6715202E0,-2.9200728E0,2.0186794E0,2.6549247E-1,2.1869974E0,6.0938165E-2,1.9857025E-2,-3.127042E0,3.5243979E0,-7.6885246E-2,2.282435E-3,2.714035E-2,-3.1501323E-2,-9.169921E-3,1.0947927E-2,4.3746464E-2],"categories":[],"categories_nodes":[],"categories_segments":[],"categories_sizes":[],"default_left":[0,0,0,0,0,0,0,0,0,0,0,0,0,0,0,0,0,0,0,0,0,0,0],"id":51,"left_children":[1,3,-1,5,-1,7,9,11,13,15,-1,17,-1,-1,19,21,-1,-1,-1,-1,-1,-1,-1],"loss_changes":[4.3615293E3,1.8047645E3,0E0,6.3751324E2,0E0,4.2995886E2,1.0751774E3,2.9824295E1,6.611478E1,3.1942377E2,0E0,8.671574E0,0E0,0E0,2.0141602E-2,3.2394516E1,0E0,0E0,0E0,0E0,0E0,0E0,0E0],"parents":[2147483647,0,0,1,1,3,3,5,5,6,6,7,7,8,8,9,9,11,11,14,14,15,15],"right_children":[2,4,-1,6,-1,8,10,12,14,16,-1,18,-1,-1,20,22,-1,-1,-1,-1,-1,-1,-1],"split_conditions":[5.8795077E-1,1.16693924E2,3.769473E-1,4.1557524E-1,-3.076709E-1,2.1885E3,1.2030247E-1,4.953741E-1,5.314E2,2.402842E1,2.6549247E-1,-5.371E0,6.0938165E-2,1.9857025E-2,2.3243E1,4.9874565E-1,-7.6885246E-2,2.282435E-3,2.714035E-2,-3.1501323E-2,-9.169921E-3,1.0947927E-2,4.3746464E-2],"split_indices":[27,0,0,13,0,37,2,14,131,6,0,83,0,0,158,14,0,0,0,0,0,0,0],"split_type":[0,0,0,0,0,0,0,0,0,0,0,0,0,0,0,0,0,0,0,0,0,0,0],"sum_hessian":[9.2E1,9E1,2E0,8.9E1,1E0,6.9E1,2E1,1.1E1,5.8E1,1.9E1,1E0,8E0,3E0,2E0,5.6E1,1.7E1,2E0,2E0,6E0,5.5E1,1E0,5E0,1.2E1],"tree_param":{"num_deleted":"0","num_feature":"190","num_nodes":"23","size_leaf_vector":"1"}},{"base_weights":[1.8290603E-1,-1.0474731E0,3.7443435E-1,-3.7881708E-1,-3.0613253E-1,-1.8124886E0,4.4181266E0,3.642337E0,-2.8912244E0,1.9973831E0,2.6416498E-1,2.1683986E0,6.0481146E-2,1.972463E-2,-3.0964848E-2,3.4921923E0,-7.637265E-2,2.267227E-3,2.6907742E-2,1.0856692E-2,4.3342646E-2],"categories":[],"categories_nodes":[],"categories_segments":[],"categories_sizes":[],"default_left":[0,0,0,0,0,0,0,0,0,0,0,0,0,0,0,0,0,0,0,0,0],"id":52,"left_children":[1,3,-1,5,-1,7,9,11,13,15,-1,17,-1,-1,-1,19,-1,-1,-1,-1,-1],"loss_changes":[4.3027666E3,1.7874126E3,0E0,6.2695953E2,0E0,4.2243295E2,1.065537E3,2.943689E1,6.50087E1,3.1471002E2,0E0,8.518501E0,0E0,0E0,0E0,3.1770859E1,0E0,0E0,0E0,0E0,0E0],"parents":[2147483647,0,0,1,1,3,3,5,5,6,6,7,7,8,8,9,9,11,11,15,15],"right_children":[2,4,-1,6,-1,8,10,12,14,16,-1,18,-1,-1,-1,20,-1,-1,-1,-1,-1],"split_conditions":[5.8795077E-1,1.16693924E2,3.7443435E-1,4.1557524E-1,-3.0613253E-1,2.1885E3,1.2030247E-1,4.953741E-1,5.314E2,2.402842E1,2.6416498E-1,-5.371E0,6.0481146E-2,1.972463E-2,-3.0964848E-2,4.9874565E-1,-7.637265E-2,2.267227E-3,2.6907742E-2,1.0856692E-2,4.3342646E-2],"split_indices":[27,0,0,13,0,37,2,14,131,6,0,83,0,0,0,14,0,0,0,0,0],"split_type":[0,0,0,0,0,0,0,0,0,0,0,0,0,0,0,0,0,0,0,0,0],"sum_hessian":[9.2E1,9E1,2E0,8.9E1,1E0,6.9E1,2E1,1.1E1,5.8E1,1.9E1,1E0,8E0,3E0,2E0,5.6E1,1.7E1,2E0,2E0,6E0,5E0,1.2E1],"tree_param":{"num_deleted":"0","num_feature":"190","num_nodes":"21","size_leaf_vector":"1"}},{"base_weights":[1.8525836E-1,-1.0368396E0,3.7193814E-1,-3.71467E-1,-3.0460188E-1,-1.793241E0,4.3854685E0,3.6133854E0,-2.8625E0,1.9763005E0,2.6284415E-1,2.1499557E0,6.002756E-2,1.959315E-2,-3.0660603E0,3.4602814E0,-7.586352E-2,2.197647E-3,2.6700439E-2,-3.0887784E-2,-8.969231E-3,7.7362517E-3,4.1726384E-2],"categories":[],"categories_nodes":[],"categories_segments":[],"categories_sizes":[],"default_left":[0,0,0,0,0,0,0,0,0,0,0,0,0,0,0,0,0,0,0,0,0,0,0],"id":53,"left_children":[1,3,-1,5,-1,7,9,11,13,15,-1,17,-1,-1,19,21,-1,-1,-1,-1,-1,-1,-1],"loss_changes":[4.2447754E3,1.7702369E3,0E0,6.165601E2,0E0,4.1501923E2,1.0559773E3,2.9054443E1,6.3917633E1,3.100668E2,0E0,8.448048E0,0E0,0E0,3.857422E-2,3.1221405E1,0E0,0E0,0E0,0E0,0E0,0E0,0E0],"parents":[2147483647,0,0,1,1,3,3,5,5,6,6,7,7,8,8,9,9,11,11,14,14,15,15],"right_children":[2,4,-1,6,-1,8,10,12,14,16,-1,18,-1,-1,20,22,-1,-1,-1,-1,-1,-1,-1],"split_conditions":[5.8795077E-1,1.16693924E2,3.7193814E-1,4.1557524E-1,-3.0460188E-1,2.1885E3,1.2030247E-1,4.953741E-1,5.314E2,2.402842E1,2.6284415E-1,1.9688922E-1,6.002756E-2,1.959315E-2,2.3243E1,4.953741E-1,-7.586352E-2,2.197647E-3,2.6700439E-2,-3.0887784E-2,-8.969231E-3,7.7362517E-3,4.1726384E-2],"split_indices":[27,0,0,13,0,37,2,14,131,6,0,8,0,0,158,14,0,0,0,0,0,0,0],"split_type":[0,0,0,0,0,0,0,0,0,0,0,0,0,0,0,0,0,0,0,0,0,0,0],"sum_hessian":[9.2E1,9E1,2E0,8.9E1,1E0,6.9E1,2E1,1.1E1,5.8E1,1.9E1,1E0,8E0,3E0,2E0,5.6E1,1.7E1,2E0,2E0,6E0,5.5E1,1E0,4E0,1.3E1],"tree_param":{"num_deleted":"0","num_feature":"190","num_nodes":"23","size_leaf_vector":"1"}},{"base_weights":[1.8741271E-1,-1.0264634E0,3.694585E-1,-3.6435997E-1,-3.0307886E-1,-1.774325E0,4.352874E0,3.5846608E0,-2.834215E0,1.9552186E0,2.6152992E-1,2.1316655E0,5.957735E-2,1.9462533E-2,-3.0360954E0,3.4284275E0,-7.535774E-2,2.155787E-3,2.6483217E-2,-3.0584387E-2,-8.92437E-3,1.0645104E-2,4.2557407E-2],"categories":[],"categories_nodes":[],"categories_segments":[],"categories_sizes":[],"default_left":[0,0,0,0,0,0,0,0,0,0,0,0,0,0,0,0,0,0,0,0,0,0,0],"id":54,"left_children":[1,3,-1,5,-1,7,9,11,13,15,-1,17,-1,-1,19,21,-1,-1,-1,-1,-1,-1,-1],"loss_changes":[4.1876016E3,1.7532042E3,0E0,6.0632556E2,0E0,4.077552E2,1.0465178E3,2.867688E1,6.284897E1,3.0548016E2,0E0,8.338707E0,0E0,0E0,6.713867E-4,3.0672333E1,0E0,0E0,0E0,0E0,0E0,0E0,0E0],"parents":[2147483647,0,0,1,1,3,3,5,5,6,6,7,7,8,8,9,9,11,11,14,14,15,15],"right_children":[2,4,-1,6,-1,8,10,12,14,16,-1,18,-1,-1,20,22,-1,-1,-1,-1,-1,-1,-1],"split_conditions":[5.8795077E-1,1.16693924E2,3.694585E-1,4.1557524E-1,-3.0307886E-1,2.1885E3,1.2030247E-1,4.953741E-1,5.314E2,2.402842E1,2.6152992E-1,-5.371E0,5.957735E-2,1.9462533E-2,2.3243E1,4.9874565E-1,-7.535774E-2,2.155787E-3,2.6483217E-2,-3.0584387E-2,-8.92437E-3,1.0645104E-2,4.2557407E-2],"split_indices":[27,0,0,13,0,37,2,14,131,6,0,83,0,0,158,14,0,0,0,0,0,0,0],"split_type":[0,0,0,0,0,0,0,0,0,0,0,0,0,0,0,0,0,0,0,0,0,0,0],"sum_hessian":[9.2E1,9E1,2E0,8.9E1,1E0,6.9E1,2E1,1.1E1,5.8E1,1.9E1,1E0,8E0,3E0,2E0,5.6E1,1.7E1,2E0,2E0,6E0,5.5E1,1E0,5E0,1.2E1],"tree_param":{"num_deleted":"0","num_feature":"190","num_nodes":"23","size_leaf_vector":"1"}},{"base_weights":[1.8956052E-1,-1.0161484E0,3.6699542E-1,-3.5729787E-1,-3.0156347E-1,-1.7556064E0,4.320745E0,3.5561657E0,-2.8062108E0,1.9345592E0,2.602223E-1,2.1135314E0,5.9130516E-2,1.9332783E-2,-3.0064259E0,3.3970997E0,-7.485537E-2,2.0875295E-3,2.6279317E-2,-4.6465553E-2,-2.8623018E-2,7.5892177E-3,4.0966563E-2],"categories":[],"categories_nodes":[],"categories_segments":[],"categories_sizes":[],"default_left":[0,0,0,0,0,0,0,0,0,0,0,0,0,0,0,0,0,0,0,0,0,0,0],"id":55,"left_children":[1,3,-1,5,-1,7,9,11,13,15,-1,17,-1,-1,19,21,-1,-1,-1,-1,-1,-1,-1],"loss_changes":[4.131191E3,1.7363375E3,0E0,5.963068E2,0E0,4.0061935E2,1.0371176E3,2.8304077E1,6.179834E1,3.009746E2,0E0,8.269783E0,0E0,0E0,1.7388916E-1,3.0110947E1,0E0,0E0,0E0,0E0,0E0,0E0,0E0],"parents":[2147483647,0,0,1,1,3,3,5,5,6,6,7,7,8,8,9,9,11,11,14,14,15,15],"right_children":[2,4,-1,6,-1,8,10,12,14,16,-1,18,-1,-1,20,22,-1,-1,-1,-1,-1,-1,-1],"split_conditions":[5.8795077E-1,1.16693924E2,3.6699542E-1,4.1557524E-1,-3.0156347E-1,2.1885E3,1.2030247E-1,4.953741E-1,5.314E2,2.402842E1,2.602223E-1,1.9688922E-1,5.9130516E-2,1.9332783E-2,1.035E-1,4.953741E-1,-7.485537E-2,2.0875295E-3,2.6279317E-2,-4.6465553E-2,-2.8623018E-2,7.5892177E-3,4.0966563E-2],"split_indices":[27,0,0,13,0,37,2,14,131,6,0,8,0,0,157,14,0,0,0,0,0,0,0],"split_type":[0,0,0,0,0,0,0,0,0,0,0,0,0,0,0,0,0,0,0,0,0,0,0],"sum_hessian":[9.2E1,9E1,2E0,8.9E1,1E0,6.9E1,2E1,1.1E1,5.8E1,1.9E1,1E0,8E0,3E0,2E0,5.6E1,1.7E1,2E0,2E0,6E0,2E0,5.4E1,4E0,1.3E1],"tree_param":{"num_deleted":"0","num_feature":"190","num_nodes":"23","size_leaf_vector":"1"}},{"base_weights":[1.912261E-1,-1.0063803E0,3.645488E-1,-3.5077202E-1,-3.0005565E-1,-1.7375947E0,4.288674E0,3.5278976E0,-2.7790916E0,1.9138958E0,2.5892115E-1,2.0955496E0,5.8687057E-2,1.9203898E-2,-2.9776766E0,3.3658235E0,-7.435636E-2,2.0468393E-3,2.6065564E-2,-4.61558E-2,-2.8341968E-2,1.043752E-2,4.1786395E-2],"categories":[],"categories_nodes":[],"categories_segments":[],"categories_sizes":[],"default_left":[0,0,0,0,0,0,0,0,0,0,0,0,0,0,0,0,0,0,0,0,0,0,0],"id":56,"left_children":[1,3,-1,5,-1,7,9,11,13,15,-1,17,-1,-1,19,21,-1,-1,-1,-1,-1,-1,-1],"loss_changes":[4.075639E3,1.7195768E3,0E0,5.8651996E2,0E0,3.936839E2,1.027816E3,2.793605E1,6.0779877E1,2.9652393E2,0E0,8.162685E0,0E0,0E0,3.1384277E-1,2.9612045E1,0E0,0E0,0E0,0E0,0E0,0E0,0E0],"parents":[2147483647,0,0,1,1,3,3,5,5,6,6,7,7,8,8,9,9,11,11,14,14,15,15],"right_children":[2,4,-1,6,-1,8,10,12,14,16,-1,18,-1,-1,20,22,-1,-1,-1,-1,-1,-1,-1],"split_conditions":[5.8795077E-1,1.16693924E2,3.645488E-1,4.1557524E-1,-3.0005565E-1,2.1885E3,1.2030247E-1,4.953741E-1,5.314E2,2.402842E1,2.5892115E-1,-5.371E0,5.8687057E-2,1.9203898E-2,1.035E-1,4.9874565E-1,-7.435636E-2,2.0468393E-3,2.6065564E-2,-4.61558E-2,-2.8341968E-2,1.043752E-2,4.1786395E-2],"split_indices":[27,0,0,13,0,37,2,14,131,6,0,83,0,0,157,14,0,0,0,0,0,0,0],"split_type":[0,0,0,0,0,0,0,0,0,0,0,0,0,0,0,0,0,0,0,0,0,0,0],"sum_hessian":[9.2E1,9E1,2E0,8.9E1,1E0,6.9E1,2E1,1.1E1,5.8E1,1.9E1,1E0,8E0,3E0,2E0,5.6E1,1.7E1,2E0,2E0,6E0,2E0,5.4E1,5E0,1.2E1],"tree_param":{"num_deleted":"0","num_feature":"190","num_nodes":"23","size_leaf_vector":"1"}},{"base_weights":[1.928934E-1,-9.9666435E-1,3.6211848E-1,-3.4428203E-1,-2.9855537E-1,-1.7197672E0,4.257063E0,3.4998543E0,-2.7522366E0,1.8936504E0,2.5762656E-1,2.0777206E0,5.8246918E-2,1.9075876E-2,-2.9492056E0,3.3350668E0,-7.3860645E-2,1.979904E-3,2.586502E-2,-4.5848083E-2,-2.806369E-2,1.0350546E-2,4.1400675E-2],"categories":[],"categories_nodes":[],"categories_segments":[],"categories_sizes":[],"default_left":[0,0,0,0,0,0,0,0,0,0,0,0,0,0,0,0,0,0,0,0,0,0,0],"id":57,"left_children":[1,3,-1,5,-1,7,9,11,13,15,-1,17,-1,-1,19,21,-1,-1,-1,-1,-1,-1,-1],"loss_changes":[4.0208276E3,1.70298E3,0E0,5.7693854E2,0E0,3.8686942E2,1.01857294E3,2.7572662E1,5.9778503E1,2.9215173E2,0E0,8.095245E0,0E0,0E0,4.4989014E-1,2.9042007E1,0E0,0E0,0E0,0E0,0E0,0E0,0E0],"parents":[2147483647,0,0,1,1,3,3,5,5,6,6,7,7,8,8,9,9,11,11,14,14,15,15],"right_children":[2,4,-1,6,-1,8,10,12,14,16,-1,18,-1,-1,20,22,-1,-1,-1,-1,-1,-1,-1],"split_conditions":[5.8795077E-1,1.16693924E2,3.6211848E-1,4.1557524E-1,-2.9855537E-1,2.1885E3,1.2030247E-1,4.953741E-1,5.314E2,2.402842E1,2.5762656E-1,1.9688922E-1,5.8246918E-2,1.9075876E-2,1.035E-1,4.9874565E-1,-7.3860645E-2,1.979904E-3,2.586502E-2,-4.5848083E-2,-2.806369E-2,1.0350546E-2,4.1400675E-2],"split_indices":[27,0,0,13,0,37,2,14,131,6,0,8,0,0,157,14,0,0,0,0,0,0,0],"split_type":[0,0,0,0,0,0,0,0,0,0,0,0,0,0,0,0,0,0,0,0,0,0,0],"sum_hessian":[9.2E1,9E1,2E0,8.9E1,1E0,6.9E1,2E1,1.1E1,5.8E1,1.9E1,1E0,8E0,3E0,2E0,5.6E1,1.7E1,2E0,2E0,6E0,2E0,5.4E1,5E0,1.2E1],"tree_param":{"num_deleted":"0","num_feature":"190","num_nodes":"23","size_leaf_vector":"1"}},{"base_weights":[1.9451495E-1,-9.8704845E-1,3.5970432E-1,-3.3787656E-1,-2.970626E-1,-1.7021253E0,4.225709E0,3.4720294E0,-2.7256463E0,1.8736099E0,2.5633842E-1,1.6145532E0,5.060413E-2,1.894872E-2,-2.921013E0,3.304593E0,-7.3368244E-2,4.285526E-3,2.3969153E-2,-4.554245E-2,-2.7788183E-2,7.362167E-3,3.9858278E-2],"categories":[],"categories_nodes":[],"categories_segments":[],"categories_sizes":[],"default_left":[0,0,0,0,0,0,0,0,0,0,0,0,0,0,0,0,0,0,0,0,0,0,0],"id":58,"left_children":[1,3,-1,5,-1,7,9,11,13,15,-1,17,-1,-1,19,21,-1,-1,-1,-1,-1,-1,-1],"loss_changes":[3.9667556E3,1.6865402E3,0E0,5.6752057E2,0E0,3.8017334E2,1.0094071E3,2.7234314E1,5.8794006E1,2.8784476E2,0E0,5.467968E0,0E0,0E0,5.8206177E-1,2.8559586E1,0E0,0E0,0E0,0E0,0E0,0E0,0E0],"parents":[2147483647,0,0,1,1,3,3,5,5,6,6,7,7,8,8,9,9,11,11,14,14,15,15],"right_children":[2,4,-1,6,-1,8,10,12,14,16,-1,18,-1,-1,20,22,-1,-1,-1,-1,-1,-1,-1],"split_conditions":[5.8795077E-1,1.16693924E2,3.5970432E-1,4.1557524E-1,-2.970626E-1,2.1885E3,1.2030247E-1,4.371479E-1,5.314E2,2.402842E1,2.5633842E-1,4.849536E-1,5.060413E-2,1.894872E-2,1.035E-1,4.953741E-1,-7.3368244E-2,4.285526E-3,2.3969153E-2,-4.554245E-2,-2.7788183E-2,7.362167E-3,3.9858278E-2],"split_indices":[27,0,0,13,0,37,2,46,131,6,0,14,0,0,157,14,0,0,0,0,0,0,0],"split_type":[0,0,0,0,0,0,0,0,0,0,0,0,0,0,0,0,0,0,0,0,0,0,0],"sum_hessian":[9.2E1,9E1,2E0,8.9E1,1E0,6.9E1,2E1,1.1E1,5.8E1,1.9E1,1E0,6E0,5E0,2E0,5.6E1,1.7E1,2E0,3E0,3E0,2E0,5.4E1,4E0,1.3E1],"tree_param":{"num_deleted":"0","num_feature":"190","num_nodes":"23","size_leaf_vector":"1"}},{"base_weights":[1.9598068E-1,-9.77645E-1,3.5730633E-1,-3.3166927E-1,-2.9557726E-1,-1.6847564E0,4.1944146E0,3.443879E0,-2.6993134E0,1.8535683E0,2.550567E-1,2.039372E0,5.7430495E-2,1.8822378E-2,-2.8930912E0,3.274172E0,-7.2879106E-2,1.9117991E-3,2.5401153E-2,-4.5238853E-2,-2.7515372E-2,1.014876E-2,4.0650643E-2],"categories":[],"categories_nodes":[],"categories_segments":[],"categories_sizes":[],"default_left":[0,0,0,0,0,0,0,0,0,0,0,0,0,0,0,0,0,0,0,0,0,0,0],"id":59,"left_children":[1,3,-1,5,-1,7,9,11,13,15,-1,17,-1,-1,19,21,-1,-1,-1,-1,-1,-1,-1],"loss_changes":[3.913439E3,1.6702422E3,0E0,5.5824335E2,0E0,3.735266E2,1.0003375E3,2.7038208E1,5.7825897E1,2.8359027E2,0E0,7.8436127E0,0E0,0E0,7.105408E-1,2.8037949E1,0E0,0E0,0E0,0E0,0E0,0E0,0E0],"parents":[2147483647,0,0,1,1,3,3,5,5,6,6,7,7,8,8,9,9,11,11,14,14,15,15],"right_children":[2,4,-1,6,-1,8,10,12,14,16,-1,18,-1,-1,20,22,-1,-1,-1,-1,-1,-1,-1],"split_conditions":[5.8795077E-1,1.16693924E2,3.5730633E-1,4.1557524E-1,-2.9557726E-1,2.1885E3,1.2030247E-1,4.953741E-1,5.314E2,2.402842E1,2.550567E-1,-5.371E0,5.7430495E-2,1.8822378E-2,1.035E-1,4.9874565E-1,-7.2879106E-2,1.9117991E-3,2.5401153E-2,-4.5238853E-2,-2.7515372E-2,1.014876E-2,4.0650643E-2],"split_indices":[27,0,0,13,0,37,2,14,131,6,0,83,0,0,157,14,0,0,0,0,0,0,0],"split_type":[0,0,0,0,0,0,0,0,0,0,0,0,0,0,0,0,0,0,0,0,0,0,0],"sum_hessian":[9.2E1,9E1,2E0,8.9E1,1E0,6.9E1,2E1,1.1E1,5.8E1,1.9E1,1E0,8E0,3E0,2E0,5.6E1,1.7E1,2E0,2E0,6E0,2E0,5.4E1,5E0,1.2E1],"tree_param":{"num_deleted":"0","num_feature":"190","num_nodes":"23","size_leaf_vector":"1"}},{"base_weights":[1.9751912E-1,-9.682198E-1,3.5492426E-1,-3.254236E-1,-2.940994E-1,-1.6674714E0,4.1635656E0,3.416502E0,-2.6732378E0,1.8339294E0,2.5378144E-1,2.0220141E0,5.699974E-2,1.8696899E-2,-2.8654401E0,3.2442539E0,-7.239326E-2,1.8470509E-3,2.5205731E-2,-4.4937234E-2,-2.7245259E-2,7.2220913E-3,3.9132517E-2],"categories":[],"categories_nodes":[],"categories_segments":[],"categories_sizes":[],"default_left":[0,0,0,0,0,0,0,0,0,0,0,0,0,0,0,0,0,0,0,0,0,0,0],"id":60,"left_children":[1,3,-1,5,-1,7,9,11,13,15,-1,17,-1,-1,19,21,-1,-1,-1,-1,-1,-1,-1],"loss_changes":[3.860817E3,1.6541122E3,0E0,5.49142E2,0E0,3.6706335E2,9.913255E2,2.6685867E1,5.6874023E1,2.794109E2,0E0,7.778507E0,0E0,0E0,8.352661E-1,2.7544174E1,0E0,0E0,0E0,0E0,0E0,0E0,0E0],"parents":[2147483647,0,0,1,1,3,3,5,5,6,6,7,7,8,8,9,9,11,11,14,14,15,15],"right_children":[2,4,-1,6,-1,8,10,12,14,16,-1,18,-1,-1,20,22,-1,-1,-1,-1,-1,-1,-1],"split_conditions":[5.8795077E-1,1.16693924E2,3.5492426E-1,4.1557524E-1,-2.940994E-1,2.1885E3,1.2030247E-1,4.953741E-1,5.314E2,2.402842E1,2.5378144E-1,1.9688922E-1,5.699974E-2,1.8696899E-2,1.035E-1,4.953741E-1,-7.239326E-2,1.8470509E-3,2.5205731E-2,-4.4937234E-2,-2.7245259E-2,7.2220913E-3,3.9132517E-2],"split_indices":[27,0,0,13,0,37,2,14,131,6,0,8,0,0,157,14,0,0,0,0,0,0,0],"split_type":[0,0,0,0,0,0,0,0,0,0,0,0,0,0,0,0,0,0,0,0,0,0,0],"sum_hessian":[9.2E1,9E1,2E0,8.9E1,1E0,6.9E1,2E1,1.1E1,5.8E1,1.9E1,1E0,8E0,3E0,2E0,5.6E1,1.7E1,2E0,2E0,6E0,2E0,5.4E1,4E0,1.3E1],"tree_param":{"num_deleted":"0","num_feature":"190","num_nodes":"23","size_leaf_vector":"1"}},{"base_weights":[1.9897494E-1,-9.589314E-1,3.5255808E-1,-3.1929973E-1,-2.9262888E-1,-1.6503607E0,4.1327753E0,3.3893406E0,-2.6474125E0,1.8142887E0,2.525125E-1,2.004799E0,5.6572244E-2,1.8572235E-2,-2.8380527E0,3.214387E0,-7.191063E-2,1.8088531E-3,2.5000762E-2,-4.4637654E-2,-2.6977764E-2,9.950816E-3,3.991421E-2],"categories":[],"categories_nodes":[],"categories_segments":[],"categories_sizes":[],"default_left":[0,0,0,0,0,0,0,0,0,0,0,0,0,0,0,0,0,0,0,0,0,0,0],"id":61,"left_children":[1,3,-1,5,-1,7,9,11,13,15,-1,17,-1,-1,19,21,-1,-1,-1,-1,-1,-1,-1],"loss_changes":[3.808913E3,1.6381301E3,0E0,5.4015906E2,0E0,3.6071204E2,9.8240784E2,2.6338165E1,5.593805E1,2.7528235E2,0E0,7.677868E0,0E0,0E0,9.5654297E-1,2.7068771E1,0E0,0E0,0E0,0E0,0E0,0E0,0E0],"parents":[2147483647,0,0,1,1,3,3,5,5,6,6,7,7,8,8,9,9,11,11,14,14,15,15],"right_children":[2,4,-1,6,-1,8,10,12,14,16,-1,18,-1,-1,20,22,-1,-1,-1,-1,-1,-1,-1],"split_conditions":[5.8795077E-1,1.16693924E2,3.5255808E-1,4.1557524E-1,-2.9262888E-1,2.1885E3,1.2030247E-1,4.953741E-1,5.314E2,2.402842E1,2.525125E-1,-5.371E0,5.6572244E-2,1.8572235E-2,1.035E-1,4.9874565E-1,-7.191063E-2,1.8088531E-3,2.5000762E-2,-4.4637654E-2,-2.6977764E-2,9.950816E-3,3.991421E-2],"split_indices":[27,0,0,13,0,37,2,14,131,6,0,83,0,0,157,14,0,0,0,0,0,0,0],"split_type":[0,0,0,0,0,0,0,0,0,0,0,0,0,0,0,0,0,0,0,0,0,0,0],"sum_hessian":[9.2E1,9E1,2E0,8.9E1,1E0,6.9E1,2E1,1.1E1,5.8E1,1.9E1,1E0,8E0,3E0,2E0,5.6E1,1.7E1,2E0,2E0,6E0,2E0,5.4E1,5E0,1.2E1],"tree_param":{"num_deleted":"0","num_feature":"190","num_nodes":"23","size_leaf_vector":"1"}},{"base_weights":[2.0043363E-1,-9.496922E-1,3.5020772E-1,-3.1320927E-1,-2.9116577E-1,-1.6334238E0,4.102421E0,3.3623955E0,-2.6218376E0,1.795042E0,2.5124997E-1,1.9877294E0,5.6147955E-2,1.8448435E-2,-2.8109288E0,3.1850119E0,-7.143125E-2,1.7453765E-3,2.4808502E-2,-4.4340055E-2,-2.6712896E-2,7.0847017E-3,3.8419902E-2],"categories":[],"categories_nodes":[],"categories_segments":[],"categories_sizes":[],"default_left":[0,0,0,0,0,0,0,0,0,0,0,0,0,0,0,0,0,0,0,0,0,0,0],"id":62,"left_children":[1,3,-1,5,-1,7,9,11,13,15,-1,17,-1,-1,19,21,-1,-1,-1,-1,-1,-1,-1],"loss_changes":[3.757702E3,1.6223048E3,0E0,5.313631E2,0E0,3.544712E2,9.735474E2,2.5994873E1,5.501776E1,2.7122662E2,0E0,7.6141014E0,0E0,0E0,1.0742798E0,2.6564667E1,0E0,0E0,0E0,0E0,0E0,0E0,0E0],"parents":[2147483647,0,0,1,1,3,3,5,5,6,6,7,7,8,8,9,9,11,11,14,14,15,15],"right_children":[2,4,-1,6,-1,8,10,12,14,16,-1,18,-1,-1,20,22,-1,-1,-1,-1,-1,-1,-1],"split_conditions":[5.8795077E-1,1.16693924E2,3.5020772E-1,4.1557524E-1,-2.9116577E-1,2.1885E3,1.2030247E-1,4.953741E-1,5.314E2,2.402842E1,2.5124997E-1,1.9688922E-1,5.6147955E-2,1.8448435E-2,1.035E-1,4.953741E-1,-7.143125E-2,1.7453765E-3,2.4808502E-2,-4.4340055E-2,-2.6712896E-2,7.0847017E-3,3.8419902E-2],"split_indices":[27,0,0,13,0,37,2,14,131,6,0,8,0,0,157,14,0,0,0,0,0,0,0],"split_type":[0,0,0,0,0,0,0,0,0,0,0,0,0,0,0,0,0,0,0,0,0,0,0],"sum_hessian":[9.2E1,9E1,2E0,8.9E1,1E0,6.9E1,2E1,1.1E1,5.8E1,1.9E1,1E0,8E0,3E0,2E0,5.6E1,1.7E1,2E0,2E0,6E0,2E0,5.4E1,4E0,1.3E1],"tree_param":{"num_deleted":"0","num_feature":"190","num_nodes":"23","size_leaf_vector":"1"}},{"base_weights":[2.0180897E-1,-9.4058985E-1,3.4787303E-1,-3.0724096E-1,-2.8970993E-1,-1.6166615E0,4.0721245E0,3.3356628E0,-2.5965128E0,1.7757938E0,2.499937E-1,1.9708006E0,5.572687E-2,1.8325448E-2,-2.7840683E0,3.155688E0,-7.095502E-2,1.7082723E-3,2.4606748E-2,-4.4044442E-2,-2.6450647E-2,9.756622E-3,3.9191082E-2],"categories":[],"categories_nodes":[],"categories_segments":[],"categories_sizes":[],"default_left":[0,0,0,0,0,0,0,0,0,0,0,0,0,0,0,0,0,0,0,0,0,0,0],"id":63,"left_children":[1,3,-1,5,-1,7,9,11,13,15,-1,17,-1,-1,19,21,-1,-1,-1,-1,-1,-1,-1],"loss_changes":[3.7071904E3,1.606624E3,0E0,5.2268207E2,0E0,3.48339E2,9.6477966E2,2.5656113E1,5.4112885E1,2.6722018E2,0E0,7.5154953E0,0E0,0E0,1.1885071E0,2.6133255E1,0E0,0E0,0E0,0E0,0E0,0E0,0E0],"parents":[2147483647,0,0,1,1,3,3,5,5,6,6,7,7,8,8,9,9,11,11,14,14,15,15],"right_children":[2,4,-1,6,-1,8,10,12,14,16,-1,18,-1,-1,20,22,-1,-1,-1,-1,-1,-1,-1],"split_conditions":[5.8795077E-1,1.16693924E2,3.4787303E-1,4.1557524E-1,-2.8970993E-1,2.1885E3,1.2030247E-1,4.953741E-1,5.314E2,2.402842E1,2.499937E-1,-5.371E0,5.572687E-2,1.8325448E-2,1.035E-1,4.9874565E-1,-7.095502E-2,1.7082723E-3,2.4606748E-2,-4.4044442E-2,-2.6450647E-2,9.756622E-3,3.9191082E-2],"split_indices":[27,0,0,13,0,37,2,14,131,6,0,83,0,0,157,14,0,0,0,0,0,0,0],"split_type":[0,0,0,0,0,0,0,0,0,0,0,0,0,0,0,0,0,0,0,0,0,0,0],"sum_hessian":[9.2E1,9E1,2E0,8.9E1,1E0,6.9E1,2E1,1.1E1,5.8E1,1.9E1,1E0,8E0,3E0,2E0,5.6E1,1.7E1,2E0,2E0,6E0,2E0,5.4E1,5E0,1.2E1],"tree_param":{"num_deleted":"0","num_feature":"190","num_nodes":"23","size_leaf_vector":"1"}},{"base_weights":[2.0318924E-1,-9.3153375E-1,3.4555387E-1,-3.0130327E-1,-2.8826138E-1,-1.6000676E0,4.0422587E0,3.3091443E0,-2.5714316E0,1.7569344E0,2.4874374E-1,1.9540176E0,5.530893E-2,1.8203277E-2,-2.757464E0,3.1268492E0,-7.0482E-2,1.6460164E-3,2.4417648E-2,-4.3750815E-2,-2.6190946E-2,9.662272E-3,3.8835324E-2],"categories":[],"categories_nodes":[],"categories_segments":[],"categories_sizes":[],"default_left":[0,0,0,0,0,0,0,0,0,0,0,0,0,0,0,0,0,0,0,0,0,0,0],"id":64,"left_children":[1,3,-1,5,-1,7,9,11,13,15,-1,17,-1,-1,19,21,-1,-1,-1,-1,-1,-1,-1],"loss_changes":[3.6573513E3,1.5910973E3,0E0,5.141816E2,0E0,3.4231342E2,9.5606836E2,2.5321564E1,5.3223053E1,2.6328436E2,0E0,7.453129E0,0E0,0E0,1.299469E0,2.5675964E1,0E0,0E0,0E0,0E0,0E0,0E0,0E0],"parents":[2147483647,0,0,1,1,3,3,5,5,6,6,7,7,8,8,9,9,11,11,14,14,15,15],"right_children":[2,4,-1,6,-1,8,10,12,14,16,-1,18,-1,-1,20,22,-1,-1,-1,-1,-1,-1,-1],"split_conditions":[5.8795077E-1,1.16693924E2,3.4555387E-1,4.1557524E-1,-2.8826138E-1,2.1885E3,1.2030247E-1,4.953741E-1,5.314E2,2.402842E1,2.4874374E-1,1.9688922E-1,5.530893E-2,1.8203277E-2,1.035E-1,4.2E0,-7.0482E-2,1.6460164E-3,2.4417648E-2,-4.3750815E-2,-2.6190946E-2,9.662272E-3,3.8835324E-2],"split_indices":[27,0,0,13,0,37,2,14,131,6,0,8,0,0,157,126,0,0,0,0,0,0,0],"split_type":[0,0,0,0,0,0,0,0,0,0,0,0,0,0,0,0,0,0,0,0,0,0,0],"sum_hessian":[9.2E1,9E1,2E0,8.9E1,1E0,6.9E1,2E1,1.1E1,5.8E1,1.9E1,1E0,8E0,3E0,2E0,5.6E1,1.7E1,2E0,2E0,6E0,2E0,5.4E1,5E0,1.2E1],"tree_param":{"num_deleted":"0","num_feature":"190","num_nodes":"23","size_leaf_vector":"1"}},{"base_weights":[2.045316E-1,-9.2256737E-1,3.4325022E-1,-2.9544017E-1,-2.8682005E-1,-1.5836425E0,4.012636E0,3.2828362E0,-2.5465934E0,1.7382675E0,2.4750003E-1,1.9373754E0,5.489414E-2,1.8081918E-2,-2.7311156E0,3.098277E0,-7.001213E-2,1.6100056E-3,2.4219109E-2,-2.6105117E-2,-4.7424622E-2,9.5461905E-3,3.8493287E-2],"categories":[],"categories_nodes":[],"categories_segments":[],"categories_sizes":[],"default_left":[0,0,0,0,0,0,0,0,0,0,0,0,0,0,0,0,0,0,0,0,0,0,0],"id":65,"left_children":[1,3,-1,5,-1,7,9,11,13,15,-1,17,-1,-1,19,21,-1,-1,-1,-1,-1,-1,-1],"loss_changes":[3.608184E3,1.5757178E3,0E0,5.058252E2,0E0,3.3639264E2,9.4743066E2,2.4991318E1,5.2348114E1,2.5940726E2,0E0,7.3565216E0,0E0,0E0,1.4466248E0,2.5305313E1,0E0,0E0,0E0,0E0,0E0,0E0,0E0],"parents":[2147483647,0,0,1,1,3,3,5,5,6,6,7,7,8,8,9,9,11,11,14,14,15,15],"right_children":[2,4,-1,6,-1,8,10,12,14,16,-1,18,-1,-1,20,22,-1,-1,-1,-1,-1,-1,-1],"split_conditions":[5.8795077E-1,1.16693924E2,3.4325022E-1,4.1557524E-1,-2.8682005E-1,2.1885E3,1.2030247E-1,4.953741E-1,5.314E2,2.402842E1,2.4750003E-1,-5.371E0,5.489414E-2,1.8081918E-2,4.0751612E-1,4.9874565E-1,-7.001213E-2,1.6100056E-3,2.4219109E-2,-2.6105117E-2,-4.7424622E-2,9.5461905E-3,3.8493287E-2],"split_indices":[27,0,0,13,0,37,2,14,131,6,0,83,0,0,4,14,0,0,0,0,0,0,0],"split_type":[0,0,0,0,0,0,0,0,0,0,0,0,0,0,0,0,0,0,0,0,0,0,0],"sum_hessian":[9.2E1,9E1,2E0,8.9E1,1E0,6.9E1,2E1,1.1E1,5.8E1,1.9E1,1E0,8E0,3E0,2E0,5.6E1,1.7E1,2E0,2E0,6E0,5.5E1,1E0,5E0,1.2E1],"tree_param":{"num_deleted":"0","num_feature":"190","num_nodes":"23","size_leaf_vector":"1"}},{"base_weights":[2.0579234E-1,-9.1373503E-1,3.409619E-1,-2.8969657E-1,-2.8538597E-1,-1.5674425E0,3.9832516E0,3.2567368E0,-2.5220647E0,1.7197888E0,2.4626255E-1,1.9208739E0,5.448244E-2,1.7961374E-2,-2.7050917E0,3.0699658E0,-6.9545366E-2,1.5489451E-3,2.4033114E-2,-2.58487E-2,-4.71875E-2,9.454003E-3,3.8143832E-2],"categories":[],"categories_nodes":[],"categories_segments":[],"categories_sizes":[],"default_left":[0,0,0,0,0,0,0,0,0,0,0,0,0,0,0,0,0,0,0,0,0,0,0],"id":66,"left_children":[1,3,-1,5,-1,7,9,11,13,15,-1,17,-1,-1,19,21,-1,-1,-1,-1,-1,-1,-1],"loss_changes":[3.5596895E3,1.5604794E3,0E0,4.9762036E2,0E0,3.3058252E2,9.388662E2,2.4665245E1,5.1489227E1,2.5558768E2,0E0,7.295517E0,0E0,0E0,1.601532E0,2.486203E1,0E0,0E0,0E0,0E0,0E0,0E0,0E0],"parents":[2147483647,0,0,1,1,3,3,5,5,6,6,7,7,8,8,9,9,11,11,14,14,15,15],"right_children":[2,4,-1,6,-1,8,10,12,14,16,-1,18,-1,-1,20,22,-1,-1,-1,-1,-1,-1,-1],"split_conditions":[5.8795077E-1,1.16693924E2,3.409619E-1,4.1557524E-1,-2.8538597E-1,2.1885E3,1.2030247E-1,4.953741E-1,5.314E2,2.402842E1,2.4626255E-1,1.9688922E-1,5.448244E-2,1.7961374E-2,4.0751612E-1,4.2E0,-6.9545366E-2,1.5489451E-3,2.4033114E-2,-2.58487E-2,-4.71875E-2,9.454003E-3,3.8143832E-2],"split_indices":[27,0,0,13,0,37,2,14,131,6,0,8,0,0,4,126,0,0,0,0,0,0,0],"split_type":[0,0,0,0,0,0,0,0,0,0,0,0,0,0,0,0,0,0,0,0,0,0,0],"sum_hessian":[9.2E1,9E1,2E0,8.9E1,1E0,6.9E1,2E1,1.1E1,5.8E1,1.9E1,1E0,8E0,3E0,2E0,5.6E1,1.7E1,2E0,2E0,6E0,5.5E1,1E0,5E0,1.2E1],