{"learner":{"attributes":{"best_iteration":"537","best_score":"1.2160803753396738"},"feature_names":[],"feature_types":[],"gradient_booster":{"model":{"gbtree_model_param":{"num_parallel_tree":"1","num_trees":"638"},"iteration_indptr":[0,1,2,3,4,5,6,7,8,9,10,11,12,13,14,15,16,17,18,19,20,21,22,23,24,25,26,27,28,29,30,31,32,33,34,35,36,37,38,39,40,41,42,43,44,45,46,47,48,49,50,51,52,53,54,55,56,57,58,59,60,61,62,63,64,65,66,67,68,69,70,71,72,73,74,75,76,77,78,79,80,81,82,83,84,85,86,87,88,89,90,91,92,93,94,95,96,97,98,99,100,101,102,103,104,105,106,107,108,109,110,111,112,113,114,115,116,117,118,119,120,121,122,123,124,125,126,127,128,129,130,131,132,133,134,135,136,137,138,139,140,141,142,143,144,145,146,147,148,149,150,151,152,153,154,155,156,157,158,159,160,161,162,163,164,165,166,167,168,169,170,171,172,173,174,175,176,177,178,179,180,181,182,183,184,185,186,187,188,189,190,191,192,193,194,195,196,197,198,199,200,201,202,203,204,205,206,207,208,209,210,211,212,213,214,215,216,217,218,219,220,221,222,223,224,225,226,227,228,229,230,231,232,233,234,235,236,237,238,239,240,241,242,243,244,245,246,247,248,249,250,251,252,253,254,255,256,257,258,259,260,261,262,263,264,265,266,267,268,269,270,271,272,273,274,275,276,277,278,279,280,281,282,283,284,285,286,287,288,289,290,291,292,293,294,295,296,297,298,299,300,301,302,303,304,305,306,307,308,309,310,311,312,313,314,315,316,317,318,319,320,321,322,323,324,325,326,327,328,329,330,331,332,333,334,335,336,337,338,339,340,341,342,343,344,345,346,347,348,349,350,351,352,353,354,355,356,357,358,359,360,361,362,363,364,365,366,367,368,369,370,371,372,373,374,375,376,377,378,379,380,381,382,383,384,385,386,387,388,389,390,391,392,393,394,395,396,397,398,399,400,401,402,403,404,405,406,407,408,409,410,411,412,413,414,415,416,417,418,419,420,421,422,423,424,425,426,427,428,429,430,431,432,433,434,435,436,437,438,439,440,441,442,443,444,445,446,447,448,449,450,451,452,453,454,455,456,457,458,459,460,461,462,463,464,465,466,467,468,469,470,471,472,473,474,475,476,477,478,479,480,481,482,483,484,485,486,487,488,489,490,491,492,493,494,495,496,497,498,499,500,501,502,503,504,505,506,507,508,509,510,511,512,513,514,515,516,517,518,519,520,521,522,523,524,525,526,527,528,529,530,531,532,533,534,535,536,537,538,539,540,541,542,543,544,545,546,547,548,549,550,551,552,553,554,555,556,557,558,559,560,561,562,563,564,565,566,567,568,569,570,571,572,573,574,575,576,577,578,579,580,581,582,583,584,585,586,587,588,589,590,591,592,593,594,595,596,597,598,599,600,601,602,603,604,605,606,607,608,609,610,611,612,613,614,615,616,617,618,619,620,621,622,623,624,625,626,627,628,629,630,631,632,633,634,635,636,637,638],"tree_info":[0,0,0,0,0,0,0,0,0,0,0,0,0,0,0,0,0,0,0,0,0,0,0,0,0,0,0,0,0,0,0,0,0,0,0,0,0,0,0,0,0,0,0,0,0,0,0,0,0,0,0,0,0,0,0,0,0,0,0,0,0,0,0,0,0,0,0,0,0,0,0,0,0,0,0,0,0,0,0,0,0,0,0,0,0,0,0,0,0,0,0,0,0,0,0,0,0,0,0,0,0,0,0,0,0,0,0,0,0,0,0,0,0,0,0,0,0,0,0,0,0,0,0,0,0,0,0,0,0,0,0,0,0,0,0,0,0,0,0,0,0,0,0,0,0,0,0,0,0,0,0,0,0,0,0,0,0,0,0,0,0,0,0,0,0,0,0,0,0,0,0,0,0,0,0,0,0,0,0,0,0,0,0,0,0,0,0,0,0,0,0,0,0,0,0,0,0,0,0,0,0,0,0,0,0,0,0,0,0,0,0,0,0,0,0,0,0,0,0,0,0,0,0,0,0,0,0,0,0,0,0,0,0,0,0,0,0,0,0,0,0,0,0,0,0,0,0,0,0,0,0,0,0,0,0,0,0,0,0,0,0,0,0,0,0,0,0,0,0,0,0,0,0,0,0,0,0,0,0,0,0,0,0,0,0,0,0,0,0,0,0,0,0,0,0,0,0,0,0,0,0,0,0,0,0,0,0,0,0,0,0,0,0,0,0,0,0,0,0,0,0,0,0,0,0,0,0,0,0,0,0,0,0,0,0,0,0,0,0,0,0,0,0,0,0,0,0,0,0,0,0,0,0,0,0,0,0,0,0,0,0,0,0,0,0,0,0,0,0,0,0,0,0,0,0,0,0,0,0,0,0,0,0,0,0,0,0,0,0,0,0,0,0,0,0,0,0,0,0,0,0,0,0,0,0,0,0,0,0,0,0,0,0,0,0,0,0,0,0,0,0,0,0,0,0,0,0,0,0,0,0,0,0,0,0,0,0,0,0,0,0,0,0,0,0,0,0,0,0,0,0,0,0,0,0,0,0,0,0,0,0,0,0,0,0,0,0,0,0,0,0,0,0,0,0,0,0,0,0,0,0,0,0,0,0,0,0,0,0,0,0,0,0,0,0,0,0,0,0,0,0,0,0,0,0,0,0,0,0,0,0,0,0,0,0,0,0,0,0,0,0,0,0,0,0,0,0,0,0,0,0,0,0,0,0,0,0,0,0,0,0,0,0,0,0,0,0,0,0,0,0,0,0,0,0,0,0,0,0,0,0,0,0,0,0,0,0,0,0,0,0,0,0,0,0,0,0,0,0,0,0,0,0,0,0,0,0,0,0,0,0,0,0,0,0,0,0,0,0,0,0,0,0,0,0,0,0,0,0,0,0,0,0,0,0,0,0,0,0,0,0,0,0,0,0,0,0,0,0,0,0,0,0,0,0,0,0,0],"trees":[{"base_weights":[-1.5586935E-6,-1.7094058E0,5.185193E-1,-2.6886435E1,6.700782E-2,-3.7480671E0,-3.75186E-1,-2.5295584E0,9.356455E0,1.3639488E-2,-6.9860496E-2,6.0512424E0,-4.1133385E0,3.5138094E-1,5.972025E0,2.734324E-1,7.304819E0,3.4465637E-2,-4.4448808E-2,9.556821E-1,7.8278735E-2,1.096199E-2,-6.860504E-3,4.2152375E-2,8.933436E-2,1.969574E-2,-7.1473434E-3],"categories":[],"categories_nodes":[],"categories_segments":[],"categories_sizes":[],"default_left":[0,0,0,0,0,0,0,0,0,0,0,0,0,0,0,0,0,0,0,0,0,0,0,0,0,0,0],"id":0,"left_children":[1,3,-1,5,7,9,-1,11,13,-1,-1,15,17,-1,19,21,23,-1,-1,25,-1,-1,-1,-1,-1,-1,-1],"loss_changes":[8.331776E3,4.0717603E3,0E0,1.3354438E3,2.098045E3,5.9186466E1,0E0,9.490178E2,1.4480212E3,0E0,0E0,7.7674866E1,1.6069232E2,0E0,1.6009143E2,3.1203392E0,7.629181E0,0E0,0E0,1.1569453E1,0E0,0E0,0E0,0E0,0E0,0E0,0E0],"parents":[2147483647,0,0,1,1,3,3,4,4,5,5,7,7,8,8,11,11,12,12,14,14,15,15,16,16,19,19],"right_children":[2,4,-1,6,8,10,-1,12,14,-1,-1,16,18,-1,20,22,24,-1,-1,26,-1,-1,-1,-1,-1,-1,-1],"split_conditions":[5.8795077E-1,3.95E-1,5.185193E-1,1.15585976E2,4.1557524E-1,1.1428577E2,-3.75186E-1,2.1885E3,1.0735717E0,1.3639488E-2,-6.9860496E-2,1.9688922E-1,5.314E2,3.5138094E-1,4.2E0,1.0904815E0,5.311E2,3.4465637E-2,-4.4448808E-2,1.459514E-1,7.8278735E-2,1.096199E-2,-6.860504E-3,4.2152375E-2,8.933436E-2,1.969574E-2,-7.1473434E-3],"split_indices":[27,166,0,0,13,0,0,37,1,0,0,8,131,0,126,1,133,0,0,5,0,0,0,0,0,0,0],"split_type":[0,0,0,0,0,0,0,0,0,0,0,0,0,0,0,0,0,0,0,0,0,0,0,0,0,0,0],"sum_hessian":[9.2E1,9E1,2E0,5E0,8.5E1,2E0,3E0,6.7E1,1.8E1,1E0,1E0,1E1,5.7E1,1E0,1.7E1,2E0,8E0,2E0,5.5E1,5E0,1.2E1,1E0,1E0,4E0,4E0,3E0,2E0],"tree_param":{"num_deleted":"0","num_feature":"190","num_nodes":"27","size_leaf_vector":"1"}},{"base_weights":[7.040865E-3,-1.6908127E0,5.150625E-1,-2.6689472E1,7.294047E-2,-3.729327E0,-3.7237212E-1,-2.5024154E0,9.286165E0,1.3571281E-2,-6.951118E-2,6.0030565E0,-4.072377E0,3.4962407E-1,5.9173512E0,2.720642E-1,7.2463813E0,3.423589E-2,-4.4012256E-2,9.482155E-1,7.755618E-2,1.0907173E-2,-6.82621E-3,4.1815154E-2,8.861971E-2,1.9547995E-2,-7.0996857E-3],"categories":[],"categories_nodes":[],"categories_segments":[],"categories_sizes":[],"default_left":[0,0,0,0,0,0,0,0,0,0,0,0,0,0,0,0,0,0,0,0,0,0,0,0,0,0,0],"id":1,"left_children":[1,3,-1,5,7,9,-1,11,13,-1,-1,15,17,-1,19,21,23,-1,-1,25,-1,-1,-1,-1,-1,-1,-1],"loss_changes":[8.218832E3,4.0142703E3,0E0,1.3141958E3,2.0637886E3,5.859605E1,0E0,9.3246875E2,1.4365862E3,0E0,0E0,7.640881E1,1.5804016E2,0E0,1.5706873E2,3.0892146E0,7.507599E0,0E0,0E0,1.1402456E1,0E0,0E0,0E0,0E0,0E0,0E0,0E0],"parents":[2147483647,0,0,1,1,3,3,4,4,5,5,7,7,8,8,11,11,12,12,14,14,15,15,16,16,19,19],"right_children":[2,4,-1,6,8,10,-1,12,14,-1,-1,16,18,-1,20,22,24,-1,-1,26,-1,-1,-1,-1,-1,-1,-1],"split_conditions":[5.8795077E-1,3.95E-1,5.150625E-1,1.15585976E2,4.1557524E-1,1.1428577E2,-3.7237212E-1,2.1885E3,1.0735717E0,1.3571281E-2,-6.951118E-2,1.9688922E-1,5.314E2,3.4962407E-1,4.2E0,1.0904815E0,5.311E2,3.423589E-2,-4.4012256E-2,1.459514E-1,7.755618E-2,1.0907173E-2,-6.82621E-3,4.1815154E-2,8.861971E-2,1.9547995E-2,-7.0996857E-3],"split_indices":[27,166,0,0,13,0,0,37,1,0,0,8,131,0,126,1,133,0,0,5,0,0,0,0,0,0,0],"split_type":[0,0,0,0,0,0,0,0,0,0,0,0,0,0,0,0,0,0,0,0,0,0,0,0,0,0,0],"sum_hessian":[9.2E1,9E1,2E0,5E0,8.5E1,2E0,3E0,6.7E1,1.8E1,1E0,1E0,1E1,5.7E1,1E0,1.7E1,2E0,8E0,2E0,5.5E1,5E0,1.2E1,1E0,1E0,4E0,4E0,3E0,2E0],"tree_param":{"num_deleted":"0","num_feature":"190","num_nodes":"27","size_leaf_vector":"1"}},{"base_weights":[1.3973277E-2,-1.6724079E0,5.1162875E-1,-2.6493961E1,7.8775E-2,-3.7106807E0,-3.6957932E-1,-2.4755557E0,9.216444E0,1.3503417E-2,-6.916363E-2,5.955253E0,-4.0318203E0,3.4787592E-1,5.8631806E0,2.7070364E-1,7.188408E0,3.400767E-2,-4.3579977E-2,9.408099E-1,7.6840304E-2,1.0852623E-2,-6.7920685E-3,4.1480623E-2,8.791072E-2,1.9401398E-2,-7.0523326E-3],"categories":[],"categories_nodes":[],"categories_segments":[],"categories_sizes":[],"default_left":[0,0,0,0,0,0,0,0,0,0,0,0,0,0,0,0,0,0,0,0,0,0,0,0,0,0,0],"id":2,"left_children":[1,3,-1,5,7,9,-1,11,13,-1,-1,15,17,-1,19,21,23,-1,-1,25,-1,-1,-1,-1,-1,-1,-1],"loss_changes":[8.1074243E3,3.9575916E3,0E0,1.2932822E3,2.03011E3,5.801154E1,0E0,9.162091E2,1.4252231E3,0E0,0E0,7.51633E1,1.5543243E2,0E0,1.541029E2,3.0583909E0,7.3880005E0,0E0,0E0,1.1237892E1,0E0,0E0,0E0,0E0,0E0,0E0,0E0],"parents":[2147483647,0,0,1,1,3,3,4,4,5,5,7,7,8,8,11,11,12,12,14,14,15,15,16,16,19,19],"right_children":[2,4,-1,6,8,10,-1,12,14,-1,-1,16,18,-1,20,22,24,-1,-1,26,-1,-1,-1,-1,-1,-1,-1],"split_conditions":[5.8795077E-1,3.95E-1,5.1162875E-1,1.15585976E2,4.1557524E-1,1.1428577E2,-3.6957932E-1,2.1885E3,1.0735717E0,1.3503417E-2,-6.916363E-2,1.9688922E-1,5.314E2,3.4787592E-1,4.2E0,1.0904815E0,5.311E2,3.400767E-2,-4.3579977E-2,1.459514E-1,7.6840304E-2,1.0852623E-2,-6.7920685E-3,4.1480623E-2,8.791072E-2,1.9401398E-2,-7.0523326E-3],"split_indices":[27,166,0,0,13,0,0,37,1,0,0,8,131,0,126,1,133,0,0,5,0,0,0,0,0,0,0],"split_type":[0,0,0,0,0,0,0,0,0,0,0,0,0,0,0,0,0,0,0,0,0,0,0,0,0,0,0],"sum_hessian":[9.2E1,9E1,2E0,5E0,8.5E1,2E0,3E0,6.7E1,1.8E1,1E0,1E0,1E1,5.7E1,1E0,1.7E1,2E0,8E0,2E0,5.5E1,5E0,1.2E1,1E0,1E0,4E0,4E0,3E0,2E0],"tree_param":{"num_deleted":"0","num_feature":"190","num_nodes":"27","size_leaf_vector":"1"}},{"base_weights":[2.0792972E-2,-1.6541938E0,5.0821793E-1,-2.6299898E1,8.450876E-2,-3.6921284E0,-3.6680746E-1,-2.4489791E0,9.147281E0,1.3435897E-2,-6.8817824E-2,5.907831E0,-3.9916677E0,3.4613654E-1,5.8095016E0,2.6935068E-1,7.1308994E0,3.3780973E-2,-4.3151967E-2,9.33459E-1,7.613098E-2,1.0798378E-2,-6.7581176E-3,4.114877E-2,8.7207414E-2,1.9255886E-2,-7.0053358E-3],"categories":[],"categories_nodes":[],"categories_segments":[],"categories_sizes":[],"default_left":[0,0,0,0,0,0,0,0,0,0,0,0,0,0,0,0,0,0,0,0,0,0,0,0,0,0,0],"id":3,"left_children":[1,3,-1,5,7,9,-1,11,13,-1,-1,15,17,-1,19,21,23,-1,-1,25,-1,-1,-1,-1,-1,-1,-1],"loss_changes":[7.997532E3,3.9017136E3,0E0,1.2726978E3,1.9969982E3,5.743289E1,0E0,9.002351E2,1.4139336E3,0E0,0E0,7.393799E1,1.5286859E2,0E0,1.51193E2,3.027893E0,7.2702026E0,0E0,0E0,1.1075735E1,0E0,0E0,0E0,0E0,0E0,0E0,0E0],"parents":[2147483647,0,0,1,1,3,3,4,4,5,5,7,7,8,8,11,11,12,12,14,14,15,15,16,16,19,19],"right_children":[2,4,-1,6,8,10,-1,12,14,-1,-1,16,18,-1,20,22,24,-1,-1,26,-1,-1,-1,-1,-1,-1,-1],"split_conditions":[5.8795077E-1,3.95E-1,5.0821793E-1,1.15585976E2,4.1557524E-1,1.1428577E2,-3.6680746E-1,2.1885E3,1.0735717E0,1.3435897E-2,-6.8817824E-2,1.9688922E-1,5.314E2,3.4613654E-1,4.2E0,1.0904815E0,5.311E2,3.3780973E-2,-4.3151967E-2,1.459514E-1,7.613098E-2,1.0798378E-2,-6.7581176E-3,4.114877E-2,8.7207414E-2,1.9255886E-2,-7.0053358E-3],"split_indices":[27,166,0,0,13,0,0,37,1,0,0,8,131,0,126,1,133,0,0,5,0,0,0,0,0,0,0],"split_type":[0,0,0,0,0,0,0,0,0,0,0,0,0,0,0,0,0,0,0,0,0,0,0,0,0,0,0],"sum_hessian":[9.2E1,9E1,2E0,5E0,8.5E1,2E0,3E0,6.7E1,1.8E1,1E0,1E0,1E1,5.7E1,1E0,1.7E1,2E0,8E0,2E0,5.5E1,5E0,1.2E1,1E0,1E0,4E0,4E0,3E0,2E0],"tree_param":{"num_deleted":"0","num_feature":"190","num_nodes":"27","size_leaf_vector":"1"}},{"base_weights":[2.7504953E-2,-1.6361647E0,5.048298E-1,-2.6107264E1,9.0146534E-2,-3.673668E0,-3.6405647E-1,-2.42268E0,9.078675E0,1.3368721E-2,-6.847374E-2,5.860792E0,-3.9519129E0,3.4440586E-1,5.7563148E0,2.6800537E-1,7.073855E0,3.3555754E-2,-4.2728156E-2,9.261653E-1,7.542821E-2,1.0744399E-2,-6.7243194E-3,4.081961E-2,8.650978E-2,1.9111462E-2,-6.9586434E-3],"categories":[],"categories_nodes":[],"categories_segments":[],"categories_sizes":[],"default_left":[0,0,0,0,0,0,0,0,0,0,0,0,0,0,0,0,0,0,0,0,0,0,0,0,0,0,0],"id":4,"left_children":[1,3,-1,5,7,9,-1,11,13,-1,-1,15,17,-1,19,21,23,-1,-1,25,-1,-1,-1,-1,-1,-1,-1],"loss_changes":[7.889135E3,3.8466245E3,0E0,1.2524358E3,1.9644435E3,5.6860012E1,0E0,8.8454175E2,1.4027161E3,0E0,0E0,7.2732635E1,1.5034741E2,0E0,1.483377E2,2.9976914E0,7.1543274E0,0E0,0E0,1.0915907E1,0E0,0E0,0E0,0E0,0E0,0E0,0E0],"parents":[2147483647,0,0,1,1,3,3,4,4,5,5,7,7,8,8,11,11,12,12,14,14,15,15,16,16,19,19],"right_children":[2,4,-1,6,8,10,-1,12,14,-1,-1,16,18,-1,20,22,24,-1,-1,26,-1,-1,-1,-1,-1,-1,-1],"split_conditions":[5.8795077E-1,3.95E-1,5.048298E-1,1.15585976E2,4.1557524E-1,1.1428577E2,-3.6405647E-1,2.1885E3,1.0735717E0,1.3368721E-2,-6.847374E-2,1.9688922E-1,5.314E2,3.4440586E-1,4.2E0,1.0904815E0,5.311E2,3.3555754E-2,-4.2728156E-2,1.459514E-1,7.542821E-2,1.0744399E-2,-6.7243194E-3,4.081961E-2,8.650978E-2,1.9111462E-2,-6.9586434E-3],"split_indices":[27,166,0,0,13,0,0,37,1,0,0,8,131,0,126,1,133,0,0,5,0,0,0,0,0,0,0],"split_type":[0,0,0,0,0,0,0,0,0,0,0,0,0,0,0,0,0,0,0,0,0,0,0,0,0,0,0],"sum_hessian":[9.2E1,9E1,2E0,5E0,8.5E1,2E0,3E0,6.7E1,1.8E1,1E0,1E0,1E1,5.7E1,1E0,1.7E1,2E0,8E0,2E0,5.5E1,5E0,1.2E1,1E0,1E0,4E0,4E0,3E0,2E0],"tree_param":{"num_deleted":"0","num_feature":"190","num_nodes":"27","size_leaf_vector":"1"}},{"base_weights":[3.4107495E-2,-1.6183219E0,5.0146425E-1,-2.591605E1,9.568618E-2,-3.655299E0,-3.6132598E-1,-2.3966591E0,9.010623E0,1.3301888E-2,-6.813137E-2,5.8141255E0,-3.9125552E0,3.4268382E-1,5.7036147E0,2.6666513E-1,7.0172653E0,3.333206E-2,-4.230854E-2,9.189288E-1,7.473191E-2,1.0690689E-2,-6.6907117E-3,4.049307E-2,8.5817695E-2,1.8968124E-2,-6.912257E-3],"categories":[],"categories_nodes":[],"categories_segments":[],"categories_sizes":[],"default_left":[0,0,0,0,0,0,0,0,0,0,0,0,0,0,0,0,0,0,0,0,0,0,0,0,0,0,0],"id":5,"left_children":[1,3,-1,5,7,9,-1,11,13,-1,-1,15,17,-1,19,21,23,-1,-1,25,-1,-1,-1,-1,-1,-1,-1],"loss_changes":[7.7822104E3,3.7923115E3,0E0,1.2324929E3,1.932438E3,5.6292843E1,0E0,8.691235E2,1.391571E3,0E0,0E0,7.1546814E1,1.4786871E2,0E0,1.4553638E2,2.9677982E0,7.040283E0,0E0,0E0,1.07583885E1,0E0,0E0,0E0,0E0,0E0,0E0,0E0],"parents":[2147483647,0,0,1,1,3,3,4,4,5,5,7,7,8,8,11,11,12,12,14,14,15,15,16,16,19,19],"right_children":[2,4,-1,6,8,10,-1,12,14,-1,-1,16,18,-1,20,22,24,-1,-1,26,-1,-1,-1,-1,-1,-1,-1],"split_conditions":[5.8795077E-1,3.95E-1,5.0146425E-1,1.15585976E2,4.1557524E-1,1.1428577E2,-3.6132598E-1,2.1885E3,1.0735717E0,1.3301888E-2,-6.813137E-2,1.9688922E-1,5.314E2,3.4268382E-1,4.2E0,1.0904815E0,5.311E2,3.333206E-2,-4.230854E-2,1.459514E-1,7.473191E-2,1.0690689E-2,-6.6907117E-3,4.049307E-2,8.5817695E-2,1.8968124E-2,-6.912257E-3],"split_indices":[27,166,0,0,13,0,0,37,1,0,0,8,131,0,126,1,133,0,0,5,0,0,0,0,0,0,0],"split_type":[0,0,0,0,0,0,0,0,0,0,0,0,0,0,0,0,0,0,0,0,0,0,0,0,0,0,0],"sum_hessian":[9.2E1,9E1,2E0,5E0,8.5E1,2E0,3E0,6.7E1,1.8E1,1E0,1E0,1E1,5.7E1,1E0,1.7E1,2E0,8E0,2E0,5.5E1,5E0,1.2E1,1E0,1E0,4E0,4E0,3E0,2E0],"tree_param":{"num_deleted":"0","num_feature":"190","num_nodes":"27","size_leaf_vector":"1"}},{"base_weights":[4.060454E-2,-1.6006608E0,4.9812117E-1,-2.5726248E1,1.0113206E-1,-3.637024E0,-3.5861602E-1,-2.3709111E0,8.943122E0,1.32353585E-2,-6.779072E-2,5.7678304E0,-3.8735878E0,3.4097043E-1,5.6514015E0,2.6533255E-1,6.9611263E0,3.3109844E-2,-4.1893043E-2,9.1174954E-1,7.40421E-2,1.0637245E-2,-6.6572567E-3,4.0169094E-2,8.5131176E-2,1.8825874E-2,-6.866175E-3],"categories":[],"categories_nodes":[],"categories_segments":[],"categories_sizes":[],"default_left":[0,0,0,0,0,0,0,0,0,0,0,0,0,0,0,0,0,0,0,0,0,0,0,0,0,0,0],"id":6,"left_children":[1,3,-1,5,7,9,-1,11,13,-1,-1,15,17,-1,19,21,23,-1,-1,25,-1,-1,-1,-1,-1,-1,-1],"loss_changes":[7.6767407E3,3.738766E3,0E0,1.2128633E3,1.9009724E3,5.5731293E1,0E0,8.539752E2,1.3804976E3,0E0,0E0,7.038019E1,1.4543152E2,0E0,1.427879E2,2.9381971E0,6.928192E0,0E0,0E0,1.0603148E1,0E0,0E0,0E0,0E0,0E0,0E0,0E0],"parents":[2147483647,0,0,1,1,3,3,4,4,5,5,7,7,8,8,11,11,12,12,14,14,15,15,16,16,19,19],"right_children":[2,4,-1,6,8,10,-1,12,14,-1,-1,16,18,-1,20,22,24,-1,-1,26,-1,-1,-1,-1,-1,-1,-1],"split_conditions":[5.8795077E-1,3.95E-1,4.9812117E-1,1.15585976E2,4.1557524E-1,1.1428577E2,-3.5861602E-1,2.1885E3,1.0735717E0,1.32353585E-2,-6.779072E-2,1.9688922E-1,5.314E2,3.4097043E-1,4.2E0,1.0904815E0,5.311E2,3.3109844E-2,-4.1893043E-2,1.459514E-1,7.40421E-2,1.0637245E-2,-6.6572567E-3,4.0169094E-2,8.5131176E-2,1.8825874E-2,-6.866175E-3],"split_indices":[27,166,0,0,13,0,0,37,1,0,0,8,131,0,126,1,133,0,0,5,0,0,0,0,0,0,0],"split_type":[0,0,0,0,0,0,0,0,0,0,0,0,0,0,0,0,0,0,0,0,0,0,0,0,0,0,0],"sum_hessian":[9.2E1,9E1,2E0,5E0,8.5E1,2E0,3E0,6.7E1,1.8E1,1E0,1E0,1E1,5.7E1,1E0,1.7E1,2E0,8E0,2E0,5.5E1,5E0,1.2E1,1E0,1E0,4E0,4E0,3E0,2E0],"tree_param":{"num_deleted":"0","num_feature":"190","num_nodes":"27","size_leaf_vector":"1"}},{"base_weights":[4.6998546E-2,-1.5831785E0,4.9480036E-1,-2.5537848E1,1.0648648E-1,-3.6188405E0,-3.559264E-1,-2.34543E0,8.876162E0,1.3169174E-2,-6.745178E-2,5.7219067E0,-3.8350034E0,3.3926556E-1,5.599664E0,2.6400757E-1,6.905439E0,3.2889098E-2,-4.1481595E-2,9.046237E-1,7.335862E-2,1.05840685E-2,-6.6239545E-3,3.9847746E-2,8.445015E-2,1.8684654E-2,-6.820399E-3],"categories":[],"categories_nodes":[],"categories_segments":[],"categories_sizes":[],"default_left":[0,0,0,0,0,0,0,0,0,0,0,0,0,0,0,0,0,0,0,0,0,0,0,0,0,0,0],"id":7,"left_children":[1,3,-1,5,7,9,-1,11,13,-1,-1,15,17,-1,19,21,23,-1,-1,25,-1,-1,-1,-1,-1,-1,-1],"loss_changes":[7.572704E3,3.6859775E3,0E0,1.1935425E3,1.8700342E3,5.517538E1,0E0,8.3909204E2,1.3694962E3,0E0,0E0,6.923248E1,1.4303497E2,0E0,1.4009113E2,2.9088857E0,6.8177795E0,0E0,0E0,1.0450124E1,0E0,0E0,0E0,0E0,0E0,0E0,0E0],"parents":[2147483647,0,0,1,1,3,3,4,4,5,5,7,7,8,8,11,11,12,12,14,14,15,15,16,16,19,19],"right_children":[2,4,-1,6,8,10,-1,12,14,-1,-1,16,18,-1,20,22,24,-1,-1,26,-1,-1,-1,-1,-1,-1,-1],"split_conditions":[5.8795077E-1,3.95E-1,4.9480036E-1,1.15585976E2,4.1557524E-1,1.1428577E2,-3.559264E-1,2.1885E3,1.0735717E0,1.3169174E-2,-6.745178E-2,1.9688922E-1,5.314E2,3.3926556E-1,4.2E0,1.0904815E0,5.311E2,3.2889098E-2,-4.1481595E-2,1.459514E-1,7.335862E-2,1.05840685E-2,-6.6239545E-3,3.9847746E-2,8.445015E-2,1.8684654E-2,-6.820399E-3],"split_indices":[27,166,0,0,13,0,0,37,1,0,0,8,131,0,126,1,133,0,0,5,0,0,0,0,0,0,0],"split_type":[0,0,0,0,0,0,0,0,0,0,0,0,0,0,0,0,0,0,0,0,0,0,0,0,0,0,0],"sum_hessian":[9.2E1,9E1,2E0,5E0,8.5E1,2E0,3E0,6.7E1,1.8E1,1E0,1E0,1E1,5.7E1,1E0,1.7E1,2E0,8E0,2E0,5.5E1,5E0,1.2E1,1E0,1E0,4E0,4E0,3E0,2E0],"tree_param":{"num_deleted":"0","num_feature":"190","num_nodes":"27","size_leaf_vector":"1"}},{"base_weights":[5.328927E-2,-1.5658749E0,4.9150172E-1,-2.5350836E1,1.117489E-1,-3.6007462E0,-3.5325694E-1,-2.3202162E0,8.809743E0,1.3103332E-2,-6.7114525E-2,5.6763473E0,-3.796802E0,3.3756924E-1,5.5484033E0,2.6268768E-1,6.850195E0,3.266983E-2,-4.107419E-2,8.9755505E-1,7.268148E-2,1.0531158E-2,-6.590843E-3,3.952896E-2,8.3774544E-2,1.8544521E-2,-6.774928E-3],"categories":[],"categories_nodes":[],"categories_segments":[],"categories_sizes":[],"default_left":[0,0,0,0,0,0,0,0,0,0,0,0,0,0,0,0,0,0,0,0,0,0,0,0,0,0,0],"id":8,"left_children":[1,3,-1,5,7,9,-1,11,13,-1,-1,15,17,-1,19,21,23,-1,-1,25,-1,-1,-1,-1,-1,-1,-1],"loss_changes":[7.470083E3,3.633935E3,0E0,1.1745256E3,1.8396172E3,5.4625015E1,0E0,8.244696E2,1.358566E3,0E0,0E0,6.8103485E1,1.4067859E2,0E0,1.3744537E2,2.8798757E0,6.7091675E0,0E0,0E0,1.029933E1,0E0,0E0,0E0,0E0,0E0,0E0,0E0],"parents":[2147483647,0,0,1,1,3,3,4,4,5,5,7,7,8,8,11,11,12,12,14,14,15,15,16,16,19,19],"right_children":[2,4,-1,6,8,10,-1,12,14,-1,-1,16,18,-1,20,22,24,-1,-1,26,-1,-1,-1,-1,-1,-1,-1],"split_conditions":[5.8795077E-1,3.95E-1,4.9150172E-1,1.15585976E2,4.1557524E-1,1.1428577E2,-3.5325694E-1,2.1885E3,1.0735717E0,1.3103332E-2,-6.7114525E-2,1.9688922E-1,5.314E2,3.3756924E-1,4.2E0,1.0904815E0,5.311E2,3.266983E-2,-4.107419E-2,1.459514E-1,7.268148E-2,1.0531158E-2,-6.590843E-3,3.952896E-2,8.3774544E-2,1.8544521E-2,-6.774928E-3],"split_indices":[27,166,0,0,13,0,0,37,1,0,0,8,131,0,126,1,133,0,0,5,0,0,0,0,0,0,0],"split_type":[0,0,0,0,0,0,0,0,0,0,0,0,0,0,0,0,0,0,0,0,0,0,0,0,0,0,0],"sum_hessian":[9.2E1,9E1,2E0,5E0,8.5E1,2E0,3E0,6.7E1,1.8E1,1E0,1E0,1E1,5.7E1,1E0,1.7E1,2E0,8E0,2E0,5.5E1,5E0,1.2E1,1E0,1E0,4E0,4E0,3E0,2E0],"tree_param":{"num_deleted":"0","num_feature":"190","num_nodes":"27","size_leaf_vector":"1"}},{"base_weights":[5.9479006E-2,-1.548747E0,4.8822504E-1,-2.5165205E1,1.16921715E-1,-3.5827408E0,-3.506075E-1,-2.295264E0,8.743854E0,1.3037834E-2,-6.677894E-2,5.6311536E0,-3.7589767E0,3.3588138E-1,5.497608E0,2.6137543E-1,6.795396E0,3.2452036E-2,-4.067076E-2,8.905398E-1,7.201055E-2,1.0478515E-2,-6.557884E-3,3.9212737E-2,8.310438E-2,1.8405419E-2,-6.7297616E-3],"categories":[],"categories_nodes":[],"categories_segments":[],"categories_sizes":[],"default_left":[0,0,0,0,0,0,0,0,0,0,0,0,0,0,0,0,0,0,0,0,0,0,0,0,0,0,0],"id":9,"left_children":[1,3,-1,5,7,9,-1,11,13,-1,-1,15,17,-1,19,21,23,-1,-1,25,-1,-1,-1,-1,-1,-1,-1],"loss_changes":[7.368856E3,3.5826272E3,0E0,1.1558083E3,1.8097091E3,5.4080162E1,0E0,8.1010315E2,1.3477081E3,0E0,0E0,6.69928E1,1.3836163E2,0E0,1.3484924E2,2.8511515E0,6.602295E0,0E0,0E0,1.01507E1,0E0,0E0,0E0,0E0,0E0,0E0,0E0],"parents":[2147483647,0,0,1,1,3,3,4,4,5,5,7,7,8,8,11,11,12,12,14,14,15,15,16,16,19,19],"right_children":[2,4,-1,6,8,10,-1,12,14,-1,-1,16,18,-1,20,22,24,-1,-1,26,-1,-1,-1,-1,-1,-1,-1],"split_conditions":[5.8795077E-1,3.95E-1,4.8822504E-1,1.15585976E2,4.1557524E-1,1.1428577E2,-3.506075E-1,2.1885E3,1.0735717E0,1.3037834E-2,-6.677894E-2,1.9688922E-1,5.314E2,3.3588138E-1,4.2E0,1.0904815E0,5.311E2,3.2452036E-2,-4.067076E-2,1.459514E-1,7.201055E-2,1.0478515E-2,-6.557884E-3,3.9212737E-2,8.310438E-2,1.8405419E-2,-6.7297616E-3],"split_indices":[27,166,0,0,13,0,0,37,1,0,0,8,131,0,126,1,133,0,0,5,0,0,0,0,0,0,0],"split_type":[0,0,0,0,0,0,0,0,0,0,0,0,0,0,0,0,0,0,0,0,0,0,0,0,0,0,0],"sum_hessian":[9.2E1,9E1,2E0,5E0,8.5E1,2E0,3E0,6.7E1,1.8E1,1E0,1E0,1E1,5.7E1,1E0,1.7E1,2E0,8E0,2E0,5.5E1,5E0,1.2E1,1E0,1E0,4E0,4E0,3E0,2E0],"tree_param":{"num_deleted":"0","num_feature":"190","num_nodes":"27","size_leaf_vector":"1"}},{"base_weights":[6.5566935E-2,-1.5317949E0,4.8497018E-1,-2.4980944E1,1.2200387E-1,-3.564827E0,-3.4797797E-1,-2.2705748E0,8.678496E0,1.2972641E-2,-6.6445045E-2,5.586317E0,-3.7215273E0,3.3420196E-1,5.4472795E0,2.600708E-1,6.74103E0,3.2235667E-2,-4.02713E-2,8.835818E-1,7.13458E-2,1.0426139E-2,-6.525078E-3,3.8899016E-2,8.243953E-2,1.8267402E-2,-6.684901E-3],"categories":[],"categories_nodes":[],"categories_segments":[],"categories_sizes":[],"default_left":[0,0,0,0,0,0,0,0,0,0,0,0,0,0,0,0,0,0,0,0,0,0,0,0,0,0,0],"id":10,"left_children":[1,3,-1,5,7,9,-1,11,13,-1,-1,15,17,-1,19,21,23,-1,-1,25,-1,-1,-1,-1,-1,-1,-1],"loss_changes":[7.269005E3,3.5320437E3,0E0,1.137385E3,1.7803041E3,5.35407E1,0E0,7.9598804E2,1.3369208E3,0E0,0E0,6.5900024E1,1.3608325E2,0E0,1.32302E2,2.82271E0,6.4970703E0,0E0,0E0,1.0004257E1,0E0,0E0,0E0,0E0,0E0,0E0,0E0],"parents":[2147483647,0,0,1,1,3,3,4,4,5,5,7,7,8,8,11,11,12,12,14,14,15,15,16,16,19,19],"right_children":[2,4,-1,6,8,10,-1,12,14,-1,-1,16,18,-1,20,22,24,-1,-1,26,-1,-1,-1,-1,-1,-1,-1],"split_conditions":[5.8795077E-1,3.95E-1,4.8497018E-1,1.15585976E2,4.1557524E-1,1.1428577E2,-3.4797797E-1,2.1885E3,1.0735717E0,1.2972641E-2,-6.6445045E-2,1.9688922E-1,5.314E2,3.3420196E-1,4.2E0,1.0904815E0,5.311E2,3.2235667E-2,-4.02713E-2,1.459514E-1,7.13458E-2,1.0426139E-2,-6.525078E-3,3.8899016E-2,8.243953E-2,1.8267402E-2,-6.684901E-3],"split_indices":[27,166,0,0,13,0,0,37,1,0,0,8,131,0,126,1,133,0,0,5,0,0,0,0,0,0,0],"split_type":[0,0,0,0,0,0,0,0,0,0,0,0,0,0,0,0,0,0,0,0,0,0,0,0,0,0,0],"sum_hessian":[9.2E1,9E1,2E0,5E0,8.5E1,2E0,3E0,6.7E1,1.8E1,1E0,1E0,1E1,5.7E1,1E0,1.7E1,2E0,8E0,2E0,5.5E1,5E0,1.2E1,1E0,1E0,4E0,4E0,3E0,2E0],"tree_param":{"num_deleted":"0","num_feature":"190","num_nodes":"27","size_leaf_vector":"1"}},{"base_weights":[7.155298E-2,-1.5150186E0,4.8173705E-1,-2.4798044E1,1.26995E-1,-3.547002E0,-3.4536812E-1,-2.2461488E0,8.6136675E0,1.2907791E-2,-6.6112824E-2,5.5418363E0,-3.6844537E0,3.3253092E-1,5.3974166E0,2.587687E-1,6.687099E0,3.202077E-2,-3.987581E-2,8.766772E-1,7.068726E-2,1.0373993E-2,-6.492462E-3,3.8587797E-2,8.177999E-2,1.8130416E-2,-6.6403453E-3],"categories":[],"categories_nodes":[],"categories_segments":[],"categories_sizes":[],"default_left":[0,0,0,0,0,0,0,0,0,0,0,0,0,0,0,0,0,0,0,0,0,0,0,0,0,0,0],"id":11,"left_children":[1,3,-1,5,7,9,-1,11,13,-1,-1,15,17,-1,19,21,23,-1,-1,25,-1,-1,-1,-1,-1,-1,-1],"loss_changes":[7.1705127E3,3.4821743E3,0E0,1.119252E3,1.7513956E3,5.3006657E1,0E0,7.821205E2,1.3262042E3,0E0,0E0,6.4825134E1,1.3384338E2,0E0,1.2980304E2,2.7945518E0,6.3935547E0,0E0,0E0,9.859928E0,0E0,0E0,0E0,0E0,0E0,0E0,0E0],"parents":[2147483647,0,0,1,1,3,3,4,4,5,5,7,7,8,8,11,11,12,12,14,14,15,15,16,16,19,19],"right_children":[2,4,-1,6,8,10,-1,12,14,-1,-1,16,18,-1,20,22,24,-1,-1,26,-1,-1,-1,-1,-1,-1,-1],"split_conditions":[5.8795077E-1,3.95E-1,4.8173705E-1,1.15585976E2,4.1557524E-1,1.1428577E2,-3.4536812E-1,2.1885E3,1.0735717E0,1.2907791E-2,-6.6112824E-2,1.9688922E-1,5.314E2,3.3253092E-1,4.2E0,1.0904815E0,5.311E2,3.202077E-2,-3.987581E-2,1.459514E-1,7.068726E-2,1.0373993E-2,-6.492462E-3,3.8587797E-2,8.177999E-2,1.8130416E-2,-6.6403453E-3],"split_indices":[27,166,0,0,13,0,0,37,1,0,0,8,131,0,126,1,133,0,0,5,0,0,0,0,0,0,0],"split_type":[0,0,0,0,0,0,0,0,0,0,0,0,0,0,0,0,0,0,0,0,0,0,0,0,0,0,0],"sum_hessian":[9.2E1,9E1,2E0,5E0,8.5E1,2E0,3E0,6.7E1,1.8E1,1E0,1E0,1E1,5.7E1,1E0,1.7E1,2E0,8E0,2E0,5.5E1,5E0,1.2E1,1E0,1E0,4E0,4E0,3E0,2E0],"tree_param":{"num_deleted":"0","num_feature":"190","num_nodes":"27","size_leaf_vector":"1"}},{"base_weights":[7.744443E-2,-1.4984101E0,4.785255E-1,-2.4616491E1,1.3190274E-1,-3.5292664E0,-3.4277785E-1,-2.2219732E0,8.549358E0,1.2843247E-2,-6.578224E-2,5.4977126E0,-3.6477416E0,3.308683E-1,5.3480086E0,2.5747427E-1,6.6336017E0,3.18073E-2,-3.9484143E-2,8.69826E-1,7.0034765E-2,1.0322113E-2,-6.459999E-3,3.8279083E-2,8.112574E-2,1.7994462E-2,-6.596095E-3],"categories":[],"categories_nodes":[],"categories_segments":[],"categories_sizes":[],"default_left":[0,0,0,0,0,0,0,0,0,0,0,0,0,0,0,0,0,0,0,0,0,0,0,0,0,0,0],"id":12,"left_children":[1,3,-1,5,7,9,-1,11,13,-1,-1,15,17,-1,19,21,23,-1,-1,25,-1,-1,-1,-1,-1,-1,-1],"loss_changes":[7.0733584E3,3.4330103E3,0E0,1.1014043E3,1.7229701E3,5.2477882E1,0E0,7.6849524E2,1.315559E3,0E0,0E0,6.376767E1,1.3164075E2,0E0,1.2735101E2,2.766673E0,6.291687E0,0E0,0E0,9.717695E0,0E0,0E0,0E0,0E0,0E0,0E0,0E0],"parents":[2147483647,0,0,1,1,3,3,4,4,5,5,7,7,8,8,11,11,12,12,14,14,15,15,16,16,19,19],"right_children":[2,4,-1,6,8,10,-1,12,14,-1,-1,16,18,-1,20,22,24,-1,-1,26,-1,-1,-1,-1,-1,-1,-1],"split_conditions":[5.8795077E-1,3.95E-1,4.785255E-1,1.15585976E2,4.1557524E-1,1.1428577E2,-3.4277785E-1,2.1885E3,1.0735717E0,1.2843247E-2,-6.578224E-2,1.9688922E-1,5.314E2,3.308683E-1,4.2E0,1.0904815E0,5.311E2,3.18073E-2,-3.9484143E-2,1.459514E-1,7.0034765E-2,1.0322113E-2,-6.459999E-3,3.8279083E-2,8.112574E-2,1.7994462E-2,-6.596095E-3],"split_indices":[27,166,0,0,13,0,0,37,1,0,0,8,131,0,126,1,133,0,0,5,0,0,0,0,0,0,0],"split_type":[0,0,0,0,0,0,0,0,0,0,0,0,0,0,0,0,0,0,0,0,0,0,0,0,0,0,0],"sum_hessian":[9.2E1,9E1,2E0,5E0,8.5E1,2E0,3E0,6.7E1,1.8E1,1E0,1E0,1E1,5.7E1,1E0,1.7E1,2E0,8E0,2E0,5.5E1,5E0,1.2E1,1E0,1E0,4E0,4E0,3E0,2E0],"tree_param":{"num_deleted":"0","num_feature":"190","num_nodes":"27","size_leaf_vector":"1"}},{"base_weights":[8.323538E-2,-1.4819748E0,4.7533533E-1,-2.4436277E1,1.3672043E-1,-3.5116196E0,-3.40207E-1,-2.198055E0,8.485562E0,1.2779045E-2,-6.5453336E-2,5.4539433E0,-3.6113985E0,3.2921395E-1,5.2990503E0,2.5618744E-1,6.580535E0,3.1595256E-2,-3.909637E-2,8.630269E-1,6.938826E-2,1.02705E-2,-6.4276885E-3,3.7972867E-2,8.047676E-2,1.7859478E-2,-6.5520983E-3],"categories":[],"categories_nodes":[],"categories_segments":[],"categories_sizes":[],"default_left":[0,0,0,0,0,0,0,0,0,0,0,0,0,0,0,0,0,0,0,0,0,0,0,0,0,0,0],"id":13,"left_children":[1,3,-1,5,7,9,-1,11,13,-1,-1,15,17,-1,19,21,23,-1,-1,25,-1,-1,-1,-1,-1,-1,-1],"loss_changes":[6.977525E3,3.384539E3,0E0,1.0838374E3,1.6950216E3,5.195446E1,0E0,7.551096E2,1.3049845E3,0E0,0E0,6.2727386E1,1.2947504E2,0E0,1.249451E2,2.739071E0,6.191437E0,0E0,0E0,9.577445E0,0E0,0E0,0E0,0E0,0E0,0E0,0E0],"parents":[2147483647,0,0,1,1,3,3,4,4,5,5,7,7,8,8,11,11,12,12,14,14,15,15,16,16,19,19],"right_children":[2,4,-1,6,8,10,-1,12,14,-1,-1,16,18,-1,20,22,24,-1,-1,26,-1,-1,-1,-1,-1,-1,-1],"split_conditions":[5.8795077E-1,3.95E-1,4.7533533E-1,1.15585976E2,4.1557524E-1,1.1428577E2,-3.40207E-1,2.1885E3,1.0735717E0,1.2779045E-2,-6.5453336E-2,1.9688922E-1,5.314E2,3.2921395E-1,4.2E0,1.0904815E0,5.311E2,3.1595256E-2,-3.909637E-2,1.459514E-1,6.938826E-2,1.02705E-2,-6.4276885E-3,3.7972867E-2,8.047676E-2,1.7859478E-2,-6.5520983E-3],"split_indices":[27,166,0,0,13,0,0,37,1,0,0,8,131,0,126,1,133,0,0,5,0,0,0,0,0,0,0],"split_type":[0,0,0,0,0,0,0,0,0,0,0,0,0,0,0,0,0,0,0,0,0,0,0,0,0,0,0],"sum_hessian":[9.2E1,9E1,2E0,5E0,8.5E1,2E0,3E0,6.7E1,1.8E1,1E0,1E0,1E1,5.7E1,1E0,1.7E1,2E0,8E0,2E0,5.5E1,5E0,1.2E1,1E0,1E0,4E0,4E0,3E0,2E0],"tree_param":{"num_deleted":"0","num_feature":"190","num_nodes":"27","size_leaf_vector":"1"}},{"base_weights":[8.89297E-2,-1.4657085E0,4.7216642E-1,-2.4257395E1,1.4145225E-1,-3.4940617E0,-3.3765545E-1,-2.174389E0,8.42228E0,1.2715149E-2,-6.512608E-2,5.4105225E0,-3.575417E0,3.2756785E-1,5.250542E0,2.549057E-1,6.527892E0,3.1384632E-2,-3.8712423E-2,8.562813E-1,6.8747744E-2,1.0219154E-2,-6.3955686E-3,3.7669096E-2,7.983296E-2,1.7725525E-2,-6.5084076E-3],"categories":[],"categories_nodes":[],"categories_segments":[],"categories_sizes":[],"default_left":[0,0,0,0,0,0,0,0,0,0,0,0,0,0,0,0,0,0,0,0,0,0,0,0,0,0,0],"id":14,"left_children":[1,3,-1,5,7,9,-1,11,13,-1,-1,15,17,-1,19,21,23,-1,-1,25,-1,-1,-1,-1,-1,-1,-1],"loss_changes":[6.8829946E3,3.3367524E3,0E0,1.0665466E3,1.6675425E3,5.143621E1,0E0,7.4195874E2,1.2944803E3,0E0,0E0,6.170404E1,1.273457E2,0E0,1.2258472E2,2.7117574E0,6.0927734E0,0E0,0E0,9.439245E0,0E0,0E0,0E0,0E0,0E0,0E0,0E0],"parents":[2147483647,0,0,1,1,3,3,4,4,5,5,7,7,8,8,11,11,12,12,14,14,15,15,16,16,19,19],"right_children":[2,4,-1,6,8,10,-1,12,14,-1,-1,16,18,-1,20,22,24,-1,-1,26,-1,-1,-1,-1,-1,-1,-1],"split_conditions":[5.8795077E-1,3.95E-1,4.7216642E-1,1.15585976E2,4.1557524E-1,1.1428577E2,-3.3765545E-1,2.1885E3,1.0735717E0,1.2715149E-2,-6.512608E-2,1.9688922E-1,5.314E2,3.2756785E-1,4.2E0,1.0904815E0,5.311E2,3.1384632E-2,-3.8712423E-2,1.459514E-1,6.8747744E-2,1.0219154E-2,-6.3955686E-3,3.7669096E-2,7.983296E-2,1.7725525E-2,-6.5084076E-3],"split_indices":[27,166,0,0,13,0,0,37,1,0,0,8,131,0,126,1,133,0,0,5,0,0,0,0,0,0,0],"split_type":[0,0,0,0,0,0,0,0,0,0,0,0,0,0,0,0,0,0,0,0,0,0,0,0,0,0,0],"sum_hessian":[9.2E1,9E1,2E0,5E0,8.5E1,2E0,3E0,6.7E1,1.8E1,1E0,1E0,1E1,5.7E1,1E0,1.7E1,2E0,8E0,2E0,5.5E1,5E0,1.2E1,1E0,1E0,4E0,4E0,3E0,2E0],"tree_param":{"num_deleted":"0","num_feature":"190","num_nodes":"27","size_leaf_vector":"1"}},{"base_weights":[9.453041E-2,-1.4496074E0,4.6901867E-1,-2.4079832E1,1.4610149E-1,-3.476593E0,-3.3512306E-1,-2.150969E0,8.359507E0,1.2651558E-2,-6.480045E-2,5.3674474E0,-3.5397902E0,3.2593003E-1,5.202479E0,2.536316E-1,6.47567E0,3.1175384E-2,-3.833222E-2,8.4958905E-1,6.811314E-2,1.0168076E-2,-6.3636014E-3,3.736777E-2,7.9194285E-2,1.7592601E-2,-6.465022E-3],"categories":[],"categories_nodes":[],"categories_segments":[],"categories_sizes":[],"default_left":[0,0,0,0,0,0,0,0,0,0,0,0,0,0,0,0,0,0,0,0,0,0,0,0,0,0,0],"id":15,"left_children":[1,3,-1,5,7,9,-1,11,13,-1,-1,15,17,-1,19,21,23,-1,-1,25,-1,-1,-1,-1,-1,-1,-1],"loss_changes":[6.789748E3,3.2896418E3,0E0,1.0495286E3,1.6405234E3,5.0923115E1,0E0,7.290376E2,1.2840463E3,0E0,0E0,6.0697266E1,1.2525177E2,0E0,1.2026871E2,2.6847167E0,5.995575E0,0E0,0E0,9.303072E0,0E0,0E0,0E0,0E0,0E0,0E0,0E0],"parents":[2147483647,0,0,1,1,3,3,4,4,5,5,7,7,8,8,11,11,12,12,14,14,15,15,16,16,19,19],"right_children":[2,4,-1,6,8,10,-1,12,14,-1,-1,16,18,-1,20,22,24,-1,-1,26,-1,-1,-1,-1,-1,-1,-1],"split_conditions":[5.8795077E-1,3.95E-1,4.6901867E-1,1.15585976E2,4.1557524E-1,1.1428577E2,-3.3512306E-1,2.1885E3,1.0735717E0,1.2651558E-2,-6.480045E-2,1.9688922E-1,5.314E2,3.2593003E-1,4.2E0,1.0904815E0,5.311E2,3.1175384E-2,-3.833222E-2,1.459514E-1,6.811314E-2,1.0168076E-2,-6.3636014E-3,3.736777E-2,7.9194285E-2,1.7592601E-2,-6.465022E-3],"split_indices":[27,166,0,0,13,0,0,37,1,0,0,8,131,0,126,1,133,0,0,5,0,0,0,0,0,0,0],"split_type":[0,0,0,0,0,0,0,0,0,0,0,0,0,0,0,0,0,0,0,0,0,0,0,0,0,0,0],"sum_hessian":[9.2E1,9E1,2E0,5E0,8.5E1,2E0,3E0,6.7E1,1.8E1,1E0,1E0,1E1,5.7E1,1E0,1.7E1,2E0,8E0,2E0,5.5E1,5E0,1.2E1,1E0,1E0,4E0,4E0,3E0,2E0],"tree_param":{"num_deleted":"0","num_feature":"190","num_nodes":"27","size_leaf_vector":"1"}},{"base_weights":[1.0003654E-1,-1.4336722E0,4.6589187E-1,-2.390358E1,1.5066643E-1,-3.4592083E0,-3.3260962E-1,-2.1277962E0,8.297235E0,1.258831E-2,-6.447643E-2,5.324715E0,-3.5045176E0,3.2430038E-1,5.154855E0,2.5236258E-1,6.4238644E0,3.096756E-2,-3.7955765E-2,8.4294635E-1,6.7484386E-2,1.0117225E-2,-6.331787E-3,3.7068818E-2,7.856074E-2,1.7460652E-2,-6.421941E-3],"categories":[],"categories_nodes":[],"categories_segments":[],"categories_sizes":[],"default_left":[0,0,0,0,0,0,0,0,0,0,0,0,0,0,0,0,0,0,0,0,0,0,0,0,0,0,0],"id":16,"left_children":[1,3,-1,5,7,9,-1,11,13,-1,-1,15,17,-1,19,21,23,-1,-1,25,-1,-1,-1,-1,-1,-1,-1],"loss_changes":[6.6977695E3,3.2431963E3,0E0,1.0327788E3,1.6139569E3,5.0415157E1,0E0,7.163427E2,1.2736823E3,0E0,0E0,5.970685E1,1.2319287E2,0E0,1.1799646E2,2.6579351E0,5.9000854E0,0E0,0E0,9.168862E0,0E0,0E0,0E0,0E0,0E0,0E0,0E0],"parents":[2147483647,0,0,1,1,3,3,4,4,5,5,7,7,8,8,11,11,12,12,14,14,15,15,16,16,19,19],"right_children":[2,4,-1,6,8,10,-1,12,14,-1,-1,16,18,-1,20,22,24,-1,-1,26,-1,-1,-1,-1,-1,-1,-1],"split_conditions":[5.8795077E-1,3.95E-1,4.6589187E-1,1.15585976E2,4.1557524E-1,1.1428577E2,-3.3260962E-1,2.1885E3,1.0735717E0,1.258831E-2,-6.447643E-2,1.9688922E-1,5.314E2,3.2430038E-1,4.2E0,1.0904815E0,5.311E2,3.096756E-2,-3.7955765E-2,1.459514E-1,6.7484386E-2,1.0117225E-2,-6.331787E-3,3.7068818E-2,7.856074E-2,1.7460652E-2,-6.421941E-3],"split_indices":[27,166,0,0,13,0,0,37,1,0,0,8,131,0,126,1,133,0,0,5,0,0,0,0,0,0,0],"split_type":[0,0,0,0,0,0,0,0,0,0,0,0,0,0,0,0,0,0,0,0,0,0,0,0,0,0,0],"sum_hessian":[9.2E1,9E1,2E0,5E0,8.5E1,2E0,3E0,6.7E1,1.8E1,1E0,1E0,1E1,5.7E1,1E0,1.7E1,2E0,8E0,2E0,5.5E1,5E0,1.2E1,1E0,1E0,4E0,4E0,3E0,2E0],"tree_param":{"num_deleted":"0","num_feature":"190","num_nodes":"27","size_leaf_vector":"1"}},{"base_weights":[1.0545226E-1,-1.417898E0,4.6278593E-1,-2.3728626E1,1.5515155E-1,-3.4419124E0,-3.3011505E-1,-2.1048646E0,8.235465E0,1.2525368E-2,-6.415405E-2,5.282324E0,-3.4695923E0,3.2267886E-1,5.10767E0,2.5110117E-1,6.372473E0,3.0761108E-2,-3.7582982E-2,8.3635587E-1,6.686147E-2,1.0066642E-2,-6.300125E-3,3.6772244E-2,7.793227E-2,1.7329674E-2,-6.379115E-3],"categories":[],"categories_nodes":[],"categories_segments":[],"categories_sizes":[],"default_left":[0,0,0,0,0,0,0,0,0,0,0,0,0,0,0,0,0,0,0,0,0,0,0,0,0,0,0],"id":17,"left_children":[1,3,-1,5,7,9,-1,11,13,-1,-1,15,17,-1,19,21,23,-1,-1,25,-1,-1,-1,-1,-1,-1,-1],"loss_changes":[6.6070405E3,3.1974067E3,0E0,1.016292E3,1.5878356E3,4.9912262E1,0E0,7.038695E2,1.2633877E3,0E0,0E0,5.8732483E1,1.21168335E2,0E0,1.1576721E2,2.6314223E0,5.8060913E0,0E0,0E0,9.0365505E0,0E0,0E0,0E0,0E0,0E0,0E0,0E0],"parents":[2147483647,0,0,1,1,3,3,4,4,5,5,7,7,8,8,11,11,12,12,14,14,15,15,16,16,19,19],"right_children":[2,4,-1,6,8,10,-1,12,14,-1,-1,16,18,-1,20,22,24,-1,-1,26,-1,-1,-1,-1,-1,-1,-1],"split_conditions":[5.8795077E-1,3.95E-1,4.6278593E-1,1.15585976E2,4.1557524E-1,1.1428577E2,-3.3011505E-1,2.1885E3,1.0735717E0,1.2525368E-2,-6.415405E-2,1.9688922E-1,5.314E2,3.2267886E-1,4.2E0,1.0904815E0,5.311E2,3.0761108E-2,-3.7582982E-2,1.459514E-1,6.686147E-2,1.0066642E-2,-6.300125E-3,3.6772244E-2,7.793227E-2,1.7329674E-2,-6.379115E-3],"split_indices":[27,166,0,0,13,0,0,37,1,0,0,8,131,0,126,1,133,0,0,5,0,0,0,0,0,0,0],"split_type":[0,0,0,0,0,0,0,0,0,0,0,0,0,0,0,0,0,0,0,0,0,0,0,0,0,0,0],"sum_hessian":[9.2E1,9E1,2E0,5E0,8.5E1,2E0,3E0,6.7E1,1.8E1,1E0,1E0,1E1,5.7E1,1E0,1.7E1,2E0,8E0,2E0,5.5E1,5E0,1.2E1,1E0,1E0,4E0,4E0,3E0,2E0],"tree_param":{"num_deleted":"0","num_feature":"190","num_nodes":"27","size_leaf_vector":"1"}},{"base_weights":[1.1077545E-1,-1.4022868E0,4.5970073E-1,-2.3554964E1,1.5955442E-1,-3.424703E0,-3.2763916E-1,-2.0821748E0,8.174188E0,1.24627305E-2,-6.3833274E-2,5.2402697E0,-3.4350147E0,3.210655E-1,5.060915E0,2.4984741E-1,6.3214917E0,3.0556029E-2,-3.7213866E-2,8.298187E-1,6.6244274E-2,1.0016327E-2,-6.2686154E-3,3.6478058E-2,7.730879E-2,1.7199725E-2,-6.3365935E-3],"categories":[],"categories_nodes":[],"categories_segments":[],"categories_sizes":[],"default_left":[0,0,0,0,0,0,0,0,0,0,0,0,0,0,0,0,0,0,0,0,0,0,0,0,0,0,0],"id":18,"left_children":[1,3,-1,5,7,9,-1,11,13,-1,-1,15,17,-1,19,21,23,-1,-1,25,-1,-1,-1,-1,-1,-1,-1],"loss_changes":[6.5175454E3,3.1522644E3,0E0,1.0000652E3,1.562151E3,4.9414356E1,0E0,6.9161487E2,1.2531628E3,0E0,0E0,5.7773895E1,1.1917761E2,0E0,1.1357962E2,2.6051757E0,5.713623E0,0E0,0E0,8.906201E0,0E0,0E0,0E0,0E0,0E0,0E0,0E0],"parents":[2147483647,0,0,1,1,3,3,4,4,5,5,7,7,8,8,11,11,12,12,14,14,15,15,16,16,19,19],"right_children":[2,4,-1,6,8,10,-1,12,14,-1,-1,16,18,-1,20,22,24,-1,-1,26,-1,-1,-1,-1,-1,-1,-1],"split_conditions":[5.8795077E-1,3.95E-1,4.5970073E-1,1.15585976E2,4.1557524E-1,1.1428577E2,-3.2763916E-1,2.1885E3,1.0735717E0,1.24627305E-2,-6.3833274E-2,1.9688922E-1,5.314E2,3.210655E-1,4.2E0,1.0904815E0,5.311E2,3.0556029E-2,-3.7213866E-2,1.459514E-1,6.6244274E-2,1.0016327E-2,-6.2686154E-3,3.6478058E-2,7.730879E-2,1.7199725E-2,-6.3365935E-3],"split_indices":[27,166,0,0,13,0,0,37,1,0,0,8,131,0,126,1,133,0,0,5,0,0,0,0,0,0,0],"split_type":[0,0,0,0,0,0,0,0,0,0,0,0,0,0,0,0,0,0,0,0,0,0,0,0,0,0,0],"sum_hessian":[9.2E1,9E1,2E0,5E0,8.5E1,2E0,3E0,6.7E1,1.8E1,1E0,1E0,1E1,5.7E1,1E0,1.7E1,2E0,8E0,2E0,5.5E1,5E0,1.2E1,1E0,1E0,4E0,4E0,3E0,2E0],"tree_param":{"num_deleted":"0","num_feature":"190","num_nodes":"27","size_leaf_vector":"1"}},{"base_weights":[1.1601028E-1,-1.3868337E0,4.5663604E-1,-2.3382584E1,1.6387957E-1,-3.4075801E0,-3.2518187E-1,-2.0597205E0,8.113401E0,1.2400398E-2,-6.35141E-2,5.198553E0,-3.400777E0,3.1946012E-1,5.0145893E0,2.4859874E-1,6.2709208E0,3.0352324E-2,-3.684835E-2,8.2333374E-1,6.563277E-2,9.966239E-3,-6.2372587E-3,3.9900854E-2,8.124443E-2,1.7070752E-2,-6.294327E-3],"categories":[],"categories_nodes":[],"categories_segments":[],"categories_sizes":[],"default_left":[0,0,0,0,0,0,0,0,0,0,0,0,0,0,0,0,0,0,0,0,0,0,0,0,0,0,0],"id":19,"left_children":[1,3,-1,5,7,9,-1,11,13,-1,-1,15,17,-1,19,21,23,-1,-1,25,-1,-1,-1,-1,-1,-1,-1],"loss_changes":[6.4292637E3,3.10776E3,0E0,9.840947E2,1.5368953E3,4.8921406E1,0E0,6.7957446E2,1.2430071E3,0E0,0E0,5.6830933E1,1.1721997E2,0E0,1.1143329E2,2.5791826E0,5.631012E0,0E0,0E0,8.777708E0,0E0,0E0,0E0,0E0,0E0,0E0,0E0],"parents":[2147483647,0,0,1,1,3,3,4,4,5,5,7,7,8,8,11,11,12,12,14,14,15,15,16,16,19,19],"right_children":[2,4,-1,6,8,10,-1,12,14,-1,-1,16,18,-1,20,22,24,-1,-1,26,-1,-1,-1,-1,-1,-1,-1],"split_conditions":[5.8795077E-1,3.95E-1,4.5663604E-1,1.15585976E2,4.1557524E-1,1.1428577E2,-3.2518187E-1,2.1885E3,1.0735717E0,1.2400398E-2,-6.35141E-2,1.9688922E-1,5.314E2,3.1946012E-1,4.2E0,1.0904815E0,4.953741E-1,3.0352324E-2,-3.684835E-2,1.459514E-1,6.563277E-2,9.966239E-3,-6.2372587E-3,3.9900854E-2,8.124443E-2,1.7070752E-2,-6.294327E-3],"split_indices":[27,166,0,0,13,0,0,37,1,0,0,8,131,0,126,1,14,0,0,5,0,0,0,0,0,0,0],"split_type":[0,0,0,0,0,0,0,0,0,0,0,0,0,0,0,0,0,0,0,0,0,0,0,0,0,0,0],"sum_hessian":[9.2E1,9E1,2E0,5E0,8.5E1,2E0,3E0,6.7E1,1.8E1,1E0,1E0,1E1,5.7E1,1E0,1.7E1,2E0,8E0,2E0,5.5E1,5E0,1.2E1,1E0,1E0,5E0,3E0,3E0,2E0],"tree_param":{"num_deleted":"0","num_feature":"190","num_nodes":"27","size_leaf_vector":"1"}},{"base_weights":[1.2124437E-1,-1.3714485E0,4.535918E-1,-2.3211473E1,1.6822124E-1,-3.390541E0,-3.2274306E-1,-2.037381E0,8.053102E0,1.2338409E-2,-6.3196525E-2,5.1579194E0,-3.3668797E0,3.1786284E-1,4.968687E0,2.4735768E-1,6.221671E0,3.0149993E-2,-3.6486432E-2,8.1689835E-1,6.50269E-2,9.91642E-3,-6.2060547E-3,3.5867035E-2,7.6123044E-2,1.6942749E-2,-6.252365E-3],"categories":[],"categories_nodes":[],"categories_segments":[],"categories_sizes":[],"default_left":[0,0,0,0,0,0,0,0,0,0,0,0,0,0,0,0,0,0,0,0,0,0,0,0,0,0,0],"id":20,"left_children":[1,3,-1,5,7,9,-1,11,13,-1,-1,15,17,-1,19,21,23,-1,-1,25,-1,-1,-1,-1,-1,-1,-1],"loss_changes":[6.342158E3,3.0639097E3,0E0,9.68375E2,1.5120255E3,4.8433434E1,0E0,6.678638E2,1.2329207E3,0E0,0E0,5.5920807E1,1.1529523E2,0E0,1.0932745E2,2.5534525E0,5.675415E0,0E0,0E0,8.651094E0,0E0,0E0,0E0,0E0,0E0,0E0,0E0],"parents":[2147483647,0,0,1,1,3,3,4,4,5,5,7,7,8,8,11,11,12,12,14,14,15,15,16,16,19,19],"right_children":[2,4,-1,6,8,10,-1,12,14,-1,-1,16,18,-1,20,22,24,-1,-1,26,-1,-1,-1,-1,-1,-1,-1],"split_conditions":[5.8795077E-1,3.95E-1,4.535918E-1,1.15585976E2,4.1557524E-1,1.1428577E2,-3.2274306E-1,2.1885E3,1.0735717E0,1.2338409E-2,-6.3196525E-2,1.9688922E-1,5.314E2,3.1786284E-1,4.2E0,1.0904815E0,5.311E2,3.0149993E-2,-3.6486432E-2,1.459514E-1,6.50269E-2,9.91642E-3,-6.2060547E-3,3.5867035E-2,7.6123044E-2,1.6942749E-2,-6.252365E-3],"split_indices":[27,166,0,0,13,0,0,37,1,0,0,8,131,0,126,1,133,0,0,5,0,0,0,0,0,0,0],"split_type":[0,0,0,0,0,0,0,0,0,0,0,0,0,0,0,0,0,0,0,0,0,0,0,0,0,0,0],"sum_hessian":[9.2E1,9E1,2E0,5E0,8.5E1,2E0,3E0,6.7E1,1.8E1,1E0,1E0,1E1,5.7E1,1E0,1.7E1,2E0,8E0,2E0,5.5E1,5E0,1.2E1,1E0,1E0,4E0,4E0,3E0,2E0],"tree_param":{"num_deleted":"0","num_feature":"190","num_nodes":"27","size_leaf_vector":"1"}},{"base_weights":[1.2629864E-1,-1.3563142E0,4.5056787E-1,-2.3041624E1,1.7238554E-1,-3.3735886E0,-3.2032245E-1,-2.0154014E0,7.9932866E0,1.2276726E-2,-6.288055E-2,5.1168575E0,-3.3333228E0,3.1627354E-1,4.9232078E0,2.4611919E-1,6.171897E0,2.9948985E-2,-3.6128107E-2,8.105113E-1,6.442667E-2,9.866829E-3,-6.175041E-3,3.920236E-2,8.006414E-2,1.6815662E-2,-6.210658E-3],"categories":[],"categories_nodes":[],"categories_segments":[],"categories_sizes":[],"default_left":[0,0,0,0,0,0,0,0,0,0,0,0,0,0,0,0,0,0,0,0,0,0,0,0,0,0,0],"id":21,"left_children":[1,3,-1,5,7,9,-1,11,13,-1,-1,15,17,-1,19,21,23,-1,-1,25,-1,-1,-1,-1,-1,-1,-1],"loss_changes":[6.2562617E3,3.0206519E3,0E0,9.5290356E2,1.4876096E3,4.7950344E1,0E0,6.562395E2,1.2229026E3,0E0,0E0,5.5008026E1,1.1340253E2,0E0,1.07261536E2,2.527985E0,5.7893677E0,0E0,0E0,8.5262575E0,0E0,0E0,0E0,0E0,0E0,0E0,0E0],"parents":[2147483647,0,0,1,1,3,3,4,4,5,5,7,7,8,8,11,11,12,12,14,14,15,15,16,16,19,19],"right_children":[2,4,-1,6,8,10,-1,12,14,-1,-1,16,18,-1,20,22,24,-1,-1,26,-1,-1,-1,-1,-1,-1,-1],"split_conditions":[5.8795077E-1,3.95E-1,4.5056787E-1,1.15585976E2,4.1557524E-1,1.1428577E2,-3.2032245E-1,2.1885E3,1.0735717E0,1.2276726E-2,-6.288055E-2,1.9688922E-1,5.314E2,3.1627354E-1,4.2E0,1.0904815E0,4.953741E-1,2.9948985E-2,-3.6128107E-2,1.459514E-1,6.442667E-2,9.866829E-3,-6.175041E-3,3.920236E-2,8.006414E-2,1.6815662E-2,-6.210658E-3],"split_indices":[27,166,0,0,13,0,0,37,1,0,0,8,131,0,126,1,14,0,0,5,0,0,0,0,0,0,0],"split_type":[0,0,0,0,0,0,0,0,0,0,0,0,0,0,0,0,0,0,0,0,0,0,0,0,0,0,0],"sum_hessian":[9.2E1,9E1,2E0,5E0,8.5E1,2E0,3E0,6.7E1,1.8E1,1E0,1E0,1E1,5.7E1,1E0,1.7E1,2E0,8E0,2E0,5.5E1,5E0,1.2E1,1E0,1E0,5E0,3E0,3E0,2E0],"tree_param":{"num_deleted":"0","num_feature":"190","num_nodes":"27","size_leaf_vector":"1"}},{"base_weights":[1.3135323E-1,-1.3412459E0,4.4756407E-1,-2.287303E1,1.7656752E-1,-3.35672E0,-3.1792006E-1,-1.993532E0,7.933946E0,1.2215347E-2,-6.2566146E-2,5.076868E0,-3.3000987E0,3.1469214E-1,4.8781414E0,2.448883E-1,6.1234317E0,2.9749347E-2,-3.5773307E-2,8.0417377E-1,6.3831925E-2,9.817504E-3,-6.14418E-3,3.887569E-2,7.946367E-2,1.6689548E-2,-6.1692554E-3],"categories":[],"categories_nodes":[],"categories_segments":[],"categories_sizes":[],"default_left":[0,0,0,0,0,0,0,0,0,0,0,0,0,0,0,0,0,0,0,0,0,0,0,0,0,0,0],"id":22,"left_children":[1,3,-1,5,7,9,-1,11,13,-1,-1,15,17,-1,19,21,23,-1,-1,25,-1,-1,-1,-1,-1,-1,-1],"loss_changes":[6.1715073E3,2.9780308E3,0E0,9.37676E2,1.463565E3,4.7472034E1,0E0,6.4493475E2,1.2129532E3,0E0,0E0,5.4127136E1,1.11541565E2,0E0,1.05234344E2,2.5027761E0,5.790436E0,0E0,0E0,8.40326E0,0E0,0E0,0E0,0E0,0E0,0E0,0E0],"parents":[2147483647,0,0,1,1,3,3,4,4,5,5,7,7,8,8,11,11,12,12,14,14,15,15,16,16,19,19],"right_children":[2,4,-1,6,8,10,-1,12,14,-1,-1,16,18,-1,20,22,24,-1,-1,26,-1,-1,-1,-1,-1,-1,-1],"split_conditions":[5.8795077E-1,3.95E-1,4.4756407E-1,1.15585976E2,4.1557524E-1,1.1428577E2,-3.1792006E-1,2.1885E3,1.0735717E0,1.2215347E-2,-6.2566146E-2,1.9688922E-1,5.314E2,3.1469214E-1,4.2E0,1.0904815E0,4.953741E-1,2.9749347E-2,-3.5773307E-2,1.459514E-1,6.3831925E-2,9.817504E-3,-6.14418E-3,3.887569E-2,7.946367E-2,1.6689548E-2,-6.1692554E-3],"split_indices":[27,166,0,0,13,0,0,37,1,0,0,8,131,0,126,1,14,0,0,5,0,0,0,0,0,0,0],"split_type":[0,0,0,0,0,0,0,0,0,0,0,0,0,0,0,0,0,0,0,0,0,0,0,0,0,0,0],"sum_hessian":[9.2E1,9E1,2E0,5E0,8.5E1,2E0,3E0,6.7E1,1.8E1,1E0,1E0,1E1,5.7E1,1E0,1.7E1,2E0,8E0,2E0,5.5E1,5E0,1.2E1,1E0,1E0,5E0,3E0,3E0,2E0],"tree_param":{"num_deleted":"0","num_feature":"190","num_nodes":"27","size_leaf_vector":"1"}},{"base_weights":[1.3632277E-1,-1.3263305E0,4.4458035E-1,-2.2705679E1,1.8067436E-1,-3.3399353E0,-3.1553566E-1,-1.9718903E0,7.8750806E0,1.2154274E-2,-6.2253304E-2,5.0371904E0,-3.2672007E0,3.131187E-1,4.8334885E0,2.4366252E-1,6.0753455E0,2.9551035E-2,-3.5421956E-2,7.9788464E-1,6.3242674E-2,9.76841E-3,-6.113472E-3,3.85517E-2,7.886772E-2,1.656435E-2,-6.1281077E-3],"categories":[],"categories_nodes":[],"categories_segments":[],"categories_sizes":[],"default_left":[0,0,0,0,0,0,0,0,0,0,0,0,0,0,0,0,0,0,0,0,0,0,0,0,0,0,0],"id":23,"left_children":[1,3,-1,5,7,9,-1,11,13,-1,-1,15,17,-1,19,21,23,-1,-1,25,-1,-1,-1,-1,-1,-1,-1],"loss_changes":[6.087905E3,2.936012E3,0E0,9.226887E2,1.4399216E3,4.69985E1,0E0,6.3382513E2,1.2030725E3,0E0,0E0,5.3260315E1,1.0971155E2,0E0,1.0324545E2,2.4778132E0,5.7903137E0,0E0,0E0,8.282E0,0E0,0E0,0E0,0E0,0E0,0E0,0E0],"parents":[2147483647,0,0,1,1,3,3,4,4,5,5,7,7,8,8,11,11,12,12,14,14,15,15,16,16,19,19],"right_children":[2,4,-1,6,8,10,-1,12,14,-1,-1,16,18,-1,20,22,24,-1,-1,26,-1,-1,-1,-1,-1,-1,-1],"split_conditions":[5.8795077E-1,3.95E-1,4.4458035E-1,1.15585976E2,4.1557524E-1,1.1428577E2,-3.1553566E-1,2.1885E3,1.0735717E0,1.2154274E-2,-6.2253304E-2,1.9688922E-1,5.314E2,3.131187E-1,4.2E0,1.0904815E0,4.953741E-1,2.9551035E-2,-3.5421956E-2,1.459514E-1,6.3242674E-2,9.76841E-3,-6.113472E-3,3.85517E-2,7.886772E-2,1.656435E-2,-6.1281077E-3],"split_indices":[27,166,0,0,13,0,0,37,1,0,0,8,131,0,126,1,14,0,0,5,0,0,0,0,0,0,0],"split_type":[0,0,0,0,0,0,0,0,0,0,0,0,0,0,0,0,0,0,0,0,0,0,0,0,0,0,0],"sum_hessian":[9.2E1,9E1,2E0,5E0,8.5E1,2E0,3E0,6.7E1,1.8E1,1E0,1E0,1E1,5.7E1,1E0,1.7E1,2E0,8E0,2E0,5.5E1,5E0,1.2E1,1E0,1E0,5E0,3E0,3E0,2E0],"tree_param":{"num_deleted":"0","num_feature":"190","num_nodes":"27","size_leaf_vector":"1"}},{"base_weights":[1.4120762E-1,-1.3115674E0,4.4161648E-1,-2.253956E1,1.8470623E-1,-3.3232346E0,-3.1316915E-1,-1.9504759E0,7.8166895E0,1.2093506E-2,-6.1942022E-2,4.997826E0,-3.2346284E0,3.1155312E-1,4.7892485E0,2.4244435E-1,6.0276394E0,2.9354045E-2,-3.5074048E-2,7.9164505E-1,6.265892E-2,9.719581E-3,-6.082916E-3,3.8230438E-2,7.827623E-2,1.6440123E-2,-6.087265E-3],"categories":[],"categories_nodes":[],"categories_segments":[],"categories_sizes":[],"default_left":[0,0,0,0,0,0,0,0,0,0,0,0,0,0,0,0,0,0,0,0,0,0,0,0,0,0,0],"id":24,"left_children":[1,3,-1,5,7,9,-1,11,13,-1,-1,15,17,-1,19,21,23,-1,-1,25,-1,-1,-1,-1,-1,-1,-1],"loss_changes":[6.005438E3,2.894586E3,0E0,9.079375E2,1.4166742E3,4.6529682E1,0E0,6.229084E2,1.1932592E3,0E0,0E0,5.240732E1,1.0791199E2,0E0,1.0129434E2,2.453105E0,5.788788E0,0E0,0E0,8.16254E0,0E0,0E0,0E0,0E0,0E0,0E0,0E0],"parents":[2147483647,0,0,1,1,3,3,4,4,5,5,7,7,8,8,11,11,12,12,14,14,15,15,16,16,19,19],"right_children":[2,4,-1,6,8,10,-1,12,14,-1,-1,16,18,-1,20,22,24,-1,-1,26,-1,-1,-1,-1,-1,-1,-1],"split_conditions":[5.8795077E-1,3.95E-1,4.4161648E-1,1.15585976E2,4.1557524E-1,1.1428577E2,-3.1316915E-1,2.1885E3,1.0735717E0,1.2093506E-2,-6.1942022E-2,1.9688922E-1,5.314E2,3.1155312E-1,4.2E0,1.0904815E0,4.953741E-1,2.9354045E-2,-3.5074048E-2,1.459514E-1,6.265892E-2,9.719581E-3,-6.082916E-3,3.8230438E-2,7.827623E-2,1.6440123E-2,-6.087265E-3],"split_indices":[27,166,0,0,13,0,0,37,1,0,0,8,131,0,126,1,14,0,0,5,0,0,0,0,0,0,0],"split_type":[0,0,0,0,0,0,0,0,0,0,0,0,0,0,0,0,0,0,0,0,0,0,0,0,0,0,0],"sum_hessian":[9.2E1,9E1,2E0,5E0,8.5E1,2E0,3E0,6.7E1,1.8E1,1E0,1E0,1E1,5.7E1,1E0,1.7E1,2E0,8E0,2E0,5.5E1,5E0,1.2E1,1E0,1E0,5E0,3E0,3E0,2E0],"tree_param":{"num_deleted":"0","num_feature":"190","num_nodes":"27","size_leaf_vector":"1"}},{"base_weights":[1.4600496E-1,-1.2969587E0,4.3867233E-1,-2.2374666E1,1.8866003E-1,-3.3066177E0,-3.1082037E-1,-1.9292898E0,7.758762E0,1.20330425E-2,-6.163231E-2,4.9587693E0,-3.2023823E0,4.7454114E0,3.0999535E-1,2.4123128E-1,5.9803076E0,2.9158374E-2,-3.472959E-2,7.854538E-1,6.2080525E-2,9.670982E-3,-6.052513E-3,3.7911847E-2,7.768915E-2,1.6316814E-2,-6.0466765E-3],"categories":[],"categories_nodes":[],"categories_segments":[],"categories_sizes":[],"default_left":[0,0,0,0,0,0,0,0,0,0,0,0,0,0,0,0,0,0,0,0,0,0,0,0,0,0,0],"id":25,"left_children":[1,3,-1,5,7,9,-1,11,13,-1,-1,15,17,19,-1,21,23,-1,-1,25,-1,-1,-1,-1,-1,-1,-1],"loss_changes":[5.924092E3,2.8537441E3,0E0,8.9341895E2,1.3938152E3,4.606555E1,0E0,6.1218115E2,1.1835137E3,0E0,0E0,5.1567963E1,1.0614252E2,9.937982E1,0E0,2.428639E0,5.7859497E0,0E0,0E0,8.044781E0,0E0,0E0,0E0,0E0,0E0,0E0,0E0],"parents":[2147483647,0,0,1,1,3,3,4,4,5,5,7,7,8,8,11,11,12,12,13,13,15,15,16,16,19,19],"right_children":[2,4,-1,6,8,10,-1,12,14,-1,-1,16,18,20,-1,22,24,-1,-1,26,-1,-1,-1,-1,-1,-1,-1],"split_conditions":[5.8795077E-1,3.95E-1,4.3867233E-1,1.15585976E2,4.1557524E-1,1.1428577E2,-3.1082037E-1,2.1885E3,1.2030247E-1,1.20330425E-2,-6.163231E-2,1.9688922E-1,5.314E2,4.2E0,3.0999535E-1,1.0904815E0,4.953741E-1,2.9158374E-2,-3.472959E-2,1.459514E-1,6.2080525E-2,9.670982E-3,-6.052513E-3,3.7911847E-2,7.768915E-2,1.6316814E-2,-6.0466765E-3],"split_indices":[27,166,0,0,13,0,0,37,2,0,0,8,131,126,0,1,14,0,0,5,0,0,0,0,0,0,0],"split_type":[0,0,0,0,0,0,0,0,0,0,0,0,0,0,0,0,0,0,0,0,0,0,0,0,0,0,0],"sum_hessian":[9.2E1,9E1,2E0,5E0,8.5E1,2E0,3E0,6.7E1,1.8E1,1E0,1E0,1E1,5.7E1,1.7E1,1E0,2E0,8E0,2E0,5.5E1,5E0,1.2E1,1E0,1E0,5E0,3E0,3E0,2E0],"tree_param":{"num_deleted":"0","num_feature":"190","num_nodes":"27","size_leaf_vector":"1"}},{"base_weights":[1.5071918E-1,-1.2824997E0,4.3574783E-1,-2.2210989E1,1.9254036E-1,-3.2900848E0,-3.084892E-1,-1.9083261E0,7.7012978E0,1.1972885E-2,-6.1324157E-2,4.9200196E0,-3.1704552E0,4.701977E0,3.0844536E-1,2.400233E-1,5.9333496E0,2.8963977E-2,-3.4388497E-2,7.793109E-1,6.150747E-2,9.622612E-3,-6.0222624E-3,3.4037933E-2,7.276236E-2,1.619442E-2,-6.006343E-3],"categories":[],"categories_nodes":[],"categories_segments":[],"categories_sizes":[],"default_left":[0,0,0,0,0,0,0,0,0,0,0,0,0,0,0,0,0,0,0,0,0,0,0,0,0,0,0],"id":26,"left_children":[1,3,-1,5,7,9,-1,11,13,-1,-1,15,17,19,-1,21,23,-1,-1,25,-1,-1,-1,-1,-1,-1,-1],"loss_changes":[5.8438496E3,2.8134795E3,0E0,8.791294E2,1.3713376E3,4.5606064E1,0E0,6.016399E2,1.1738357E3,0E0,0E0,5.0742035E1,1.0440234E2,9.7501465E1,0E0,2.4044127E0,5.805359E0,0E0,0E0,7.9287024E0,0E0,0E0,0E0,0E0,0E0,0E0,0E0],"parents":[2147483647,0,0,1,1,3,3,4,4,5,5,7,7,8,8,11,11,12,12,13,13,15,15,16,16,19,19],"right_children":[2,4,-1,6,8,10,-1,12,14,-1,-1,16,18,20,-1,22,24,-1,-1,26,-1,-1,-1,-1,-1,-1,-1],"split_conditions":[5.8795077E-1,3.95E-1,4.3574783E-1,1.15585976E2,4.1557524E-1,1.1428577E2,-3.084892E-1,2.1885E3,1.2030247E-1,1.1972885E-2,-6.1324157E-2,1.9688922E-1,5.314E2,4.2E0,3.0844536E-1,1.0904815E0,5.311E2,2.8963977E-2,-3.4388497E-2,1.459514E-1,6.150747E-2,9.622612E-3,-6.0222624E-3,3.4037933E-2,7.276236E-2,1.619442E-2,-6.006343E-3],"split_indices":[27,166,0,0,13,0,0,37,2,0,0,8,131,126,0,1,133,0,0,5,0,0,0,0,0,0,0],"split_type":[0,0,0,0,0,0,0,0,0,0,0,0,0,0,0,0,0,0,0,0,0,0,0,0,0,0,0],"sum_hessian":[9.2E1,9E1,2E0,5E0,8.5E1,2E0,3E0,6.7E1,1.8E1,1E0,1E0,1E1,5.7E1,1.7E1,1E0,2E0,8E0,2E0,5.5E1,5E0,1.2E1,1E0,1E0,4E0,4E0,3E0,2E0],"tree_param":{"num_deleted":"0","num_feature":"190","num_nodes":"27","size_leaf_vector":"1"}},{"base_weights":[1.5526433E-1,-1.2682778E0,4.3284285E-1,-2.2048521E1,1.9625401E-1,-3.2736332E0,-3.0617556E-1,-1.8877012E0,7.644291E0,1.1913032E-2,-6.1017532E-2,4.8808575E0,-3.1388466E0,4.658939E0,3.069031E-1,2.3882294E-1,5.885885E0,2.8770903E-2,-3.405078E-2,7.732137E-1,6.093971E0,9.574508E-3,-5.9921644E-3,3.724776E-2,7.6560766E-2,1.607294E-2,-5.966313E-3,1.8015517E-2,6.301542E-2],"categories":[],"categories_nodes":[],"categories_segments":[],"categories_sizes":[],"default_left":[0,0,0,0,0,0,0,0,0,0,0,0,0,0,0,0,0,0,0,0,0,0,0,0,0,0,0,0,0],"id":27,"left_children":[1,3,-1,5,7,9,-1,11,13,-1,-1,15,17,19,-1,21,23,-1,-1,25,27,-1,-1,-1,-1,-1,-1,-1,-1],"loss_changes":[5.7647227E3,2.7737598E3,0E0,8.650652E2,1.3492683E3,4.515117E1,0E0,5.9117505E2,1.1642247E3,0E0,0E0,4.991339E1,1.0269141E2,9.565857E1,0E0,2.380436E0,5.913025E0,0E0,0E0,7.814328E0,2.3025513E-1,0E0,0E0,0E0,0E0,0E0,0E0,0E0,0E0],"parents":[2147483647,0,0,1,1,3,3,4,4,5,5,7,7,8,8,11,11,12,12,13,13,15,15,16,16,19,19,20,20],"right_children":[2,4,-1,6,8,10,-1,12,14,-1,-1,16,18,20,-1,22,24,-1,-1,26,28,-1,-1,-1,-1,-1,-1,-1,-1],"split_conditions":[5.8795077E-1,3.95E-1,4.3284285E-1,1.15585976E2,4.1557524E-1,1.1428577E2,-3.0617556E-1,2.1885E3,1.2030247E-1,1.1913032E-2,-6.1017532E-2,1.9688922E-1,5.314E2,4.2E0,3.069031E-1,1.0904815E0,4.953741E-1,2.8770903E-2,-3.405078E-2,1.459514E-1,1.459514E-1,9.574508E-3,-5.9921644E-3,3.724776E-2,7.6560766E-2,1.607294E-2,-5.966313E-3,1.8015517E-2,6.301542E-2],"split_indices":[27,166,0,0,13,0,0,37,2,0,0,8,131,126,0,1,14,0,0,5,5,0,0,0,0,0,0,0,0],"split_type":[0,0,0,0,0,0,0,0,0,0,0,0,0,0,0,0,0,0,0,0,0,0,0,0,0,0,0,0,0],"sum_hessian":[9.2E1,9E1,2E0,5E0,8.5E1,2E0,3E0,6.7E1,1.8E1,1E0,1E0,1E1,5.7E1,1.7E1,1E0,2E0,8E0,2E0,5.5E1,5E0,1.2E1,1E0,1E0,5E0,3E0,3E0,2E0,1E0,1.1E1],"tree_param":{"num_deleted":"0","num_feature":"190","num_nodes":"29","size_leaf_vector":"1"}},{"base_weights":[1.6003032E-1,-1.253894E0,4.2995724E-1,-2.1887247E1,2.0022255E-1,-3.2572632E0,-3.0387923E-1,-1.867176E0,7.588795E0,1.1853484E-2,-6.071243E-2,4.8427205E0,-3.10755E0,4.6174107E0,3.053686E-1,2.3762767E-1,5.8396716E0,2.8579101E-2,-3.3716362E-2,7.671649E-1,6.0392613E0,9.526634E-3,-5.962219E-3,3.693737E-2,7.598656E-2,1.5952377E-2,-5.926539E-3,2.6238581E-2,6.421711E-2],"categories":[],"categories_nodes":[],"categories_segments":[],"categories_sizes":[],"default_left":[0,0,0,0,0,0,0,0,0,0,0,0,0,0,0,0,0,0,0,0,0,0,0,0,0,0,0,0,0],"id":28,"left_children":[1,3,-1,5,7,9,-1,11,13,-1,-1,15,17,19,-1,21,23,-1,-1,25,27,-1,-1,-1,-1,-1,-1,-1,-1],"loss_changes":[5.6865894E3,2.7346826E3,0E0,8.5122363E2,1.3278304E3,4.4700806E1,0E0,5.8099817E2,1.1545619E3,0E0,0E0,4.9113922E1,1.0100885E2,9.390747E1,0E0,2.3566957E0,5.904541E0,0E0,0E0,7.701597E0,1.3122559E-1,0E0,0E0,0E0,0E0,0E0,0E0,0E0,0E0],"parents":[2147483647,0,0,1,1,3,3,4,4,5,5,7,7,8,8,11,11,12,12,13,13,15,15,16,16,19,19,20,20],"right_children":[2,4,-1,6,8,10,-1,12,14,-1,-1,16,18,20,-1,22,24,-1,-1,26,28,-1,-1,-1,-1,-1,-1,-1,-1],"split_conditions":[5.8795077E-1,3.95E-1,4.2995724E-1,1.15585976E2,4.1557524E-1,1.1428577E2,-3.0387923E-1,2.1885E3,1.2030247E-1,1.1853484E-2,-6.071243E-2,1.9688922E-1,5.314E2,4.2E0,3.053686E-1,1.0904815E0,4.953741E-1,2.8579101E-2,-3.3716362E-2,1.459514E-1,5.01615E-1,9.526634E-3,-5.962219E-3,3.693737E-2,7.598656E-2,1.5952377E-2,-5.926539E-3,2.6238581E-2,6.421711E-2],"split_indices":[27,166,0,0,13,0,0,37,2,0,0,8,131,126,0,1,14,0,0,5,14,0,0,0,0,0,0,0,0],"split_type":[0,0,0,0,0,0,0,0,0,0,0,0,0,0,0,0,0,0,0,0,0,0,0,0,0,0,0,0,0],"sum_hessian":[9.2E1,9E1,2E0,5E0,8.5E1,2E0,3E0,6.7E1,1.8E1,1E0,1E0,1E1,5.7E1,1.7E1,1E0,2E0,8E0,2E0,5.5E1,5E0,1.2E1,1E0,1E0,5E0,3E0,3E0,2E0,2E0,1E1],"tree_param":{"num_deleted":"0","num_feature":"190","num_nodes":"29","size_leaf_vector":"1"}},{"base_weights":[1.648206E-1,-1.2395488E0,4.2709085E-1,-2.1727165E1,2.0423312E-1,-3.240977E0,-3.0160016E-1,-1.8468684E0,7.5342684E0,1.1794205E-2,-6.0408857E-2,4.804884E0,-3.076565E0,4.576819E0,3.0384177E-1,2.3643748E-1,5.7938232E0,2.838857E-2,-3.338524E-2,7.6116437E-1,5.9858274E0,9.478988E-3,-5.9324265E-3,3.6629587E-2,7.541664E-2,1.583273E-2,-5.887019E-3,1.7794264E-2,6.1880752E-2],"categories":[],"categories_nodes":[],"categories_segments":[],"categories_sizes":[],"default_left":[0,0,0,0,0,0,0,0,0,0,0,0,0,0,0,0,0,0,0,0,0,0,0,0,0,0,0,0,0],"id":29,"left_children":[1,3,-1,5,7,9,-1,11,13,-1,-1,15,17,19,-1,21,23,-1,-1,25,27,-1,-1,-1,-1,-1,-1,-1,-1],"loss_changes":[5.6094917E3,2.6961858E3,0E0,8.375996E2,1.3068944E3,4.4254875E1,0E0,5.7099786E2,1.1449087E3,0E0,0E0,4.832718E1,9.935425E1,9.221704E1,0E0,2.33319E0,5.8948975E0,0E0,0E0,7.590496E0,4.8309326E-2,0E0,0E0,0E0,0E0,0E0,0E0,0E0,0E0],"parents":[2147483647,0,0,1,1,3,3,4,4,5,5,7,7,8,8,11,11,12,12,13,13,15,15,16,16,19,19,20,20],"right_children":[2,4,-1,6,8,10,-1,12,14,-1,-1,16,18,20,-1,22,24,-1,-1,26,28,-1,-1,-1,-1,-1,-1,-1,-1],"split_conditions":[5.8795077E-1,3.95E-1,4.2709085E-1,1.15585976E2,4.1557524E-1,1.1428577E2,-3.0160016E-1,2.1885E3,1.2030247E-1,1.1794205E-2,-6.0408857E-2,1.9688922E-1,5.314E2,4.2E0,3.0384177E-1,1.0904815E0,4.953741E-1,2.838857E-2,-3.338524E-2,1.459514E-1,1.459514E-1,9.478988E-3,-5.9324265E-3,3.6629587E-2,7.541664E-2,1.583273E-2,-5.887019E-3,1.7794264E-2,6.1880752E-2],"split_indices":[27,166,0,0,13,0,0,37,2,0,0,8,131,126,0,1,14,0,0,5,5,0,0,0,0,0,0,0,0],"split_type":[0,0,0,0,0,0,0,0,0,0,0,0,0,0,0,0,0,0,0,0,0,0,0,0,0,0,0,0,0],"sum_hessian":[9.2E1,9E1,2E0,5E0,8.5E1,2E0,3E0,6.7E1,1.8E1,1E0,1E0,1E1,5.7E1,1.7E1,1E0,2E0,8E0,2E0,5.5E1,5E0,1.2E1,1E0,1E0,5E0,3E0,3E0,2E0,1E0,1.1E1],"tree_param":{"num_deleted":"0","num_feature":"190","num_nodes":"29","size_leaf_vector":"1"}},{"base_weights":[1.6941957E-1,-1.2254621E0,4.2424357E-1,-2.1568264E1,2.080527E-1,-3.2247722E0,-2.9933816E-1,-1.8267723E0,7.4796343E0,1.1735229E-2,-6.010681E-2,4.7673445E0,-3.0458846E0,4.53603E0,3.0232257E-1,2.3525746E-1,5.748335E0,2.819931E-2,-3.305734E-2,7.552121E-1,5.9320974E0,9.43161E-3,-5.902748E-3,3.632435E-2,7.485101E-2,1.5713997E-2,-5.8477526E-3,2.5798084E-2,6.307076E-2],"categories":[],"categories_nodes":[],"categories_segments":[],"categories_sizes":[],"default_left":[0,0,0,0,0,0,0,0,0,0,0,0,0,0,0,0,0,0,0,0,0,0,0,0,0,0,0,0,0],"id":30,"left_children":[1,3,-1,5,7,9,-1,11,13,-1,-1,15,17,19,-1,21,23,-1,-1,25,27,-1,-1,-1,-1,-1,-1,-1,-1],"loss_changes":[5.533469E3,2.658203E3,0E0,8.241909E2,1.2861537E3,4.3813423E1,0E0,5.6117065E2,1.1353855E3,0E0,0E0,4.755298E1,9.772717E1,9.052896E1,0E0,2.3099158E0,5.8842773E0,0E0,0E0,7.481002E0,7.0495605E-2,0E0,0E0,0E0,0E0,0E0,0E0,0E0,0E0],"parents":[2147483647,0,0,1,1,3,3,4,4,5,5,7,7,8,8,11,11,12,12,13,13,15,15,16,16,19,19,20,20],"right_children":[2,4,-1,6,8,10,-1,12,14,-1,-1,16,18,20,-1,22,24,-1,-1,26,28,-1,-1,-1,-1,-1,-1,-1,-1],"split_conditions":[5.8795077E-1,3.95E-1,4.2424357E-1,1.15585976E2,4.1557524E-1,1.1428577E2,-2.9933816E-1,2.1885E3,1.2030247E-1,1.1735229E-2,-6.010681E-2,1.9688922E-1,5.314E2,4.2E0,3.0232257E-1,1.0904815E0,4.953741E-1,2.819931E-2,-3.305734E-2,1.459514E-1,5.01615E-1,9.43161E-3,-5.902748E-3,3.632435E-2,7.485101E-2,1.5713997E-2,-5.8477526E-3,2.5798084E-2,6.307076E-2],"split_indices":[27,166,0,0,13,0,0,37,2,0,0,8,131,126,0,1,14,0,0,5,14,0,0,0,0,0,0,0,0],"split_type":[0,0,0,0,0,0,0,0,0,0,0,0,0,0,0,0,0,0,0,0,0,0,0,0,0,0,0,0,0],"sum_hessian":[9.2E1,9E1,2E0,5E0,8.5E1,2E0,3E0,6.7E1,1.8E1,1E0,1E0,1E1,5.7E1,1.7E1,1E0,2E0,8E0,2E0,5.5E1,5E0,1.2E1,1E0,1E0,5E0,3E0,3E0,2E0,2E0,1E1],"tree_param":{"num_deleted":"0","num_feature":"190","num_nodes":"29","size_leaf_vector":"1"}},{"base_weights":[1.7404233E-1,-1.2114137E0,4.2141527E-1,-2.1410532E1,2.1191326E-1,-3.2086487E0,-2.9709312E-1,-1.8068885E0,7.4259453E0,1.1676559E-2,-5.9806287E-2,4.730099E0,-3.0155087E0,4.4961534E0,3.0081096E-1,2.3408253E-1,5.7032046E0,2.8011322E-2,-3.273266E-2,7.493019E-1,5.8796115E-2,9.38446E-3,-5.8732224E-3,3.602165E-2,7.428963E-2,1.55961225E-2,-5.808792E-3],"categories":[],"categories_nodes":[],"categories_segments":[],"categories_sizes":[],"default_left":[0,0,0,0,0,0,0,0,0,0,0,0,0,0,0,0,0,0,0,0,0,0,0,0,0,0,0],"id":31,"left_children":[1,3,-1,5,7,9,-1,11,13,-1,-1,15,17,19,-1,21,23,-1,-1,25,-1,-1,-1,-1,-1,-1,-1],"loss_changes":[5.458453E3,2.620783E3,0E0,8.109939E2,1.265896E3,4.3376404E1,0E0,5.5151373E2,1.1258733E3,0E0,0E0,4.6791107E1,9.61272E1,8.8899414E1,0E0,2.2868729E0,5.8726196E0,0E0,0E0,7.373104E0,0E0,0E0,0E0,0E0,0E0,0E0,0E0],"parents":[2147483647,0,0,1,1,3,3,4,4,5,5,7,7,8,8,11,11,12,12,13,13,15,15,16,16,19,19],"right_children":[2,4,-1,6,8,10,-1,12,14,-1,-1,16,18,20,-1,22,24,-1,-1,26,-1,-1,-1,-1,-1,-1,-1],"split_conditions":[5.8795077E-1,3.95E-1,4.2141527E-1,1.15585976E2,4.1557524E-1,1.1428577E2,-2.9709312E-1,2.1885E3,1.2030247E-1,1.1676559E-2,-5.9806287E-2,1.9688922E-1,5.314E2,4.2E0,3.0081096E-1,1.0904815E0,4.953741E-1,2.8011322E-2,-3.273266E-2,1.459514E-1,5.8796115E-2,9.38446E-3,-5.8732224E-3,3.602165E-2,7.428963E-2,1.55961225E-2,-5.808792E-3],"split_indices":[27,166,0,0,13,0,0,37,2,0,0,8,131,126,0,1,14,0,0,5,0,0,0,0,0,0,0],"split_type":[0,0,0,0,0,0,0,0,0,0,0,0,0,0,0,0,0,0,0,0,0,0,0,0,0,0,0],"sum_hessian":[9.2E1,9E1,2E0,5E0,8.5E1,2E0,3E0,6.7E1,1.8E1,1E0,1E0,1E1,5.7E1,1.7E1,1E0,2E0,8E0,2E0,5.5E1,5E0,1.2E1,1E0,1E0,5E0,3E0,3E0,2E0],"tree_param":{"num_deleted":"0","num_feature":"190","num_nodes":"27","size_leaf_vector":"1"}},{"base_weights":[1.7826457E-1,-1.1978369E0,4.1860583E-1,-2.1253962E1,2.1535607E-1,-3.192604E0,-2.948649E-1,-1.787217E0,7.371125E0,1.1618194E-2,-5.9507255E-2,4.6931477E0,-2.9854376E0,4.455E0,2.993069E-1,2.329127E-1,5.658432E0,2.7824555E-2,-3.2411207E-2,7.4344E-1,5.825335E0,9.33754E-3,-5.843849E-3,3.2300446E-2,6.955133E-2,1.5479164E-2,-5.7700854E-3,2.523412E-2,6.196283E-2],"categories":[],"categories_nodes":[],"categories_segments":[],"categories_sizes":[],"default_left":[0,0,0,0,0,0,0,0,0,0,0,0,0,0,0,0,0,0,0,0,0,0,0,0,0,0,0,0,0],"id":32,"left_children":[1,3,-1,5,7,9,-1,11,13,-1,-1,15,17,19,-1,21,23,-1,-1,25,27,-1,-1,-1,-1,-1,-1,-1,-1],"loss_changes":[5.384538E3,2.5838062E3,0E0,7.980051E2,1.2455496E3,4.294375E1,0E0,5.420247E2,1.1166028E3,0E0,0E0,4.6041428E1,9.4553894E1,8.721869E1,0E0,2.2640593E0,5.874634E0,0E0,0E0,7.266779E0,2.8720093E-1,0E0,0E0,0E0,0E0,0E0,0E0,0E0,0E0],"parents":[2147483647,0,0,1,1,3,3,4,4,5,5,7,7,8,8,11,11,12,12,13,13,15,15,16,16,19,19,20,20],"right_children":[2,4,-1,6,8,10,-1,12,14,-1,-1,16,18,20,-1,22,24,-1,-1,26,28,-1,-1,-1,-1,-1,-1,-1,-1],"split_conditions":[5.8795077E-1,3.95E-1,4.1860583E-1,1.15585976E2,4.1557524E-1,1.1428577E2,-2.948649E-1,2.1885E3,1.2030247E-1,1.1618194E-2,-5.9507255E-2,1.9688922E-1,5.314E2,4.2E0,2.993069E-1,1.0904815E0,5.311E2,2.7824555E-2,-3.2411207E-2,1.459514E-1,5.01615E-1,9.33754E-3,-5.843849E-3,3.2300446E-2,6.955133E-2,1.5479164E-2,-5.7700854E-3,2.523412E-2,6.196283E-2],"split_indices":[27,166,0,0,13,0,0,37,2,0,0,8,131,126,0,1,133,0,0,5,14,0,0,0,0,0,0,0,0],"split_type":[0,0,0,0,0,0,0,0,0,0,0,0,0,0,0,0,0,0,0,0,0,0,0,0,0,0,0,0,0],"sum_hessian":[9.2E1,9E1,2E0,5E0,8.5E1,2E0,3E0,6.7E1,1.8E1,1E0,1E0,1E1,5.7E1,1.7E1,1E0,2E0,8E0,2E0,5.5E1,5E0,1.2E1,1E0,1E0,4E0,4E0,3E0,2E0,2E0,1E1],"tree_param":{"num_deleted":"0","num_feature":"190","num_nodes":"29","size_leaf_vector":"1"}},{"base_weights":[1.8264008E-1,-1.184165E0,4.1581511E-1,-2.1098547E1,2.1897985E-1,-3.1766407E0,-2.9265338E-1,-1.7678643E0,7.3182654E0,1.1560096E-2,-5.9209708E-2,4.6557927E0,-2.9556637E0,4.4158316E0,2.9781035E-1,2.3174794E-1,5.6131644E0,2.7639057E-2,-3.2092895E-2,7.3762256E-1,5.7737875E0,9.290848E-3,-5.8146287E-3,3.539023E-2,7.321085E-2,1.5363064E-2,-5.7316334E-3,2.5065918E-2,6.1399505E-2],"categories":[],"categories_nodes":[],"categories_segments":[],"categories_sizes":[],"default_left":[0,0,0,0,0,0,0,0,0,0,0,0,0,0,0,0,0,0,0,0,0,0,0,0,0,0,0,0,0],"id":33,"left_children":[1,3,-1,5,7,9,-1,11,13,-1,-1,15,17,19,-1,21,23,-1,-1,25,27,-1,-1,-1,-1,-1,-1,-1,-1],"loss_changes":[5.311569E3,2.5474114E3,0E0,7.852217E2,1.2259827E3,4.2515366E1,0E0,5.3260205E2,1.1072292E3,0E0,0E0,4.5289154E1,9.3006775E1,8.5648346E1,0E0,2.2414737E0,5.972748E0,0E0,0E0,7.161976E0,1.6189575E-1,0E0,0E0,0E0,0E0,0E0,0E0,0E0,0E0],"parents":[2147483647,0,0,1,1,3,3,4,4,5,5,7,7,8,8,11,11,12,12,13,13,15,15,16,16,19,19,20,20],"right_children":[2,4,-1,6,8,10,-1,12,14,-1,-1,16,18,20,-1,22,24,-1,-1,26,28,-1,-1,-1,-1,-1,-1,-1,-1],"split_conditions":[5.8795077E-1,3.95E-1,4.1581511E-1,1.15585976E2,4.1557524E-1,1.1428577E2,-2.9265338E-1,2.1885E3,1.2030247E-1,1.1560096E-2,-5.9209708E-2,1.9688922E-1,5.314E2,4.2E0,2.9781035E-1,1.0904815E0,4.953741E-1,2.7639057E-2,-3.2092895E-2,1.459514E-1,5.01615E-1,9.290848E-3,-5.8146287E-3,3.539023E-2,7.321085E-2,1.5363064E-2,-5.7316334E-3,2.5065918E-2,6.1399505E-2],"split_indices":[27,166,0,0,13,0,0,37,2,0,0,8,131,126,0,1,14,0,0,5,14,0,0,0,0,0,0,0,0],"split_type":[0,0,0,0,0,0,0,0,0,0,0,0,0,0,0,0,0,0,0,0,0,0,0,0,0,0,0,0,0],"sum_hessian":[9.2E1,9E1,2E0,5E0,8.5E1,2E0,3E0,6.7E1,1.8E1,1E0,1E0,1E1,5.7E1,1.7E1,1E0,2E0,8E0,2E0,5.5E1,5E0,1.2E1,1E0,1E0,5E0,3E0,3E0,2E0,2E0,1E1],"tree_param":{"num_deleted":"0","num_feature":"190","num_nodes":"29","size_leaf_vector":"1"}},{"base_weights":[1.8701582E-1,-1.1705542E0,4.1304302E-1,-2.0944277E1,2.2261891E-1,-3.1607563E0,-2.9045847E-1,-1.7486063E0,7.2658134E0,1.1502304E-2,-5.8913648E-2,4.6194224E0,-2.9261875E0,4.377011E0,2.963213E-1,2.3058827E-1,5.5690975E0,2.7454784E-2,-3.1777732E-2,7.318497E-1,5.7226996E0,9.244384E-3,-5.7855607E-3,3.509529E-2,7.266176E-2,1.5247822E-2,-5.6934357E-3,2.4898835E-2,6.084131E-2],"categories":[],"categories_nodes":[],"categories_segments":[],"categories_sizes":[],"default_left":[0,0,0,0,0,0,0,0,0,0,0,0,0,0,0,0,0,0,0,0,0,0,0,0,0,0,0,0,0],"id":34,"left_children":[1,3,-1,5,7,9,-1,11,13,-1,-1,15,17,19,-1,21,23,-1,-1,25,27,-1,-1,-1,-1,-1,-1,-1,-1],"loss_changes":[5.2395713E3,2.5115505E3,0E0,7.726399E2,1.2067052E3,4.2091278E1,0E0,5.234404E2,1.0979253E3,0E0,0E0,4.4563507E1,9.148538E1,8.4106415E1,0E0,2.2191145E0,5.9563904E0,0E0,0E0,7.0586753E0,4.0985107E-2,0E0,0E0,0E0,0E0,0E0,0E0,0E0,0E0],"parents":[2147483647,0,0,1,1,3,3,4,4,5,5,7,7,8,8,11,11,12,12,13,13,15,15,16,16,19,19,20,20],"right_children":[2,4,-1,6,8,10,-1,12,14,-1,-1,16,18,20,-1,22,24,-1,-1,26,28,-1,-1,-1,-1,-1,-1,-1,-1],"split_conditions":[5.8795077E-1,3.95E-1,4.1304302E-1,1.15585976E2,4.1557524E-1,1.1428577E2,-2.9045847E-1,2.1885E3,1.2030247E-1,1.1502304E-2,-5.8913648E-2,1.9688922E-1,5.314E2,4.2E0,2.963213E-1,1.0904815E0,4.953741E-1,2.7454784E-2,-3.1777732E-2,1.459514E-1,5.01615E-1,9.244384E-3,-5.7855607E-3,3.509529E-2,7.266176E-2,1.5247822E-2,-5.6934357E-3,2.4898835E-2,6.084131E-2],"split_indices":[27,166,0,0,13,0,0,37,2,0,0,8,131,126,0,1,14,0,0,5,14,0,0,0,0,0,0,0,0],"split_type":[0,0,0,0,0,0,0,0,0,0,0,0,0,0,0,0,0,0,0,0,0,0,0,0,0,0,0,0,0],"sum_hessian":[9.2E1,9E1,2E0,5E0,8.5E1,2E0,3E0,6.7E1,1.8E1,1E0,1E0,1E1,5.7E1,1.7E1,1E0,2E0,8E0,2E0,5.5E1,5E0,1.2E1,1E0,1E0,5E0,3E0,3E0,2E0,2E0,1E1],"tree_param":{"num_deleted":"0","num_feature":"190","num_nodes":"29","size_leaf_vector":"1"}},{"base_weights":[1.913129E-1,-1.1570848E0,4.102894E-1,-2.0791145E1,2.2618777E-1,-3.1449535E0,-2.8828E-1,-1.7295495E0,7.213764E0,1.1444778E-2,-5.861908E-2,4.583338E0,-2.8970015E0,4.338532E0,2.948397E-1,2.294337E-1,5.5253797E0,2.7271727E-2,-3.1465642E-2,7.2612125E-1,5.672065E-2,9.198151E-3,-5.756645E-3,3.4802828E-2,7.211679E-2,1.8130621E-2,-2.706146E-3],"categories":[],"categories_nodes":[],"categories_segments":[],"categories_sizes":[],"default_left":[0,0,0,0,0,0,0,0,0,0,0,0,0,0,0,0,0,0,0,0,0,0,0,0,0,0,0],"id":35,"left_children":[1,3,-1,5,7,9,-1,11,13,-1,-1,15,17,19,-1,21,23,-1,-1,25,-1,-1,-1,-1,-1,-1,-1],"loss_changes":[5.168553E3,2.4761953E3,0E0,7.6025684E2,1.1877408E3,4.1671394E1,0E0,5.144375E2,1.0886909E3,0E0,0E0,4.384944E1,8.998923E1,8.2592255E1,0E0,2.1969793E0,5.939148E0,0E0,0E0,6.9909983E0,0E0,0E0,0E0,0E0,0E0,0E0,0E0],"parents":[2147483647,0,0,1,1,3,3,4,4,5,5,7,7,8,8,11,11,12,12,13,13,15,15,16,16,19,19],"right_children":[2,4,-1,6,8,10,-1,12,14,-1,-1,16,18,20,-1,22,24,-1,-1,26,-1,-1,-1,-1,-1,-1,-1],"split_conditions":[5.8795077E-1,3.95E-1,4.102894E-1,1.15585976E2,4.1557524E-1,1.1428577E2,-2.8828E-1,2.1885E3,1.2030247E-1,1.1444778E-2,-5.861908E-2,1.9688922E-1,5.314E2,4.2E0,2.948397E-1,1.0904815E0,4.953741E-1,2.7271727E-2,-3.1465642E-2,1.1428577E2,5.672065E-2,9.198151E-3,-5.756645E-3,3.4802828E-2,7.211679E-2,1.8130621E-2,-2.706146E-3],"split_indices":[27,166,0,0,13,0,0,37,2,0,0,8,131,126,0,1,14,0,0,0,0,0,0,0,0,0,0],"split_type":[0,0,0,0,0,0,0,0,0,0,0,0,0,0,0,0,0,0,0,0,0,0,0,0,0,0,0],"sum_hessian":[9.2E1,9E1,2E0,5E0,8.5E1,2E0,3E0,6.7E1,1.8E1,1E0,1E0,1E1,5.7E1,1.7E1,1E0,2E0,8E0,2E0,5.5E1,5E0,1.2E1,1E0,1E0,5E0,3E0,2E0,3E0],"tree_param":{"num_deleted":"0","num_feature":"190","num_nodes":"27","size_leaf_vector":"1"}},{"base_weights":[1.9529141E-1,-1.1440016E0,4.0755415E-1,-2.0639145E1,2.2942698E-1,-3.1292293E0,-2.8611794E-1,-1.7106944E0,7.1609445E0,1.1387558E-2,-5.8325995E-2,4.5475373E0,-2.868106E0,4.299158E0,2.933655E-1,2.2828674E-1,5.4820056E0,2.7089894E-2,-3.1156626E-2,7.21433E-1,5.619711E0,9.152145E-3,-5.7278443E-3,3.4512784E-2,7.157595E-2,1.800977E-2,-2.685833E-3,2.4354706E-2,5.977257E-2],"categories":[],"categories_nodes":[],"categories_segments":[],"categories_sizes":[],"default_left":[0,0,0,0,0,0,0,0,0,0,0,0,0,0,0,0,0,0,0,0,0,0,0,0,0,0,0,0,0],"id":36,"left_children":[1,3,-1,5,7,9,-1,11,13,-1,-1,15,17,19,-1,21,23,-1,-1,25,27,-1,-1,-1,-1,-1,-1,-1,-1],"loss_changes":[5.0985605E3,2.4412776E3,0E0,7.480698E2,1.168777E3,4.1255737E1,0E0,5.0559048E2,1.0796526E3,0E0,0E0,4.3146744E1,8.851788E1,8.098813E1,0E0,2.1750548E0,5.9211426E0,0E0,0E0,6.89631E0,2.4325562E-1,0E0,0E0,0E0,0E0,0E0,0E0,0E0,0E0],"parents":[2147483647,0,0,1,1,3,3,4,4,5,5,7,7,8,8,11,11,12,12,13,13,15,15,16,16,19,19,20,20],"right_children":[2,4,-1,6,8,10,-1,12,14,-1,-1,16,18,20,-1,22,24,-1,-1,26,28,-1,-1,-1,-1,-1,-1,-1,-1],"split_conditions":[5.8795077E-1,3.95E-1,4.0755415E-1,1.15585976E2,4.1557524E-1,1.1428577E2,-2.8611794E-1,2.1885E3,1.2030247E-1,1.1387558E-2,-5.8325995E-2,1.9688922E-1,5.314E2,4.2E0,2.933655E-1,1.0904815E0,4.953741E-1,2.7089894E-2,-3.1156626E-2,1.1428577E2,5.01615E-1,9.152145E-3,-5.7278443E-3,3.4512784E-2,7.157595E-2,1.800977E-2,-2.685833E-3,2.4354706E-2,5.977257E-2],"split_indices":[27,166,0,0,13,0,0,37,2,0,0,8,131,126,0,1,14,0,0,0,14,0,0,0,0,0,0,0,0],"split_type":[0,0,0,0,0,0,0,0,0,0,0,0,0,0,0,0,0,0,0,0,0,0,0,0,0,0,0,0,0],"sum_hessian":[9.2E1,9E1,2E0,5E0,8.5E1,2E0,3E0,6.7E1,1.8E1,1E0,1E0,1E1,5.7E1,1.7E1,1E0,2E0,8E0,2E0,5.5E1,5E0,1.2E1,1E0,1E0,5E0,3E0,2E0,3E0,2E0,1E1],"tree_param":{"num_deleted":"0","num_feature":"190","num_nodes":"29","size_leaf_vector":"1"}},{"base_weights":[1.994975E-1,-1.1307459E0,4.0483713E-1,-2.0488264E1,2.3292683E-1,-3.1135838E0,-2.8397205E-1,-1.6920358E0,7.1100073E0,1.1330605E-2,-5.803436E-2,4.512016E0,-2.8394933E0,4.261689E0,2.918987E-1,2.2714488E-1,5.4389706E0,2.6909282E-2,-3.0850606E-2,7.167714E-1,5.5699825E0,9.106369E-3,-5.699196E-3,3.422516E-2,7.10391E-2,1.4966221E-2,-5.6195324E-3,1.6501008E-2,5.7591308E-2],"categories":[],"categories_nodes":[],"categories_segments":[],"categories_sizes":[],"default_left":[0,0,0,0,0,0,0,0,0,0,0,0,0,0,0,0,0,0,0,0,0,0,0,0,0,0,0,0,0],"id":37,"left_children":[1,3,-1,5,7,9,-1,11,13,-1,-1,15,17,19,-1,21,23,-1,-1,25,27,-1,-1,-1,-1,-1,-1,-1,-1],"loss_changes":[5.029444E3,2.4069285E3,0E0,7.360752E2,1.150509E3,4.0844185E1,0E0,4.96896E2,1.070521E3,0E0,0E0,4.245526E1,8.707095E1,7.9487885E1,0E0,2.1533513E0,5.9022217E0,0E0,0E0,6.824317E0,1.355896E-1,0E0,0E0,0E0,0E0,0E0,0E0,0E0,0E0],"parents":[2147483647,0,0,1,1,3,3,4,4,5,5,7,7,8,8,11,11,12,12,13,13,15,15,16,16,19,19,20,20],"right_children":[2,4,-1,6,8,10,-1,12,14,-1,-1,16,18,20,-1,22,24,-1,-1,26,28,-1,-1,-1,-1,-1,-1,-1,-1],"split_conditions":[5.8795077E-1,3.95E-1,4.0483713E-1,1.15585976E2,4.1557524E-1,1.1428577E2,-2.8397205E-1,2.1885E3,1.2030247E-1,1.1330605E-2,-5.803436E-2,1.9688922E-1,5.314E2,4.2E0,2.918987E-1,1.0904815E0,4.953741E-1,2.6909282E-2,-3.0850606E-2,1.459514E-1,1.459514E-1,9.106369E-3,-5.699196E-3,3.422516E-2,7.10391E-2,1.4966221E-2,-5.6195324E-3,1.6501008E-2,5.7591308E-2],"split_indices":[27,166,0,0,13,0,0,37,2,0,0,8,131,126,0,1,14,0,0,5,5,0,0,0,0,0,0,0,0],"split_type":[0,0,0,0,0,0,0,0,0,0,0,0,0,0,0,0,0,0,0,0,0,0,0,0,0,0,0,0,0],"sum_hessian":[9.2E1,9E1,2E0,5E0,8.5E1,2E0,3E0,6.7E1,1.8E1,1E0,1E0,1E1,5.7E1,1.7E1,1E0,2E0,8E0,2E0,5.5E1,5E0,1.2E1,1E0,1E0,5E0,3E0,3E0,2E0,1E0,1.1E1],"tree_param":{"num_deleted":"0","num_feature":"190","num_nodes":"29","size_leaf_vector":"1"}},{"base_weights":[2.0346324E-1,-1.1177955E0,4.021382E-1,-2.0338491E1,2.3618104E-1,-3.0980148E0,-2.8184226E-1,-1.6735731E0,7.05866E0,1.1273956E-2,-5.774418E-2,4.4767747E0,-2.8111637E0,4.223706E0,2.904392E-1,2.260081E-1,5.3962774E0,2.672989E-2,-3.0547582E-2,7.111613E-1,5.5199795E0,9.0608215E-3,-5.6706998E-3,3.064975E-2,6.6483244E-2,1.7789891E-2,-2.6749992E-3,2.3945361E-2,5.870557E-2],"categories":[],"categories_nodes":[],"categories_segments":[],"categories_sizes":[],"default_left":[0,0,0,0,0,0,0,0,0,0,0,0,0,0,0,0,0,0,0,0,0,0,0,0,0,0,0,0,0],"id":38,"left_children":[1,3,-1,5,7,9,-1,11,13,-1,-1,15,17,19,-1,21,23,-1,-1,25,27,-1,-1,-1,-1,-1,-1,-1,-1],"loss_changes":[4.961306E3,2.3730215E3,0E0,7.2427E2,1.1323292E3,4.0436756E1,0E0,4.8835223E2,1.0615438E3,0E0,0E0,4.177487E1,8.564816E1,7.803238E1,0E0,2.1318674E0,5.893158E0,0E0,0E0,6.74613E0,1.869812E-1,0E0,0E0,0E0,0E0,0E0,0E0,0E0,0E0],"parents":[2147483647,0,0,1,1,3,3,4,4,5,5,7,7,8,8,11,11,12,12,13,13,15,15,16,16,19,19,20,20],"right_children":[2,4,-1,6,8,10,-1,12,14,-1,-1,16,18,20,-1,22,24,-1,-1,26,28,-1,-1,-1,-1,-1,-1,-1,-1],"split_conditions":[5.8795077E-1,3.95E-1,4.021382E-1,1.15585976E2,4.1557524E-1,1.1428577E2,-2.8184226E-1,2.1885E3,1.2030247E-1,1.1273956E-2,-5.774418E-2,1.9688922E-1,5.314E2,4.2E0,2.904392E-1,1.0904815E0,5.311E2,2.672989E-2,-3.0547582E-2,1.1428577E2,5.01615E-1,9.0608215E-3,-5.6706998E-3,3.064975E-2,6.6483244E-2,1.7789891E-2,-2.6749992E-3,2.3945361E-2,5.870557E-2],"split_indices":[27,166,0,0,13,0,0,37,2,0,0,8,131,126,0,1,133,0,0,0,14,0,0,0,0,0,0,0,0],"split_type":[0,0,0,0,0,0,0,0,0,0,0,0,0,0,0,0,0,0,0,0,0,0,0,0,0,0,0,0,0],"sum_hessian":[9.2E1,9E1,2E0,5E0,8.5E1,2E0,3E0,6.7E1,1.8E1,1E0,1E0,1E1,5.7E1,1.7E1,1E0,2E0,8E0,2E0,5.5E1,5E0,1.2E1,1E0,1E0,4E0,4E0,2E0,3E0,2E0,1E1],"tree_param":{"num_deleted":"0","num_feature":"190","num_nodes":"29","size_leaf_vector":"1"}},{"base_weights":[2.0743668E-1,-1.1048964E0,3.9945728E-1,-2.0189825E1,2.3945777E-1,-3.0825245E0,-2.797284E-1,-1.6554148E0,7.008504E0,1.1217575E-2,-5.7455443E-2,4.4411464E0,-2.7831175E0,4.1868987E0,2.88987E-1,2.248764E-1,5.353109E0,2.6551666E-2,-3.0247556E-2,7.065697E-1,5.471135E0,9.015502E-3,-5.642357E-3,3.3624828E-2,7.0007704E-2,1.477169E-2,-5.5641937E-3,2.3785705E-2,5.8171857E-2],"categories":[],"categories_nodes":[],"categories_segments":[],"categories_sizes":[],"default_left":[0,0,0,0,0,0,0,0,0,0,0,0,0,0,0,0,0,0,0,0,0,0,0,0,0,0,0,0,0],"id":39,"left_children":[1,3,-1,5,7,9,-1,11,13,-1,-1,15,17,19,-1,21,23,-1,-1,25,27,-1,-1,-1,-1,-1,-1,-1,-1],"loss_changes":[4.8940747E3,2.3396128E3,0E0,7.126516E2,1.1146793E3,4.0033363E1,0E0,4.7986758E2,1.0525485E3,0E0,0E0,4.1092102E1,8.424887E1,7.658649E1,0E0,2.1106017E0,5.978943E0,0E0,0E0,6.661476E0,7.583618E-2,0E0,0E0,0E0,0E0,0E0,0E0,0E0,0E0],"parents":[2147483647,0,0,1,1,3,3,4,4,5,5,7,7,8,8,11,11,12,12,13,13,15,15,16,16,19,19,20,20],"right_children":[2,4,-1,6,8,10,-1,12,14,-1,-1,16,18,20,-1,22,24,-1,-1,26,28,-1,-1,-1,-1,-1,-1,-1,-1],"split_conditions":[5.8795077E-1,3.95E-1,3.9945728E-1,1.15585976E2,4.1557524E-1,1.1428577E2,-2.797284E-1,2.1885E3,1.2030247E-1,1.1217575E-2,-5.7455443E-2,1.9688922E-1,5.314E2,4.2E0,2.88987E-1,1.0904815E0,4.953741E-1,2.6551666E-2,-3.0247556E-2,1.459514E-1,5.01615E-1,9.015502E-3,-5.642357E-3,3.3624828E-2,7.0007704E-2,1.477169E-2,-5.5641937E-3,2.3785705E-2,5.8171857E-2],"split_indices":[27,166,0,0,13,0,0,37,2,0,0,8,131,126,0,1,14,0,0,5,14,0,0,0,0,0,0,0,0],"split_type":[0,0,0,0,0,0,0,0,0,0,0,0,0,0,0,0,0,0,0,0,0,0,0,0,0,0,0,0,0],"sum_hessian":[9.2E1,9E1,2E0,5E0,8.5E1,2E0,3E0,6.7E1,1.8E1,1E0,1E0,1E1,5.7E1,1.7E1,1E0,2E0,8E0,2E0,5.5E1,5E0,1.2E1,1E0,1E0,5E0,3E0,3E0,2E0,2E0,1E1],"tree_param":{"num_deleted":"0","num_feature":"190","num_nodes":"29","size_leaf_vector":"1"}},{"base_weights":[2.1135277E-1,-1.0921149E0,3.9679423E-1,-2.0042252E1,2.426866E-1,-3.0671108E0,-2.7763045E-1,-1.6373388E0,6.9584255E0,1.1161499E-2,-5.716816E-2,4.4064636E0,-2.7553473E0,4.1500926E0,2.8754207E-1,2.2375233E-1,5.311094E0,2.6374664E-2,-2.9950451E-2,7.0103836E-1,5.422726E-2,8.970413E-3,-5.614128E-3,3.3344638E-2,6.948265E-2,1.7572809E-2,-2.664032E-3],"categories":[],"categories_nodes":[],"categories_segments":[],"categories_sizes":[],"default_left":[0,0,0,0,0,0,0,0,0,0,0,0,0,0,0,0,0,0,0,0,0,0,0,0,0,0,0],"id":40,"left_children":[1,3,-1,5,7,9,-1,11,13,-1,-1,15,17,19,-1,21,23,-1,-1,25,-1,-1,-1,-1,-1,-1,-1],"loss_changes":[4.827753E3,2.3066792E3,0E0,7.012168E2,1.0972086E3,3.963405E1,0E0,4.7161887E2,1.0436537E3,0E0,0E0,4.0433502E1,8.287286E1,7.520737E1,0E0,2.0895398E0,5.9559937E0,0E0,0E0,6.599264E0,0E0,0E0,0E0,0E0,0E0,0E0,0E0],"parents":[2147483647,0,0,1,1,3,3,4,4,5,5,7,7,8,8,11,11,12,12,13,13,15,15,16,16,19,19],"right_children":[2,4,-1,6,8,10,-1,12,14,-1,-1,16,18,20,-1,22,24,-1,-1,26,-1,-1,-1,-1,-1,-1,-1],"split_conditions":[5.8795077E-1,3.95E-1,3.9679423E-1,1.15585976E2,4.1557524E-1,1.1428577E2,-2.7763045E-1,2.1885E3,1.2030247E-1,1.1161499E-2,-5.716816E-2,1.9688922E-1,5.314E2,4.2E0,2.8754207E-1,1.0904815E0,4.953741E-1,2.6374664E-2,-2.9950451E-2,1.1428577E2,5.422726E-2,8.970413E-3,-5.614128E-3,3.3344638E-2,6.948265E-2,1.7572809E-2,-2.664032E-3],"split_indices":[27,166,0,0,13,0,0,37,2,0,0,8,131,126,0,1,14,0,0,0,0,0,0,0,0,0,0],"split_type":[0,0,0,0,0,0,0,0,0,0,0,0,0,0,0,0,0,0,0,0,0,0,0,0,0,0,0],"sum_hessian":[9.2E1,9E1,2E0,5E0,8.5E1,2E0,3E0,6.7E1,1.8E1,1E0,1E0,1E1,5.7E1,1.7E1,1E0,2E0,8E0,2E0,5.5E1,5E0,1.2E1,1E0,1E0,5E0,3E0,2E0,3E0],"tree_param":{"num_deleted":"0","num_feature":"190","num_nodes":"27","size_leaf_vector":"1"}},{"base_weights":[2.1496549E-1,-1.079702E0,3.941489E-1,-1.9895767E1,2.4560139E-1,-3.0517757E0,-2.755482E-1,-1.6194545E0,6.907612E0,1.110569E-2,-5.688232E-2,4.372051E0,-2.7278528E0,4.112431E0,2.8610435E-1,2.2263336E-1,5.269407E0,2.6198832E-2,-2.965627E-2,6.965129E-1,5.372668E0,8.9255525E-3,-5.586052E-3,3.306674E-2,6.8961546E-2,1.7455673E-2,-2.644062E-3,2.3265583E-2,5.7150006E-2],"categories":[],"categories_nodes":[],"categories_segments":[],"categories_sizes":[],"default_left":[0,0,0,0,0,0,0,0,0,0,0,0,0,0,0,0,0,0,0,0,0,0,0,0,0,0,0,0,0],"id":41,"left_children":[1,3,-1,5,7,9,-1,11,13,-1,-1,15,17,19,-1,21,23,-1,-1,25,27,-1,-1,-1,-1,-1,-1,-1,-1],"loss_changes":[4.7623877E3,2.274153E3,0E0,6.899629E2,1.0797385E3,3.92387E1,0E0,4.6351263E2,1.0349446E3,0E0,0E0,3.97854E1,8.1519745E1,7.374542E1,0E0,2.0686924E0,5.9325256E0,0E0,0E0,6.509877E0,2.599182E-1,0E0,0E0,0E0,0E0,0E0,0E0,0E0,0E0],"parents":[2147483647,0,0,1,1,3,3,4,4,5,5,7,7,8,8,11,11,12,12,13,13,15,15,16,16,19,19,20,20],"right_children":[2,4,-1,6,8,10,-1,12,14,-1,-1,16,18,20,-1,22,24,-1,-1,26,28,-1,-1,-1,-1,-1,-1,-1,-1],"split_conditions":[5.8795077E-1,3.95E-1,3.941489E-1,1.15585976E2,4.1557524E-1,1.1428577E2,-2.755482E-1,2.1885E3,1.2030247E-1,1.110569E-2,-5.688232E-2,1.9688922E-1,5.314E2,4.2E0,2.8610435E-1,1.0904815E0,4.953741E-1,2.6198832E-2,-2.965627E-2,1.1428577E2,5.01615E-1,8.9255525E-3,-5.586052E-3,3.306674E-2,6.8961546E-2,1.7455673E-2,-2.644062E-3,2.3265583E-2,5.7150006E-2],"split_indices":[27,166,0,0,13,0,0,37,2,0,0,8,131,126,0,1,14,0,0,0,14,0,0,0,0,0,0,0,0],"split_type":[0,0,0,0,0,0,0,0,0,0,0,0,0,0,0,0,0,0,0,0,0,0,0,0,0,0,0,0,0],"sum_hessian":[9.2E1,9E1,2E0,5E0,8.5E1,2E0,3E0,6.7E1,1.8E1,1E0,1E0,1E1,5.7E1,1.7E1,1E0,2E0,8E0,2E0,5.5E1,5E0,1.2E1,1E0,1E0,5E0,3E0,2E0,3E0,2E0,1E1],"tree_param":{"num_deleted":"0","num_feature":"190","num_nodes":"29","size_leaf_vector":"1"}},{"base_weights":[2.1879463E-1,-1.0671262E0,3.9152125E-1,-1.9750362E1,2.4876395E-1,-3.036517E0,-2.7348155E-1,-1.6017619E0,6.858606E0,1.1050148E-2,-5.65979E-2,4.337909E0,-2.7006347E0,4.076597E0,2.8467384E-1,2.2151947E-1,5.2280493E0,2.602417E-2,-2.9365012E-2,6.9201785E-1,5.325126E0,8.88092E-3,-5.558128E-3,3.2791186E-2,6.844433E-2,1.4499053E-2,-5.4917145E-3,2.3110503E-2,5.6630444E-2],"categories":[],"categories_nodes":[],"categories_segments":[],"categories_sizes":[],"default_left":[0,0,0,0,0,0,0,0,0,0,0,0,0,0,0,0,0,0,0,0,0,0,0,0,0,0,0,0,0],"id":42,"left_children":[1,3,-1,5,7,9,-1,11,13,-1,-1,15,17,19,-1,21,23,-1,-1,25,27,-1,-1,-1,-1,-1,-1,-1,-1],"loss_changes":[4.697842E3,2.242156E3,0E0,6.7888696E2,1.0629106E3,3.884726E1,0E0,4.5554724E2,1.0261505E3,0E0,0E0,3.914769E1,8.018912E1,7.237833E1,0E0,2.048058E0,5.908249E0,0E0,0E0,6.4403377E0,1.5307617E-1,0E0,0E0,0E0,0E0,0E0,0E0,0E0,0E0],"parents":[2147483647,0,0,1,1,3,3,4,4,5,5,7,7,8,8,11,11,12,12,13,13,15,15,16,16,19,19,20,20],"right_children":[2,4,-1,6,8,10,-1,12,14,-1,-1,16,18,20,-1,22,24,-1,-1,26,28,-1,-1,-1,-1,-1,-1,-1,-1],"split_conditions":[5.8795077E-1,3.95E-1,3.9152125E-1,1.15585976E2,4.1557524E-1,1.1428577E2,-2.7348155E-1,2.1885E3,1.2030247E-1,1.1050148E-2,-5.65979E-2,1.9688922E-1,5.314E2,4.2E0,2.8467384E-1,1.0904815E0,4.953741E-1,2.602417E-2,-2.9365012E-2,1.459514E-1,5.01615E-1,8.88092E-3,-5.558128E-3,3.2791186E-2,6.844433E-2,1.4499053E-2,-5.4917145E-3,2.3110503E-2,5.6630444E-2],"split_indices":[27,166,0,0,13,0,0,37,2,0,0,8,131,126,0,1,14,0,0,5,14,0,0,0,0,0,0,0,0],"split_type":[0,0,0,0,0,0,0,0,0,0,0,0,0,0,0,0,0,0,0,0,0,0,0,0,0,0,0,0,0],"sum_hessian":[9.2E1,9E1,2E0,5E0,8.5E1,2E0,3E0,6.7E1,1.8E1,1E0,1E0,1E1,5.7E1,1.7E1,1E0,2E0,8E0,2E0,5.5E1,5E0,1.2E1,1E0,1E0,5E0,3E0,3E0,2E0,2E0,1E1],"tree_param":{"num_deleted":"0","num_feature":"190","num_nodes":"29","size_leaf_vector":"1"}},{"base_weights":[2.224902E-1,-1.0547445E0,3.8891113E-1,-1.960603E1,2.5179565E-1,-3.0213344E0,-2.7143043E-1,-1.5842553E0,6.8096733E0,1.0994911E-2,-5.6314927E-2,4.304036E0,-2.6736856E0,4.040761E0,2.8325045E-1,2.2041321E-1,5.1870174E0,2.5850676E-2,-2.9076599E-2,6.86601E-1,5.278007E0,8.836517E-3,-5.530319E-3,3.251793E-2,6.7931004E-2,1.724266E-2,-2.6329802E-3,1.5676804E-2,5.4565605E-2],"categories":[],"categories_nodes":[],"categories_segments":[],"categories_sizes":[],"default_left":[0,0,0,0,0,0,0,0,0,0,0,0,0,0,0,0,0,0,0,0,0,0,0,0,0,0,0,0,0],"id":43,"left_children":[1,3,-1,5,7,9,-1,11,13,-1,-1,15,17,19,-1,21,23,-1,-1,25,27,-1,-1,-1,-1,-1,-1,-1,-1],"loss_changes":[4.634189E3,2.2105945E3,0E0,6.679863E2,1.0462795E3,3.8459793E1,0E0,4.4771967E2,1.01745483E3,0E0,0E0,3.8520126E1,7.8880554E1,7.107471E1,0E0,2.0276234E0,5.883438E0,0E0,0E0,6.368059E0,5.8288574E-2,0E0,0E0,0E0,0E0,0E0,0E0,0E0,0E0],"parents":[2147483647,0,0,1,1,3,3,4,4,5,5,7,7,8,8,11,11,12,12,13,13,15,15,16,16,19,19,20,20],"right_children":[2,4,-1,6,8,10,-1,12,14,-1,-1,16,18,20,-1,22,24,-1,-1,26,28,-1,-1,-1,-1,-1,-1,-1,-1],"split_conditions":[5.8795077E-1,3.95E-1,3.8891113E-1,1.15585976E2,4.1557524E-1,1.1428577E2,-2.7143043E-1,2.1885E3,1.2030247E-1,1.0994911E-2,-5.6314927E-2,1.9688922E-1,5.314E2,4.2E0,2.8325045E-1,1.0904815E0,4.953741E-1,2.5850676E-2,-2.9076599E-2,1.1428577E2,1.459514E-1,8.836517E-3,-5.530319E-3,3.251793E-2,6.7931004E-2,1.724266E-2,-2.6329802E-3,1.5676804E-2,5.4565605E-2],"split_indices":[27,166,0,0,13,0,0,37,2,0,0,8,131,126,0,1,14,0,0,0,5,0,0,0,0,0,0,0,0],"split_type":[0,0,0,0,0,0,0,0,0,0,0,0,0,0,0,0,0,0,0,0,0,0,0,0,0,0,0,0,0],"sum_hessian":[9.2E1,9E1,2E0,5E0,8.5E1,2E0,3E0,6.7E1,1.8E1,1E0,1E0,1E1,5.7E1,1.7E1,1E0,2E0,8E0,2E0,5.5E1,5E0,1.2E1,1E0,1E0,5E0,3E0,2E0,3E0,1E0,1.1E1],"tree_param":{"num_deleted":"0","num_feature":"190","num_nodes":"29","size_leaf_vector":"1"}},{"base_weights":[2.2607988E-1,-1.0425285E0,3.863184E-1,-1.946276E1,2.547264E-1,-3.0062282E0,-2.693947E-1,-1.5669351E0,6.76095E0,1.0939941E-2,-5.603336E-2,4.2704287E0,-2.647005E0,4.0050673E0,2.8183421E-1,2.1931203E-1,5.146309E0,2.5678355E-2,-2.8791036E-2,6.821696E-1,5.23063E0,8.792343E-3,-5.5026626E-3,2.9081816E-2,6.355174E-2,-3.5227966E-4,2.1345787E-2,2.2722295E-2,5.561955E-2],"categories":[],"categories_nodes":[],"categories_segments":[],"categories_sizes":[],"default_left":[0,0,0,0,0,0,0,0,0,0,0,0,0,0,0,0,0,0,0,0,0,0,0,0,0,0,0,0,0],"id":44,"left_children":[1,3,-1,5,7,9,-1,11,13,-1,-1,15,17,19,-1,21,23,-1,-1,25,27,-1,-1,-1,-1,-1,-1,-1,-1],"loss_changes":[4.571409E3,2.1794697E3,0E0,6.5725806E2,1.0298777E3,3.807618E1,0E0,4.4002765E2,1.0088422E3,0E0,0E0,3.7902573E1,7.759381E1,6.973541E1,0E0,2.0073986E0,5.8683624E0,0E0,0E0,6.3269243E0,1.0443115E-1,0E0,0E0,0E0,0E0,0E0,0E0,0E0,0E0],"parents":[2147483647,0,0,1,1,3,3,4,4,5,5,7,7,8,8,11,11,12,12,13,13,15,15,16,16,19,19,20,20],"right_children":[2,4,-1,6,8,10,-1,12,14,-1,-1,16,18,20,-1,22,24,-1,-1,26,28,-1,-1,-1,-1,-1,-1,-1,-1],"split_conditions":[5.8795077E-1,3.95E-1,3.863184E-1,1.15585976E2,4.1557524E-1,1.1428577E2,-2.693947E-1,2.1885E3,1.2030247E-1,1.0939941E-2,-5.603336E-2,1.9688922E-1,5.314E2,4.2E0,2.8183421E-1,1.0904815E0,5.311E2,2.5678355E-2,-2.8791036E-2,2.320777E-1,5.01615E-1,8.792343E-3,-5.5026626E-3,2.9081816E-2,6.355174E-2,-3.5227966E-4,2.1345787E-2,2.2722295E-2,5.561955E-2],"split_indices":[27,166,0,0,13,0,0,37,2,0,0,8,131,126,0,1,133,0,0,4,14,0,0,0,0,0,0,0,0],"split_type":[0,0,0,0,0,0,0,0,0,0,0,0,0,0,0,0,0,0,0,0,0,0,0,0,0,0,0,0,0],"sum_hessian":[9.2E1,9E1,2E0,5E0,8.5E1,2E0,3E0,6.7E1,1.8E1,1E0,1E0,1E1,5.7E1,1.7E1,1E0,2E0,8E0,2E0,5.5E1,5E0,1.2E1,1E0,1E0,4E0,4E0,4E0,1E0,2E0,1E1],"tree_param":{"num_deleted":"0","num_feature":"190","num_nodes":"29","size_leaf_vector":"1"}},{"base_weights":[2.2968915E-1,-1.0303493E0,3.8374293E-1,-1.9320549E1,2.5769195E-1,-2.9911983E0,-2.6737425E-1,-1.5498991E0,6.7134027E0,1.0885239E-2,-5.5753212E-2,4.236444E0,-2.6205866E0,3.9705358E0,2.8042504E-1,2.1821594E-1,5.1051373E0,2.5507152E-2,-2.8508246E-2,6.788457E-1,5.1843514E0,8.748397E-3,-5.4751583E-3,3.1947147E-2,6.694487E-2,-3.4947204E-4,2.1239052E-2,6.1500557E-2,3.4780253E-2],"categories":[],"categories_nodes":[],"categories_segments":[],"categories_sizes":[],"default_left":[0,0,0,0,0,0,0,0,0,0,0,0,0,0,0,0,0,0,0,0,0,0,0,0,0,0,0,0,0],"id":45,"left_children":[1,3,-1,5,7,9,-1,11,13,-1,-1,15,17,19,-1,21,23,-1,-1,25,27,-1,-1,-1,-1,-1,-1,-1,-1],"loss_changes":[4.5094604E3,2.1488052E3,0E0,6.466997E2,1.0139637E3,3.7696377E1,0E0,4.3238678E2,1.0002111E3,0E0,0E0,3.728267E1,7.6328156E1,6.839972E1,0E0,1.987382E0,5.939987E0,0E0,0E0,6.2630644E0,3.1433105E-2,0E0,0E0,0E0,0E0,0E0,0E0,0E0,0E0],"parents":[2147483647,0,0,1,1,3,3,4,4,5,5,7,7,8,8,11,11,12,12,13,13,15,15,16,16,19,19,20,20],"right_children":[2,4,-1,6,8,10,-1,12,14,-1,-1,16,18,20,-1,22,24,-1,-1,26,28,-1,-1,-1,-1,-1,-1,-1,-1],"split_conditions":[5.8795077E-1,3.95E-1,3.8374293E-1,1.15585976E2,4.1557524E-1,1.1428577E2,-2.6737425E-1,2.1885E3,1.2030247E-1,1.0885239E-2,-5.5753212E-2,1.9688922E-1,5.314E2,4.2E0,2.8042504E-1,1.0904815E0,4.953741E-1,2.5507152E-2,-2.8508246E-2,2.320777E-1,1.2438E0,8.748397E-3,-5.4751583E-3,3.1947147E-2,6.694487E-2,-3.4947204E-4,2.1239052E-2,6.1500557E-2,3.4780253E-2],"split_indices":[27,166,0,0,13,0,0,37,2,0,0,8,131,126,0,1,14,0,0,4,127,0,0,0,0,0,0,0,0],"split_type":[0,0,0,0,0,0,0,0,0,0,0,0,0,0,0,0,0,0,0,0,0,0,0,0,0,0,0,0,0],"sum_hessian":[9.2E1,9E1,2E0,5E0,8.5E1,2E0,3E0,6.7E1,1.8E1,1E0,1E0,1E1,5.7E1,1.7E1,1E0,2E0,8E0,2E0,5.5E1,5E0,1.2E1,1E0,1E0,5E0,3E0,4E0,1E0,6E0,6E0],"tree_param":{"num_deleted":"0","num_feature":"190","num_nodes":"29","size_leaf_vector":"1"}},{"base_weights":[2.3350418E-1,-1.0180166E0,3.8118464E-1,-1.9179384E1,2.6089308E-1,-2.976242E0,-2.6536894E-1,-1.5329394E0,6.6671944E0,1.0830803E-2,-5.5474434E-2,4.2033677E0,-2.5944297E0,3.9373393E0,2.790229E-1,2.1712494E-1,5.0650744E0,2.5337117E-2,-2.8228225E-2,1.2952251E0,5.500937E-2,8.704643E-3,-5.447769E-3,3.1680945E-2,6.644276E-2,-3.466644E-4,2.6337832E-2],"categories":[],"categories_nodes":[],"categories_segments":[],"categories_sizes":[],"default_left":[0,0,0,0,0,0,0,0,0,0,0,0,0,0,0,0,0,0,0,0,0,0,0,0,0,0,0],"id":46,"left_children":[1,3,-1,5,7,9,-1,11,13,-1,-1,15,17,19,-1,21,23,-1,-1,25,-1,-1,-1,-1,-1,-1,-1],"loss_changes":[4.44829E3,2.1186377E3,0E0,6.363086E2,9.985178E2,3.732033E1,0E0,4.249597E2,9.91545E2,0E0,0E0,3.6684967E1,7.508362E1,6.7236725E1,0E0,1.9675505E0,5.911728E0,0E0,0E0,1.4332402E1,0E0,0E0,0E0,0E0,0E0,0E0,0E0],"parents":[2147483647,0,0,1,1,3,3,4,4,5,5,7,7,8,8,11,11,12,12,13,13,15,15,16,16,19,19],"right_children":[2,4,-1,6,8,10,-1,12,14,-1,-1,16,18,20,-1,22,24,-1,-1,26,-1,-1,-1,-1,-1,-1,-1],"split_conditions":[5.8795077E-1,3.95E-1,3.8118464E-1,1.15585976E2,4.1557524E-1,1.1428577E2,-2.6536894E-1,2.1885E3,1.2030247E-1,1.0830803E-2,-5.5474434E-2,1.9688922E-1,5.314E2,1.2639272E0,2.790229E-1,1.0904815E0,4.953741E-1,2.5337117E-2,-2.8228225E-2,4.2E0,5.500937E-2,8.704643E-3,-5.447769E-3,3.1680945E-2,6.644276E-2,-3.466644E-4,2.6337832E-2],"split_indices":[27,166,0,0,13,0,0,37,2,0,0,8,131,12,0,1,14,0,0,126,0,0,0,0,0,0,0],"split_type":[0,0,0,0,0,0,0,0,0,0,0,0,0,0,0,0,0,0,0,0,0,0,0,0,0,0,0],"sum_hessian":[9.2E1,9E1,2E0,5E0,8.5E1,2E0,3E0,6.7E1,1.8E1,1E0,1E0,1E1,5.7E1,1.7E1,1E0,2E0,8E0,2E0,5.5E1,7E0,1E1,1E0,1E0,5E0,3E0,4E0,3E0],"tree_param":{"num_deleted":"0","num_feature":"190","num_nodes":"27","size_leaf_vector":"1"}},{"base_weights":[2.3686497E-1,-1.0062041E0,3.7864336E-1,-1.9039263E1,2.6361626E-1,-2.9613621E0,-2.633787E-1,-1.5161611E0,6.619471E0,1.0776634E-2,-5.5197068E-2,4.170552E0,-2.5685349E0,3.9024663E0,2.776278E-1,2.1603902E-1,5.0253277E0,2.5168201E-2,-2.7950978E-2,6.666005E-1,5.095753E0,8.661117E-3,-5.420532E-3,3.1416968E-2,6.5944426E-2,1.4071941E-2,-5.4305773E-3,6.0501914E-2,3.4133494E-2],"categories":[],"categories_nodes":[],"categories_segments":[],"categories_sizes":[],"default_left":[0,0,0,0,0,0,0,0,0,0,0,0,0,0,0,0,0,0,0,0,0,0,0,0,0,0,0,0,0],"id":47,"left_children":[1,3,-1,5,7,9,-1,11,13,-1,-1,15,17,19,-1,21,23,-1,-1,25,27,-1,-1,-1,-1,-1,-1,-1,-1],"loss_changes":[4.38804E3,2.088805E3,0E0,6.2608203E2,9.828687E2,3.6948044E1,0E0,4.1766138E2,9.831396E2,0E0,0E0,3.6096786E1,7.385968E1,6.610687E1,0E0,1.947924E0,5.882965E0,0E0,0E0,6.1393785E0,2.2335815E-1,0E0,0E0,0E0,0E0,0E0,0E0,0E0,0E0],"parents":[2147483647,0,0,1,1,3,3,4,4,5,5,7,7,8,8,11,11,12,12,13,13,15,15,16,16,19,19,20,20],"right_children":[2,4,-1,6,8,10,-1,12,14,-1,-1,16,18,20,-1,22,24,-1,-1,26,28,-1,-1,-1,-1,-1,-1,-1,-1],"split_conditions":[5.8795077E-1,3.95E-1,3.7864336E-1,1.15585976E2,4.1557524E-1,1.1428577E2,-2.633787E-1,2.1885E3,1.2030247E-1,1.0776634E-2,-5.5197068E-2,1.9688922E-1,5.314E2,4.2E0,2.776278E-1,1.0904815E0,4.953741E-1,2.5168201E-2,-2.7950978E-2,1.459514E-1,1.2438E0,8.661117E-3,-5.420532E-3,3.1416968E-2,6.5944426E-2,1.4071941E-2,-5.4305773E-3,6.0501914E-2,3.4133494E-2],"split_indices":[27,166,0,0,13,0,0,37,2,0,0,8,131,126,0,1,14,0,0,5,127,0,0,0,0,0,0,0,0],"split_type":[0,0,0,0,0,0,0,0,0,0,0,0,0,0,0,0,0,0,0,0,0,0,0,0,0,0,0,0,0],"sum_hessian":[9.2E1,9E1,2E0,5E0,8.5E1,2E0,3E0,6.7E1,1.8E1,1E0,1E0,1E1,5.7E1,1.7E1,1E0,2E0,8E0,2E0,5.5E1,5E0,1.2E1,1E0,1E0,5E0,3E0,3E0,2E0,6E0,6E0],"tree_param":{"num_deleted":"0","num_feature":"190","num_nodes":"29","size_leaf_vector":"1"}},{"base_weights":[2.4040772E-1,-9.942616E-1,3.7611908E-1,-1.8900167E1,2.6654887E-1,-2.946556E0,-2.6140335E-1,-1.4995584E0,6.5733247E0,1.0722732E-2,-5.4921072E-2,4.1379924E0,-2.5428946E0,3.86918E0,2.7623966E-1,2.1495819E-1,4.9858932E0,2.5000406E-2,-2.767643E-2,1.2705612E0,5.407341E-2,8.61782E-3,-5.393448E-3,3.1155154E-2,6.544986E-2,-3.7846374E-4,2.5884304E-2],"categories":[],"categories_nodes":[],"categories_segments":[],"categories_sizes":[],"default_left":[0,0,0,0,0,0,0,0,0,0,0,0,0,0,0,0,0,0,0,0,0,0,0,0,0,0,0],"id":48,"left_children":[1,3,-1,5,7,9,-1,11,13,-1,-1,15,17,19,-1,21,23,-1,-1,25,-1,-1,-1,-1,-1,-1,-1],"loss_changes":[4.3285503E3,2.05945E3,0E0,6.160171E2,9.677632E2,3.6579453E1,0E0,4.10489E2,9.746736E2,0E0,0E0,3.5518036E1,7.2655945E1,6.507736E1,0E0,1.9285011E0,5.8538513E0,0E0,0E0,1.3892445E1,0E0,0E0,0E0,0E0,0E0,0E0,0E0],"parents":[2147483647,0,0,1,1,3,3,4,4,5,5,7,7,8,8,11,11,12,12,13,13,15,15,16,16,19,19],"right_children":[2,4,-1,6,8,10,-1,12,14,-1,-1,16,18,20,-1,22,24,-1,-1,26,-1,-1,-1,-1,-1,-1,-1],"split_conditions":[5.8795077E-1,3.95E-1,3.7611908E-1,1.15585976E2,4.1557524E-1,1.1428577E2,-2.6140335E-1,2.1885E3,1.2030247E-1,1.0722732E-2,-5.4921072E-2,1.9688922E-1,5.314E2,1.2639272E0,2.7623966E-1,1.0904815E0,4.953741E-1,2.5000406E-2,-2.767643E-2,4.2E0,5.407341E-2,8.61782E-3,-5.393448E-3,3.1155154E-2,6.544986E-2,-3.7846374E-4,2.5884304E-2],"split_indices":[27,166,0,0,13,0,0,37,2,0,0,8,131,12,0,1,14,0,0,126,0,0,0,0,0,0,0],"split_type":[0,0,0,0,0,0,0,0,0,0,0,0,0,0,0,0,0,0,0,0,0,0,0,0,0,0,0],"sum_hessian":[9.2E1,9E1,2E0,5E0,8.5E1,2E0,3E0,6.7E1,1.8E1,1E0,1E0,1E1,5.7E1,1.7E1,1E0,2E0,8E0,2E0,5.5E1,7E0,1E1,1E0,1E0,5E0,3E0,4E0,3E0],"tree_param":{"num_deleted":"0","num_feature":"190","num_nodes":"27","size_leaf_vector":"1"}},{"base_weights":[2.436338E-1,-9.826982E-1,3.736116E-1,-1.8762098E1,2.6915172E-1,-2.931821E0,-2.594428E-1,-1.4831321E0,6.5263176E0,1.06691355E-2,-5.464645E-2,4.105685E0,-2.517509E0,3.8349075E0,2.7485847E-1,2.1388245E-1,4.9467654E0,2.483373E-2,-2.7404578E0,6.526184E-1,5.0086637E0,8.574715E-3,-5.3664776E-3,3.08955E-2,6.4958975E-2,-2.7610715E-2,-8.033447E-3,1.3833141E-2,-5.39182E-3,6.7262344E-2,3.8207687E-2],"categories":[],"categories_nodes":[],"categories_segments":[],"categories_sizes":[],"default_left":[0,0,0,0,0,0,0,0,0,0,0,0,0,0,0,0,0,0,0,0,0,0,0,0,0,0,0,0,0,0,0],"id":49,"left_children":[1,3,-1,5,7,9,-1,11,13,-1,-1,15,17,19,-1,21,23,-1,25,27,29,-1,-1,-1,-1,-1,-1,-1,-1,-1,-1],"loss_changes":[4.2699277E3,2.0304496E3,0E0,6.061116E2,9.526118E2,3.6214577E1,0E0,4.0344025E2,9.6639734E2,0E0,0E0,3.4948486E1,7.147217E1,6.3965393E1,0E0,1.9092593E0,5.8242493E0,0E0,1.8066406E-2,5.9709187E0,8.244324E-1,0E0,0E0,0E0,0E0,0E0,0E0,0E0,0E0,0E0,0E0],"parents":[2147483647,0,0,1,1,3,3,4,4,5,5,7,7,8,8,11,11,12,12,13,13,15,15,16,16,18,18,19,19,20,20],"right_children":[2,4,-1,6,8,10,-1,12,14,-1,-1,16,18,20,-1,22,24,-1,26,28,30,-1,-1,-1,-1,-1,-1,-1,-1,-1,-1],"split_conditions":[5.8795077E-1,3.95E-1,3.736116E-1,1.15585976E2,4.1557524E-1,1.1428577E2,-2.594428E-1,2.1885E3,1.2030247E-1,1.06691355E-2,-5.464645E-2,1.9688922E-1,5.314E2,4.2E0,2.7485847E-1,1.0904815E0,4.953741E-1,2.483373E-2,5.301191E2,1.459514E-1,4.186423E-1,8.574715E-3,-5.3664776E-3,3.08955E-2,6.4958975E-2,-2.7610715E-2,-8.033447E-3,1.3833141E-2,-5.39182E-3,6.7262344E-2,3.8207687E-2],"split_indices":[27,166,0,0,13,0,0,37,2,0,0,8,131,126,0,1,14,0,17,5,13,0,0,0,0,0,0,0,0,0,0],"split_type":[0,0,0,0,0,0,0,0,0,0,0,0,0,0,0,0,0,0,0,0,0,0,0,0,0,0,0,0,0,0,0],"sum_hessian":[9.2E1,9E1,2E0,5E0,8.5E1,2E0,3E0,6.7E1,1.8E1,1E0,1E0,1E1,5.7E1,1.7E1,1E0,2E0,8E0,2E0,5.5E1,5E0,1.2E1,1E0,1E0,5E0,3E0,5.4E1,1E0,3E0,2E0,3E0,9E0],"tree_param":{"num_deleted":"0","num_feature":"190","num_nodes":"31","size_leaf_vector":"1"}},{"base_weights":[2.4708164E-1,-9.7096336E-1,3.7112087E-1,-1.8625044E1,2.72007E-1,-2.91716E0,-2.5749695E-1,-1.4670031E0,6.4815164E0,1.0615806E-2,-5.4373205E-2,4.0736327E0,-2.49252E0,3.8028874E0,2.734842E-1,2.1281178E-1,4.907947E0,2.466817E-2,-2.7136896E-2,1.244607E0,5.317738E-2,8.531838E-3,-5.3396607E-3,2.7592378E-2,6.075067E-2,-4.091644E-4,2.5403595E-2],"categories":[],"categories_nodes":[],"categories_segments":[],"categories_sizes":[],"default_left":[0,0,0,0,0,0,0,0,0,0,0,0,0,0,0,0,0,0,0,0,0,0,0,0,0,0,0],"id":50,"left_children":[1,3,-1,5,7,9,-1,11,13,-1,-1,15,17,19,-1,21,23,-1,-1,25,-1,-1,-1,-1,-1,-1,-1],"loss_changes":[4.212035E3,2.0019248E3,0E0,5.963633E2,9.381707E2,3.585335E1,0E0,3.9653076E2,9.579962E2,0E0,0E0,3.4388046E1,7.031171E1,6.3138916E1,0E0,1.8902179E0,5.807678E0,0E0,0E0,1.3429705E1,0E0,0E0,0E0,0E0,0E0,0E0,0E0],"parents":[2147483647,0,0,1,1,3,3,4,4,5,5,7,7,8,8,11,11,12,12,13,13,15,15,16,16,19,19],"right_children":[2,4,-1,6,8,10,-1,12,14,-1,-1,16,18,20,-1,22,24,-1,-1,26,-1,-1,-1,-1,-1,-1,-1],"split_conditions":[5.8795077E-1,3.95E-1,3.7112087E-1,1.15585976E2,4.1557524E-1,1.1428577E2,-2.5749695E-1,2.1885E3,1.2030247E-1,1.0615806E-2,-5.4373205E-2,1.9688922E-1,5.314E2,1.2639272E0,2.734842E-1,1.0904815E0,5.311E2,2.466817E-2,-2.7136896E-2,4.2E0,5.317738E-2,8.531838E-3,-5.3396607E-3,2.7592378E-2,6.075067E-2,-4.091644E-4,2.5403595E-2],"split_indices":[27,166,0,0,13,0,0,37,2,0,0,8,131,12,0,1,133,0,0,126,0,0,0,0,0,0,0],"split_type":[0,0,0,0,0,0,0,0,0,0,0,0,0,0,0,0,0,0,0,0,0,0,0,0,0,0,0],"sum_hessian":[9.2E1,9E1,2E0,5E0,8.5E1,2E0,3E0,6.7E1,1.8E1,1E0,1E0,1E1,5.7E1,1.7E1,1E0,2E0,8E0,2E0,5.5E1,7E0,1E1,1E0,1E0,4E0,4E0,4E0,3E0],"tree_param":{"num_deleted":"0","num_feature":"190","num_nodes":"27","size_leaf_vector":"1"}},{"base_weights":[2.5010157E-1,-9.597205E-1,3.6864668E-1,-1.8489E1,2.7441213E-1,-2.9025726E0,-2.555657E-1,-1.4510227E0,6.4352098E0,1.0562744E-2,-5.4101333E-2,4.041216E0,-2.4676366E0,3.769202E0,2.7211678E-1,2.1174876E-1,4.868681E0,2.4503734E-2,-2.6870365E0,6.389122E-1,4.924012E0,8.489189E-3,-5.312958E-3,3.0352782E-2,6.401615E-2,-2.7073188E-2,-7.85759E-3,1.3598518E-2,-5.353114E-3,6.635906E-2,3.7468534E-2],"categories":[],"categories_nodes":[],"categories_segments":[],"categories_sizes":[],"default_left":[0,0,0,0,0,0,0,0,0,0,0,0,0,0,0,0,0,0,0,0,0,0,0,0,0,0,0,0,0,0,0],"id":51,"left_children":[1,3,-1,5,7,9,-1,11,13,-1,-1,15,17,19,-1,21,23,-1,25,27,29,-1,-1,-1,-1,-1,-1,-1,-1,-1,-1],"loss_changes":[4.155011E3,1.9737184E3,0E0,5.8676953E2,9.2352246E2,3.549573E1,0E0,3.8964935E2,9.498481E2,0E0,0E0,3.3825302E1,6.916687E1,6.1922043E1,0E0,1.8713644E0,5.863693E0,0E0,3.2165527E-2,5.80721E0,1.3334656E0,0E0,0E0,0E0,0E0,0E0,0E0,0E0,0E0,0E0,0E0],"parents":[2147483647,0,0,1,1,3,3,4,4,5,5,7,7,8,8,11,11,12,12,13,13,15,15,16,16,18,18,19,19,20,20],"right_children":[2,4,-1,6,8,10,-1,12,14,-1,-1,16,18,20,-1,22,24,-1,26,28,30,-1,-1,-1,-1,-1,-1,-1,-1,-1,-1],"split_conditions":[5.8795077E-1,3.95E-1,3.6864668E-1,1.15585976E2,4.1557524E-1,1.1428577E2,-2.555657E-1,2.1885E3,1.2030247E-1,1.0562744E-2,-5.4101333E-2,1.9688922E-1,5.314E2,4.2E0,2.7211678E-1,1.0904815E0,4.953741E-1,2.4503734E-2,5.301191E2,1.459514E-1,4.186423E-1,8.489189E-3,-5.312958E-3,3.0352782E-2,6.401615E-2,-2.7073188E-2,-7.85759E-3,1.3598518E-2,-5.353114E-3,6.635906E-2,3.7468534E-2],"split_indices":[27,166,0,0,13,0,0,37,2,0,0,8,131,126,0,1,14,0,17,5,13,0,0,0,0,0,0,0,0,0,0],"split_type":[0,0,0,0,0,0,0,0,0,0,0,0,0,0,0,0,0,0,0,0,0,0,0,0,0,0,0,0,0,0,0],"sum_hessian":[9.2E1,9E1,2E0,5E0,8.5E1,2E0,3E0,6.7E1,1.8E1,1E0,1E0,1E1,5.7E1,1.7E1,1E0,2E0,8E0,2E0,5.5E1,5E0,1.2E1,1E0,1E0,5E0,3E0,5.4E1,1E0,3E0,2E0,3E0,9E0],"tree_param":{"num_deleted":"0","num_feature":"190","num_nodes":"31","size_leaf_vector":"1"}},{"base_weights":[2.5341853E-1,-9.4822854E-1,3.6618906E-1,-1.835396E1,2.7715072E-1,-2.888059E0,-2.5364894E-1,-1.4352286E0,6.391079E0,1.0509948E-2,-5.3830832E-2,4.009672E0,-2.4431367E0,3.737737E0,2.7075619E-1,2.1068828E-1,4.8304806E0,2.4340361E-2,-2.6607864E0,1.2191753E0,5.2296236E-2,8.446732E-3,-5.286407E-3,3.0099869E-2,6.353601E-2,-2.6807342E-2,-7.818298E-3,-4.388275E-4,2.493204E-2],"categories":[],"categories_nodes":[],"categories_segments":[],"categories_sizes":[],"default_left":[0,0,0,0,0,0,0,0,0,0,0,0,0,0,0,0,0,0,0,0,0,0,0,0,0,0,0,0,0],"id":52,"left_children":[1,3,-1,5,7,9,-1,11,13,-1,-1,15,17,19,-1,21,23,-1,25,27,-1,-1,-1,-1,-1,-1,-1,-1,-1],"loss_changes":[4.0986816E3,1.9459913E3,0E0,5.773273E2,9.0953796E2,3.51417E1,0E0,3.8297748E2,9.415784E2,0E0,0E0,3.3282913E1,6.804434E1,6.125757E1,0E0,1.8526988E0,5.8312225E0,0E0,3.0212402E-3,1.2982787E1,0E0,0E0,0E0,0E0,0E0,0E0,0E0,0E0,0E0],"parents":[2147483647,0,0,1,1,3,3,4,4,5,5,7,7,8,8,11,11,12,12,13,13,15,15,16,16,18,18,19,19],"right_children":[2,4,-1,6,8,10,-1,12,14,-1,-1,16,18,20,-1,22,24,-1,26,28,-1,-1,-1,-1,-1,-1,-1,-1,-1],"split_conditions":[5.8795077E-1,3.95E-1,3.6618906E-1,1.15585976E2,4.1557524E-1,1.1428577E2,-2.5364894E-1,2.1885E3,1.2030247E-1,1.0509948E-2,-5.3830832E-2,1.9688922E-1,5.314E2,1.2639272E0,2.7075619E-1,1.0904815E0,4.953741E-1,2.4340361E-2,5.301191E2,4.2E0,5.2296236E-2,8.446732E-3,-5.286407E-3,3.0099869E-2,6.353601E-2,-2.6807342E-2,-7.818298E-3,-4.388275E-4,2.493204E-2],"split_indices":[27,166,0,0,13,0,0,37,2,0,0,8,131,12,0,1,14,0,17,126,0,0,0,0,0,0,0,0,0],"split_type":[0,0,0,0,0,0,0,0,0,0,0,0,0,0,0,0,0,0,0,0,0,0,0,0,0,0,0,0,0],"sum_hessian":[9.2E1,9E1,2E0,5E0,8.5E1,2E0,3E0,6.7E1,1.8E1,1E0,1E0,1E1,5.7E1,1.7E1,1E0,2E0,8E0,2E0,5.5E1,7E0,1E1,1E0,1E0,5E0,3E0,5.4E1,1E0,4E0,3E0],"tree_param":{"num_deleted":"0","num_feature":"190","num_nodes":"29","size_leaf_vector":"1"}},{"base_weights":[2.562971E-1,-9.372386E-1,3.637478E-1,-1.8219915E1,2.7942774E-1,-2.873619E0,-2.517466E-1,-1.419602E0,6.345459E0,1.0457382E-2,-5.356167E-2,3.9783754E0,-2.4188805E0,3.7046247E0,2.6940238E-1,2.0963542E-1,4.7925806E0,2.4178112E-2,-2.6347946E-2,1.2100468E0,5.182079E-2,8.404503E-3,-5.2599716E-3,2.9849052E-2,6.305948E-2,-4.3528745E-4,2.4745043E-2],"categories":[],"categories_nodes":[],"categories_segments":[],"categories_sizes":[],"default_left":[0,0,0,0,0,0,0,0,0,0,0,0,0,0,0,0,0,0,0,0,0,0,0,0,0,0,0],"id":53,"left_children":[1,3,-1,5,7,9,-1,11,13,-1,-1,15,17,19,-1,21,23,-1,-1,25,-1,-1,-1,-1,-1,-1,-1],"loss_changes":[4.043201E3,1.9185709E3,0E0,5.680349E2,8.953556E2,3.4791122E1,0E0,3.764209E2,9.335572E2,0E0,0E0,3.27491E1,6.694049E1,6.007071E1,0E0,1.8342184E0,5.7984467E0,0E0,0E0,