{"learner":{"attributes":{"best_iteration":"549","best_score":"0.9496522986370585"},"feature_names":[],"feature_types":[],"gradient_booster":{"model":{"gbtree_model_param":{"num_parallel_tree":"1","num_trees":"650"},"iteration_indptr":[0,1,2,3,4,5,6,7,8,9,10,11,12,13,14,15,16,17,18,19,20,21,22,23,24,25,26,27,28,29,30,31,32,33,34,35,36,37,38,39,40,41,42,43,44,45,46,47,48,49,50,51,52,53,54,55,56,57,58,59,60,61,62,63,64,65,66,67,68,69,70,71,72,73,74,75,76,77,78,79,80,81,82,83,84,85,86,87,88,89,90,91,92,93,94,95,96,97,98,99,100,101,102,103,104,105,106,107,108,109,110,111,112,113,114,115,116,117,118,119,120,121,122,123,124,125,126,127,128,129,130,131,132,133,134,135,136,137,138,139,140,141,142,143,144,145,146,147,148,149,150,151,152,153,154,155,156,157,158,159,160,161,162,163,164,165,166,167,168,169,170,171,172,173,174,175,176,177,178,179,180,181,182,183,184,185,186,187,188,189,190,191,192,193,194,195,196,197,198,199,200,201,202,203,204,205,206,207,208,209,210,211,212,213,214,215,216,217,218,219,220,221,222,223,224,225,226,227,228,229,230,231,232,233,234,235,236,237,238,239,240,241,242,243,244,245,246,247,248,249,250,251,252,253,254,255,256,257,258,259,260,261,262,263,264,265,266,267,268,269,270,271,272,273,274,275,276,277,278,279,280,281,282,283,284,285,286,287,288,289,290,291,292,293,294,295,296,297,298,299,300,301,302,303,304,305,306,307,308,309,310,311,312,313,314,315,316,317,318,319,320,321,322,323,324,325,326,327,328,329,330,331,332,333,334,335,336,337,338,339,340,341,342,343,344,345,346,347,348,349,350,351,352,353,354,355,356,357,358,359,360,361,362,363,364,365,366,367,368,369,370,371,372,373,374,375,376,377,378,379,380,381,382,383,384,385,386,387,388,389,390,391,392,393,394,395,396,397,398,399,400,401,402,403,404,405,406,407,408,409,410,411,412,413,414,415,416,417,418,419,420,421,422,423,424,425,426,427,428,429,430,431,432,433,434,435,436,437,438,439,440,441,442,443,444,445,446,447,448,449,450,451,452,453,454,455,456,457,458,459,460,461,462,463,464,465,466,467,468,469,470,471,472,473,474,475,476,477,478,479,480,481,482,483,484,485,486,487,488,489,490,491,492,493,494,495,496,497,498,499,500,501,502,503,504,505,506,507,508,509,510,511,512,513,514,515,516,517,518,519,520,521,522,523,524,525,526,527,528,529,530,531,532,533,534,535,536,537,538,539,540,541,542,543,544,545,546,547,548,549,550,551,552,553,554,555,556,557,558,559,560,561,562,563,564,565,566,567,568,569,570,571,572,573,574,575,576,577,578,579,580,581,582,583,584,585,586,587,588,589,590,591,592,593,594,595,596,597,598,599,600,601,602,603,604,605,606,607,608,609,610,611,612,613,614,615,616,617,618,619,620,621,622,623,624,625,626,627,628,629,630,631,632,633,634,635,636,637,638,639,640,641,642,643,644,645,646,647,648,649,650],"tree_info":[0,0,0,0,0,0,0,0,0,0,0,0,0,0,0,0,0,0,0,0,0,0,0,0,0,0,0,0,0,0,0,0,0,0,0,0,0,0,0,0,0,0,0,0,0,0,0,0,0,0,0,0,0,0,0,0,0,0,0,0,0,0,0,0,0,0,0,0,0,0,0,0,0,0,0,0,0,0,0,0,0,0,0,0,0,0,0,0,0,0,0,0,0,0,0,0,0,0,0,0,0,0,0,0,0,0,0,0,0,0,0,0,0,0,0,0,0,0,0,0,0,0,0,0,0,0,0,0,0,0,0,0,0,0,0,0,0,0,0,0,0,0,0,0,0,0,0,0,0,0,0,0,0,0,0,0,0,0,0,0,0,0,0,0,0,0,0,0,0,0,0,0,0,0,0,0,0,0,0,0,0,0,0,0,0,0,0,0,0,0,0,0,0,0,0,0,0,0,0,0,0,0,0,0,0,0,0,0,0,0,0,0,0,0,0,0,0,0,0,0,0,0,0,0,0,0,0,0,0,0,0,0,0,0,0,0,0,0,0,0,0,0,0,0,0,0,0,0,0,0,0,0,0,0,0,0,0,0,0,0,0,0,0,0,0,0,0,0,0,0,0,0,0,0,0,0,0,0,0,0,0,0,0,0,0,0,0,0,0,0,0,0,0,0,0,0,0,0,0,0,0,0,0,0,0,0,0,0,0,0,0,0,0,0,0,0,0,0,0,0,0,0,0,0,0,0,0,0,0,0,0,0,0,0,0,0,0,0,0,0,0,0,0,0,0,0,0,0,0,0,0,0,0,0,0,0,0,0,0,0,0,0,0,0,0,0,0,0,0,0,0,0,0,0,0,0,0,0,0,0,0,0,0,0,0,0,0,0,0,0,0,0,0,0,0,0,0,0,0,0,0,0,0,0,0,0,0,0,0,0,0,0,0,0,0,0,0,0,0,0,0,0,0,0,0,0,0,0,0,0,0,0,0,0,0,0,0,0,0,0,0,0,0,0,0,0,0,0,0,0,0,0,0,0,0,0,0,0,0,0,0,0,0,0,0,0,0,0,0,0,0,0,0,0,0,0,0,0,0,0,0,0,0,0,0,0,0,0,0,0,0,0,0,0,0,0,0,0,0,0,0,0,0,0,0,0,0,0,0,0,0,0,0,0,0,0,0,0,0,0,0,0,0,0,0,0,0,0,0,0,0,0,0,0,0,0,0,0,0,0,0,0,0,0,0,0,0,0,0,0,0,0,0,0,0,0,0,0,0,0,0,0,0,0,0,0,0,0,0,0,0,0,0,0,0,0,0,0,0,0,0,0,0,0,0,0,0,0,0,0,0,0,0,0,0,0,0,0,0,0,0,0,0,0,0,0,0,0,0,0,0,0,0,0,0,0,0,0,0,0,0,0,0,0,0,0,0,0,0,0,0,0,0,0,0,0,0,0,0,0,0,0,0,0,0,0,0,0,0,0],"trees":[{"base_weights":[1.2305475E-7,-1.7948706E0,5.444441E-1,-9.427393E-1,-3.9243343E-1,-3.099856E0,7.2812147E0,-4.092198E0,3.367821E-1,7.947514E-2,2.7957115E-2,-5.052161E0,3.0822363E0,-4.48924E-2,-1.2232939E-1,7.1107736E-3,3.6581278E-2],"categories":[],"categories_nodes":[],"categories_segments":[],"categories_sizes":[],"default_left":[0,0,0,0,0,0,0,0,0,0,0,0,0,0,0,0,0],"id":0,"left_children":[1,3,-1,5,-1,7,9,11,-1,-1,-1,13,15,-1,-1,-1,-1],"loss_changes":[9.185744E3,2.8669062E3,0E0,1.6191731E3,0E0,2.7655598E3,3.4566162E1,5.04563E2,0E0,0E0,0E0,1.997428E2,9.6885605E0,0E0,0E0,0E0,0E0],"parents":[2147483647,0,0,1,1,3,3,5,5,6,6,7,7,11,11,12,12],"right_children":[2,4,-1,6,-1,8,10,12,-1,-1,-1,14,16,-1,-1,-1,-1],"split_conditions":[5.8795077E-1,1.16693924E2,5.444441E-1,3.98E-1,-3.9243343E-1,4.073E-1,4.4621566E-1,5.000335E-1,3.367821E-1,7.947514E-2,2.7957115E-2,5.3022266E2,-5.371E0,-4.48924E-2,-1.2232939E-1,7.1107736E-3,3.6581278E-2],"split_indices":[27,0,0,166,0,165,71,73,0,0,0,19,83,0,0,0,0],"split_type":[0,0,0,0,0,0,0,0,0,0,0,0,0,0,0,0,0],"sum_hessian":[9.2E1,9E1,2E0,8.9E1,1E0,7.1E1,1.8E1,7E1,1E0,1.5E1,3E0,6.2E1,8E0,5.9E1,3E0,2E0,6E0],"tree_param":{"num_deleted":"0","num_feature":"190","num_nodes":"17","size_leaf_vector":"1"}},{"base_weights":[5.082202E-3,-1.777711E0,5.408145E-1,-9.297495E-1,-3.9047125E-1,-3.0658965E0,7.214057E0,-4.0530167E0,3.3509818E-1,7.873006E-2,2.774746E-2,-5.004295E0,3.0562677E0,-4.445097E-2,-1.2141192E-1,7.0633697E-3,3.6267713E-2],"categories":[],"categories_nodes":[],"categories_segments":[],"categories_sizes":[],"default_left":[0,0,0,0,0,0,0,0,0,0,0,0,0,0,0,0,0],"id":1,"left_children":[1,3,-1,5,-1,7,9,11,-1,-1,-1,13,15,-1,-1,-1,-1],"loss_changes":[9.061991E3,2.8395718E3,0E0,1.5877906E3,0E0,2.735349E3,3.3734802E1,4.9546106E2,0E0,0E0,0E0,1.9746045E2,9.504074E0,0E0,0E0,0E0,0E0],"parents":[2147483647,0,0,1,1,3,3,5,5,6,6,7,7,11,11,12,12],"right_children":[2,4,-1,6,-1,8,10,12,-1,-1,-1,14,16,-1,-1,-1,-1],"split_conditions":[5.8795077E-1,1.16693924E2,5.408145E-1,3.98E-1,-3.9047125E-1,4.073E-1,4.4621566E-1,5.000335E-1,3.3509818E-1,7.873006E-2,2.774746E-2,5.3022266E2,-5.371E0,-4.445097E-2,-1.2141192E-1,7.0633697E-3,3.6267713E-2],"split_indices":[27,0,0,166,0,165,71,73,0,0,0,19,83,0,0,0,0],"split_type":[0,0,0,0,0,0,0,0,0,0,0,0,0,0,0,0,0],"sum_hessian":[9.2E1,9E1,2E0,8.9E1,1E0,7.1E1,1.8E1,7E1,1E0,1.5E1,3E0,6.2E1,8E0,5.9E1,3E0,2E0,6E0],"tree_param":{"num_deleted":"0","num_feature":"190","num_nodes":"17","size_leaf_vector":"1"}},{"base_weights":[1.0077405E-2,-1.76072E0,5.3720903E-1,-9.169082E-1,-3.885189E-1,-3.0322871E0,7.1475224E0,-4.014214E0,3.334227E-1,7.799199E-2,2.7539348E-2,-4.956887E0,3.0305176E0,-4.401389E-2,-1.2050132E-1,7.0162704E-3,3.5956822E-2],"categories":[],"categories_nodes":[],"categories_segments":[],"categories_sizes":[],"default_left":[0,0,0,0,0,0,0,0,0,0,0,0,0,0,0,0,0],"id":2,"left_children":[1,3,-1,5,-1,7,9,11,-1,-1,-1,13,15,-1,-1,-1,-1],"loss_changes":[8.93991E3,2.8124912E3,0E0,1.5570126E3,0E0,2.705479E3,3.2922302E1,4.8652417E2,0E0,0E0,0E0,1.9520056E2,9.323044E0,0E0,0E0,0E0,0E0],"parents":[2147483647,0,0,1,1,3,3,5,5,6,6,7,7,11,11,12,12],"right_children":[2,4,-1,6,-1,8,10,12,-1,-1,-1,14,16,-1,-1,-1,-1],"split_conditions":[5.8795077E-1,1.16693924E2,5.3720903E-1,3.98E-1,-3.885189E-1,4.073E-1,4.4621566E-1,5.000335E-1,3.334227E-1,7.799199E-2,2.7539348E-2,5.3022266E2,-5.371E0,-4.401389E-2,-1.2050132E-1,7.0162704E-3,3.5956822E-2],"split_indices":[27,0,0,166,0,165,71,73,0,0,0,19,83,0,0,0,0],"split_type":[0,0,0,0,0,0,0,0,0,0,0,0,0,0,0,0,0],"sum_hessian":[9.2E1,9E1,2E0,8.9E1,1E0,7.1E1,1.8E1,7E1,1E0,1.5E1,3E0,6.2E1,8E0,5.9E1,3E0,2E0,6E0],"tree_param":{"num_deleted":"0","num_feature":"190","num_nodes":"17","size_leaf_vector":"1"}},{"base_weights":[1.4987782E-2,-1.7438949E0,5.336276E-1,-9.042131E-1,-3.865763E-1,-2.9990215E0,7.0815983E0,-3.975784E0,3.3175558E-1,7.7260785E-2,2.7332783E-2,-4.9099293E0,3.0049863E0,-4.3581083E-2,-1.1959758E-1,6.9694775E-3,3.5648618E-2],"categories":[],"categories_nodes":[],"categories_segments":[],"categories_sizes":[],"default_left":[0,0,0,0,0,0,0,0,0,0,0,0,0,0,0,0,0],"id":3,"left_children":[1,3,-1,5,-1,7,9,11,-1,-1,-1,13,15,-1,-1,-1,-1],"loss_changes":[8.81948E3,2.7856628E3,0E0,1.5268251E3,0E0,2.675945E3,3.2128174E1,4.7774915E2,0E0,0E0,0E0,1.929635E2,9.145409E0,0E0,0E0,0E0,0E0],"parents":[2147483647,0,0,1,1,3,3,5,5,6,6,7,7,11,11,12,12],"right_children":[2,4,-1,6,-1,8,10,12,-1,-1,-1,14,16,-1,-1,-1,-1],"split_conditions":[5.8795077E-1,1.16693924E2,5.336276E-1,3.98E-1,-3.865763E-1,4.073E-1,4.4621566E-1,5.000335E-1,3.3175558E-1,7.7260785E-2,2.7332783E-2,5.3022266E2,-5.371E0,-4.3581083E-2,-1.1959758E-1,6.9694775E-3,3.5648618E-2],"split_indices":[27,0,0,166,0,165,71,73,0,0,0,19,83,0,0,0,0],"split_type":[0,0,0,0,0,0,0,0,0,0,0,0,0,0,0,0,0],"sum_hessian":[9.2E1,9E1,2E0,8.9E1,1E0,7.1E1,1.8E1,7E1,1E0,1.5E1,3E0,6.2E1,8E0,5.9E1,3E0,2E0,6E0],"tree_param":{"num_deleted":"0","num_feature":"190","num_nodes":"17","size_leaf_vector":"1"}},{"base_weights":[1.9812595E-2,-1.7272359E0,5.300701E-1,-8.9166427E-1,-3.8464344E-1,-2.9661E0,7.016285E0,-3.9377263E0,3.300968E-1,7.653645E-2,2.7127761E-2,-4.863422E0,2.9796686E0,-4.3152556E-2,-1.18700586E-1,6.9229887E-3,3.534303E-2],"categories":[],"categories_nodes":[],"categories_segments":[],"categories_sizes":[],"default_left":[0,0,0,0,0,0,0,0,0,0,0,0,0,0,0,0,0],"id":4,"left_children":[1,3,-1,5,-1,7,9,11,-1,-1,-1,13,15,-1,-1,-1,-1],"loss_changes":[8.700679E3,2.759083E3,0E0,1.4972189E3,0E0,2.646744E3,3.1352112E1,4.6913306E2,0E0,0E0,0E0,1.9074817E2,8.971092E0,0E0,0E0,0E0,0E0],"parents":[2147483647,0,0,1,1,3,3,5,5,6,6,7,7,11,11,12,12],"right_children":[2,4,-1,6,-1,8,10,12,-1,-1,-1,14,16,-1,-1,-1,-1],"split_conditions":[5.8795077E-1,1.16693924E2,5.300701E-1,3.98E-1,-3.8464344E-1,4.073E-1,4.4621566E-1,5.000335E-1,3.300968E-1,7.653645E-2,2.7127761E-2,5.3022266E2,-5.371E0,-4.3152556E-2,-1.18700586E-1,6.9229887E-3,3.534303E-2],"split_indices":[27,0,0,166,0,165,71,73,0,0,0,19,83,0,0,0,0],"split_type":[0,0,0,0,0,0,0,0,0,0,0,0,0,0,0,0,0],"sum_hessian":[9.2E1,9E1,2E0,8.9E1,1E0,7.1E1,1.8E1,7E1,1E0,1.5E1,3E0,6.2E1,8E0,5.9E1,3E0,2E0,6E0],"tree_param":{"num_deleted":"0","num_feature":"190","num_nodes":"17","size_leaf_vector":"1"}},{"base_weights":[2.4555944E-2,-1.7107385E0,5.2653635E-1,-8.792573E-1,-3.827202E-1,-2.9335155E0,6.9515767E0,-3.9000337E0,3.2844633E-1,7.58189E-2,2.6924286E-2,-4.8173575E0,2.9545712E0,-4.2728227E-2,-1.1781035E-1,6.8768566E-3,3.5040118E-2],"categories":[],"categories_nodes":[],"categories_segments":[],"categories_sizes":[],"default_left":[0,0,0,0,0,0,0,0,0,0,0,0,0,0,0,0,0],"id":5,"left_children":[1,3,-1,5,-1,7,9,11,-1,-1,-1,13,15,-1,-1,-1,-1],"loss_changes":[8.583484E3,2.7327507E3,0E0,1.4681826E3,0E0,2.6178718E3,3.0593689E1,4.606737E2,0E0,0E0,0E0,1.8855542E2,8.800011E0,0E0,0E0,0E0,0E0],"parents":[2147483647,0,0,1,1,3,3,5,5,6,6,7,7,11,11,12,12],"right_children":[2,4,-1,6,-1,8,10,12,-1,-1,-1,14,16,-1,-1,-1,-1],"split_conditions":[5.8795077E-1,1.16693924E2,5.2653635E-1,3.98E-1,-3.827202E-1,4.073E-1,4.4621566E-1,5.000335E-1,3.2844633E-1,7.58189E-2,2.6924286E-2,5.3022266E2,-5.371E0,-4.2728227E-2,-1.1781035E-1,6.8768566E-3,3.5040118E-2],"split_indices":[27,0,0,166,0,165,71,73,0,0,0,19,83,0,0,0,0],"split_type":[0,0,0,0,0,0,0,0,0,0,0,0,0,0,0,0,0],"sum_hessian":[9.2E1,9E1,2E0,8.9E1,1E0,7.1E1,1.8E1,7E1,1E0,1.5E1,3E0,6.2E1,8E0,5.9E1,3E0,2E0,6E0],"tree_param":{"num_deleted":"0","num_feature":"190","num_nodes":"17","size_leaf_vector":"1"}},{"base_weights":[2.9215207E-2,-1.6944046E0,5.230261E-1,-8.6699444E-1,-3.808066E-1,-2.901269E0,6.887467E0,-3.862707E0,3.268041E-1,7.510808E-2,2.6722355E-2,-4.7717357E0,2.9296825E0,-4.2308107E-2,-1.1692675E-1,6.831029E-3,3.473976E-2],"categories":[],"categories_nodes":[],"categories_segments":[],"categories_sizes":[],"default_left":[0,0,0,0,0,0,0,0,0,0,0,0,0,0,0,0,0],"id":6,"left_children":[1,3,-1,5,-1,7,9,11,-1,-1,-1,13,15,-1,-1,-1,-1],"loss_changes":[8.467872E3,2.706663E3,0E0,1.4397058E3,0E0,2.5893245E3,2.9852356E1,4.5236755E2,0E0,0E0,0E0,1.8638428E2,8.632111E0,0E0,0E0,0E0,0E0],"parents":[2147483647,0,0,1,1,3,3,5,5,6,6,7,7,11,11,12,12],"right_children":[2,4,-1,6,-1,8,10,12,-1,-1,-1,14,16,-1,-1,-1,-1],"split_conditions":[5.8795077E-1,1.16693924E2,5.230261E-1,3.98E-1,-3.808066E-1,4.073E-1,4.4621566E-1,5.000335E-1,3.268041E-1,7.510808E-2,2.6722355E-2,5.3022266E2,-5.371E0,-4.2308107E-2,-1.1692675E-1,6.831029E-3,3.473976E-2],"split_indices":[27,0,0,166,0,165,71,73,0,0,0,19,83,0,0,0,0],"split_type":[0,0,0,0,0,0,0,0,0,0,0,0,0,0,0,0,0],"sum_hessian":[9.2E1,9E1,2E0,8.9E1,1E0,7.1E1,1.8E1,7E1,1E0,1.5E1,3E0,6.2E1,8E0,5.9E1,3E0,2E0,6E0],"tree_param":{"num_deleted":"0","num_feature":"190","num_nodes":"17","size_leaf_vector":"1"}},{"base_weights":[3.3793747E-2,-1.6782304E0,5.195393E-1,-8.548717E-1,-3.7890258E-1,-2.8693538E0,6.8239484E0,-3.8257394E0,3.251701E-1,7.440391E-2,2.6521912E-2,-4.7265487E0,2.9050074E0,-4.1892104E-2,-1.1604979E-1,6.785507E-3,3.444202E-2],"categories":[],"categories_nodes":[],"categories_segments":[],"categories_sizes":[],"default_left":[0,0,0,0,0,0,0,0,0,0,0,0,0,0,0,0,0],"id":7,"left_children":[1,3,-1,5,-1,7,9,11,-1,-1,-1,13,15,-1,-1,-1,-1],"loss_changes":[8.353823E3,2.6808184E3,0E0,1.4117765E3,0E0,2.561098E3,2.912799E1,4.4421216E2,0E0,0E0,0E0,1.8423499E2,8.467377E0,0E0,0E0,0E0,0E0],"parents":[2147483647,0,0,1,1,3,3,5,5,6,6,7,7,11,11,12,12],"right_children":[2,4,-1,6,-1,8,10,12,-1,-1,-1,14,16,-1,-1,-1,-1],"split_conditions":[5.8795077E-1,1.16693924E2,5.195393E-1,3.98E-1,-3.7890258E-1,4.073E-1,4.4621566E-1,5.000335E-1,3.251701E-1,7.440391E-2,2.6521912E-2,5.3022266E2,-5.371E0,-4.1892104E-2,-1.1604979E-1,6.785507E-3,3.444202E-2],"split_indices":[27,0,0,166,0,165,71,73,0,0,0,19,83,0,0,0,0],"split_type":[0,0,0,0,0,0,0,0,0,0,0,0,0,0,0,0,0],"sum_hessian":[9.2E1,9E1,2E0,8.9E1,1E0,7.1E1,1.8E1,7E1,1E0,1.5E1,3E0,6.2E1,8E0,5.9E1,3E0,2E0,6E0],"tree_param":{"num_deleted":"0","num_feature":"190","num_nodes":"17","size_leaf_vector":"1"}},{"base_weights":[3.829599E-2,-1.6622108E0,5.160757E-1,-8.428841E-1,-3.7700805E-1,-2.837764E0,6.761023E0,-3.7891247E0,3.2354423E-1,7.370639E-2,2.6323013E-2,-4.681789E0,2.8805406E0,-4.1480158E-2,-1.1517941E-1,8.052063E-4,3.220478E-2],"categories":[],"categories_nodes":[],"categories_segments":[],"categories_sizes":[],"default_left":[0,0,0,0,0,0,0,0,0,0,0,0,0,0,0,0,0],"id":8,"left_children":[1,3,-1,5,-1,7,9,11,-1,-1,-1,13,15,-1,-1,-1,-1],"loss_changes":[8.241314E3,2.6552144E3,0E0,1.3843854E3,0E0,2.5331885E3,2.8420105E1,4.3620404E2,0E0,0E0,0E0,1.8210779E2,8.307175E0,0E0,0E0,0E0,0E0],"parents":[2147483647,0,0,1,1,3,3,5,5,6,6,7,7,11,11,12,12],"right_children":[2,4,-1,6,-1,8,10,12,-1,-1,-1,14,16,-1,-1,-1,-1],"split_conditions":[5.8795077E-1,1.16693924E2,5.160757E-1,3.98E-1,-3.7700805E-1,4.073E-1,4.4621566E-1,5.000335E-1,3.2354423E-1,7.370639E-2,2.6323013E-2,5.3022266E2,2.3180066E-1,-4.1480158E-2,-1.1517941E-1,8.052063E-4,3.220478E-2],"split_indices":[27,0,0,166,0,165,71,73,0,0,0,19,4,0,0,0,0],"split_type":[0,0,0,0,0,0,0,0,0,0,0,0,0,0,0,0,0],"sum_hessian":[9.2E1,9E1,2E0,8.9E1,1E0,7.1E1,1.8E1,7E1,1E0,1.5E1,3E0,6.2E1,8E0,5.9E1,3E0,1E0,7E0],"tree_param":{"num_deleted":"0","num_feature":"190","num_nodes":"17","size_leaf_vector":"1"}},{"base_weights":[4.2633835E-2,-1.6464353E0,5.126352E-1,-8.311223E-1,-3.7512302E-1,-2.8066092E0,6.6986766E0,-3.752974E0,3.219265E-1,7.3015384E-2,2.6125602E-2,-4.637457E0,2.8554034E0,-4.1072264E-2,-1.14315554E-1,6.630249E-3,3.3870794E-2],"categories":[],"categories_nodes":[],"categories_segments":[],"categories_sizes":[],"default_left":[0,0,0,0,0,0,0,0,0,0,0,0,0,0,0,0,0],"id":9,"left_children":[1,3,-1,5,-1,7,9,11,-1,-1,-1,13,15,-1,-1,-1,-1],"loss_changes":[8.1303545E3,2.6298362E3,0E0,1.3575524E3,0E0,2.5056074E3,2.772821E1,4.282367E2,0E0,0E0,0E0,1.8000183E2,8.245003E0,0E0,0E0,0E0,0E0],"parents":[2147483647,0,0,1,1,3,3,5,5,6,6,7,7,11,11,12,12],"right_children":[2,4,-1,6,-1,8,10,12,-1,-1,-1,14,16,-1,-1,-1,-1],"split_conditions":[5.8795077E-1,1.16693924E2,5.126352E-1,3.98E-1,-3.7512302E-1,4.073E-1,4.4621566E-1,5.000335E-1,3.219265E-1,7.3015384E-2,2.6125602E-2,5.3022266E2,-5.371E0,-4.1072264E-2,-1.14315554E-1,6.630249E-3,3.3870794E-2],"split_indices":[27,0,0,166,0,165,71,73,0,0,0,19,83,0,0,0,0],"split_type":[0,0,0,0,0,0,0,0,0,0,0,0,0,0,0,0,0],"sum_hessian":[9.2E1,9E1,2E0,8.9E1,1E0,7.1E1,1.8E1,7E1,1E0,1.5E1,3E0,6.2E1,8E0,5.9E1,3E0,2E0,6E0],"tree_param":{"num_deleted":"0","num_feature":"190","num_nodes":"17","size_leaf_vector":"1"}},{"base_weights":[4.6976604E-2,-1.6307304E0,5.092176E-1,-8.194109E-1,-3.732474E-1,-2.7756705E0,6.63691E0,-3.7170653E0,3.2031685E-1,7.2330885E-2,2.592968E-2,-4.5935516E0,2.8313472E0,-4.0668417E-2,-1.13458164E-1,6.586049E-3,3.358044E-2],"categories":[],"categories_nodes":[],"categories_segments":[],"categories_sizes":[],"default_left":[0,0,0,0,0,0,0,0,0,0,0,0,0,0,0,0,0],"id":10,"left_children":[1,3,-1,5,-1,7,9,11,-1,-1,-1,13,15,-1,-1,-1,-1],"loss_changes":[8.0208677E3,2.6047073E3,0E0,1.3312068E3,0E0,2.4783215E3,2.7052124E1,4.2051733E2,0E0,0E0,0E0,1.7791711E2,8.087769E0,0E0,0E0,0E0,0E0],"parents":[2147483647,0,0,1,1,3,3,5,5,6,6,7,7,11,11,12,12],"right_children":[2,4,-1,6,-1,8,10,12,-1,-1,-1,14,16,-1,-1,-1,-1],"split_conditions":[5.8795077E-1,1.16693924E2,5.092176E-1,3.98E-1,-3.732474E-1,4.073E-1,4.4621566E-1,5.000335E-1,3.2031685E-1,7.2330885E-2,2.592968E-2,5.3022266E2,-5.371E0,-4.0668417E-2,-1.13458164E-1,6.586049E-3,3.358044E-2],"split_indices":[27,0,0,166,0,165,71,73,0,0,0,19,83,0,0,0,0],"split_type":[0,0,0,0,0,0,0,0,0,0,0,0,0,0,0,0,0],"sum_hessian":[9.2E1,9E1,2E0,8.9E1,1E0,7.1E1,1.8E1,7E1,1E0,1.5E1,3E0,6.2E1,8E0,5.9E1,3E0,2E0,6E0],"tree_param":{"num_deleted":"0","num_feature":"190","num_nodes":"17","size_leaf_vector":"1"}},{"base_weights":[5.1241517E-2,-1.6151801E0,5.0582284E-1,-8.078351E-1,-3.713812E-1,-2.7450504E0,6.5757093E0,-3.6815026E0,3.1871524E-1,7.165275E-2,2.5735186E-2,-4.5500665E0,2.8074994E0,-4.0268544E-2,-1.1260724E-1,7.3509215E-4,3.1400595E-2],"categories":[],"categories_nodes":[],"categories_segments":[],"categories_sizes":[],"default_left":[0,0,0,0,0,0,0,0,0,0,0,0,0,0,0,0,0],"id":11,"left_children":[1,3,-1,5,-1,7,9,11,-1,-1,-1,13,15,-1,-1,-1,-1],"loss_changes":[7.9128604E3,2.5798123E3,0E0,1.3053672E3,0E0,2.451342E3,2.6391602E1,4.1293823E2,0E0,0E0,0E0,1.7585364E2,7.9521255E0,0E0,0E0,0E0,0E0],"parents":[2147483647,0,0,1,1,3,3,5,5,6,6,7,7,11,11,12,12],"right_children":[2,4,-1,6,-1,8,10,12,-1,-1,-1,14,16,-1,-1,-1,-1],"split_conditions":[5.8795077E-1,1.16693924E2,5.0582284E-1,3.98E-1,-3.713812E-1,4.073E-1,4.4621566E-1,5.000335E-1,3.1871524E-1,7.165275E-2,2.5735186E-2,5.3022266E2,2.3180066E-1,-4.0268544E-2,-1.1260724E-1,7.3509215E-4,3.1400595E-2],"split_indices":[27,0,0,166,0,165,71,73,0,0,0,19,4,0,0,0,0],"split_type":[0,0,0,0,0,0,0,0,0,0,0,0,0,0,0,0,0],"sum_hessian":[9.2E1,9E1,2E0,8.9E1,1E0,7.1E1,1.8E1,7E1,1E0,1.5E1,3E0,6.2E1,8E0,5.9E1,3E0,1E0,7E0],"tree_param":{"num_deleted":"0","num_feature":"190","num_nodes":"17","size_leaf_vector":"1"}},{"base_weights":[5.5349905E-2,-1.5998645E0,5.024507E-1,-7.9647577E-1,-3.6952427E-1,-2.714851E0,6.515076E0,-3.6463888E0,3.1712165E-1,7.0980983E0,2.5542183E-2,-4.506993E0,2.7829938E0,7.2906E-2,2.1052856E-2,-3.987258E-2,-1.11762665E-1,6.4350385E-3,3.3023473E-2],"categories":[],"categories_nodes":[],"categories_segments":[],"categories_sizes":[],"default_left":[0,0,0,0,0,0,0,0,0,0,0,0,0,0,0,0,0,0,0],"id":12,"left_children":[1,3,-1,5,-1,7,9,11,-1,13,-1,15,17,-1,-1,-1,-1,-1,-1],"loss_changes":[7.8063374E3,2.5551367E3,0E0,1.2800543E3,0E0,2.4246797E3,2.5746033E1,4.0539667E2,0E0,2.923584E-2,0E0,1.738114E2,7.8752975E0,0E0,0E0,0E0,0E0,0E0,0E0],"parents":[2147483647,0,0,1,1,3,3,5,5,6,6,7,7,9,9,11,11,12,12],"right_children":[2,4,-1,6,-1,8,10,12,-1,14,-1,16,18,-1,-1,-1,-1,-1,-1],"split_conditions":[5.8795077E-1,1.16693924E2,5.024507E-1,3.98E-1,-3.6952427E-1,4.073E-1,4.4621566E-1,5.000335E-1,3.1712165E-1,1.9994427E-1,2.5542183E-2,5.3022266E2,-5.371E0,7.2906E-2,2.1052856E-2,-3.987258E-2,-1.11762665E-1,6.4350385E-3,3.3023473E-2],"split_indices":[27,0,0,166,0,165,71,73,0,5,0,19,83,0,0,0,0,0,0],"split_type":[0,0,0,0,0,0,0,0,0,0,0,0,0,0,0,0,0,0,0],"sum_hessian":[9.2E1,9E1,2E0,8.9E1,1E0,7.1E1,1.8E1,7E1,1E0,1.5E1,3E0,6.2E1,8E0,1.4E1,1E0,5.9E1,3E0,2E0,6E0],"tree_param":{"num_deleted":"0","num_feature":"190","num_nodes":"19","size_leaf_vector":"1"}},{"base_weights":[5.9713755E-2,-1.5843619E0,4.9910104E-1,-7.8490674E-1,-3.6767665E-1,-2.6848567E0,6.4562144E0,-3.6115055E0,3.1553602E-1,7.03299E-2,2.5350608E-2,-4.464331E0,2.759551E0,-3.948051E-2,-1.10924445E-1,6.392161E-3,3.2740444E-2],"categories":[],"categories_nodes":[],"categories_segments":[],"categories_sizes":[],"default_left":[0,0,0,0,0,0,0,0,0,0,0,0,0,0,0,0,0],"id":13,"left_children":[1,3,-1,5,-1,7,9,11,-1,-1,-1,13,15,-1,-1,-1,-1],"loss_changes":[7.701153E3,2.530741E3,0E0,1.2555332E3,0E0,2.398302E3,2.5141724E1,3.9809094E2,0E0,0E0,0E0,1.7179004E2,7.7252655E0,0E0,0E0,0E0,0E0],"parents":[2147483647,0,0,1,1,3,3,5,5,6,6,7,7,11,11,12,12],"right_children":[2,4,-1,6,-1,8,10,12,-1,-1,-1,14,16,-1,-1,-1,-1],"split_conditions":[5.8795077E-1,1.16693924E2,4.9910104E-1,3.98E-1,-3.6767665E-1,4.073E-1,4.4621566E-1,5.000335E-1,3.1553602E-1,7.03299E-2,2.5350608E-2,5.3022266E2,-5.371E0,-3.948051E-2,-1.10924445E-1,6.392161E-3,3.2740444E-2],"split_indices":[27,0,0,166,0,165,71,73,0,0,0,19,83,0,0,0,0],"split_type":[0,0,0,0,0,0,0,0,0,0,0,0,0,0,0,0,0],"sum_hessian":[9.2E1,9E1,2E0,8.9E1,1E0,7.1E1,1.8E1,7E1,1E0,1.5E1,3E0,6.2E1,8E0,5.9E1,3E0,2E0,6E0],"tree_param":{"num_deleted":"0","num_feature":"190","num_nodes":"17","size_leaf_vector":"1"}},{"base_weights":[6.375643E-2,-1.5692612E0,4.9577373E-1,-7.737235E-1,-3.6583826E-1,-2.6551697E0,6.3966894E0,-3.576956E0,3.1395835E-1,6.967057E0,2.5160465E-2,-4.4220734E0,2.7363052E0,8.31282E-2,4.9967058E-2,-3.909227E-2,-1.1009251E-1,6.6730496E-4,3.0616608E-2],"categories":[],"categories_nodes":[],"categories_segments":[],"categories_sizes":[],"default_left":[0,0,0,0,0,0,0,0,0,0,0,0,0,0,0,0,0,0,0],"id":14,"left_children":[1,3,-1,5,-1,7,9,11,-1,13,-1,15,17,-1,-1,-1,-1,-1,-1],"loss_changes":[7.5974644E3,2.5065366E3,0E0,1.2311515E3,0E0,2.37222E3,2.4525024E1,3.9091705E2,0E0,8.892822E-1,0E0,1.6978967E2,7.6127396E0,0E0,0E0,0E0,0E0,0E0,0E0],"parents":[2147483647,0,0,1,1,3,3,5,5,6,6,7,7,9,9,11,11,12,12],"right_children":[2,4,-1,6,-1,8,10,12,-1,14,-1,16,18,-1,-1,-1,-1,-1,-1],"split_conditions":[5.8795077E-1,1.16693924E2,4.9577373E-1,3.98E-1,-3.6583826E-1,4.073E-1,4.4621566E-1,5.000335E-1,3.1395835E-1,4.186423E-1,2.5160465E-2,5.3022266E2,2.3180066E-1,8.31282E-2,4.9967058E-2,-3.909227E-2,-1.1009251E-1,6.6730496E-4,3.0616608E-2],"split_indices":[27,0,0,166,0,165,71,73,0,13,0,19,4,0,0,0,0,0,0],"split_type":[0,0,0,0,0,0,0,0,0,0,0,0,0,0,0,0,0,0,0],"sum_hessian":[9.2E1,9E1,2E0,8.9E1,1E0,7.1E1,1.8E1,7E1,1E0,1.5E1,3E0,6.2E1,8E0,7E0,8E0,5.9E1,3E0,1E0,7E0],"tree_param":{"num_deleted":"0","num_feature":"190","num_nodes":"19","size_leaf_vector":"1"}},{"base_weights":[6.8326354E-2,-1.5536947E0,4.9246857E-1,-7.620489E-1,-3.6400908E-1,-2.6258943E0,6.341052E0,-3.5428464E0,3.1238857E-1,6.9057055E0,2.4971751E-2,-4.38022E0,2.7124186E0,8.240081E-2,4.9522925E-2,-3.8707856E-2,-1.09266825E-1,6.2452694E-3,3.2197405E-2],"categories":[],"categories_nodes":[],"categories_segments":[],"categories_sizes":[],"default_left":[0,0,0,0,0,0,0,0,0,0,0,0,0,0,0,0,0,0,0],"id":15,"left_children":[1,3,-1,5,-1,7,9,11,-1,13,-1,15,17,-1,-1,-1,-1,-1,-1],"loss_changes":[7.4949956E3,2.482646E3,0E0,1.2081683E3,0E0,2.3464443E3,2.3993958E1,3.837787E2,0E0,8.981323E-1,0E0,1.6780981E2,7.522293E0,0E0,0E0,0E0,0E0,0E0,0E0],"parents":[2147483647,0,0,1,1,3,3,5,5,6,6,7,7,9,9,11,11,12,12],"right_children":[2,4,-1,6,-1,8,10,12,-1,14,-1,16,18,-1,-1,-1,-1,-1,-1],"split_conditions":[5.8795077E-1,1.16693924E2,4.9246857E-1,3.98E-1,-3.6400908E-1,4.073E-1,4.4621566E-1,5.000335E-1,3.1238857E-1,4.186423E-1,2.4971751E-2,5.3022266E2,-5.371E0,8.240081E-2,4.9522925E-2,-3.8707856E-2,-1.09266825E-1,6.2452694E-3,3.2197405E-2],"split_indices":[27,0,0,166,0,165,71,73,0,13,0,19,83,0,0,0,0,0,0],"split_type":[0,0,0,0,0,0,0,0,0,0,0,0,0,0,0,0,0,0,0],"sum_hessian":[9.2E1,9E1,2E0,8.9E1,1E0,7.1E1,1.8E1,7E1,1E0,1.5E1,3E0,6.2E1,8E0,7E0,8E0,5.9E1,3E0,2E0,6E0],"tree_param":{"num_deleted":"0","num_feature":"190","num_nodes":"19","size_leaf_vector":"1"}},{"base_weights":[7.289538E-2,-1.5382018E0,4.8918542E-1,-7.504283E-1,-3.6218905E-1,-2.5968146E0,6.2859006E0,-3.5089576E0,3.1082663E-1,6.8448954E0,2.478447E-2,-4.338763E0,2.689566E0,8.1679836E-2,4.9082726E-2,-3.832719E-2,-1.0844731E-1,6.327438E-4,3.009943E-2],"categories":[],"categories_nodes":[],"categories_segments":[],"categories_sizes":[],"default_left":[0,0,0,0,0,0,0,0,0,0,0,0,0,0,0,0,0,0,0],"id":16,"left_children":[1,3,-1,5,-1,7,9,11,-1,13,-1,15,17,-1,-1,-1,-1,-1,-1],"loss_changes":[7.3938896E3,2.4589893E3,0E0,1.1855837E3,0E0,2.3209436E3,2.3473877E1,3.768628E2,0E0,9.0649414E-1,0E0,1.6585059E2,7.382187E0,0E0,0E0,0E0,0E0,0E0,0E0],"parents":[2147483647,0,0,1,1,3,3,5,5,6,6,7,7,9,9,11,11,12,12],"right_children":[2,4,-1,6,-1,8,10,12,-1,14,-1,16,18,-1,-1,-1,-1,-1,-1],"split_conditions":[5.8795077E-1,1.16693924E2,4.8918542E-1,3.98E-1,-3.6218905E-1,4.073E-1,4.4621566E-1,5.000335E-1,3.1082663E-1,4.186423E-1,2.478447E-2,5.3022266E2,2.3180066E-1,8.1679836E-2,4.9082726E-2,-3.832719E-2,-1.0844731E-1,6.327438E-4,3.009943E-2],"split_indices":[27,0,0,166,0,165,71,73,0,13,0,19,4,0,0,0,0,0,0],"split_type":[0,0,0,0,0,0,0,0,0,0,0,0,0,0,0,0,0,0,0],"sum_hessian":[9.2E1,9E1,2E0,8.9E1,1E0,7.1E1,1.8E1,7E1,1E0,1.5E1,3E0,6.2E1,8E0,7E0,8E0,5.9E1,3E0,1E0,7E0],"tree_param":{"num_deleted":"0","num_feature":"190","num_nodes":"19","size_leaf_vector":"1"}},{"base_weights":[7.730082E-2,-1.5229481E0,4.8592418E-1,-7.3902947E-1,-3.6037812E-1,-2.5681388E0,6.231229E0,-3.4755E0,3.092725E-1,6.7846203E0,2.459856E-2,-4.297703E0,2.666086E0,8.096514E-2,4.8646457E-2,-3.7950277E-2,-1.0763398E-1,6.101176E-3,3.166346E-2],"categories":[],"categories_nodes":[],"categories_segments":[],"categories_sizes":[],"default_left":[0,0,0,0,0,0,0,0,0,0,0,0,0,0,0,0,0,0,0],"id":17,"left_children":[1,3,-1,5,-1,7,9,11,-1,13,-1,15,17,-1,-1,-1,-1,-1,-1],"loss_changes":[7.294177E3,2.4355398E3,0E0,1.1634456E3,0E0,2.2957415E3,2.296466E1,3.6998187E2,0E0,9.141846E-1,0E0,1.639115E2,7.324829E0,0E0,0E0,0E0,0E0,0E0,0E0],"parents":[2147483647,0,0,1,1,3,3,5,5,6,6,7,7,9,9,11,11,12,12],"right_children":[2,4,-1,6,-1,8,10,12,-1,14,-1,16,18,-1,-1,-1,-1,-1,-1],"split_conditions":[5.8795077E-1,1.16693924E2,4.8592418E-1,3.98E-1,-3.6037812E-1,4.073E-1,4.4621566E-1,5.000335E-1,3.092725E-1,4.186423E-1,2.459856E-2,5.3022266E2,-5.371E0,8.096514E-2,4.8646457E-2,-3.7950277E-2,-1.0763398E-1,6.101176E-3,3.166346E-2],"split_indices":[27,0,0,166,0,165,71,73,0,13,0,19,83,0,0,0,0,0,0],"split_type":[0,0,0,0,0,0,0,0,0,0,0,0,0,0,0,0,0,0,0],"sum_hessian":[9.2E1,9E1,2E0,8.9E1,1E0,7.1E1,1.8E1,7E1,1E0,1.5E1,3E0,6.2E1,8E0,7E0,8E0,5.9E1,3E0,2E0,6E0],"tree_param":{"num_deleted":"0","num_feature":"190","num_nodes":"19","size_leaf_vector":"1"}},{"base_weights":[8.170142E-2,-1.5077711E0,4.8268467E-1,-7.276881E-1,-3.5857624E-1,-2.539661E0,6.1770344E0,-3.4422648E0,3.0772611E-1,6.7248764E0,2.4414081E-2,-4.257038E0,2.6436217E0,8.025671E-2,4.821406E-2,-3.757712E-2,-1.06826715E-1,6.0604857E-3,3.139207E-2],"categories":[],"categories_nodes":[],"categories_segments":[],"categories_sizes":[],"default_left":[0,0,0,0,0,0,0,0,0,0,0,0,0,0,0,0,0,0,0],"id":18,"left_children":[1,3,-1,5,-1,7,9,11,-1,13,-1,15,17,-1,-1,-1,-1,-1,-1],"loss_changes":[7.1957915E3,2.412319E3,0E0,1.1416929E3,0E0,2.2708086E3,2.2465942E1,3.6331586E2,0E0,9.213867E-1,0E0,1.6199243E2,7.185608E0,0E0,0E0,0E0,0E0,0E0,0E0],"parents":[2147483647,0,0,1,1,3,3,5,5,6,6,7,7,9,9,11,11,12,12],"right_children":[2,4,-1,6,-1,8,10,12,-1,14,-1,16,18,-1,-1,-1,-1,-1,-1],"split_conditions":[5.8795077E-1,1.16693924E2,4.8268467E-1,3.98E-1,-3.5857624E-1,4.073E-1,4.4621566E-1,5.000335E-1,3.0772611E-1,4.186423E-1,2.4414081E-2,5.3022266E2,-5.371E0,8.025671E-2,4.821406E-2,-3.757712E-2,-1.06826715E-1,6.0604857E-3,3.139207E-2],"split_indices":[27,0,0,166,0,165,71,73,0,13,0,19,83,0,0,0,0,0,0],"split_type":[0,0,0,0,0,0,0,0,0,0,0,0,0,0,0,0,0,0,0],"sum_hessian":[9.2E1,9E1,2E0,8.9E1,1E0,7.1E1,1.8E1,7E1,1E0,1.5E1,3E0,6.2E1,8E0,7E0,8E0,5.9E1,3E0,2E0,6E0],"tree_param":{"num_deleted":"0","num_feature":"190","num_nodes":"19","size_leaf_vector":"1"}},{"base_weights":[8.602007E-2,-1.4927492E0,4.794668E-1,-7.1648335E-1,-3.5678336E-1,-2.5114777E0,6.12331E0,-3.4093506E0,3.061875E-1,6.6656566E0,2.4230976E-2,-4.216762E0,2.6213455E0,7.955449E-2,4.7785457E-2,-3.7207633E-2,-1.0602551E-1,5.687713E-4,2.9347943E-2],"categories":[],"categories_nodes":[],"categories_segments":[],"categories_sizes":[],"default_left":[0,0,0,0,0,0,0,0,0,0,0,0,0,0,0,0,0,0,0],"id":19,"left_children":[1,3,-1,5,-1,7,9,11,-1,13,-1,15,17,-1,-1,-1,-1,-1,-1],"loss_changes":[7.0987397E3,2.3893135E3,0E0,1.1203438E3,0E0,2.2461553E3,2.19776E1,3.5677057E2,0E0,9.2822266E-1,0E0,1.6009314E2,7.067543E0,0E0,0E0,0E0,0E0,0E0,0E0],"parents":[2147483647,0,0,1,1,3,3,5,5,6,6,7,7,9,9,11,11,12,12],"right_children":[2,4,-1,6,-1,8,10,12,-1,14,-1,16,18,-1,-1,-1,-1,-1,-1],"split_conditions":[5.8795077E-1,1.16693924E2,4.794668E-1,3.98E-1,-3.5678336E-1,4.073E-1,4.4621566E-1,5.000335E-1,3.061875E-1,4.186423E-1,2.4230976E-2,5.3022266E2,2.3180066E-1,7.955449E-2,4.7785457E-2,-3.7207633E-2,-1.0602551E-1,5.687713E-4,2.9347943E-2],"split_indices":[27,0,0,166,0,165,71,73,0,13,0,19,4,0,0,0,0,0,0],"split_type":[0,0,0,0,0,0,0,0,0,0,0,0,0,0,0,0,0,0,0],"sum_hessian":[9.2E1,9E1,2E0,8.9E1,1E0,7.1E1,1.8E1,7E1,1E0,1.5E1,3E0,6.2E1,8E0,7E0,8E0,5.9E1,3E0,1E0,7E0],"tree_param":{"num_deleted":"0","num_feature":"190","num_nodes":"19","size_leaf_vector":"1"}},{"base_weights":[9.018342E-2,-1.4779565E0,4.7627032E-1,-7.054906E-1,-3.5499945E-1,-2.4836838E0,6.070057E0,-3.3768528E0,3.0465657E-1,6.6069613E0,2.4049243E-2,-4.176867E0,2.598454E0,7.885841E-2,4.736072E-2,-3.684175E-2,-1.0523032E-1,5.9203594E-3,3.0871395E-2],"categories":[],"categories_nodes":[],"categories_segments":[],"categories_sizes":[],"default_left":[0,0,0,0,0,0,0,0,0,0,0,0,0,0,0,0,0,0,0],"id":20,"left_children":[1,3,-1,5,-1,7,9,11,-1,13,-1,15,17,-1,-1,-1,-1,-1,-1],"loss_changes":[7.0030234E3,2.3665105E3,0E0,1.099417E3,0E0,2.2217896E3,2.149945E1,3.5025696E2,0E0,9.343872E-1,0E0,1.5821387E2,6.9968834E0,0E0,0E0,0E0,0E0,0E0,0E0],"parents":[2147483647,0,0,1,1,3,3,5,5,6,6,7,7,9,9,11,11,12,12],"right_children":[2,4,-1,6,-1,8,10,12,-1,14,-1,16,18,-1,-1,-1,-1,-1,-1],"split_conditions":[5.8795077E-1,1.16693924E2,4.7627032E-1,3.98E-1,-3.5499945E-1,4.073E-1,4.4621566E-1,5.000335E-1,3.0465657E-1,4.186423E-1,2.4049243E-2,5.3022266E2,-5.371E0,7.885841E-2,4.736072E-2,-3.684175E-2,-1.0523032E-1,5.9203594E-3,3.0871395E-2],"split_indices":[27,0,0,166,0,165,71,73,0,13,0,19,83,0,0,0,0,0,0],"split_type":[0,0,0,0,0,0,0,0,0,0,0,0,0,0,0,0,0,0,0],"sum_hessian":[9.2E1,9E1,2E0,8.9E1,1E0,7.1E1,1.8E1,7E1,1E0,1.5E1,3E0,6.2E1,8E0,7E0,8E0,5.9E1,3E0,2E0,6E0],"tree_param":{"num_deleted":"0","num_feature":"190","num_nodes":"19","size_leaf_vector":"1"}},{"base_weights":[9.434563E-2,-1.4632354E0,4.730952E-1,-6.945502E-1,-3.532245E-1,-2.456077E0,6.0172644E0,-3.344566E0,3.0313328E-1,6.5487795E0,2.3868885E-2,-4.137353E0,2.5765593E0,6.733457E-2,1.889309E-2,-3.6479466E-2,-1.0444108E-1,5.88089E-3,3.0606808E-2],"categories":[],"categories_nodes":[],"categories_segments":[],"categories_sizes":[],"default_left":[0,0,0,0,0,0,0,0,0,0,0,0,0,0,0,0,0,0,0],"id":21,"left_children":[1,3,-1,5,-1,7,9,11,-1,13,-1,15,17,-1,-1,-1,-1,-1,-1],"loss_changes":[6.9085806E3,2.3439307E3,0E0,1.0788525E3,0E0,2.1976836E3,2.1031189E1,3.4394775E2,0E0,1.0463867E0,0E0,1.5635413E2,6.864002E0,0E0,0E0,0E0,0E0,0E0,0E0],"parents":[2147483647,0,0,1,1,3,3,5,5,6,6,7,7,9,9,11,11,12,12],"right_children":[2,4,-1,6,-1,8,10,12,-1,14,-1,16,18,-1,-1,-1,-1,-1,-1],"split_conditions":[5.8795077E-1,1.16693924E2,4.730952E-1,3.98E-1,-3.532245E-1,4.073E-1,4.4621566E-1,5.000335E-1,3.0313328E-1,1.9994427E-1,2.3868885E-2,5.3022266E2,-5.371E0,6.733457E-2,1.889309E-2,-3.6479466E-2,-1.0444108E-1,5.88089E-3,3.0606808E-2],"split_indices":[27,0,0,166,0,165,71,73,0,5,0,19,83,0,0,0,0,0,0],"split_type":[0,0,0,0,0,0,0,0,0,0,0,0,0,0,0,0,0,0,0],"sum_hessian":[9.2E1,9E1,2E0,8.9E1,1E0,7.1E1,1.8E1,7E1,1E0,1.5E1,3E0,6.2E1,8E0,1.4E1,1E0,5.9E1,3E0,2E0,6E0],"tree_param":{"num_deleted":"0","num_feature":"190","num_nodes":"19","size_leaf_vector":"1"}},{"base_weights":[9.800864E-2,-1.449094E0,4.699412E-1,-6.841765E-1,-3.5145834E-1,-2.4287596E0,5.9628844E0,-3.3125944E0,3.0161762E-1,6.488679E0,2.3689842E-2,-4.0982194E0,2.554846E0,7.757921E-2,4.6394993E-2,-3.6120784E-2,-1.0365779E-1,5.0689693E-4,2.8615292E-2],"categories":[],"categories_nodes":[],"categories_segments":[],"categories_sizes":[],"default_left":[0,0,0,0,0,0,0,0,0,0,0,0,0,0,0,0,0,0,0],"id":22,"left_children":[1,3,-1,5,-1,7,9,11,-1,13,-1,15,17,-1,-1,-1,-1,-1,-1],"loss_changes":[6.8155366E3,2.3214998E3,0E0,1.0581538E3,0E0,2.1738481E3,2.053186E1,3.3775256E2,0E0,1.5599976E0,0E0,1.545138E2,6.7668037E0,0E0,0E0,0E0,0E0,0E0,0E0],"parents":[2147483647,0,0,1,1,3,3,5,5,6,6,7,7,9,9,11,11,12,12],"right_children":[2,4,-1,6,-1,8,10,12,-1,14,-1,16,18,-1,-1,-1,-1,-1,-1],"split_conditions":[5.8795077E-1,1.16693924E2,4.699412E-1,3.98E-1,-3.5145834E-1,4.073E-1,4.4621566E-1,5.000335E-1,3.0161762E-1,4.186423E-1,2.3689842E-2,5.3022266E2,2.3180066E-1,7.757921E-2,4.6394993E-2,-3.6120784E-2,-1.0365779E-1,5.0689693E-4,2.8615292E-2],"split_indices":[27,0,0,166,0,165,71,73,0,13,0,19,4,0,0,0,0,0,0],"split_type":[0,0,0,0,0,0,0,0,0,0,0,0,0,0,0,0,0,0,0],"sum_hessian":[9.2E1,9E1,2E0,8.9E1,1E0,7.1E1,1.8E1,7E1,1E0,1.5E1,3E0,6.2E1,8E0,7E0,8E0,5.9E1,3E0,1E0,7E0],"tree_param":{"num_deleted":"0","num_feature":"190","num_nodes":"19","size_leaf_vector":"1"}},{"base_weights":[1.01941876E-1,-1.434746E0,4.6680826E-1,-6.735741E-1,-3.4970108E-1,-2.4018226E0,5.911029E0,-3.28103E0,3.001095E-1,4.670692E0,8.449834E-2,-4.0594587E0,2.5325317E0,1.0224266E-2,4.858252E0,-3.576563E-2,-1.0288033E-1,5.744603E-3,3.0099148E-2,1.3836784E-2,5.0190896E-2],"categories":[],"categories_nodes":[],"categories_segments":[],"categories_sizes":[],"default_left":[0,0,0,0,0,0,0,0,0,0,0,0,0,0,0,0,0,0,0,0,0],"id":23,"left_children":[1,3,-1,5,-1,7,9,11,-1,13,-1,15,17,-1,19,-1,-1,-1,-1,-1,-1],"loss_changes":[6.723656E3,2.299327E3,0E0,1.038382E3,0E0,2.1502905E3,2.0363892E1,3.315874E2,0E0,5.2968445E0,0E0,1.5269275E2,6.6836815E0,0E0,8.790283E-1,0E0,0E0,0E0,0E0,0E0,0E0],"parents":[2147483647,0,0,1,1,3,3,5,5,6,6,7,7,9,9,11,11,12,12,14,14],"right_children":[2,4,-1,6,-1,8,10,12,-1,14,-1,16,18,-1,20,-1,-1,-1,-1,-1,-1],"split_conditions":[5.8795077E-1,1.16693924E2,4.6680826E-1,3.98E-1,-3.4970108E-1,4.073E-1,5.300613E2,5.000335E-1,3.001095E-1,1.9688922E-1,8.449834E-2,5.3022266E2,-5.371E0,1.0224266E-2,1.4777488E-1,-3.576563E-2,-1.0288033E-1,5.744603E-3,3.0099148E-2,1.3836784E-2,5.0190896E-2],"split_indices":[27,0,0,166,0,165,15,73,0,8,0,19,83,0,5,0,0,0,0,0,0],"split_type":[0,0,0,0,0,0,0,0,0,0,0,0,0,0,0,0,0,0,0,0,0],"sum_hessian":[9.2E1,9E1,2E0,8.9E1,1E0,7.1E1,1.8E1,7E1,1E0,1.4E1,4E0,6.2E1,8E0,1E0,1.3E1,5.9E1,3E0,2E0,6E0,1E0,1.2E1],"tree_param":{"num_deleted":"0","num_feature":"190","num_nodes":"21","size_leaf_vector":"1"}},{"base_weights":[1.0601081E-1,-1.4203283E0,4.6369624E-1,-6.628817E-1,-3.4795257E-1,-2.375063E0,5.8602724E0,-3.2496665E0,2.9860896E-1,4.6289325E0,8.382237E-2,-4.021064E0,2.5111897E0,1.01731485E-2,4.81424E0,-3.541392E-2,-1.0210872E-1,4.7565458E-4,2.8131971E-2,1.3767585E-2,4.9727574E-2],"categories":[],"categories_nodes":[],"categories_segments":[],"categories_sizes":[],"default_left":[0,0,0,0,0,0,0,0,0,0,0,0,0,0,0,0,0,0,0,0,0],"id":24,"left_children":[1,3,-1,5,-1,7,9,11,-1,13,-1,15,17,-1,19,-1,-1,-1,-1,-1,-1],"loss_changes":[6.632958E3,2.27739E3,0E0,1.0191124E3,0E0,2.1269834E3,2.0201782E1,3.256153E2,0E0,5.1412964E0,0E0,1.5089111E2,6.5624847E0,0E0,7.822876E-1,0E0,0E0,0E0,0E0,0E0,0E0],"parents":[2147483647,0,0,1,1,3,3,5,5,6,6,7,7,9,9,11,11,12,12,14,14],"right_children":[2,4,-1,6,-1,8,10,12,-1,14,-1,16,18,-1,20,-1,-1,-1,-1,-1,-1],"split_conditions":[5.8795077E-1,1.16693924E2,4.6369624E-1,3.98E-1,-3.4795257E-1,4.073E-1,5.300613E2,5.000335E-1,2.9860896E-1,1.9688922E-1,8.382237E-2,5.3022266E2,2.3180066E-1,1.01731485E-2,1.4777488E-1,-3.541392E-2,-1.0210872E-1,4.7565458E-4,2.8131971E-2,1.3767585E-2,4.9727574E-2],"split_indices":[27,0,0,166,0,165,15,73,0,8,0,19,4,0,5,0,0,0,0,0,0],"split_type":[0,0,0,0,0,0,0,0,0,0,0,0,0,0,0,0,0,0,0,0,0],"sum_hessian":[9.2E1,9E1,2E0,8.9E1,1E0,7.1E1,1.8E1,7E1,1E0,1.4E1,4E0,6.2E1,8E0,1E0,1.3E1,5.9E1,3E0,1E0,7E0,1E0,1.2E1],"tree_param":{"num_deleted":"0","num_feature":"190","num_nodes":"21","size_leaf_vector":"1"}},{"base_weights":[1.0992961E-1,-1.4061321E0,4.6060488E-1,-6.52394E-1,-3.462128E-1,-2.3486757E0,5.809958E0,-3.218702E0,2.9711592E-1,4.587554E0,8.315178E-2,-3.9830344E0,2.4892588E0,1.0122299E-2,4.7706323E0,-3.506567E-2,-1.0134288E-1,5.610962E-3,2.9600054E-2,1.3698731E-2,4.926854E-2],"categories":[],"categories_nodes":[],"categories_segments":[],"categories_sizes":[],"default_left":[0,0,0,0,0,0,0,0,0,0,0,0,0,0,0,0,0,0,0,0,0],"id":25,"left_children":[1,3,-1,5,-1,7,9,11,-1,13,-1,15,17,-1,19,-1,-1,-1,-1,-1,-1],"loss_changes":[6.5435083E3,2.255646E3,0E0,1.0002231E3,0E0,2.1039487E3,2.0039124E1,3.1967218E2,0E0,4.9895325E0,0E0,1.491084E2,6.5082474E0,0E0,6.886902E-1,0E0,0E0,0E0,0E0,0E0,0E0],"parents":[2147483647,0,0,1,1,3,3,5,5,6,6,7,7,9,9,11,11,12,12,14,14],"right_children":[2,4,-1,6,-1,8,10,12,-1,14,-1,16,18,-1,20,-1,-1,-1,-1,-1,-1],"split_conditions":[5.8795077E-1,1.16693924E2,4.6060488E-1,3.98E-1,-3.462128E-1,4.073E-1,5.300613E2,5.000335E-1,2.9711592E-1,1.9688922E-1,8.315178E-2,5.3022266E2,-5.371E0,1.0122299E-2,1.4777488E-1,-3.506567E-2,-1.0134288E-1,5.610962E-3,2.9600054E-2,1.3698731E-2,4.926854E-2],"split_indices":[27,0,0,166,0,165,15,73,0,8,0,19,83,0,5,0,0,0,0,0,0],"split_type":[0,0,0,0,0,0,0,0,0,0,0,0,0,0,0,0,0,0,0,0,0],"sum_hessian":[9.2E1,9E1,2E0,8.9E1,1E0,7.1E1,1.8E1,7E1,1E0,1.4E1,4E0,6.2E1,8E0,1E0,1.3E1,5.9E1,3E0,2E0,6E0,1E0,1.2E1],"tree_param":{"num_deleted":"0","num_feature":"190","num_nodes":"21","size_leaf_vector":"1"}},{"base_weights":[1.1384595E-1,-1.3920065E0,4.575342E-1,-6.419583E-1,-3.4448174E-1,-2.322469E0,5.76008E0,-3.1879413E0,2.9563034E-1,4.546549E0,8.2486555E-2,-3.9453704E0,2.468278E0,1.0071678E-2,4.7274213E0,-3.4720864E-2,-1.00582816E-1,5.5735777E-3,2.9346325E-2,1.3630218E-2,4.8813734E-2],"categories":[],"categories_nodes":[],"categories_segments":[],"categories_sizes":[],"default_left":[0,0,0,0,0,0,0,0,0,0,0,0,0,0,0,0,0,0,0,0,0],"id":26,"left_children":[1,3,-1,5,-1,7,9,11,-1,13,-1,15,17,-1,19,-1,-1,-1,-1,-1,-1],"loss_changes":[6.4552505E3,2.234114E3,0E0,9.816599E2,0E0,2.0811587E3,1.9876404E1,3.1391547E2,0E0,4.8413696E0,0E0,1.4734473E2,6.384857E0,0E0,5.9799194E-1,0E0,0E0,0E0,0E0,0E0,0E0],"parents":[2147483647,0,0,1,1,3,3,5,5,6,6,7,7,9,9,11,11,12,12,14,14],"right_children":[2,4,-1,6,-1,8,10,12,-1,14,-1,16,18,-1,20,-1,-1,-1,-1,-1,-1],"split_conditions":[5.8795077E-1,1.16693924E2,4.575342E-1,3.98E-1,-3.4448174E-1,4.073E-1,5.300613E2,5.000335E-1,2.9563034E-1,1.9688922E-1,8.2486555E-2,5.3022266E2,-5.371E0,1.0071678E-2,1.4777488E-1,-3.4720864E-2,-1.00582816E-1,5.5735777E-3,2.9346325E-2,1.3630218E-2,4.8813734E-2],"split_indices":[27,0,0,166,0,165,15,73,0,8,0,19,83,0,5,0,0,0,0,0,0],"split_type":[0,0,0,0,0,0,0,0,0,0,0,0,0,0,0,0,0,0,0,0,0],"sum_hessian":[9.2E1,9E1,2E0,8.9E1,1E0,7.1E1,1.8E1,7E1,1E0,1.4E1,4E0,6.2E1,8E0,1E0,1.3E1,5.9E1,3E0,2E0,6E0,1E0,1.2E1],"tree_param":{"num_deleted":"0","num_feature":"190","num_nodes":"21","size_leaf_vector":"1"}},{"base_weights":[1.17689766E-1,-1.3780226E0,4.54484E-1,-6.316465E-1,-3.427593E-1,-2.2965317E0,5.7106366E0,-3.157475E0,2.9415217E-1,4.5059185E0,8.182665E-2,-3.9080637E0,2.4474766E0,1.0021324E-2,4.684608E0,-3.4379438E-2,-9.982842E-2,4.17366E-4,2.742977E-2,1.356205E-2,4.8363157E-2],"categories":[],"categories_nodes":[],"categories_segments":[],"categories_sizes":[],"default_left":[0,0,0,0,0,0,0,0,0,0,0,0,0,0,0,0,0,0,0,0,0],"id":27,"left_children":[1,3,-1,5,-1,7,9,11,-1,13,-1,15,17,-1,19,-1,-1,-1,-1,-1,-1],"loss_changes":[6.3681875E3,2.2127827E3,0E0,9.634403E2,0E0,2.058623E3,1.971344E1,3.0826288E2,0E0,4.6967773E0,0E0,1.4559955E2,6.2835884E0,0E0,5.101929E-1,0E0,0E0,0E0,0E0,0E0,0E0],"parents":[2147483647,0,0,1,1,3,3,5,5,6,6,7,7,9,9,11,11,12,12,14,14],"right_children":[2,4,-1,6,-1,8,10,12,-1,14,-1,16,18,-1,20,-1,-1,-1,-1,-1,-1],"split_conditions":[5.8795077E-1,1.16693924E2,4.54484E-1,3.98E-1,-3.427593E-1,4.073E-1,5.300613E2,5.000335E-1,2.9415217E-1,1.9688922E-1,8.182665E-2,5.3022266E2,2.3180066E-1,1.0021324E-2,1.4777488E-1,-3.4379438E-2,-9.982842E-2,4.17366E-4,2.742977E-2,1.356205E-2,4.8363157E-2],"split_indices":[27,0,0,166,0,165,15,73,0,8,0,19,4,0,5,0,0,0,0,0,0],"split_type":[0,0,0,0,0,0,0,0,0,0,0,0,0,0,0,0,0,0,0,0,0],"sum_hessian":[9.2E1,9E1,2E0,8.9E1,1E0,7.1E1,1.8E1,7E1,1E0,1.4E1,4E0,6.2E1,8E0,1E0,1.3E1,5.9E1,3E0,1E0,7E0,1E0,1.2E1],"tree_param":{"num_deleted":"0","num_feature":"190","num_nodes":"21","size_leaf_vector":"1"}},{"base_weights":[1.21386334E-1,-1.3642561E0,4.514541E-1,-6.2153554E-1,-3.4104553E-1,-2.2709591E0,5.661624E0,-3.1273992E0,2.9268143E-1,4.4656553E0,8.117204E-2,-3.8711145E0,2.4260974E0,9.971199E-3,4.642185E0,-3.404139E-2,-9.907969E-2,5.443573E-3,2.8859721E-2,1.3494224E-2,4.7916725E-2],"categories":[],"categories_nodes":[],"categories_segments":[],"categories_sizes":[],"default_left":[0,0,0,0,0,0,0,0,0,0,0,0,0,0,0,0,0,0,0,0,0],"id":28,"left_children":[1,3,-1,5,-1,7,9,11,-1,13,-1,15,17,-1,19,-1,-1,-1,-1,-1,-1],"loss_changes":[6.2823228E3,2.1916401E3,0E0,9.455805E2,0E0,2.0363505E3,1.9550537E1,3.026374E2,0E0,4.5556946E0,0E0,1.4387292E2,6.2172813E0,0E0,4.2520142E-1,0E0,0E0,0E0,0E0,0E0,0E0],"parents":[2147483647,0,0,1,1,3,3,5,5,6,6,7,7,9,9,11,11,12,12,14,14],"right_children":[2,4,-1,6,-1,8,10,12,-1,14,-1,16,18,-1,20,-1,-1,-1,-1,-1,-1],"split_conditions":[5.8795077E-1,1.16693924E2,4.514541E-1,3.98E-1,-3.4104553E-1,4.073E-1,5.300613E2,5.000335E-1,2.9268143E-1,1.9688922E-1,8.117204E-2,5.3022266E2,-5.371E0,9.971199E-3,1.4777488E-1,-3.404139E-2,-9.907969E-2,5.443573E-3,2.8859721E-2,1.3494224E-2,4.7916725E-2],"split_indices":[27,0,0,166,0,165,15,73,0,8,0,19,83,0,5,0,0,0,0,0,0],"split_type":[0,0,0,0,0,0,0,0,0,0,0,0,0,0,0,0,0,0,0,0,0],"sum_hessian":[9.2E1,9E1,2E0,8.9E1,1E0,7.1E1,1.8E1,7E1,1E0,1.4E1,4E0,6.2E1,8E0,1E0,1.3E1,5.9E1,3E0,2E0,6E0,1E0,1.2E1],"tree_param":{"num_deleted":"0","num_feature":"190","num_nodes":"21","size_leaf_vector":"1"}},{"base_weights":[1.2508486E-1,-1.3505542E0,4.484444E-1,-6.114708E-1,-3.3934027E-1,-2.245556E0,5.613035E0,-3.0975163E0,2.91218E-1,4.425755E0,8.0522686E-2,-3.8345153E0,2.4056463E0,9.92134E-3,4.600147E0,-3.370664E-2,-9.833657E-2,5.4072826E-3,2.8612332E-2,1.34267425E-2,4.7474388E-2],"categories":[],"categories_nodes":[],"categories_segments":[],"categories_sizes":[],"default_left":[0,0,0,0,0,0,0,0,0,0,0,0,0,0,0,0,0,0,0,0,0],"id":29,"left_children":[1,3,-1,5,-1,7,9,11,-1,13,-1,15,17,-1,19,-1,-1,-1,-1,-1,-1],"loss_changes":[6.1976006E3,2.1707036E3,0E0,9.28028E2,0E0,2.0143143E3,1.9387634E1,2.9718823E2,0E0,4.4179993E0,0E0,1.4216486E2,6.0995445E0,0E0,3.4298706E-1,0E0,0E0,0E0,0E0,0E0,0E0],"parents":[2147483647,0,0,1,1,3,3,5,5,6,6,7,7,9,9,11,11,12,12,14,14],"right_children":[2,4,-1,6,-1,8,10,12,-1,14,-1,16,18,-1,20,-1,-1,-1,-1,-1,-1],"split_conditions":[5.8795077E-1,1.16693924E2,4.484444E-1,3.98E-1,-3.3934027E-1,4.073E-1,5.300613E2,5.000335E-1,2.91218E-1,1.9688922E-1,8.0522686E-2,5.3022266E2,-5.371E0,9.92134E-3,1.4777488E-1,-3.370664E-2,-9.833657E-2,5.4072826E-3,2.8612332E-2,1.34267425E-2,4.7474388E-2],"split_indices":[27,0,0,166,0,165,15,73,0,8,0,19,83,0,5,0,0,0,0,0,0],"split_type":[0,0,0,0,0,0,0,0,0,0,0,0,0,0,0,0,0,0,0,0,0],"sum_hessian":[9.2E1,9E1,2E0,8.9E1,1E0,7.1E1,1.8E1,7E1,1E0,1.4E1,4E0,6.2E1,8E0,1E0,1.3E1,5.9E1,3E0,2E0,6E0,1E0,1.2E1],"tree_param":{"num_deleted":"0","num_feature":"190","num_nodes":"21","size_leaf_vector":"1"}},{"base_weights":[1.2871154E-1,-1.3369918E0,4.4545475E-1,-6.015282E-1,-3.3764356E-1,-2.2204173E0,5.564869E0,-3.0679216E0,2.8976193E-1,4.386216E0,7.9878524E-2,-3.7982662E0,2.385371E0,9.871749E-3,4.558492E0,-3.3375192E-2,-9.759906E-2,3.6102295E-4,2.6745167E-2,1.33596035E-2,4.703613E-2],"categories":[],"categories_nodes":[],"categories_segments":[],"categories_sizes":[],"default_left":[0,0,0,0,0,0,0,0,0,0,0,0,0,0,0,0,0,0,0,0,0],"id":30,"left_children":[1,3,-1,5,-1,7,9,11,-1,13,-1,15,17,-1,19,-1,-1,-1,-1,-1,-1],"loss_changes":[6.114025E3,2.1499622E3,0E0,9.108005E2,0E0,1.9925232E3,1.9224792E1,2.918379E2,0E0,4.2835693E0,0E0,1.404751E2,6.0169716E0,0E0,2.633667E-1,0E0,0E0,0E0,0E0,0E0,0E0],"parents":[2147483647,0,0,1,1,3,3,5,5,6,6,7,7,9,9,11,11,12,12,14,14],"right_children":[2,4,-1,6,-1,8,10,12,-1,14,-1,16,18,-1,20,-1,-1,-1,-1,-1,-1],"split_conditions":[5.8795077E-1,1.16693924E2,4.4545475E-1,3.98E-1,-3.3764356E-1,4.073E-1,5.300613E2,5.000335E-1,2.8976193E-1,1.9688922E-1,7.9878524E-2,5.3022266E2,2.3180066E-1,9.871749E-3,1.4777488E-1,-3.3375192E-2,-9.759906E-2,3.6102295E-4,2.6745167E-2,1.33596035E-2,4.703613E-2],"split_indices":[27,0,0,166,0,165,15,73,0,8,0,19,4,0,5,0,0,0,0,0,0],"split_type":[0,0,0,0,0,0,0,0,0,0,0,0,0,0,0,0,0,0,0,0,0],"sum_hessian":[9.2E1,9E1,2E0,8.9E1,1E0,7.1E1,1.8E1,7E1,1E0,1.4E1,4E0,6.2E1,8E0,1E0,1.3E1,5.9E1,3E0,1E0,7E0,1E0,1.2E1],"tree_param":{"num_deleted":"0","num_feature":"190","num_nodes":"21","size_leaf_vector":"1"}},{"base_weights":[1.3219908E-1,-1.3236374E0,4.4248503E-1,-5.9177697E-1,-3.3595535E-1,-2.3025815E0,5.139085E0,4.3575025E0,-3.618148E0,2.512908E0,2.883131E-1,2.1528842E0,6.2033065E-2,1.9142684E-2,-3.8458517E0,4.3398094E0,-9.286136E-2,3.5923003E-4,2.4997242E-2,-3.881946E-2,-9.12281E-3,1.0811126E-2,5.193643E-2],"categories":[],"categories_nodes":[],"categories_segments":[],"categories_sizes":[],"default_left":[0,0,0,0,0,0,0,0,0,0,0,0,0,0,0,0,0,0,0,0,0,0,0],"id":31,"left_children":[1,3,-1,5,-1,7,9,11,13,15,-1,17,-1,-1,19,21,-1,-1,-1,-1,-1,-1,-1],"loss_changes":[6.0315986E3,2.1294048E3,0E0,8.942277E2,0E0,6.2909094E2,1.234169E3,3.5476532E1,8.168732E1,4.7141388E2,0E0,5.0499268E0,0E0,0E0,2.4940186E0,4.446808E1,0E0,0E0,0E0,0E0,0E0,0E0,0E0],"parents":[2147483647,0,0,1,1,3,3,5,5,6,6,7,7,8,8,9,9,11,11,14,14,15,15],"right_children":[2,4,-1,6,-1,8,10,12,14,16,-1,18,-1,-1,20,22,-1,-1,-1,-1,-1,-1,-1],"split_conditions":[5.8795077E-1,1.16693924E2,4.4248503E-1,4.1557524E-1,-3.3595535E-1,2.1885E3,1.2030247E-1,4.371479E-1,5.314E2,2.402842E1,2.883131E-1,1.2008606E-1,6.2033065E-2,1.9142684E-2,2.3243E1,4.953741E-1,-9.286136E-2,3.5923003E-4,2.4997242E-2,-3.881946E-2,-9.12281E-3,1.0811126E-2,5.193643E-2],"split_indices":[27,0,0,13,0,37,2,46,131,6,0,2,0,0,158,14,0,0,0,0,0,0,0],"split_type":[0,0,0,0,0,0,0,0,0,0,0,0,0,0,0,0,0,0,0,0,0,0,0],"sum_hessian":[9.2E1,9E1,2E0,8.9E1,1E0,6.9E1,2E1,1.1E1,5.8E1,1.9E1,1E0,6E0,5E0,2E0,5.6E1,1.7E1,2E0,1E0,5E0,5.5E1,1E0,4E0,1.3E1],"tree_param":{"num_deleted":"0","num_feature":"190","num_nodes":"23","size_leaf_vector":"1"}},{"base_weights":[1.3542894E-1,-1.3106116E0,4.3953517E-1,-5.8233935E-1,-3.3427557E-1,-2.2787194E0,5.0999913E0,4.321211E0,-3.5824559E0,2.4862757E0,2.8687152E-1,2.1349804E0,6.1516114E-2,1.901507E-2,-3.8082354E0,4.2998996E0,-9.224227E-2,3.5743712E-4,2.4788959E-2,-3.843821E-2,-9.077187E-3,1.07246395E-2,5.1454194E-2],"categories":[],"categories_nodes":[],"categories_segments":[],"categories_sizes":[],"default_left":[0,0,0,0,0,0,0,0,0,0,0,0,0,0,0,0,0,0,0,0,0,0,0],"id":32,"left_children":[1,3,-1,5,-1,7,9,11,13,15,-1,17,-1,-1,19,21,-1,-1,-1,-1,-1,-1,-1],"loss_changes":[5.950341E3,2.1090132E3,0E0,8.7916675E2,0E0,6.178004E2,1.2233287E3,3.488658E1,8.029315E1,4.644322E2,0E0,4.9651165E0,0E0,0E0,2.394226E0,4.3601227E1,0E0,0E0,0E0,0E0,0E0,0E0,0E0],"parents":[2147483647,0,0,1,1,3,3,5,5,6,6,7,7,8,8,9,9,11,11,14,14,15,15],"right_children":[2,4,-1,6,-1,8,10,12,14,16,-1,18,-1,-1,20,22,-1,-1,-1,-1,-1,-1,-1],"split_conditions":[5.8795077E-1,1.16693924E2,4.3953517E-1,4.1557524E-1,-3.3427557E-1,2.1885E3,1.2030247E-1,4.371479E-1,5.314E2,2.402842E1,2.8687152E-1,1.2008606E-1,6.1516114E-2,1.901507E-2,2.3243E1,4.953741E-1,-9.224227E-2,3.5743712E-4,2.4788959E-2,-3.843821E-2,-9.077187E-3,1.07246395E-2,5.1454194E-2],"split_indices":[27,0,0,13,0,37,2,46,131,6,0,2,0,0,158,14,0,0,0,0,0,0,0],"split_type":[0,0,0,0,0,0,0,0,0,0,0,0,0,0,0,0,0,0,0,0,0,0,0],"sum_hessian":[9.2E1,9E1,2E0,8.9E1,1E0,6.9E1,2E1,1.1E1,5.8E1,1.9E1,1E0,6E0,5E0,2E0,5.6E1,1.7E1,2E0,1E0,5E0,5.5E1,1E0,4E0,1.3E1],"tree_param":{"num_deleted":"0","num_feature":"190","num_nodes":"23","size_leaf_vector":"1"}},{"base_weights":[1.3859259E-1,-1.2977183E0,4.3660492E-1,-5.730169E-1,-3.326042E-1,-2.2551022E0,5.0612206E0,4.285221E0,-3.5471153E0,2.45991E0,2.8543717E-1,2.1172235E0,6.100348E-2,1.888832E-2,-3.7709877E0,4.2603555E0,-9.162734E-2,3.556442E-4,2.4582393E-2,-3.8060706E-2,-9.031791E-3,1.0638825E-2,5.0976418E-2],"categories":[],"categories_nodes":[],"categories_segments":[],"categories_sizes":[],"default_left":[0,0,0,0,0,0,0,0,0,0,0,0,0,0,0,0,0,0,0,0,0,0,0],"id":33,"left_children":[1,3,-1,5,-1,7,9,11,13,15,-1,17,-1,-1,19,21,-1,-1,-1,-1,-1,-1,-1],"loss_changes":[5.87018E3,2.0888118E3,0E0,8.6436774E2,0E0,6.0671313E2,1.2125757E3,3.4306503E1,7.892334E1,4.5755524E2,0E0,4.881727E0,0E0,0E0,2.2973022E0,4.275128E1,0E0,0E0,0E0,0E0,0E0,0E0,0E0],"parents":[2147483647,0,0,1,1,3,3,5,5,6,6,7,7,8,8,9,9,11,11,14,14,15,15],"right_children":[2,4,-1,6,-1,8,10,12,14,16,-1,18,-1,-1,20,22,-1,-1,-1,-1,-1,-1,-1],"split_conditions":[5.8795077E-1,1.16693924E2,4.3660492E-1,4.1557524E-1,-3.326042E-1,2.1885E3,1.2030247E-1,4.371479E-1,5.314E2,2.402842E1,2.8543717E-1,1.2008606E-1,6.100348E-2,1.888832E-2,2.3243E1,4.953741E-1,-9.162734E-2,3.556442E-4,2.4582393E-2,-3.8060706E-2,-9.031791E-3,1.0638825E-2,5.0976418E-2],"split_indices":[27,0,0,13,0,37,2,46,131,6,0,2,0,0,158,14,0,0,0,0,0,0,0],"split_type":[0,0,0,0,0,0,0,0,0,0,0,0,0,0,0,0,0,0,0,0,0,0,0],"sum_hessian":[9.2E1,9E1,2E0,8.9E1,1E0,6.9E1,2E1,1.1E1,5.8E1,1.9E1,1E0,6E0,5E0,2E0,5.6E1,1.7E1,2E0,1E0,5E0,5.5E1,1E0,4E0,1.3E1],"tree_param":{"num_deleted":"0","num_feature":"190","num_nodes":"23","size_leaf_vector":"1"}},{"base_weights":[1.4169323E-1,-1.2849537E0,4.3369418E-1,-5.638061E-1,-3.309412E-1,-2.2317247E0,5.0227704E0,4.2495303E0,-3.5121202E0,2.433809E0,2.8400996E-1,2.0996137E0,6.049511E-2,1.8762384E-2,-3.7341018E0,4.221174E0,-9.101647E-2,3.538513E-4,2.4377543E-2,-3.768687E-2,-8.986626E-3,1.4078394E-2,5.19493E-2],"categories":[],"categories_nodes":[],"categories_segments":[],"categories_sizes":[],"default_left":[0,0,0,0,0,0,0,0,0,0,0,0,0,0,0,0,0,0,0,0,0,0,0],"id":34,"left_children":[1,3,-1,5,-1,7,9,11,13,15,-1,17,-1,-1,19,21,-1,-1,-1,-1,-1,-1,-1],"loss_changes":[5.7911035E3,2.0687998E3,0E0,8.498254E2,0E0,5.958247E2,1.2019092E3,3.373607E1,7.7576965E1,4.5078098E2,0E0,4.799734E0,0E0,0E0,2.202942E0,4.1997406E1,0E0,0E0,0E0,0E0,0E0,0E0,0E0],"parents":[2147483647,0,0,1,1,3,3,5,5,6,6,7,7,8,8,9,9,11,11,14,14,15,15],"right_children":[2,4,-1,6,-1,8,10,12,14,16,-1,18,-1,-1,20,22,-1,-1,-1,-1,-1,-1,-1],"split_conditions":[5.8795077E-1,1.16693924E2,4.3369418E-1,4.1557524E-1,-3.309412E-1,2.1885E3,1.2030247E-1,4.371479E-1,5.314E2,2.402842E1,2.8400996E-1,1.2008606E-1,6.049511E-2,1.8762384E-2,2.3243E1,4.9874565E-1,-9.101647E-2,3.538513E-4,2.4377543E-2,-3.768687E-2,-8.986626E-3,1.4078394E-2,5.19493E-2],"split_indices":[27,0,0,13,0,37,2,46,131,6,0,2,0,0,158,14,0,0,0,0,0,0,0],"split_type":[0,0,0,0,0,0,0,0,0,0,0,0,0,0,0,0,0,0,0,0,0,0,0],"sum_hessian":[9.2E1,9E1,2E0,8.9E1,1E0,6.9E1,2E1,1.1E1,5.8E1,1.9E1,1E0,6E0,5E0,2E0,5.6E1,1.7E1,2E0,1E0,5E0,5.5E1,1E0,5E0,1.2E1],"tree_param":{"num_deleted":"0","num_feature":"190","num_nodes":"23","size_leaf_vector":"1"}},{"base_weights":[1.4478454E-1,-1.2722628E0,4.308029E-1,-5.5465126E-1,-3.292865E-1,-2.2085865E0,4.984878E0,4.2141385E0,-3.4774697E0,2.4082227E0,2.825899E-1,2.0821521E0,5.9990995E-2,1.8637313E-2,-3.6975775E0,4.182631E0,-9.040969E-2,3.5209654E-4,2.417441E-2,-3.7316706E-2,-8.941689E-3,1.0441131E-2,5.004771E-2],"categories":[],"categories_nodes":[],"categories_segments":[],"categories_sizes":[],"default_left":[0,0,0,0,0,0,0,0,0,0,0,0,0,0,0,0,0,0,0,0,0,0,0],"id":35,"left_children":[1,3,-1,5,-1,7,9,11,13,15,-1,17,-1,-1,19,21,-1,-1,-1,-1,-1,-1,-1],"loss_changes":[5.713082E3,2.0489822E3,0E0,8.3559155E2,0E0,5.851328E2,1.1913027E3,3.317511E1,7.625397E1,4.4412585E2,0E0,4.719103E0,0E0,0E0,2.111206E0,4.121991E1,0E0,0E0,0E0,0E0,0E0,0E0,0E0],"parents":[2147483647,0,0,1,1,3,3,5,5,6,6,7,7,8,8,9,9,11,11,14,14,15,15],"right_children":[2,4,-1,6,-1,8,10,12,14,16,-1,18,-1,-1,20,22,-1,-1,-1,-1,-1,-1,-1],"split_conditions":[5.8795077E-1,1.16693924E2,4.308029E-1,4.1557524E-1,-3.292865E-1,2.1885E3,1.2030247E-1,4.371479E-1,5.314E2,2.402842E1,2.825899E-1,1.2008606E-1,5.9990995E-2,1.8637313E-2,2.3243E1,4.953741E-1,-9.040969E-2,3.5209654E-4,2.417441E-2,-3.7316706E-2,-8.941689E-3,1.0441131E-2,5.004771E-2],"split_indices":[27,0,0,13,0,37,2,46,131,6,0,2,0,0,158,14,0,0,0,0,0,0,0],"split_type":[0,0,0,0,0,0,0,0,0,0,0,0,0,0,0,0,0,0,0,0,0,0,0],"sum_hessian":[9.2E1,9E1,2E0,8.9E1,1E0,6.9E1,2E1,1.1E1,5.8E1,1.9E1,1E0,6E0,5E0,2E0,5.6E1,1.7E1,2E0,1E0,5E0,5.5E1,1E0,4E0,1.3E1],"tree_param":{"num_deleted":"0","num_feature":"190","num_nodes":"23","size_leaf_vector":"1"}},{"base_weights":[1.4775565E-1,-1.2597582E0,4.279309E-1,-5.4566646E-1,-3.2764006E-1,-2.185689E0,4.9470596E0,4.1790395E0,-3.4431646E0,2.382643E0,2.8117695E-1,2.0648324E0,5.949108E-2,1.8513056E-2,-3.6614144E0,4.1441636E0,-8.980697E-2,3.5034178E-4,2.397293E-2,-3.695022E-2,-8.89698E-3,1.38080465E-2,5.1007785E-2],"categories":[],"categories_nodes":[],"categories_segments":[],"categories_sizes":[],"default_left":[0,0,0,0,0,0,0,0,0,0,0,0,0,0,0,0,0,0,0,0,0,0,0],"id":36,"left_children":[1,3,-1,5,-1,7,9,11,13,15,-1,17,-1,-1,19,21,-1,-1,-1,-1,-1,-1,-1],"loss_changes":[5.636132E3,2.0293419E3,0E0,8.2155023E2,0E0,5.746335E2,1.1808079E3,3.262358E1,7.495392E1,4.3755267E2,0E0,4.6398125E0,0E0,0E0,2.0221558E0,4.0539276E1,0E0,0E0,0E0,0E0,0E0,0E0,0E0],"parents":[2147483647,0,0,1,1,3,3,5,5,6,6,7,7,8,8,9,9,11,11,14,14,15,15],"right_children":[2,4,-1,6,-1,8,10,12,14,16,-1,18,-1,-1,20,22,-1,-1,-1,-1,-1,-1,-1],"split_conditions":[5.8795077E-1,1.16693924E2,4.279309E-1,4.1557524E-1,-3.2764006E-1,2.1885E3,1.2030247E-1,4.371479E-1,5.314E2,2.402842E1,2.8117695E-1,1.2008606E-1,5.949108E-2,1.8513056E-2,2.3243E1,4.9874565E-1,-8.980697E-2,3.5034178E-4,2.397293E-2,-3.695022E-2,-8.89698E-3,1.38080465E-2,5.1007785E-2],"split_indices":[27,0,0,13,0,37,2,46,131,6,0,2,0,0,158,14,0,0,0,0,0,0,0],"split_type":[0,0,0,0,0,0,0,0,0,0,0,0,0,0,0,0,0,0,0,0,0,0,0],"sum_hessian":[9.2E1,9E1,2E0,8.9E1,1E0,6.9E1,2E1,1.1E1,5.8E1,1.9E1,1E0,6E0,5E0,2E0,5.6E1,1.7E1,2E0,1E0,5E0,5.5E1,1E0,5E0,1.2E1],"tree_param":{"num_deleted":"0","num_feature":"190","num_nodes":"23","size_leaf_vector":"1"}},{"base_weights":[1.5071726E-1,-1.2473264E0,4.25078E-1,-5.367369E-1,-3.2600188E-1,-2.1630263E0,4.9097867E0,4.144233E0,-3.4091973E0,2.3575652E0,2.7977106E-1,2.0476596E0,5.89953E-2,1.8389612E-2,-3.6256056E0,4.1063213E0,-8.920826E-2,4.784139E-3,2.579675E-2,-3.6587324E-2,-8.8525005E-3,1.369297E-2,5.0536923E-2],"categories":[],"categories_nodes":[],"categories_segments":[],"categories_sizes":[],"default_left":[0,0,0,0,0,0,0,0,0,0,0,0,0,0,0,0,0,0,0,0,0,0,0],"id":37,"left_children":[1,3,-1,5,-1,7,9,11,13,15,-1,17,-1,-1,19,21,-1,-1,-1,-1,-1,-1,-1],"loss_changes":[5.5602075E3,2.0098925E3,0E0,8.078061E2,0E0,5.643231E2,1.1703733E3,3.208107E1,7.367639E1,4.3109488E2,0E0,4.60989E0,0E0,0E0,1.9355469E0,3.975363E1,0E0,0E0,0E0,0E0,0E0,0E0,0E0],"parents":[2147483647,0,0,1,1,3,3,5,5,6,6,7,7,8,8,9,9,11,11,14,14,15,15],"right_children":[2,4,-1,6,-1,8,10,12,14,16,-1,18,-1,-1,20,22,-1,-1,-1,-1,-1,-1,-1],"split_conditions":[5.8795077E-1,1.16693924E2,4.25078E-1,4.1557524E-1,-3.2600188E-1,2.1885E3,1.2030247E-1,4.371479E-1,5.314E2,2.402842E1,2.7977106E-1,-5.371E0,5.89953E-2,1.8389612E-2,2.3243E1,4.9874565E-1,-8.920826E-2,4.784139E-3,2.579675E-2,-3.6587324E-2,-8.8525005E-3,1.369297E-2,5.0536923E-2],"split_indices":[27,0,0,13,0,37,2,46,131,6,0,83,0,0,158,14,0,0,0,0,0,0,0],"split_type":[0,0,0,0,0,0,0,0,0,0,0,0,0,0,0,0,0,0,0,0,0,0,0],"sum_hessian":[9.2E1,9E1,2E0,8.9E1,1E0,6.9E1,2E1,1.1E1,5.8E1,1.9E1,1E0,6E0,5E0,2E0,5.6E1,1.7E1,2E0,2E0,4E0,5.5E1,1E0,5E0,1.2E1],"tree_param":{"num_deleted":"0","num_feature":"190","num_nodes":"23","size_leaf_vector":"1"}},{"base_weights":[1.5368927E-1,-1.2349466E0,4.2224413E-1,-5.278419E-1,-3.2437187E-1,-2.1405003E0,4.8728213E0,4.110255E0,-3.3755608E0,2.3327403E0,2.7837223E-1,2.031553E0,5.8503646E-2,1.8267034E-2,-3.5901437E0,4.0688257E0,-8.861352E-2,4.752248E-3,2.5590394E-2,-3.6227953E-2,-8.808251E-3,1.0137542E-2,4.8692923E-2],"categories":[],"categories_nodes":[],"categories_segments":[],"categories_sizes":[],"default_left":[0,0,0,0,0,0,0,0,0,0,0,0,0,0,0,0,0,0,0,0,0,0,0],"id":38,"left_children":[1,3,-1,5,-1,7,9,11,13,15,-1,17,-1,-1,19,21,-1,-1,-1,-1,-1,-1,-1],"loss_changes":[5.485291E3,1.9906343E3,0E0,7.942785E2,0E0,5.542786E2,1.1600233E3,3.1520706E1,7.24209E1,4.2473337E2,0E0,4.5304756E0,0E0,0E0,1.8513794E0,3.9082428E1,0E0,0E0,0E0,0E0,0E0,0E0,0E0],"parents":[2147483647,0,0,1,1,3,3,5,5,6,6,7,7,8,8,9,9,11,11,14,14,15,15],"right_children":[2,4,-1,6,-1,8,10,12,14,16,-1,18,-1,-1,20,22,-1,-1,-1,-1,-1,-1,-1],"split_conditions":[5.8795077E-1,1.16693924E2,4.2224413E-1,4.1557524E-1,-3.2437187E-1,2.1885E3,1.2030247E-1,4.371479E-1,5.314E2,2.402842E1,2.7837223E-1,-5.371E0,5.8503646E-2,1.8267034E-2,2.3243E1,4.953741E-1,-8.861352E-2,4.752248E-3,2.5590394E-2,-3.6227953E-2,-8.808251E-3,1.0137542E-2,4.8692923E-2],"split_indices":[27,0,0,13,0,37,2,46,131,6,0,83,0,0,158,14,0,0,0,0,0,0,0],"split_type":[0,0,0,0,0,0,0,0,0,0,0,0,0,0,0,0,0,0,0,0,0,0,0],"sum_hessian":[9.2E1,9E1,2E0,8.9E1,1E0,6.9E1,2E1,1.1E1,5.8E1,1.9E1,1E0,6E0,5E0,2E0,5.6E1,1.7E1,2E0,2E0,4E0,5.5E1,1E0,4E0,1.3E1],"tree_param":{"num_deleted":"0","num_feature":"190","num_nodes":"23","size_leaf_vector":"1"}},{"base_weights":[1.5654364E-1,-1.2227495E0,4.1942918E-1,-5.1911336E-1,-3.2275E-1,-2.118211E0,4.835932E0,4.076557E0,-3.342262E0,2.3079247E0,2.7698037E-1,2.0155728E0,5.801613E-2,1.8145269E-2,-3.5550358E0,4.031407E0,-8.802275E-2,3.009033E-4,2.3414714E-2,-3.5872176E-2,-8.764191E-3,1.3430099E-2,4.962097E-2],"categories":[],"categories_nodes":[],"categories_segments":[],"categories_sizes":[],"default_left":[0,0,0,0,0,0,0,0,0,0,0,0,0,0,0,0,0,0,0,0,0,0,0],"id":39,"left_children":[1,3,-1,5,-1,7,9,11,13,15,-1,17,-1,-1,19,21,-1,-1,-1,-1,-1,-1,-1],"loss_changes":[5.411403E3,1.9715492E3,0E0,7.809352E2,0E0,5.444148E2,1.1497819E3,3.0970184E1,7.1187195E1,4.1845013E2,0E0,4.4590073E0,0E0,0E0,1.7697144E0,3.8373016E1,0E0,0E0,0E0,0E0,0E0,0E0,0E0],"parents":[2147483647,0,0,1,1,3,3,5,5,6,6,7,7,8,8,9,9,11,11,14,14,15,15],"right_children":[2,4,-1,6,-1,8,10,12,14,16,-1,18,-1,-1,20,22,-1,-1,-1,-1,-1,-1,-1],"split_conditions":[5.8795077E-1,1.16693924E2,4.1942918E-1,4.1557524E-1,-3.2275E-1,2.1885E3,1.2030247E-1,4.371479E-1,5.314E2,2.402842E1,2.7698037E-1,1.2008606E-1,5.801613E-2,1.8145269E-2,2.3243E1,4.9874565E-1,-8.802275E-2,3.009033E-4,2.3414714E-2,-3.5872176E-2,-8.764191E-3,1.3430099E-2,4.962097E-2],"split_indices":[27,0,0,13,0,37,2,46,131,6,0,2,0,0,158,14,0,0,0,0,0,0,0],"split_type":[0,0,0,0,0,0,0,0,0,0,0,0,0,0,0,0,0,0,0,0,0,0,0],"sum_hessian":[9.2E1,9E1,2E0,8.9E1,1E0,6.9E1,2E1,1.1E1,5.8E1,1.9E1,1E0,6E0,5E0,2E0,5.6E1,1.7E1,2E0,1E0,5E0,5.5E1,1E0,5E0,1.2E1],"tree_param":{"num_deleted":"0","num_feature":"190","num_nodes":"23","size_leaf_vector":"1"}},{"base_weights":[1.5932256E-1,-1.2106913E0,4.16633E-1,-5.1050735E-1,-3.2113627E-1,-2.0962384E0,4.799573E0,4.042604E0,-3.309287E0,2.283597E0,2.7559546E-1,1.9988054E0,5.7532676E-2,1.8024316E-2,-3.5202672E0,3.9945958E0,-8.7435946E-2,4.64152E-3,2.5198363E-2,-3.551985E-2,-8.72036E-3,9.949005E-3,4.780587E-2],"categories":[],"categories_nodes":[],"categories_segments":[],"categories_sizes":[],"default_left":[0,0,0,0,0,0,0,0,0,0,0,0,0,0,0,0,0,0,0,0,0,0,0],"id":40,"left_children":[1,3,-1,5,-1,7,9,11,13,15,-1,17,-1,-1,19,21,-1,-1,-1,-1,-1,-1,-1],"loss_changes":[5.3385176E3,1.9526405E3,0E0,7.6789355E2,0E0,5.3464813E2,1.1395996E3,3.0455383E1,6.997485E1,4.1227737E2,0E0,4.4276295E0,0E0,0E0,1.6903687E0,3.7683044E1,0E0,0E0,0E0,0E0,0E0,0E0,0E0],"parents":[2147483647,0,0,1,1,3,3,5,5,6,6,7,7,8,8,9,9,11,11,14,14,15,15],"right_children":[2,4,-1,6,-1,8,10,12,14,16,-1,18,-1,-1,20,22,-1,-1,-1,-1,-1,-1,-1],"split_conditions":[5.8795077E-1,1.16693924E2,4.16633E-1,4.1557524E-1,-3.2113627E-1,2.1885E3,1.2030247E-1,4.371479E-1,5.314E2,2.402842E1,2.7559546E-1,-5.371E0,5.7532676E-2,1.8024316E-2,2.3243E1,4.953741E-1,-8.7435946E-2,4.64152E-3,2.5198363E-2,-3.551985E-2,-8.72036E-3,9.949005E-3,4.780587E-2],"split_indices":[27,0,0,13,0,37,2,46,131,6,0,83,0,0,158,14,0,0,0,0,0,0,0],"split_type":[0,0,0,0,0,0,0,0,0,0,0,0,0,0,0,0,0,0,0,0,0,0,0],"sum_hessian":[9.2E1,9E1,2E0,8.9E1,1E0,6.9E1,2E1,1.1E1,5.8E1,1.9E1,1E0,6E0,5E0,2E0,5.6E1,1.7E1,2E0,2E0,4E0,5.5E1,1E0,4E0,1.3E1],"tree_param":{"num_deleted":"0","num_feature":"190","num_nodes":"23","size_leaf_vector":"1"}},{"base_weights":[1.6205953E-1,-1.1987375E0,4.1385546E-1,-5.0198877E-1,-3.195306E-1,-2.0744004E0,4.7632875E0,4.0094585E0,-3.2766361E0,2.2592769E0,2.742175E-1,1.9830801E0,5.7053234E-2,1.790418E-2,-3.4858382E0,3.9578586E0,-8.6853065E-2,4.6105958E-3,2.4996765E-2,-3.517097E-2,-8.676758E-3,1.3172201E-2,4.872164E-2],"categories":[],"categories_nodes":[],"categories_segments":[],"categories_sizes":[],"default_left":[0,0,0,0,0,0,0,0,0,0,0,0,0,0,0,0,0,0,0,0,0,0,0],"id":41,"left_children":[1,3,-1,5,-1,7,9,11,13,15,-1,17,-1,-1,19,21,-1,-1,-1,-1,-1,-1,-1],"loss_changes":[5.2666133E3,1.9339111E3,0E0,7.550073E2,0E0,5.251338E2,1.1295243E3,2.9923462E1,6.878339E1,4.061806E2,0E0,4.351391E0,0E0,0E0,1.6132202E0,3.704062E1,0E0,0E0,0E0,0E0,0E0,0E0,0E0],"parents":[2147483647,0,0,1,1,3,3,5,5,6,6,7,7,8,8,9,9,11,11,14,14,15,15],"right_children":[2,4,-1,6,-1,8,10,12,14,16,-1,18,-1,-1,20,22,-1,-1,-1,-1,-1,-1,-1],"split_conditions":[5.8795077E-1,1.16693924E2,4.1385546E-1,4.1557524E-1,-3.195306E-1,2.1885E3,1.2030247E-1,4.371479E-1,5.314E2,2.402842E1,2.742175E-1,-5.371E0,5.7053234E-2,1.790418E-2,2.3243E1,4.9874565E-1,-8.6853065E-2,4.6105958E-3,2.4996765E-2,-3.517097E-2,-8.676758E-3,1.3172201E-2,4.872164E-2],"split_indices":[27,0,0,13,0,37,2,46,131,6,0,83,0,0,158,14,0,0,0,0,0,0,0],"split_type":[0,0,0,0,0,0,0,0,0,0,0,0,0,0,0,0,0,0,0,0,0,0,0],"sum_hessian":[9.2E1,9E1,2E0,8.9E1,1E0,6.9E1,2E1,1.1E1,5.8E1,1.9E1,1E0,6E0,5E0,2E0,5.6E1,1.7E1,2E0,2E0,4E0,5.5E1,1E0,5E0,1.2E1],"tree_param":{"num_deleted":"0","num_feature":"190","num_nodes":"23","size_leaf_vector":"1"}},{"base_weights":[1.6478659E-1,-1.1868547E0,4.1109645E-1,-4.9352437E-1,-3.1793293E-1,-2.0527883E0,4.7275233E0,3.9765873E0,-3.244309E0,2.2354352E0,2.728464E-1,1.9674814E0,5.6577794E-2,1.7784804E-2,-3.4517486E0,3.9217176E0,-8.627404E-2,2.5318144E-4,2.2869555E-2,-3.4825534E-2,-8.6333845E-3,9.764007E-3,4.6934936E-2],"categories":[],"categories_nodes":[],"categories_segments":[],"categories_sizes":[],"default_left":[0,0,0,0,0,0,0,0,0,0,0,0,0,0,0,0,0,0,0,0,0,0,0],"id":42,"left_children":[1,3,-1,5,-1,7,9,11,13,15,-1,17,-1,-1,19,21,-1,-1,-1,-1,-1,-1,-1],"loss_changes":[5.195668E3,1.9153632E3,0E0,7.4239386E2,0E0,5.1579004E2,1.1195077E3,2.9400757E1,6.761249E1,4.0019058E2,0E0,4.2853966E0,0E0,0E0,1.5383301E0,3.6333527E1,0E0,0E0,0E0,0E0,0E0,0E0,0E0],"parents":[2147483647,0,0,1,1,3,3,5,5,6,6,7,7,8,8,9,9,11,11,14,14,15,15],"right_children":[2,4,-1,6,-1,8,10,12,14,16,-1,18,-1,-1,20,22,-1,-1,-1,-1,-1,-1,-1],"split_conditions":[5.8795077E-1,1.16693924E2,4.1109645E-1,4.1557524E-1,-3.1793293E-1,2.1885E3,1.2030247E-1,4.371479E-1,5.314E2,2.402842E1,2.728464E-1,1.2008606E-1,5.6577794E-2,1.7784804E-2,2.3243E1,4.953741E-1,-8.627404E-2,2.5318144E-4,2.2869555E-2,-3.4825534E-2,-8.6333845E-3,9.764007E-3,4.6934936E-2],"split_indices":[27,0,0,13,0,37,2,46,131,6,0,2,0,0,158,14,0,0,0,0,0,0,0],"split_type":[0,0,0,0,0,0,0,0,0,0,0,0,0,0,0,0,0,0,0,0,0,0,0],"sum_hessian":[9.2E1,9E1,2E0,8.9E1,1E0,6.9E1,2E1,1.1E1,5.8E1,1.9E1,1E0,6E0,5E0,2E0,5.6E1,1.7E1,2E0,1E0,5E0,5.5E1,1E0,4E0,1.3E1],"tree_param":{"num_deleted":"0","num_feature":"190","num_nodes":"23","size_leaf_vector":"1"}},{"base_weights":[1.6733834E-1,-1.1752119E0,4.0835583E-1,-4.8528472E-1,-3.1634325E-1,-2.0314867E0,4.691831E0,3.9434612E0,-3.2122984E0,2.211601E0,2.7148217E-1,1.9511076E0,5.61063E-2,1.7666245E-2,-3.417991E0,3.8856494E0,-8.569889E-2,4.5027924E-3,2.4613831E-2,-3.4483474E-2,-8.590202E-3,1.2919069E-2,4.7838647E-2],"categories":[],"categories_nodes":[],"categories_segments":[],"categories_sizes":[],"default_left":[0,0,0,0,0,0,0,0,0,0,0,0,0,0,0,0,0,0,0,0,0,0,0],"id":43,"left_children":[1,3,-1,5,-1,7,9,11,13,15,-1,17,-1,-1,19,21,-1,-1,-1,-1,-1,-1,-1],"loss_changes":[5.1257124E3,1.8969742E3,0E0,7.299695E2,0E0,5.0653775E2,1.109596E3,2.8912155E1,6.646179E1,3.9427432E2,0E0,4.2525406E0,0E0,0E0,1.4656372E0,3.5755005E1,0E0,0E0,0E0,0E0,0E0,0E0,0E0],"parents":[2147483647,0,0,1,1,3,3,5,5,6,6,7,7,8,8,9,9,11,11,14,14,15,15],"right_children":[2,4,-1,6,-1,8,10,12,14,16,-1,18,-1,-1,20,22,-1,-1,-1,-1,-1,-1,-1],"split_conditions":[5.8795077E-1,1.16693924E2,4.0835583E-1,4.1557524E-1,-3.1634325E-1,2.1885E3,1.2030247E-1,4.371479E-1,5.314E2,2.402842E1,2.7148217E-1,-5.371E0,5.61063E-2,1.7666245E-2,2.3243E1,4.9874565E-1,-8.569889E-2,4.5027924E-3,2.4613831E-2,-3.4483474E-2,-8.590202E-3,1.2919069E-2,4.7838647E-2],"split_indices":[27,0,0,13,0,37,2,46,131,6,0,83,0,0,158,14,0,0,0,0,0,0,0],"split_type":[0,0,0,0,0,0,0,0,0,0,0,0,0,0,0,0,0,0,0,0,0,0,0],"sum_hessian":[9.2E1,9E1,2E0,8.9E1,1E0,6.9E1,2E1,1.1E1,5.8E1,1.9E1,1E0,6E0,5E0,2E0,5.6E1,1.7E1,2E0,2E0,4E0,5.5E1,1E0,5E0,1.2E1],"tree_param":{"num_deleted":"0","num_feature":"190","num_nodes":"23","size_leaf_vector":"1"}},{"base_weights":[1.6994981E-1,-1.1635681E0,4.0563342E-1,-4.7702658E-1,-3.1476155E-1,-2.0103164E0,4.656655E0,3.911129E0,-3.180605E0,2.1882403E0,2.7012473E-1,1.9357573E0,5.5638745E-2,1.7548446E-2,-3.3845654E0,3.8501706E0,-8.5127555E-2,4.4727833E-3,2.4416931E-2,-3.414478E-2,-8.547248E-3,1.2811432E-2,4.7397085E-2],"categories":[],"categories_nodes":[],"categories_segments":[],"categories_sizes":[],"default_left":[0,0,0,0,0,0,0,0,0,0,0,0,0,0,0,0,0,0,0,0,0,0,0],"id":44,"left_children":[1,3,-1,5,-1,7,9,11,13,15,-1,17,-1,-1,19,21,-1,-1,-1,-1,-1,-1,-1],"loss_changes":[5.056673E3,1.8787723E3,0E0,7.1778925E2,0E0,4.975258E2,1.0997423E3,2.8407135E1,6.533099E1,3.8846173E2,0E0,4.179407E0,0E0,0E0,1.3950806E0,3.5062195E1,0E0,0E0,0E0,0E0,0E0,0E0,0E0],"parents":[2147483647,0,0,1,1,3,3,5,5,6,6,7,7,8,8,9,9,11,11,14,14,15,15],"right_children":[2,4,-1,6,-1,8,10,12,14,16,-1,18,-1,-1,20,22,-1,-1,-1,-1,-1,-1,-1],"split_conditions":[5.8795077E-1,1.16693924E2,4.0563342E-1,4.1557524E-1,-3.1476155E-1,2.1885E3,1.2030247E-1,4.371479E-1,5.314E2,2.402842E1,2.7012473E-1,-5.371E0,5.5638745E-2,1.7548446E-2,2.3243E1,4.9874565E-1,-8.5127555E-2,4.4727833E-3,2.4416931E-2,-3.414478E-2,-8.547248E-3,1.2811432E-2,4.7397085E-2],"split_indices":[27,0,0,13,0,37,2,46,131,6,0,83,0,0,158,14,0,0,0,0,0,0,0],"split_type":[0,0,0,0,0,0,0,0,0,0,0,0,0,0,0,0,0,0,0,0,0,0,0],"sum_hessian":[9.2E1,9E1,2E0,8.9E1,1E0,6.9E1,2E1,1.1E1,5.8E1,1.9E1,1E0,6E0,5E0,2E0,5.6E1,1.7E1,2E0,2E0,4E0,5.5E1,1E0,5E0,1.2E1],"tree_param":{"num_deleted":"0","num_feature":"190","num_nodes":"23","size_leaf_vector":"1"}},{"base_weights":[1.7250122E-1,-1.1520456E0,4.0292922E-1,-4.6887338E-1,-3.1318775E-1,-1.9893674E0,4.621767E0,3.879062E0,-3.149228E0,2.1651144E0,2.687741E-1,1.920529E0,5.517507E-2,1.7431462E-2,-3.351472E0,3.8150165E0,-8.456002E-2,2.0706176E-4,2.233715E-2,-3.3809464E-2,-8.504524E-3,9.480072E-3,4.566447E-2],"categories":[],"categories_nodes":[],"categories_segments":[],"categories_sizes":[],"default_left":[0,0,0,0,0,0,0,0,0,0,0,0,0,0,0,0,0,0,0,0,0,0,0],"id":45,"left_children":[1,3,-1,5,-1,7,9,11,13,15,-1,17,-1,-1,19,21,-1,-1,-1,-1,-1,-1,-1],"loss_changes":[4.9885674E3,1.8607411E3,0E0,7.058204E2,0E0,4.8867535E2,1.0899695E3,2.7910843E1,6.421979E1,3.8273584E2,0E0,4.1187344E0,0E0,0E0,1.326477E0,3.4449463E1,0E0,0E0,0E0,0E0,0E0,0E0,0E0],"parents":[2147483647,0,0,1,1,3,3,5,5,6,6,7,7,8,8,9,9,11,11,14,14,15,15],"right_children":[2,4,-1,6,-1,8,10,12,14,16,-1,18,-1,-1,20,22,-1,-1,-1,-1,-1,-1,-1],"split_conditions":[5.8795077E-1,1.16693924E2,4.0292922E-1,4.1557524E-1,-3.1318775E-1,2.1885E3,1.2030247E-1,4.371479E-1,5.314E2,2.402842E1,2.687741E-1,1.2008606E-1,5.517507E-2,1.7431462E-2,2.3243E1,4.953741E-1,-8.456002E-2,2.0706176E-4,2.233715E-2,-3.3809464E-2,-8.504524E-3,9.480072E-3,4.566447E-2],"split_indices":[27,0,0,13,0,37,2,46,131,6,0,2,0,0,158,14,0,0,0,0,0,0,0],"split_type":[0,0,0,0,0,0,0,0,0,0,0,0,0,0,0,0,0,0,0,0,0,0,0],"sum_hessian":[9.2E1,9E1,2E0,8.9E1,1E0,6.9E1,2E1,1.1E1,5.8E1,1.9E1,1E0,6E0,5E0,2E0,5.6E1,1.7E1,2E0,1E0,5E0,5.5E1,1E0,4E0,1.3E1],"tree_param":{"num_deleted":"0","num_feature":"190","num_nodes":"23","size_leaf_vector":"1"}},{"base_weights":[1.7488086E-1,-1.140758E0,4.00243E-1,-4.6094024E-1,-3.1162181E-1,-1.9687219E0,4.586948E0,3.8467472E0,-3.118161E0,2.141993E0,2.6743022E-1,1.9045432E0,5.471527E-2,1.731524E-2,-3.318703E0,3.779931E0,-8.399631E-2,4.3678284E-3,2.4042906E-2,-3.347744E-2,-8.46199E-3,1.2565359E-2,4.6538107E-2],"categories":[],"categories_nodes":[],"categories_segments":[],"categories_sizes":[],"default_left":[0,0,0,0,0,0,0,0,0,0,0,0,0,0,0,0,0,0,0,0,0,0,0],"id":46,"left_children":[1,3,-1,5,-1,7,9,11,13,15,-1,17,-1,-1,19,21,-1,-1,-1,-1,-1,-1,-1],"loss_changes":[4.921411E3,1.8428643E3,0E0,6.9403064E2,0E0,4.7991174E2,1.0802993E3,2.7447083E1,6.3127808E1,3.7708054E2,0E0,4.0844154E0,0E0,0E0,1.2600708E0,3.384494E1,0E0,0E0,0E0,0E0,0E0,0E0,0E0],"parents":[2147483647,0,0,1,1,3,3,5,5,6,6,7,7,8,8,9,9,11,11,14,14,15,15],"right_children":[2,4,-1,6,-1,8,10,12,14,16,-1,18,-1,-1,20,22,-1,-1,-1,-1,-1,-1,-1],"split_conditions":[5.8795077E-1,1.16693924E2,4.00243E-1,4.1557524E-1,-3.1162181E-1,2.1885E3,1.2030247E-1,4.371479E-1,5.314E2,2.402842E1,2.6743022E-1,-5.371E0,5.471527E-2,1.731524E-2,2.3243E1,4.9874565E-1,-8.399631E-2,4.3678284E-3,2.4042906E-2,-3.347744E-2,-8.46199E-3,1.2565359E-2,4.6538107E-2],"split_indices":[27,0,0,13,0,37,2,46,131,6,0,83,0,0,158,14,0,0,0,0,0,0,0],"split_type":[0,0,0,0,0,0,0,0,0,0,0,0,0,0,0,0,0,0,0,0,0,0,0],"sum_hessian":[9.2E1,9E1,2E0,8.9E1,1E0,6.9E1,2E1,1.1E1,5.8E1,1.9E1,1E0,6E0,5E0,2E0,5.6E1,1.7E1,2E0,2E0,4E0,5.5E1,1E0,5E0,1.2E1],"tree_param":{"num_deleted":"0","num_feature":"190","num_nodes":"23","size_leaf_vector":"1"}},{"base_weights":[1.7732185E-1,-1.1294669E0,3.9757472E-1,-4.5298603E-1,-3.100637E-1,-1.9481988E0,4.5526276E0,3.8152065E0,-3.0873966E0,2.119328E0,2.6609305E-1,1.889558E0,5.4259285E-2,1.7199783E-2,-3.2862513E0,3.7454143E0,-8.343632E-2,4.338709E-3,2.3850586E-2,-3.3148643E-2,-8.419685E-3,9.303681E-3,4.483258E-2],"categories":[],"categories_nodes":[],"categories_segments":[],"categories_sizes":[],"default_left":[0,0,0,0,0,0,0,0,0,0,0,0,0,0,0,0,0,0,0,0,0,0,0],"id":47,"left_children":[1,3,-1,5,-1,7,9,11,13,15,-1,17,-1,-1,19,21,-1,-1,-1,-1,-1,-1,-1],"loss_changes":[4.855134E3,1.8251694E3,0E0,6.824706E2,0E0,4.7137515E2,1.0706866E3,2.696762E1,6.2054504E1,3.7152386E2,0E0,4.01425E0,0E0,0E0,1.1954956E0,3.3216095E1,0E0,0E0,0E0,0E0,0E0,0E0,0E0],"parents":[2147483647,0,0,1,1,3,3,5,5,6,6,7,7,8,8,9,9,11,11,14,14,15,15],"right_children":[2,4,-1,6,-1,8,10,12,14,16,-1,18,-1,-1,20,22,-1,-1,-1,-1,-1,-1,-1],"split_conditions":[5.8795077E-1,1.16693924E2,3.9757472E-1,4.1557524E-1,-3.100637E-1,2.1885E3,1.2030247E-1,4.371479E-1,5.314E2,2.402842E1,2.6609305E-1,-5.371E0,5.4259285E-2,1.7199783E-2,2.3243E1,4.953741E-1,-8.343632E-2,4.338709E-3,2.3850586E-2,-3.3148643E-2,-8.419685E-3,9.303681E-3,4.483258E-2],"split_indices":[27,0,0,13,0,37,2,46,131,6,0,83,0,0,158,14,0,0,0,0,0,0,0],"split_type":[0,0,0,0,0,0,0,0,0,0,0,0,0,0,0,0,0,0,0,0,0,0,0],"sum_hessian":[9.2E1,9E1,2E0,8.9E1,1E0,6.9E1,2E1,1.1E1,5.8E1,1.9E1,1E0,6E0,5E0,2E0,5.6E1,1.7E1,2E0,2E0,4E0,5.5E1,1E0,4E0,1.3E1],"tree_param":{"num_deleted":"0","num_feature":"190","num_nodes":"23","size_leaf_vector":"1"}},{"base_weights":[1.7966145E-1,-1.1183379E0,3.949242E-1,-4.451786E-1,-3.0851337E-1,-1.9278862E0,4.518379E0,3.7839248E0,-3.0569344E0,2.0966718E0,2.647626E-1,1.8746893E0,5.380712E0,1.7085139E-2,-3.254117E0,3.7109702E0,-8.288009E-2,1.625061E-4,2.1817207E-2,5.807968E-2,1.6222153E-2,-3.2823063E-2,-8.377571E-3,1.2323926E-2,4.5694698E-2],"categories":[],"categories_nodes":[],"categories_segments":[],"categories_sizes":[],"default_left":[0,0,0,0,0,0,0,0,0,0,0,0,0,0,0,0,0,0,0,0,0,0,0,0,0],"id":48,"left_children":[1,3,-1,5,-1,7,9,11,13,15,-1,17,19,-1,21,23,-1,-1,-1,-1,-1,-1,-1,-1,-1],"loss_changes":[4.789764E3,1.8076346E3,0E0,6.7106635E2,0E0,4.6299094E2,1.0611748E3,2.6496567E1,6.0999878E1,3.6603595E2,0E0,3.9587402E0,2.1328735E-1,0E0,1.1328735E0,3.2670074E1,0E0,0E0,0E0,0E0,0E0,0E0,0E0,0E0,0E0],"parents":[2147483647,0,0,1,1,3,3,5,5,6,6,7,7,8,8,9,9,11,11,12,12,14,14,15,15],"right_children":[2,4,-1,6,-1,8,10,12,14,16,-1,18,20,-1,22,24,-1,-1,-1,-1,-1,-1,-1,-1,-1],"split_conditions":[5.8795077E-1,1.16693924E2,3.949242E-1,4.1557524E-1,-3.0851337E-1,2.1885E3,1.2030247E-1,4.371479E-1,5.314E2,2.402842E1,2.647626E-1,1.2008606E-1,1.3157369E-1,1.7085139E-2,2.3243E1,4.9874565E-1,-8.288009E-2,1.625061E-4,2.1817207E-2,5.807968E-2,1.6222153E-2,-3.2823063E-2,-8.377571E-3,1.2323926E-2,4.5694698E-2],"split_indices":[27,0,0,13,0,37,2,46,131,6,0,2,30,0,158,14,0,0,0,0,0,0,0,0,0],"split_type":[0,0,0,0,0,0,0,0,0,0,0,0,0,0,0,0,0,0,0,0,0,0,0,0,0],"sum_hessian":[9.2E1,9E1,2E0,8.9E1,1E0,6.9E1,2E1,1.1E1,5.8E1,1.9E1,1E0,6E0,5E0,2E0,5.6E1,1.7E1,2E0,1E0,5E0,4E0,1E0,5.5E1,1E0,5E0,1.2E1],"tree_param":{"num_deleted":"0","num_feature":"190","num_nodes":"25","size_leaf_vector":"1"}},{"base_weights":[1.821488E-1,-1.1071161E0,3.9229137E-1,-4.3726006E-1,-3.069708E-1,-1.9075778E0,4.4846206E0,3.7541072E0,-3.0267751E0,2.0744638E0,2.634388E-1,1.8590807E0,5.339287E0,1.6971258E-2,-3.2223E0,3.6770859E0,-8.232757E-2,4.236501E-3,2.3485228E-2,5.7615023E-2,1.6141051E-2,-3.2500707E-2,-8.335685E-3,1.2221247E-2,4.527292E-2],"categories":[],"categories_nodes":[],"categories_segments":[],"categories_sizes":[],"default_left":[0,0,0,0,0,0,0,0,0,0,0,0,0,0,0,0,0,0,0,0,0,0,0,0,0],"id":49,"left_children":[1,3,-1,5,-1,7,9,11,13,15,-1,17,19,-1,21,23,-1,-1,-1,-1,-1,-1,-1,-1,-1],"loss_changes":[4.725229E3,1.79029E3,0E0,6.5986035E2,0E0,4.549208E2,1.0517197E3,2.6121323E1,5.996344E1,3.606441E2,0E0,3.9229736E0,1.3731384E-1,0E0,1.0720825E0,3.203714E1,0E0,0E0,0E0,0E0,0E0,0E0,0E0,0E0,0E0],"parents":[2147483647,0,0,1,1,3,3,5,5,6,6,7,7,8,8,9,9,11,11,12,12,14,14,15,15],"right_children":[2,4,-1,6,-1,8,10,12,14,16,-1,18,20,-1,22,24,-1,-1,-1,-1,-1,-1,-1,-1,-1],"split_conditions":[5.8795077E-1,1.16693924E2,3.9229137E-1,4.1557524E-1,-3.069708E-1,2.1885E3,1.2030247E-1,4.371479E-1,5.314E2,2.402842E1,2.634388E-1,-5.371E0,1.3157369E-1,1.6971258E-2,2.3243E1,4.9874565E-1,-8.232757E-2,4.236501E-3,2.3485228E-2,5.7615023E-2,1.6141051E-2,-3.2500707E-2,-8.335685E-3,1.2221247E-2,4.527292E-2],"split_indices":[27,0,0,13,0,37,2,46,131,6,0,83,30,0,158,14,0,0,0,0,0,0,0,0,0],"split_type":[0,0,0,0,0,0,0,0,0,0,0,0,0,0,0,0,0,0,0,0,0,0,0,0,0],"sum_hessian":[9.2E1,9E1,2E0,8.9E1,1E0,6.9E1,2E1,1.1E1,5.8E1,1.9E1,1E0,6E0,5E0,2E0,5.6E1,1.7E1,2E0,2E0,4E0,4E0,1E0,5.5E1,1E0,5E0,1.2E1],"tree_param":{"num_deleted":"0","num_feature":"190","num_nodes":"25","size_leaf_vector":"1"}},{"base_weights":[1.8464541E-1,-1.095943E0,3.896761E-1,-4.2937347E-1,-3.05436E-1,-1.8873926E0,4.4511366E0,3.7250226E0,-2.996911E0,2.0524774E0,2.6212162E-1,1.8444519E0,5.298185E0,1.6858138E-2,-3.190793E0,3.643509E0,-8.1778705E-2,4.2082723E-3,2.3297362E-2,5.715408E-2,1.6060334E-2,-3.2181498E-2,-8.293991E-3,9.032928E-3,4.361907E-2],"categories":[],"categories_nodes":[],"categories_segments":[],"categories_sizes":[],"default_left":[0,0,0,0,0,0,0,0,0,0,0,0,0,0,0,0,0,0,0,0,0,0,0,0,0],"id":50,"left_children":[1,3,-1,5,-1,7,9,11,13,15,-1,17,19,-1,21,23,-1,-1,-1,-1,-1,-1,-1,-1,-1],"loss_changes":[4.6615527E3,1.773116E3,0E0,6.488301E2,0E0,4.4705905E2,1.0423433E3,2.572908E1,5.8944824E1,3.5533224E2,0E0,3.8556232E0,6.3583374E-2,0E0,1.0131226E0,3.1494095E1,0E0,0E0,0E0,0E0,0E0,0E0,0E0,0E0,0E0],"parents":[2147483647,0,0,1,1,3,3,5,5,6,6,7,7,8,8,9,9,11,11,12,12,14,14,15,15],"right_children":[2,4,-1,6,-1,8,10,12,14,16,-1,18,20,-1,22,24,-1,-1,-1,-1,-1,-1,-1,-1,-1],"split_conditions":[5.8795077E-1,1.16693924E2,3.896761E-1,4.1557524E-1,-3.05436E-1,2.1885E3,1.2030247E-1,4.371479E-1,5.314E2,2.402842E1,2.6212162E-1,-5.371E0,1.3157369E-1,1.6858138E-2,2.3243E1,4.953741E-1,-8.1778705E-2,4.2082723E-3,2.3297362E-2,5.715408E-2,1.6060334E-2,-3.2181498E-2,-8.293991E-3,9.032928E-3,4.361907E-2],"split_indices":[27,0,0,13,0,37,2,46,131,6,0,83,30,0,158,14,0,0,0,0,0,0,0,0,0],"split_type":[0,0,0,0,0,0,0,0,0,0,0,0,0,0,0,0,0,0,0,0,0,0,0,0,0],"sum_hessian":[9.2E1,9E1,2E0,8.9E1,1E0,6.9E1,2E1,1.1E1,5.8E1,1.9E1,1E0,6E0,5E0,2E0,5.6E1,1.7E1,2E0,2E0,4E0,4E0,1E0,5.5E1,1E0,4E0,1.3E1],"tree_param":{"num_deleted":"0","num_feature":"190","num_nodes":"25","size_leaf_vector":"1"}},{"base_weights":[1.8703875E-1,-1.0849327E0,3.8707823E-1,-4.2163455E-1,-3.039088E-1,-1.867418E0,4.4177217E0,3.696165E0,-2.967343E0,2.0304976E0,2.60811E-1,1.8299342E0,5.2574065E-2,1.6745733E-2,-3.1595957E0,3.6100001E0,-8.123351E-2,1.1947632E-4,2.1309406E-2,-3.186544E-2,-8.252525E-3,1.1986478E-2,4.4452395E-2],"categories":[],"categories_nodes":[],"categories_segments":[],"categories_sizes":[],"default_left":[0,0,0,0,0,0,0,0,0,0,0,0,0,0,0,0,0,0,0,0,0,0,0],"id":51,"left_children":[1,3,-1,5,-1,7,9,11,13,15,-1,17,-1,-1,19,21,-1,-1,-1,-1,-1,-1,-1],"loss_changes":[4.598748E3,1.7560969E3,0E0,6.379492E2,0E0,4.3933453E2,1.0330645E3,2.5342941E1,5.7943848E1,3.500859E2,0E0,3.8051205E0,0E0,0E0,9.559326E-1,3.0924744E1,0E0,0E0,0E0,0E0,0E0,0E0,0E0],"parents":[2147483647,0,0,1,1,3,3,5,5,6,6,7,7,8,8,9,9,11,11,14,14,15,15],"right_children":[2,4,-1,6,-1,8,10,12,14,16,-1,18,-1,-1,20,22,-1,-1,-1,-1,-1,-1,-1],"split_conditions":[5.8795077E-1,1.16693924E2,3.8707823E-1,4.1557524E-1,-3.039088E-1,2.1885E3,1.2030247E-1,4.371479E-1,5.314E2,2.402842E1,2.60811E-1,1.2008606E-1,5.2574065E-2,1.6745733E-2,2.3243E1,4.9874565E-1,-8.123351E-2,1.1947632E-4,2.1309406E-2,-3.186544E-2,-8.252525E-3,1.1986478E-2,4.4452395E-2],"split_indices":[27,0,0,13,0,37,2,46,131,6,0,2,0,0,158,14,0,0,0,0,0,0,0],"split_type":[0,0,0,0,0,0,0,0,0,0,0,0,0,0,0,0,0,0,0,0,0,0,0],"sum_hessian":[9.2E1,9E1,2E0,8.9E1,1E0,6.9E1,2E1,1.1E1,5.8E1,1.9E1,1E0,6E0,5E0,2E0,5.6E1,1.7E1,2E0,1E0,5E0,5.5E1,1E0,5E0,1.2E1],"tree_param":{"num_deleted":"0","num_feature":"190","num_nodes":"23","size_leaf_vector":"1"}},{"base_weights":[1.8914685E-1,-1.0742711E0,3.844977E-1,-4.1423124E-1,-3.0238926E-1,-1.8480185E0,4.384785E0,3.6653702E0,-2.9380634E0,2.0089548E0,2.5950694E-1,1.8146962E0,5.213595E0,1.6634088E-2,-3.1287012E0,3.5770383E0,-8.069198E-2,6.7329598E-3,2.5024222E-2,5.6276273E-2,1.5717162E-2,-3.155245E-2,-8.21125E-3,8.864776E-3,4.28245E-2],"categories":[],"categories_nodes":[],"categories_segments":[],"categories_sizes":[],"default_left":[0,0,0,0,0,0,0,0,0,0,0,0,0,0,0,0,0,0,0,0,0,0,0,0,0],"id":52,"left_children":[1,3,-1,5,-1,7,9,11,13,15,-1,17,19,-1,21,23,-1,-1,-1,-1,-1,-1,-1,-1,-1],"loss_changes":[4.5368477E3,1.7392089E3,0E0,6.273724E2,0E0,4.3145795E2,1.02384204E3,2.4922028E1,5.695996E1,3.449315E2,0E0,3.809925E0,2.0210266E-1,0E0,9.005127E-1,3.0366867E1,0E0,0E0,0E0,0E0,0E0,0E0,0E0,0E0,0E0],"parents":[2147483647,0,0,1,1,3,3,5,5,6,6,7,7,8,8,9,9,11,11,12,12,14,14,15,15],"right_children":[2,4,-1,6,-1,8,10,12,14,16,-1,18,20,-1,22,24,-1,-1,-1,-1,-1,-1,-1,-1,-1],"split_conditions":[5.8795077E-1,1.16693924E2,3.844977E-1,4.1557524E-1,-3.0238926E-1,2.1885E3,1.2030247E-1,4.371479E-1,5.314E2,2.402842E1,2.5950694E-1,4.849536E-1,1.3157369E-1,1.6634088E-2,2.3243E1,4.953741E-1,-8.069198E-2,6.7329598E-3,2.5024222E-2,5.6276273E-2,1.5717162E-2,-3.155245E-2,-8.21125E-3,8.864776E-3,4.28245E-2],"split_indices":[27,0,0,13,0,37,2,46,131,6,0,14,30,0,158,14,0,0,0,0,0,0,0,0,0],"split_type":[0,0,0,0,0,0,0,0,0,0,0,0,0,0,0,0,0,0,0,0,0,0,0,0,0],"sum_hessian":[9.2E1,9E1,2E0,8.9E1,1E0,6.9E1,2E1,1.1E1,5.8E1,1.9E1,1E0,6E0,5E0,2E0,5.6E1,1.7E1,2E0,3E0,3E0,4E0,1E0,5.5E1,1E0,4E0,1.3E1],"tree_param":{"num_deleted":"0","num_feature":"190","num_nodes":"25","size_leaf_vector":"1"}},{"base_weights":[1.9148529E-1,-1.0634307E0,3.8193437E-1,-4.0663034E-1,-3.008773E-1,-1.8283845E0,4.3519135E0,3.6373622E0,-2.9090722E0,1.9874151E0,2.582094E-1,1.8010843E0,5.1734595E0,1.6523208E-2,-3.0981092E0,3.5441399E0,-8.015405E-2,6.682434E-3,2.483654E-2,5.5826083E-2,1.563858E-2,-3.1242533E-2,-8.170204E-3,1.175612E-2,4.36468E-2],"categories":[],"categories_nodes":[],"categories_segments":[],"categories_sizes":[],"default_left":[0,0,0,0,0,0,0,0,0,0,0,0,0,0,0,0,0,0,0,0,0,0,0,0,0],"id":53,"left_children":[1,3,-1,5,-1,7,9,11,13,15,-1,17,19,-1,21,23,-1,-1,-1,-1,-1,-1,-1,-1,-1],"loss_changes":[4.4757173E3,1.7225139E3,0E0,6.1685016E2,0E0,4.2405493E2,1.0147163E3,2.4530594E1,5.5993103E1,3.3984048E2,0E0,3.7530155E0,1.3078308E-1,0E0,8.467407E-1,2.9851349E1,0E0,0E0,0E0,0E0,0E0,0E0,0E0,0E0,0E0],"parents":[2147483647,0,0,1,1,3,3,5,5,6,6,7,7,8,8,9,9,11,11,12,12,14,14,15,15],"right_children":[2,4,-1,6,-1,8,10,12,14,16,-1,18,20,-1,22,24,-1,-1,-1,-1,-1,-1,-1,-1,-1],"split_conditions":[5.8795077E-1,1.16693924E2,3.8193437E-1,4.1557524E-1,-3.008773E-1,2.1885E3,1.2030247E-1,4.371479E-1,5.314E2,2.402842E1,2.582094E-1,4.849536E-1,1.3157369E-1,1.6523208E-2,2.3243E1,4.9874565E-1,-8.015405E-2,6.682434E-3,2.483654E-2,5.5826083E-2,1.563858E-2,-3.1242533E-2,-8.170204E-3,1.175612E-2,4.36468E-2],"split_indices":[27,0,0,13,0,37,2,46,131,6,0,14,30,0,158,14,0,0,0,0,0,0,0,0,0],"split_type":[0,0,0,0,0,0,0,0,0,0,0,0,0,0,0,0,0,0,0,0,0,0,0,0,0],"sum_hessian":[9.2E1,9E1,2E0,8.9E1,1E0,6.9E1,2E1,1.1E1,5.8E1,1.9E1,1E0,6E0,5E0,2E0,5.6E1,1.7E1,2E0,3E0,3E0,4E0,1E0,5.5E1,1E0,5E0,1.2E1],"tree_param":{"num_deleted":"0","num_feature":"190","num_nodes":"25","size_leaf_vector":"1"}},{"base_weights":[1.9381341E-1,-1.0526572E0,3.7938815E-1,-3.9908028E-1,-2.9937288E-1,-1.8089565E0,4.319511E0,3.6095715E0,-2.8803697E0,1.9663026E0,2.5691837E-1,1.7875769E0,5.1336365E0,1.641304E-2,-3.0678196E0,3.5117755E0,-7.961969E-2,6.632309E-3,2.4650287E-2,5.5379484E-2,1.5560378E-2,-3.0935688E-2,-8.129349E-3,8.699798E-3,4.204433E-2],"categories":[],"categories_nodes":[],"categories_segments":[],"categories_sizes":[],"default_left":[0,0,0,0,0,0,0,0,0,0,0,0,0,0,0,0,0,0,0,0,0,0,0,0,0],"id":54,"left_children":[1,3,-1,5,-1,7,9,11,13,15,-1,17,19,-1,21,23,-1,-1,-1,-1,-1,-1,-1,-1,-1],"loss_changes":[4.415404E3,1.7059806E3,0E0,6.065504E2,0E0,4.1678067E2,1.00564624E3,2.4145294E1,5.504297E1,3.348381E2,0E0,3.696949E0,6.1553955E-2,0E0,7.9467773E-1,2.9279709E1,0E0,0E0,0E0,0E0,0E0,0E0,0E0,0E0,0E0],"parents":[2147483647,0,0,1,1,3,3,5,5,6,6,7,7,8,8,9,9,11,11,12,12,14,14,15,15],"right_children":[2,4,-1,6,-1,8,10,12,14,16,-1,18,20,-1,22,24,-1,-1,-1,-1,-1,-1,-1,-1,-1],"split_conditions":[5.8795077E-1,1.16693924E2,3.7938815E-1,4.1557524E-1,-2.9937288E-1,2.1885E3,1.2030247E-1,4.371479E-1,5.314E2,2.402842E1,2.5691837E-1,4.849536E-1,1.3157369E-1,1.641304E-2,2.3243E1,4.953741E-1,-7.961969E-2,6.632309E-3,2.4650287E-2,5.5379484E-2,1.5560378E-2,-3.0935688E-2,-8.129349E-3,8.699798E-3,4.204433E-2],"split_indices":[27,0,0,13,0,37,2,46,131,6,0,14,30,0,158,14,0,0,0,0,0,0,0,0,0],"split_type":[0,0,0,0,0,0,0,0,0,0,0,0,0,0,0,0,0,0,0,0,0,0,0,0,0],"sum_hessian":[9.2E1,9E1,2E0,8.9E1,1E0,6.9E1,2E1,1.1E1,5.8E1,1.9E1,1E0,6E0,5E0,2E0,5.6E1,1.7E1,2E0,3E0,3E0,4E0,1E0,5.5E1,1E0,4E0,1.3E1],"tree_param":{"num_deleted":"0","num_feature":"190","num_nodes":"25","size_leaf_vector":"1"}},{"base_weights":[1.9604415E-1,-1.0420393E0,3.7685892E-1,-3.916707E-1,-2.9787606E-1,-1.789729E0,4.2871747E0,3.5819938E0,-2.8519483E0,1.9451956E0,2.5563377E-1,1.774171E0,5.0941214E-2,1.6303634E-2,-3.0378253E0,3.4794765E0,-7.908888E-2,1.8615723E-5,2.0692455E-2,-3.063184E-2,-8.088684E-3,1.1530088E-2,4.2855788E-2],"categories":[],"categories_nodes":[],"categories_segments":[],"categories_sizes":[],"default_left":[0,0,0,0,0,0,0,0,0,0,0,0,0,0,0,0,0,0,0,0,0,0,0],"id":55,"left_children":[1,3,-1,5,-1,7,9,11,13,15,-1,17,-1,-1,19,21,-1,-1,-1,-1,-1,-1,-1],"loss_changes":[4.3559175E3,1.6895974E3,0E0,5.963898E2,0E0,4.09632E2,9.96671E2,2.3766068E1,5.41091E1,3.2989746E2,0E0,3.6568947E0,0E0,0E0,7.441406E-1,2.88154E1,0E0,0E0,0E0,0E0,0E0,0E0,0E0],"parents":[2147483647,0,0,1,1,3,3,5,5,6,6,7,7,8,8,9,9,11,11,14,14,15,15],"right_children":[2,4,-1,6,-1,8,10,12,14,16,-1,18,-1,-1,20,22,-1,-1,-1,-1,-1,-1,-1],"split_conditions":[5.8795077E-1,1.16693924E2,3.7685892E-1,4.1557524E-1,-2.9787606E-1,2.1885E3,1.2030247E-1,4.371479E-1,5.314E2,2.402842E1,2.5563377E-1,1.2008606E-1,5.0941214E-2,1.6303634E-2,2.3243E1,4.9874565E-1,-7.908888E-2,1.8615723E-5,2.0692455E-2,-3.063184E-2,-8.088684E-3,1.1530088E-2,4.2855788E-2],"split_indices":[27,0,0,13,0,37,2,46,131,6,0,2,0,0,158,14,0,0,0,0,0,0,0],"split_type":[0,0,0,0,0,0,0,0,0,0,0,0,0,0,0,0,0,0,0,0,0,0,0],"sum_hessian":[9.2E1,9E1,2E0,8.9E1,1E0,6.9E1,2E1,1.1E1,5.8E1,1.9E1,1E0,6E0,5E0,2E0,5.6E1,1.7E1,2E0,1E0,5E0,5.5E1,1E0,5E0,1.2E1],"tree_param":{"num_deleted":"0","num_feature":"190","num_nodes":"23","size_leaf_vector":"1"}},{"base_weights":[1.9794591E-1,-1.031813E0,3.743465E-1,-3.8464054E-1,-2.9638666E-1,-1.771128E0,4.255301E0,3.5521457E0,-2.8238087E0,1.9245096E0,2.543556E-1,1.7593896E0,5.05167E0,1.619494E-2,-3.0081263E0,3.4477048E0,-7.856164E-2,6.4790915E-3,2.4310226E-2,5.45289E-2,1.5227851E-2,-3.033099E-2,-8.0482485E-3,1.14340205E-2,4.2460207E-2],"categories":[],"categories_nodes":[],"categories_segments":[],"categories_sizes":[],"default_left":[0,0,0,0,0,0,0,0,0,0,0,0,0,0,0,0,0,0,0,0,0,0,0,0,0],"id":56,"left_children":[1,3,-1,5,-1,7,9,11,13,15,-1,17,19,-1,21,23,-1,-1,-1,-1,-1,-1,-1,-1,-1],"loss_changes":[4.2972974E3,1.6733345E3,0E0,5.8652655E2,0E0,4.0229004E2,9.877511E2,2.3371536E1,5.3191406E1,3.2504324E2,0E0,3.650467E0,1.915741E-1,0E0,6.951294E-1,2.8257217E1,0E0,0E0,0E0,0E0,0E0,0E0,0E0,0E0,0E0],"parents":[2147483647,0,0,1,1,3,3,5,5,6,6,7,7,8,8,9,9,11,11,12,12,14,14,15,15],"right_children":[2,4,-1,6,-1,8,10,12,14,16,-1,18,20,-1,22,24,-1,-1,-1,-1,-1,-1,-1,-1,-1],"split_conditions":[5.8795077E-1,1.16693924E2,3.743465E-1,4.1557524E-1,-2.9638666E-1,2.1885E3,1.2030247E-1,4.371479E-1,5.314E2,2.402842E1,2.543556E-1,4.849536E-1,1.3157369E-1,1.619494E-2,2.3243E1,4.9874565E-1,-7.856164E-2,6.4790915E-3,2.4310226E-2,5.45289E-2,1.5227851E-2,-3.033099E-2,-8.0482485E-3,1.14340205E-2,4.2460207E-2],"split_indices":[27,0,0,13,0,37,2,46,131,6,0,14,30,0,158,14,0,0,0,0,0,0,0,0,0],"split_type":[0,0,0,0,0,0,0,0,0,0,0,0,0,0,0,0,0,0,0,0,0,0,0,0,0],"sum_hessian":[9.2E1,9E1,2E0,8.9E1,1E0,6.9E1,2E1,1.1E1,5.8E1,1.9E1,1E0,6E0,5E0,2E0,5.6E1,1.7E1,2E0,3E0,3E0,4E0,1E0,5.5E1,1E0,5E0,1.2E1],"tree_param":{"num_deleted":"0","num_feature":"190","num_nodes":"25","size_leaf_vector":"1"}},{"base_weights":[2.0011955E-1,-1.0213643E0,3.7185088E-1,-3.773689E-1,-2.9490474E-1,-1.7522944E0,4.223686E0,3.5250046E0,-2.7959435E0,1.904032E0,2.5308383E-1,1.7461962E0,5.0127807E0,1.608696E-2,-2.978715E0,3.4162228E0,-7.803791E-2,6.4305114E-3,2.4127921E-2,5.4092683E-2,1.515171E-2,-3.0033061E-2,-8.008003E-3,8.4465025E-3,4.0906258E-2],"categories":[],"categories_nodes":[],"categories_segments":[],"categories_sizes":[],"default_left":[0,0,0,0,0,0,0,0,0,0,0,0,0,0,0,0,0,0,0,0,0,0,0,0,0],"id":57,"left_children":[1,3,-1,5,-1,7,9,11,13,15,-1,17,19,-1,21,23,-1,-1,-1,-1,-1,-1,-1,-1,-1],"loss_changes":[4.239398E3,1.6572631E3,0E0,5.7675085E2,0E0,3.953911E2,9.789053E2,2.3004333E1,5.22894E1,3.2026114E2,0E0,3.5959148E0,1.2460327E-1,0E0,6.477356E-1,2.7761826E1,0E0,0E0,0E0,0E0,0E0,0E0,0E0,0E0,0E0],"parents":[2147483647,0,0,1,1,3,3,5,5,6,6,7,7,8,8,9,9,11,11,12,12,14,14,15,15],"right_children":[2,4,-1,6,-1,8,10,12,14,16,-1,18,20,-1,22,24,-1,-1,-1,-1,-1,-1,-1,-1,-1],"split_conditions":[5.8795077E-1,1.16693924E2,3.7185088E-1,4.1557524E-1,-2.9490474E-1,2.1885E3,1.2030247E-1,4.371479E-1,5.314E2,2.402842E1,2.5308383E-1,4.849536E-1,1.3157369E-1,1.608696E-2,2.3243E1,4.953741E-1,-7.803791E-2,6.4305114E-3,2.4127921E-2,5.4092683E-2,1.515171E-2,-3.0033061E-2,-8.008003E-3,8.4465025E-3,4.0906258E-2],"split_indices":[27,0,0,13,0,37,2,46,131,6,0,14,30,0,158,14,0,0,0,0,0,0,0,0,0],"split_type":[0,0,0,0,0,0,0,0,0,0,0,0,0,0,0,0,0,0,0,0,0,0,0,0,0],"sum_hessian":[9.2E1,9E1,2E0,8.9E1,1E0,6.9E1,2E1,1.1E1,5.8E1,1.9E1,1E0,6E0,5E0,2E0,5.6E1,1.7E1,2E0,3E0,3E0,4E0,1E0,5.5E1,1E0,4E0,1.3E1],"tree_param":{"num_deleted":"0","num_feature":"190","num_nodes":"25","size_leaf_vector":"1"}},{"base_weights":[2.0219335E-1,-1.0110724E0,3.693719E-1,-3.7023938E-1,-2.934302E-1,-1.7336622E0,4.192134E0,3.4980724E0,-2.7683597E0,1.8835561E0,2.5181842E-1,1.7331009E0,4.9741936E0,1.597969E-2,-2.9495988E0,3.384801E0,-7.7517636E-2,3.8200123E-3,2.1971405E-2,5.3659942E-2,1.507595E-2,-2.9738132E-2,-7.967949E-3,1.1214231E-2,4.1690674E-2],"categories":[],"categories_nodes":[],"categories_segments":[],"categories_sizes":[],"default_left":[0,0,0,0,0,0,0,0,0,0,0,0,0,0,0,0,0,0,0,0,0,0,0,0,0],"id":58,"left_children":[1,3,-1,5,-1,7,9,11,13,15,-1,17,19,-1,21,23,-1,-1,-1,-1,-1,-1,-1,-1,-1],"loss_changes":[4.182292E3,1.6413363E3,0E0,5.671076E2,0E0,3.886123E2,9.7015234E2,2.264296E1,5.1402985E1,3.155376E2,0E0,3.5494366E0,5.9539795E-2,0E0,6.018677E-1,2.7276367E1,0E0,0E0,0E0,0E0,0E0,0E0,0E0,0E0,0E0],"parents":[2147483647,0,0,1,1,3,3,5,5,6,6,7,7,8,8,9,9,11,11,12,12,14,14,15,15],"right_children":[2,4,-1,6,-1,8,10,12,14,16,-1,18,20,-1,22,24,-1,-1,-1,-1,-1,-1,-1,-1,-1],"split_conditions":[5.8795077E-1,1.16693924E2,3.693719E-1,4.1557524E-1,-2.934302E-1,2.1885E3,1.2030247E-1,4.371479E-1,5.314E2,2.402842E1,2.5181842E-1,-5.371E0,1.3157369E-1,1.597969E-2,2.3243E1,4.9874565E-1,-7.7517636E-2,3.8200123E-3,2.1971405E-2,5.3659942E-2,1.507595E-2,-2.9738132E-2,-7.967949E-3,1.1214231E-2,4.1690674E-2],"split_indices":[27,0,0,13,0,37,2,46,131,6,0,83,30,0,158,14,0,0,0,0,0,0,0,0,0],"split_type":[0,0,0,0,0,0,0,0,0,0,0,0,0,0,0,0,0,0,0,0,0,0,0,0,0],"sum_hessian":[9.2E1,9E1,2E0,8.9E1,1E0,6.9E1,2E1,1.1E1,5.8E1,1.9E1,1E0,6E0,5E0,2E0,5.6E1,1.7E1,2E0,2E0,4E0,4E0,1E0,5.5E1,1E0,5E0,1.2E1],"tree_param":{"num_deleted":"0","num_feature":"190","num_nodes":"25","size_leaf_vector":"1"}},{"base_weights":[2.0421506E-1,-1.0008882E0,3.6690944E-1,-3.6320236E-1,-2.9196307E-1,-1.7152845E0,4.1610336E0,3.470969E0,-2.741043E0,1.8634917E0,2.5055933E-1,1.719453E0,4.935909E-2,1.5873184E-2,-2.920763E0,3.3538942E0,-7.700087E-2,6.308231E-3,2.3782196E-2,-2.7955262E-2,-4.9670104E-2,8.289215E-3,4.0161062E-2],"categories":[],"categories_nodes":[],"categories_segments":[],"categories_sizes":[],"default_left":[0,0,0,0,0,0,0,0,0,0,0,0,0,0,0,0,0,0,0,0,0,0,0],"id":59,"left_children":[1,3,-1,5,-1,7,9,11,13,15,-1,17,-1,-1,19,21,-1,-1,-1,-1,-1,-1,-1],"loss_changes":[4.1259595E3,1.6255596E3,0E0,5.576798E2,0E0,3.819031E2,9.614536E2,2.230333E1,5.053192E1,3.108969E2,0E0,3.5198345E0,0E0,0E0,7.217407E-1,2.6768204E1,0E0,0E0,0E0,0E0,0E0,0E0,0E0],"parents":[2147483647,0,0,1,1,3,3,5,5,6,6,7,7,8,8,9,9,11,11,14,14,15,15],"right_children":[2,4,-1,6,-1,8,10,12,14,16,-1,18,-1,-1,20,22,-1,-1,-1,-1,-1,-1,-1],"split_conditions":[5.8795077E-1,1.16693924E2,3.6690944E-1,4.1557524E-1,-2.9196307E-1,2.1885E3,1.2030247E-1,4.371479E-1,5.314E2,2.402842E1,2.5055933E-1,4.849536E-1,4.935909E-2,1.5873184E-2,4.0751612E-1,4.953741E-1,-7.700087E-2,6.308231E-3,2.3782196E-2,-2.7955262E-2,-4.9670104E-2,8.289215E-3,4.0161062E-2],"split_indices":[27,0,0,13,0,37,2,46,131,6,0,14,0,0,4,14,0,0,0,0,0,0,0],"split_type":[0,0,0,0,0,0,0,0,0,0,0,0,0,0,0,0,0,0,0,0,0,0,0],"sum_hessian":[9.2E1,9E1,2E0,8.9E1,1E0,6.9E1,2E1,1.1E1,5.8E1,1.9E1,1E0,6E0,5E0,2E0,5.6E1,1.7E1,2E0,3E0,3E0,5.5E1,1E0,4E0,1.3E1],"tree_param":{"num_deleted":"0","num_feature":"190","num_nodes":"23","size_leaf_vector":"1"}},{"base_weights":[2.0555545E-1,-9.9145436E-1,3.6446333E-1,-3.569077E-1,-2.9050326E-1,-1.6978801E0,4.129996E0,3.4428787E0,-2.7146807E0,1.8434302E0,2.4930656E-1,1.7065572E0,4.894774E0,1.576734E-2,-2.8929186E0,3.3230476E0,-7.648752E-2,-9.666443E-5,1.9942055E-2,5.283578E-2,1.4753761E-2,-2.7680714E-2,-4.942177E-2,1.0998598E-2,4.093515E-2],"categories":[],"categories_nodes":[],"categories_segments":[],"categories_sizes":[],"default_left":[0,0,0,0,0,0,0,0,0,0,0,0,0,0,0,0,0,0,0,0,0,0,0,0,0],"id":60,"left_children":[1,3,-1,5,-1,7,9,11,13,15,-1,17,19,-1,21,23,-1,-1,-1,-1,-1,-1,-1,-1,-1],"loss_changes":[4.0705278E3,1.6098562E3,0E0,5.485255E2,0E0,3.7524512E2,9.528458E2,2.1898285E1,4.9690094E1,3.0631314E2,0E0,3.4749603E0,1.8159485E-1,0E0,9.0283203E-1,2.6329819E1,0E0,0E0,0E0,0E0,0E0,0E0,0E0,0E0,0E0],"parents":[2147483647,0,0,1,1,3,3,5,5,6,6,7,7,8,8,9,9,11,11,12,12,14,14,15,15],"right_children":[2,4,-1,6,-1,8,10,12,14,16,-1,18,20,-1,22,24,-1,-1,-1,-1,-1,-1,-1,-1,-1],"split_conditions":[5.8795077E-1,1.16693924E2,3.6446333E-1,4.1557524E-1,-2.9050326E-1,2.1885E3,1.2030247E-1,4.371479E-1,5.314E2,2.402842E1,2.4930656E-1,1.2008606E-1,1.3157369E-1,1.576734E-2,4.0751612E-1,4.9874565E-1,-7.648752E-2,-9.666443E-5,1.9942055E-2,5.283578E-2,1.4753761E-2,-2.7680714E-2,-4.942177E-2,1.0998598E-2,4.093515E-2],"split_indices":[27,0,0,13,0,37,2,46,131,6,0,2,30,0,4,14,0,0,0,0,0,0,0,0,0],"split_type":[0,0,0,0,0,0,0,0,0,0,0,0,0,0,0,0,0,0,0,0,0,0,0,0,0],"sum_hessian":[9.2E1,9E1,2E0,8.9E1,1E0,6.9E1,2E1,1.1E1,5.8E1,1.9E1,1E0,6E0,5E0,2E0,5.6E1,1.7E1,2E0,1E0,5E0,4E0,1E0,5.5E1,1E0,5E0,1.2E1],"tree_param":{"num_deleted":"0","num_feature":"190","num_nodes":"25","size_leaf_vector":"1"}},{"base_weights":[2.06992E-1,-9.8197603E-1,3.6203358E-1,-3.505519E-1,-2.8905076E-1,-1.6805295E0,4.0993996E0,3.4157364E0,-2.6885746E0,1.8237692E0,2.4806003E-1,1.6923262E0,4.8570924E0,1.5662206E-2,-2.865343E0,3.2927039E0,-7.5977616E-2,6.1614416E-3,2.3454266E-2,5.2413113E-2,1.4679985E-2,-2.740886E-2,-4.917465E-2,1.0906919E-2,4.055732E-2],"categories":[],"categories_nodes":[],"categories_segments":[],"categories_sizes":[],"default_left":[0,0,0,0,0,0,0,0,0,0,0,0,0,0,0,0,0,0,0,0,0,0,0,0,0],"id":61,"left_children":[1,3,-1,5,-1,7,9,11,13,15,-1,17,19,-1,21,23,-1,-1,-1,-1,-1,-1,-1,-1,-1],"loss_changes":[4.0158142E3,1.5943174E3,0E0,5.3953937E2,0E0,3.6879205E2,9.4429175E2,2.1588806E1,4.8862488E1,3.0180948E2,0E0,3.474863E0,1.1869812E-1,0E0,1.0796204E0,2.5820007E1,0E0,0E0,0E0,0E0,0E0,0E0,0E0,0E0,0E0],"parents":[2147483647,0,0,1,1,3,3,5,5,6,6,7,7,8,8,9,9,11,11,12,12,14,14,15,15],"right_children":[2,4,-1,6,-1,8,10,12,14,16,-1,18,20,-1,22,24,-1,-1,-1,-1,-1,-1,-1,-1,-1],"split_conditions":[5.8795077E-1,1.16693924E2,3.6203358E-1,4.1557524E-1,-2.8905076E-1,2.1885E3,1.2030247E-1,4.371479E-1,5.314E2,2.402842E1,2.4806003E-1,4.849536E-1,1.3157369E-1,1.5662206E-2,4.0751612E-1,4.9874565E-1,-7.5977616E-2,6.1614416E-3,2.3454266E-2,5.2413113E-2,1.4679985E-2,-2.740886E-2,-4.917465E-2,1.0906919E-2,4.055732E-2],"split_indices":[27,0,0,13,0,37,2,46,131,6,0,14,30,0,4,14,0,0,0,0,0,0,0,0,0],"split_type":[0,0,0,0,0,0,0,0,0,0,0,0,0,0,0,0,0,0,0,0,0,0,0,0,0],"sum_hessian":[9.2E1,9E1,2E0,8.9E1,1E0,6.9E1,2E1,1.1E1,5.8E1,1.9E1,1E0,6E0,5E0,2E0,5.6E1,1.7E1,2E0,3E0,3E0,4E0,1E0,5.5E1,1E0,5E0,1.2E1],"tree_param":{"num_deleted":"0","num_feature":"190","num_nodes":"25","size_leaf_vector":"1"}},{"base_weights":[2.084972E-1,-9.724811E-1,3.5962003E-1,-3.4416306E-1,-2.876055E-1,-1.6632103E0,4.06905E0,3.3896377E0,-2.662718E0,1.8043051E0,2.4681972E-1,1.679633E0,4.8197036E0,1.5557785E-2,-2.8380299E0,3.2626348E0,-7.547107E-2,6.1152074E-3,2.3278369E-2,5.1993802E-2,1.460659E-2,-2.7139632E-2,-4.8928794E-2,8.0476375E-3,3.9074004E-2],"categories":[],"categories_nodes":[],"categories_segments":[],"categories_sizes":[],"default_left":[0,0,0,0,0,0,0,0,0,0,0,0,0,0,0,0,0,0,0,0,0,0,0,0,0],"id":62,"left_children":[1,3,-1,5,-1,7,9,11,13,15,-1,17,19,-1,21,23,-1,-1,-1,-1,-1,-1,-1,-1,-1],"loss_changes":[3.9618154E3,1.5789385E3,0E0,5.3067896E2,0E0,3.6255096E2,9.358094E2,2.124971E1,4.804892E1,2.973723E2,0E0,3.4229622E0,5.758667E-2,0E0,1.2524109E0,2.5380966E1,0E0,0E0,0E0,0E0,0E0,0E0,0E0,0E0,0E0],"parents":[2147483647,0,0,1,1,3,3,5,5,6,6,7,7,8,8,9,9,11,11,12,12,14,14,15,15],"right_children":[2,4,-1,6,-1,8,10,12,14,16,-1,18,20,-1,22,24,-1,-1,-1,-1,-1,-1,-1,-1,-1],"split_conditions":[5.8795077E-1,1.16693924E2,3.5962003E-1,4.1557524E-1,-2.876055E-1,2.1885E3,1.2030247E-1,4.371479E-1,5.314E2,2.402842E1,2.4681972E-1,4.849536E-1,1.3157369E-1,1.5557785E-2,4.0751612E-1,4.953741E-1,-7.547107E-2,6.1152074E-3,2.3278369E-2,5.1993802E-2,1.460659E-2,-2.7139632E-2,-4.8928794E-2,8.0476375E-3,3.9074004E-2],"split_indices":[27,0,0,13,0,37,2,46,131,6,0,14,30,0,4,14,0,0,0,0,0,0,0,0,0],"split_type":[0,0,0,0,0,0,0,0,0,0,0,0,0,0,0,0,0,0,0,0,0,0,0,0,0],"sum_hessian":[9.2E1,9E1,2E0,8.9E1,1E0,6.9E1,2E1,1.1E1,5.8E1,1.9E1,1E0,6E0,5E0,2E0,5.6E1,1.7E1,2E0,3E0,3E0,4E0,1E0,5.5E1,1E0,4E0,1.3E1],"tree_param":{"num_deleted":"0","num_feature":"190","num_nodes":"25","size_leaf_vector":"1"}},{"base_weights":[2.0991544E-1,-9.631279E-1,3.572226E-1,-3.379016E-1,-2.8616747E-1,-1.646073E0,4.03876E0,3.3637397E0,-2.6371183E0,1.7848418E0,2.4558562E-1,1.6670347E0,4.7826055E-2,1.5454076E-2,-2.810986E0,3.232623E0,-7.496794E-2,6.0693165E-3,2.310379E-2,-2.6873102E-2,-4.8684157E-2,1.0697212E-2,3.982222E-2],"categories":[],"categories_nodes":[],"categories_segments":[],"categories_sizes":[],"default_left":[0,0,0,0,0,0,0,0,0,0,0,0,0,0,0,0,0,0,0,0,0,0,0],"id":63,"left_children":[1,3,-1,5,-1,7,9,11,13,15,-1,17,-1,-1,19,21,-1,-1,-1,-1,-1,-1,-1],"loss_changes":[3.908555E3,1.5636997E3,0E0,5.2193616E2,0E0,3.5641724E2,9.2741614E2,2.0916E1,4.7249268E1,2.9298993E2,0E0,3.3718357E0,0E0,0E0,1.42099E0,2.4923706E1,0E0,0E0,0E0,0E0,0E0,0E0,0E0],"parents":[2147483647,0,0,1,1,3,3,5,5,6,6,7,7,8,8,9,9,11,11,14,14,15,15],"right_children":[2,4,-1,6,-1,8,10,12,14,16,-1,18,-1,-1,20,22,-1,-1,-1,-1,-1,-1,-1],"split_conditions":[5.8795077E-1,1.16693924E2,3.572226E-1,4.1557524E-1,-2.8616747E-1,2.1885E3,1.2030247E-1,4.371479E-1,5.314E2,2.402842E1,2.4558562E-1,4.849536E-1,4.7826055E-2,1.5454076E-2,4.0751612E-1,4.9874565E-1,-7.496794E-2,6.0693165E-3,2.310379E-2,-2.6873102E-2,-4.8684157E-2,1.0697212E-2,3.982222E-2],"split_indices":[27,0,0,13,0,37,2,46,131,6,0,14,0,0,4,14,0,0,0,0,0,0,0],"split_type":[0,0,0,0,0,0,0,0,0,0,0,0,0,0,0,0,0,0,0,0,0,0,0],"sum_hessian":[9.2E1,9E1,2E0,8.9E1,1E0,6.9E1,2E1,1.1E1,5.8E1,1.9E1,1E0,6E0,5E0,2E0,5.6E1,1.7E1,2E0,3E0,3E0,5.5E1,1E0,5E0,1.2E1],"tree_param":{"num_deleted":"0","num_feature":"190","num_nodes":"23","size_leaf_vector":"1"}},{"base_weights":[2.1113779E-1,-9.5402765E-1,3.548411E-1,-3.3187988E-1,-2.8473663E-1,-1.6293731E0,4.008901E0,3.3365173E0,-2.6117682E0,1.765769E0,2.4435772E-1,1.6545312E0,4.7427483E0,1.5351028E-2,-2.784204E0,3.2031016E0,-7.4468166E-2,-1.8795014E-4,1.9365514E-2,5.119522E-2,1.4294395E-2,-2.6609194E-2,-4.8440743E-2,7.897674E-3,3.8362138E-2],"categories":[],"categories_nodes":[],"categories_segments":[],"categories_sizes":[],"default_left":[0,0,0,0,0,0,0,0,0,0,0,0,0,0,0,0,0,0,0,0,0,0,0,0,0],"id":64,"left_children":[1,3,-1,5,-1,7,9,11,13,15,-1,17,19,-1,21,23,-1,-1,-1,-1,-1,-1,-1,-1,-1],"loss_changes":[3.856046E3,1.5485867E3,0E0,5.13424E2,0E0,3.5020685E2,9.1907556E2,2.0536118E1,4.6463104E1,2.8868393E2,0E0,3.339779E0,1.7216492E-1,0E0,1.5855103E0,2.4472702E1,0E0,0E0,0E0,0E0,0E0,0E0,0E0,0E0,0E0],"parents":[2147483647,0,0,1,1,3,3,5,5,6,6,7,7,8,8,9,9,11,11,12,12,14,14,15,15],"right_children":[2,4,-1,6,-1,8,10,12,14,16,-1,18,20,-1,22,24,-1,-1,-1,-1,-1,-1,-1,-1,-1],"split_conditions":[5.8795077E-1,1.16693924E2,3.548411E-1,4.1557524E-1,-2.8473663E-1,2.1885E3,1.2030247E-1,4.371479E-1,5.314E2,2.402842E1,2.4435772E-1,1.2008606E-1,1.3157369E-1,1.5351028E-2,4.0751612E-1,4.953741E-1,-7.4468166E-2,-1.8795014E-4,1.9365514E-2,5.119522E-2,1.4294395E-2,-2.6609194E-2,-4.8440743E-2,7.897674E-3,3.8362138E-2],"split_indices":[27,0,0,13,0,37,2,46,131,6,0,2,30,0,4,14,0,0,0,0,0,0,0,0,0],"split_type":[0,0,0,0,0,0,0,0,0,0,0,0,0,0,0,0,0,0,0,0,0,0,0,0,0],"sum_hessian":[9.2E1,9E1,2E0,8.9E1,1E0,6.9E1,2E1,1.1E1,5.8E1,1.9E1,1E0,6E0,5E0,2E0,5.6E1,1.7E1,2E0,1E0,5E0,4E0,1E0,5.5E1,1E0,4E0,1.3E1],"tree_param":{"num_deleted":"0","num_feature":"190","num_nodes":"25","size_leaf_vector":"1"}},{"base_weights":[2.1237466E-1,-9.449649E-1,3.5247546E-1,-3.2588014E-1,-2.8331295E-1,-1.6127207E0,3.9791064E0,3.3102093E0,-2.5866604E0,1.7467024E0,2.4313594E-1,1.6407274E0,4.7062364E0,1.5248693E-2,-2.7576766E0,3.1736422E0,-7.3971696E-2,5.927429E-3,2.27853E-2,5.0785676E-2,1.4222908E-2,-2.6347833E-2,-4.8198547E-2,1.0491499E-2,3.9100505E-2],"categories":[],"categories_nodes":[],"categories_segments":[],"categories_sizes":[],"default_left":[0,0,0,0,0,0,0,0,0,0,0,0,0,0,0,0,0,0,0,0,0,0,0,0,0],"id":65,"left_children":[1,3,